SVM-light Version V6.02
0 # kernel type
3 # kernel parameter -d 
1 # kernel parameter -g 
1 # kernel parameter -s 
1 # kernel parameter -r 
empty# kernel parameter -u 
26641 # highest feature index 
15762 # number of training documents 
11624 # number of support vectors plus 1 
0.91106472 # threshold b, each following line is a SV (starting with alpha*y)
-0.22635836306257531291841189613478 102:1 172:1 173:1 #
-0.22635836306257531291841189613478 #
-0.22635836306257531291841189613478 5:1 423:1 424:1 425:1 426:1 427:1 #
-0.22635836306257531291841189613478 256:1 464:1 465:1 468:1 #
-0.22635836306257531291841189613478 489:1 491:1 492:1 #
0.22635836306257531291841189613478 115:1 851:1 1005:1 1015:1 4512:1 8910:1 #
0.22635836306257531291841189613478 80:1 83:1 89:1 93:1 #
-0.22635836306257531291841189613478 #
-0.22635836306257531291841189613478 #
-0.10978534540585022094560940786323 349:1 19281:1 #
-0.22635836306257531291841189613478 22:1 80:1 701:1 719:1 2085:1 2131:1 2462:1 #
-0.22635836306257531291841189613478 22:1 80:1 518:1 1161:1 3819:1 5576:1 16561:1 16562:1 #
-0.22635836306257531291841189613478 22:2 4003:1 #
-0.22635836306257531291841189613478 80:1 101:1 3441:1 #
-0.22635836306257531291841189613478 89:2 2465:1 4275:1 4604:1 #
0.11764410433544711387376935363136 118:1 464:1 465:1 572:1 617:1 2805:1 2806:1 #
0.22635836306257531291841189613478 329:2 1799:1 4853:1 #
0.22635836306257531291841189613478 329:2 433:1 1251:1 1769:1 1915:1 2521:1 #
0.22635836306257531291841189613478 11:1 329:2 793:1 964:1 1251:1 1546:1 2211:1 2392:1 3909:1 7432:1 #
0.22635836306257531291841189613478 331:2 507:1 2873:1 13046:1 #
-0.22635836306257531291841189613478 1338:1 #
-0.014644332948686611395316958805779 1343:1 1447:1 2422:1 #
-0.22635836306257531291841189613478 329:1 507:1 #
-0.22635836306257531291841189613478 190:1 329:1 692:1 923:1 982:1 984:1 1939:1 8226:1 #
-0.22635836306257531291841189613478 341:1 507:1 553:1 712:1 743:1 1302:1 8057:1 12250:1 17436:1 #
0.027056109806568976600127385268024 137:1 428:1 757:1 3149:1 3441:3 4974:1 4975:1 #
-0.088663895469375253455268648394849 7791:1 #
0.22635836306257531291841189613478 22:2 223:1 1468:1 9994:1 #
-0.11820698173546775877618131289637 22:1 1774:1 13628:1 19585:1 #
0.22635836306257531291841189613478 80:1 1394:1 12170:1 #
-0.22635836306257531291841189613478 22:2 369:1 1106:1 1343:1 1520:1 1786:1 4096:1 8590:1 8827:1 #
-0.22635836306257531291841189613478 22:1 69:1 216:1 230:1 965:1 1506:1 1938:1 2016:1 2646:1 3682:1 8796:1 9124:1 9410:1 9994:2 #
-0.22635836306257531291841189613478 22:1 247:1 679:1 757:1 846:1 931:1 1099:1 1642:1 4841:1 #
-0.22635836306257531291841189613478 22:1 663:1 664:1 807:1 2894:1 #
0.22635836306257531291841189613478 1364:1 2103:1 3551:1 4275:2 10751:1 #
0.05117971261042589953271786384903 80:1 109:1 234:1 335:1 347:1 491:1 581:1 881:1 1111:1 1943:1 1951:1 2432:1 3017:1 3775:1 8119:1 16913:1 #
0.22635836306257531291841189613478 468:2 564:1 7883:1 #
0.22635836306257531291841189613478 712:4 1138:1 1443:1 5463:1 6374:1 #
0.032566204747722163337364520430128 80:2 1180:1 2284:1 2346:1 4079:1 4163:1 4253:1 #
-0.22635836306257531291841189613478 80:1 234:1 468:1 830:1 933:1 1582:1 1840:1 2367:2 3113:1 3619:1 10545:1 12769:1 17101:1 #
0.22635836306257531291841189613478 1569:1 2162:1 #
0.067262607981188396455429767684109 864:1 1593:1 2553:1 2720:1 10700:1 #
-0.22635836306257531291841189613478 43:1 268:1 482:1 616:1 822:1 832:1 3097:1 3441:2 4001:1 12182:1 12536:1 #
-0.028120336154894037816731611201249 800:1 1797:1 1851:1 2103:2 2852:1 3138:1 3551:1 4789:1 5648:1 8036:1 9437:1 9438:1 9439:1 9442:1 #
0.22635836306257531291841189613478 234:1 1136:1 1564:1 2763:1 4816:1 7428:1 7632:1 #
0.22635836306257531291841189613478 1324:1 2440:1 4681:1 #
0.13131063458063416127252764908917 426:2 784:1 846:2 1045:1 1630:1 2405:1 11067:1 #
-0.22635836306257531291841189613478 #
-0.22635836306257531291841189613478 846:2 1699:1 8076:1 11958:1 #
-0.033385249293347026011691269786752 93:1 669:1 1266:1 1441:1 2805:1 4275:1 7024:2 7025:1 #
-0.068449788517458365344481308056857 1799:2 1879:2 #
-0.22635836306257531291841189613478 546:1 616:1 844:1 846:2 953:1 1119:1 3662:1 20621:1 20890:1 #
0.22635836306257531291841189613478 3097:1 4386:1 #
-0.22635836306257531291841189613478 #
0.22635836306257531291841189613478 359:1 777:1 1252:1 1260:2 1442:2 2720:1 2781:1 5286:1 12469:1 #
0.22635836306257531291841189613478 80:1 567:1 953:1 2367:1 3619:1 4841:1 #
0.18891613941653764840999940588517 309:1 719:1 818:1 1609:1 1743:1 1762:1 3138:1 3202:1 3269:1 3529:1 5648:1 8480:1 #
-0.22635836306257531291841189613478 11:2 530:1 1231:1 1361:1 1442:1 1453:1 2316:1 2895:1 3805:1 4087:1 5810:1 11106:1 13937:1 18131:1 #
-0.22635836306257531291841189613478 80:1 289:1 503:1 1361:1 10576:1 #
-0.13098125461309645389818001603999 11:1 80:1 835:1 881:1 892:1 1102:1 3651:1 4535:1 8597:1 9713:1 #
-0.22635836306257531291841189613478 80:1 7883:1 #
-0.22635836306257531291841189613478 80:1 433:1 530:1 547:1 722:1 2328:1 5527:1 8140:1 12143:1 #
0.22635836306257531291841189613478 1951:1 3081:1 3473:2 4078:1 #
0.22635836306257531291841189613478 6863:1 11404:1 #
0.2026533609166373262056026760547 3198:1 5512:1 5622:1 5623:1 #
-0.22635836306257531291841189613478 #
0.22635836306257531291841189613478 844:1 1138:1 1799:1 1879:1 2629:1 4088:1 4089:1 #
-0.22635836306257531291841189613478 256:1 344:1 564:2 591:1 1266:2 1316:2 1453:1 1956:1 2108:1 2506:1 3018:2 3158:1 3160:1 3161:1 #
-0.22635836306257531291841189613478 153:1 475:1 616:2 722:1 930:1 984:2 2077:1 4937:1 10091:1 11099:1 #
-0.22635836306257531291841189613478 #
-0.14840215623923741494749606317782 550:1 2493:1 #
-0.22635836306257531291841189613478 350:1 628:1 807:1 844:1 953:1 1387:1 1464:1 2332:1 14404:1 14863:1 #
0.22635836306257531291841189613478 2488:1 7024:1 7025:1 #
0.12798360252889326438285877429735 341:1 425:1 482:2 528:1 775:1 3563:1 13041:1 #
0.22635836306257531291841189613478 1281:1 2328:1 4225:1 #
-0.092226754087393808534400818643917 324:1 365:1 2577:1 2692:1 #
0.22635836306257531291841189613478 173:1 743:1 1101:1 1435:1 6893:1 7013:1 9994:1 #
-0.22635836306257531291841189613478 67:1 262:1 408:1 482:1 1045:1 1597:1 1664:1 #
-0.22635836306257531291841189613478 196:1 482:1 567:1 815:1 1900:1 2731:1 4687:1 #
-0.22635836306257531291841189613478 70:1 151:1 964:1 1758:1 2120:1 13379:1 #
-0.22635836306257531291841189613478 1364:1 1472:1 1922:1 2284:1 2346:1 4619:1 #
-0.22635836306257531291841189613478 43:1 137:1 357:1 369:1 415:1 815:1 1493:1 2873:1 5103:1 6402:1 #
0.062539208965088285974154302948591 224:1 309:1 984:3 2467:1 2914:2 3138:2 10303:1 11306:1 20506:1 21356:1 #
0.22635836306257531291841189613478 732:1 984:2 1512:1 1901:1 #
-0.22635836306257531291841189613478 1314:1 1549:1 5114:1 #
0.21517226577147421928692949677497 222:1 268:1 530:1 897:1 1151:1 1453:2 1470:1 2850:1 8140:1 12114:1 #
0.22635836306257531291841189613478 80:1 151:1 807:1 833:1 1161:1 1399:1 2172:1 3467:1 7718:1 #
0.22635836306257531291841189613478 269:1 #
-0.22635836306257531291841189613478 712:1 833:1 1251:1 1340:1 1429:1 17704:1 #
-0.22635836306257531291841189613478 97:1 205:1 380:1 590:1 779:1 833:1 1009:1 1153:1 1708:1 1956:1 2583:1 2645:1 2991:1 4010:1 5586:1 13481:1 15246:1 #
-0.22635836306257531291841189613478 225:1 389:1 420:1 447:1 840:1 993:1 1526:1 1630:1 1702:1 3402:1 4080:1 4664:1 4665:1 5527:1 5813:1 5814:1 #
-0.22635836306257531291841189613478 1092:1 1401:1 #
0.12842774190660338762270953338884 67:2 278:1 391:1 895:1 942:1 1119:1 1664:2 1758:1 1955:1 3279:1 8014:1 14933:1 #
0.21412067180126637122583588279667 204:1 577:1 815:2 1214:1 1983:1 2064:1 3121:1 3250:1 8597:1 15520:1 21053:1 #
0.22635836306257531291841189613478 33:1 388:1 815:2 835:1 4582:1 5741:1 #
0.22635836306257531291841189613478 262:1 350:1 1699:1 2121:1 2798:1 #
0.22635836306257531291841189613478 699:1 2431:1 8119:1 10461:1 11780:1 #
-0.21382682944297307092718085641536 69:1 109:1 262:1 897:1 1111:1 1736:1 2007:1 2718:1 3121:1 3940:1 4245:1 4878:1 4923:1 5359:1 6665:1 13343:1 16192:1 #
-0.22635836306257531291841189613478 425:1 815:2 838:1 1301:1 1814:2 2272:1 2687:1 8589:1 10009:1 #
-0.22635836306257531291841189613478 65:1 67:1 555:1 1293:1 1453:1 2291:1 2345:1 2824:1 4715:1 #
-0.22635836306257531291841189613478 1125:1 1208:1 2121:1 #
-0.22635836306257531291841189613478 65:1 1643:1 1921:2 2112:1 3092:1 3149:1 3841:1 5579:1 7255:1 7810:1 8215:1 9191:1 13445:1 #
0.22635836306257531291841189613478 630:1 738:2 1062:4 1393:1 1793:1 2340:1 2652:1 3316:1 3696:1 5825:1 23133:1 25110:1 #
-0.22635836306257531291841189613478 #
0.22635836306257531291841189613478 137:1 475:1 #
-0.22635836306257531291841189613478 #
0.11016944224490218817713582666329 381:1 833:1 933:1 1178:1 1464:1 1938:1 2131:1 2220:1 3136:1 #
-0.22635836306257531291841189613478 649:1 687:1 1062:1 1512:1 1901:1 10465:1 #
-0.012684755282554161306962647870478 109:1 1062:2 1917:1 2420:1 #
-0.22635836306257531291841189613478 207:1 426:1 550:1 640:1 667:1 833:1 915:1 1060:1 1246:1 1938:1 1948:1 4057:1 10710:1 #
-0.22635836306257531291841189613478 #
-0.22635836306257531291841189613478 204:1 321:2 375:1 391:1 813:2 840:1 947:1 1062:1 1102:1 1170:1 1345:1 1793:1 #
0.22635836306257531291841189613478 408:1 475:1 788:1 2283:1 2284:2 2286:1 2287:1 2289:1 2291:1 2292:1 #
0.22635836306257531291841189613478 2320:1 2620:1 8642:1 13571:1 #
0.22635836306257531291841189613478 628:1 960:1 2465:1 2824:1 2970:1 4453:1 4774:1 11887:1 11888:1 11889:1 #
0.19826428401307902293915219615883 401:1 482:2 615:1 1814:1 1823:1 5364:1 5483:1 6004:1 #
-0.22635836306257531291841189613478 4237:1 #
-0.22635836306257531291841189613478 757:1 835:1 1141:1 1434:1 1444:1 1582:1 2121:1 3136:1 3309:1 12573:1 20039:1 #
-0.19305758882267681775246614961361 18:1 115:1 936:1 1031:1 2121:1 3136:1 3950:1 4253:1 11243:1 #
-0.22635836306257531291841189613478 #
-0.13184719326995447685746398747142 191:1 577:1 1743:1 2064:1 2103:1 2342:2 3136:1 3768:1 3841:1 7571:1 10218:1 14586:1 #
-0.22635836306257531291841189613478 268:1 1166:1 1951:1 2392:1 3817:1 #
0.22635836306257531291841189613478 936:1 1529:1 1530:1 1741:1 #
0.18082342064666750980350684585574 564:1 621:1 825:1 1062:2 1453:1 2280:1 2468:1 2852:1 4305:1 5343:1 8378:1 10423:1 10818:1 #
0.1736346567256962514225193672246 161:1 541:1 1062:2 2064:1 2544:1 2711:1 3914:1 5201:1 8577:1 12452:1 12768:1 12769:1 #
-0.22635836306257531291841189613478 219:1 427:1 763:1 807:1 843:1 1062:2 1099:1 2169:1 9837:1 19059:1 19209:1 #
-0.22635836306257531291841189613478 391:1 644:1 648:1 1062:1 5070:1 5122:1 6619:1 6959:1 7878:1 9539:1 #
-0.22635836306257531291841189613478 137:1 1062:1 1609:1 2009:1 2831:1 3166:1 4076:1 #
-0.13887024334831207794671570354694 1062:1 1822:1 2064:1 2752:1 4218:1 5699:1 5743:1 7335:1 10389:1 13639:3 #
0.22635836306257531291841189613478 207:1 416:1 1122:1 1380:1 1453:1 1819:1 4270:1 6974:1 10935:1 #
-0.22635836306257531291841189613478 980:1 1446:1 1952:1 2271:1 #
-0.088134880577381280453153067355743 3225:1 #
-0.20343224681745353255024610916735 2932:1 3417:1 4592:1 #
0.22635836306257531291841189613478 550:1 669:1 851:1 1402:1 1526:2 2149:2 2866:1 2867:1 #
0.10279611934206603351960040981794 1340:1 1341:1 2483:1 3834:1 10194:1 #
-0.22635836306257531291841189613478 380:2 549:1 556:1 788:1 924:1 1313:1 1317:1 1470:1 1675:1 3608:1 4581:1 13236:1 #
-0.22635836306257531291841189613478 196:1 564:1 833:1 1942:1 13165:1 13801:1 #
-0.22635836306257531291841189613478 665:1 815:1 1178:1 1347:1 1923:1 1952:1 4512:1 #
-0.22635836306257531291841189613478 369:1 380:1 401:1 1217:1 1799:1 1946:1 2964:1 6796:1 7994:1 #
-0.22635836306257531291841189613478 1358:2 1442:2 1983:2 4880:1 7608:1 15782:1 #
0.085986793113781892494706937668525 377:1 1062:2 1240:1 1420:1 2010:1 2124:2 5930:1 5952:3 7562:1 #
0.20679928272471279071531569115905 447:1 1048:1 1062:1 1793:1 1919:1 2071:1 2340:1 3726:1 4194:1 7026:1 11824:1 11825:1 11826:1 #
0.11621165964166282891234516227996 422:1 1062:1 1320:1 1654:1 1655:1 1661:1 1698:1 2583:2 2694:1 2695:1 2696:1 2698:1 5743:1 7742:1 16620:1 #
-0.22635836306257531291841189613478 43:1 512:1 616:1 826:1 1048:1 3441:1 4243:1 7270:1 #
-0.22635836306257531291841189613478 1060:1 1169:1 1340:1 1341:1 1617:1 1741:1 2124:1 17664:1 #
-0.22635836306257531291841189613478 22:1 187:1 668:1 701:1 737:1 1672:1 1793:1 1814:1 2121:1 4709:1 5696:1 5840:1 9669:1 9670:1 #
0.22635836306257531291841189613478 66:1 599:1 1037:1 #
-0.14127938504069648129046754547744 278:1 385:1 1967:1 3674:1 5524:1 5952:1 18657:1 #
-0.22635836306257531291841189613478 #
0.22635836306257531291841189613478 4450:1 #
0.0094431473711760471889675727652502 234:1 596:1 1607:1 1938:1 2009:1 2432:1 2754:1 2755:1 2757:2 2758:1 2759:1 2760:1 #
0.078650399131832152144205849708669 590:1 648:1 1122:1 1472:1 2081:2 2642:1 2643:1 2644:1 2645:1 2646:1 #
0.042257548114475435019343763087818 359:1 633:1 729:1 1102:1 1155:1 1312:1 1759:1 2192:1 2498:1 2499:1 11267:1 12227:1 15183:1 #
-0.22635836306257531291841189613478 986:1 2565:1 3861:2 10465:1 20850:2 #
-0.22635836306257531291841189613478 953:1 1161:1 2009:1 2201:1 2850:1 #
-0.22635836306257531291841189613478 66:1 551:1 669:1 824:1 984:1 1228:1 1341:1 2009:1 2029:1 18581:1 #
-0.22635836306257531291841189613478 378:1 509:1 541:1 600:1 628:1 1901:1 2009:1 2214:1 2259:1 3677:1 3678:1 #
-0.052022447084749678936077543767169 882:1 982:1 1100:1 2009:1 3551:1 #
0.22635836306257531291841189613478 5171:1 25377:1 #
0.22635836306257531291841189613478 701:1 763:1 970:1 1317:1 3364:1 6747:1 #
-0.22635836306257531291841189613478 738:1 6341:1 #
-0.089636238735194773141756741097197 9870:1 #
0.22635836306257531291841189613478 145:1 737:2 758:1 1424:2 4057:1 10015:1 #
-0.22635836306257531291841189613478 405:2 759:1 933:1 1007:1 2703:1 9671:2 #
-0.22635836306257531291841189613478 420:1 1310:1 1592:1 4057:1 5511:1 6023:1 7717:1 9671:2 11338:2 #
-0.22635836306257531291841189613478 405:1 1677:1 3299:1 4057:1 9671:1 9994:1 #
-0.22635836306257531291841189613478 191:2 1209:1 2149:1 #
-0.1654836274023386011311487209241 699:1 701:1 911:1 1320:1 2199:1 5348:1 5741:1 6056:1 7711:1 #
0.22635836306257531291841189613478 544:1 832:1 1571:1 #
-0.00014387556910514889851361586270428 1231:1 1320:1 10811:1 #
0.22635836306257531291841189613478 291:1 882:1 1695:1 2083:1 3166:1 3910:1 #
0.22635836306257531291841189613478 561:1 579:1 875:1 897:1 1060:2 1504:1 1611:1 1814:1 2459:1 2460:1 2462:1 2463:1 #
-0.22635836306257531291841189613478 80:1 650:1 729:1 864:1 1246:1 2015:3 2104:1 #
-0.21778613502182686545438627945259 1139:1 1443:1 #
-0.22635836306257531291841189613478 301:1 987:1 1006:1 1028:1 1302:1 2633:1 3441:1 4089:1 5315:1 #
-0.16224080640242788398097673052689 39:1 579:1 656:1 910:1 970:1 1291:1 1295:1 1674:1 1913:1 2121:1 2893:1 3012:1 5436:1 6642:1 6643:1 6645:1 #
-0.22635836306257531291841189613478 5:1 509:1 615:1 930:1 1173:1 1238:1 1252:1 1340:1 3585:1 4205:1 5391:1 8295:1 9910:1 12402:1 20138:1 #
0.22635836306257531291841189613478 187:1 2651:1 4253:1 6387:1 6388:1 6389:1 #
0.16192073055334582631914486228197 877:1 880:1 2099:1 3717:1 5925:1 #
0.22635836306257531291841189613478 151:1 420:1 913:1 2117:1 9671:1 #
0.22635836306257531291841189613478 191:1 405:1 979:1 9349:1 9994:1 #
-0.22635836306257531291841189613478 356:1 405:3 1295:1 2934:1 4322:1 5366:1 #
-0.22635836306257531291841189613478 405:1 746:1 763:1 813:1 954:1 980:1 1152:1 2243:2 2706:1 3661:1 9671:1 9891:1 #
-0.22635836306257531291841189613478 405:1 755:1 1402:1 1428:1 1672:1 2593:1 4478:1 4881:1 9671:1 10638:1 #
-0.22635836306257531291841189613478 1179:1 1183:1 1356:1 4057:1 4813:1 9671:2 9754:1 9756:1 10237:1 #
-0.22635836306257531291841189613478 547:1 711:1 712:1 714:1 921:1 4584:1 16334:1 #
0.22635836306257531291841189613478 218:1 649:1 886:1 944:1 949:1 1295:1 1331:1 1587:1 7711:1 12685:1 19129:1 #
0.22635836306257531291841189613478 223:1 259:1 533:1 628:1 731:1 982:1 1101:1 1161:1 1302:1 1758:1 2853:1 4515:1 #
0.22635836306257531291841189613478 1446:1 2735:1 3112:1 4003:1 #
0.099286473607475181357706617291115 385:1 553:1 719:1 767:1 1238:1 2193:1 3308:1 3402:1 3435:1 10311:1 17962:1 17963:1 #
-0.22635836306257531291841189613478 751:1 1663:1 2083:1 2266:1 #
-0.0774485164307915224801703857338 126:1 853:1 881:1 1155:1 1317:1 8288:1 13483:1 16447:1 #
-0.22635836306257531291841189613478 420:1 465:1 823:1 917:1 1317:1 1436:1 2277:1 5100:1 5651:1 6761:1 7343:1 12167:1 #
-0.22635836306257531291841189613478 482:1 737:1 738:1 1025:1 2069:1 2642:1 3883:1 7352:1 14280:1 19520:1 #
-0.22635836306257531291841189613478 424:1 1470:1 1899:1 2786:1 2991:1 6088:2 9117:2 #
0.22635836306257531291841189613478 401:1 509:1 805:1 1939:1 3254:2 7249:1 7878:1 #
-0.22635836306257531291841189613478 #
0.062103779873727206484179674816914 1454:1 1624:1 1683:1 4326:1 6169:1 6171:1 #
-0.22635836306257531291841189613478 #
0.22635836306257531291841189613478 405:2 8052:1 11355:1 11357:1 #
-0.22635836306257531291841189613478 137:1 405:1 600:1 617:1 701:1 1267:1 1943:1 7317:1 #
-0.22635836306257531291841189613478 137:1 895:1 4507:1 4974:1 8219:1 #
-0.22635836306257531291841189613478 321:2 2621:1 4844:1 5698:1 6527:1 9671:1 9717:1 #
-0.22635836306257531291841189613478 2947:1 #
0.22635836306257531291841189613478 219:1 1249:1 1320:1 1609:1 1879:1 2274:1 3768:1 4299:1 4818:1 7276:1 15252:1 #
0.14787632431434349911114622955211 416:1 751:1 1209:1 1663:1 2991:1 7886:1 #
0.22635836306257531291841189613478 1098:1 1493:1 3466:1 4119:1 4936:1 15070:1 18379:1 18380:1 #
-0.10768310779034528934516856679693 533:1 #
-0.22635836306257531291841189613478 178:2 416:2 584:1 986:1 1390:1 2991:1 #
-0.13636394745357985347489204741578 365:2 416:1 1312:1 1351:1 1380:1 1823:1 1854:2 1919:1 2048:1 2103:2 3567:1 7794:1 15538:1 18901:1 #
-0.22635836306257531291841189613478 327:1 416:1 881:1 1938:1 1952:1 2991:1 3049:1 4993:1 5134:1 10149:1 #
-0.22635836306257531291841189613478 178:2 234:1 777:2 1146:1 #
-0.22635836306257531291841189613478 219:1 1365:1 1886:1 2786:1 #
0.22635836306257531291841189613478 137:1 898:1 1678:1 1917:2 7033:2 #
0.22635836306257531291841189613478 405:1 685:1 3934:1 4668:1 12143:1 #
0.22635836306257531291841189613478 324:1 378:1 #
0.22635836306257531291841189613478 173:1 216:1 600:1 759:1 2732:1 #
0.22635836306257531291841189613478 401:1 920:1 921:1 #
-0.22635836306257531291841189613478 247:1 324:1 460:1 807:1 7013:1 #
-0.22635836306257531291841189613478 462:1 530:1 898:1 3629:1 10423:2 #
-0.22635836306257531291841189613478 97:1 426:1 648:1 1001:1 1122:1 3776:1 #
-0.22635836306257531291841189613478 231:1 465:1 1001:1 1152:1 1356:2 1956:1 3069:1 3972:1 5389:1 9994:1 13645:2 13647:1 13648:1 #
-0.22635836306257531291841189613478 930:1 1311:1 1373:1 2644:1 5340:1 #
-0.22635836306257531291841189613478 955:1 #
0.22635836306257531291841189613478 184:1 1007:1 1365:1 1429:1 1643:1 1886:1 2097:1 9747:1 #
0.088022059559095297553987791161489 416:3 1819:2 3360:1 5070:1 5092:1 7298:1 #
0.22635836306257531291841189613478 178:1 184:1 777:1 823:1 830:1 1519:1 1823:1 4087:1 #
-0.22635836306257531291841189613478 #
-0.22635836306257531291841189613478 211:1 1424:1 1823:1 1885:1 2706:1 4087:2 16509:1 18792:1 #
-0.22635836306257531291841189613478 184:1 630:1 1365:1 1886:1 #
-0.22635836306257531291841189613478 184:1 197:1 2465:1 3791:1 4622:1 5839:1 #
-0.22635836306257531291841189613478 66:1 184:1 837:1 1037:1 2161:1 2188:1 2544:1 #
-0.22635836306257531291841189613478 422:1 491:1 978:1 979:1 1007:1 1680:1 2781:1 2970:1 8329:1 16314:1 #
-0.22635836306257531291841189613478 813:1 897:1 2478:1 #
-0.13400588962231915757250533260958 420:1 804:1 2103:1 2266:1 2692:1 5294:1 #
0.22635836306257531291841189613478 460:2 536:1 1330:1 1460:1 1971:1 3841:1 6916:1 #
0.14276864860630045228617746033706 266:1 356:1 807:1 898:1 2077:1 2200:1 2706:1 4654:1 5974:1 6919:1 #
0.091066482055628436564909122807876 341:1 1741:1 1742:1 1743:1 1744:1 1745:1 1746:1 1747:1 #
-0.22635836306257531291841189613478 460:1 1775:1 1915:1 3420:1 3950:1 4517:1 4971:1 #
-0.22635836306257531291841189613478 291:1 325:1 857:1 875:1 2077:1 #
-0.22635836306257531291841189613478 460:2 924:2 1486:1 1640:1 3287:1 18815:1 25351:1 #
-0.1351733403321951354492114205641 460:1 738:1 1189:1 3316:1 4868:1 22895:2 22896:1 #
-0.22635836306257531291841189613478 1082:1 1174:1 1436:1 1519:1 1685:1 2200:1 2483:1 4065:1 5047:1 5314:1 9234:1 12114:1 19384:1 #
0.22635836306257531291841189613478 953:1 964:1 1365:1 1620:1 1886:1 2780:1 #
0.22635836306257531291841189613478 853:1 924:1 1061:1 1470:1 1741:1 1775:1 1900:1 1923:1 2465:1 4584:1 10314:1 #
0.22635836306257531291841189613478 5:1 1100:1 1189:1 1504:1 1952:1 2124:1 2239:1 2912:1 11358:1 19763:1 #
0.15981226507918572243838184476772 1384:1 2177:1 3710:1 6909:1 #
-0.22635836306257531291841189613478 368:1 823:1 964:1 984:1 1504:1 2711:1 3336:1 4240:1 7301:1 9969:1 11201:1 18241:1 18883:1 #
-0.22635836306257531291841189613478 536:1 823:1 830:1 924:1 926:1 1741:1 2199:1 6818:1 8642:1 #
-0.11901649079760828753293822046544 354:1 506:1 841:1 980:2 1712:1 2239:1 7172:1 #
-0.064581123659069636366858446763217 780:1 830:1 7927:1 9399:1 15101:1 16108:1 #
-0.22635836306257531291841189613478 216:1 223:1 354:1 567:1 2711:1 3132:1 #
0.22635836306257531291841189613478 325:1 875:1 1155:1 1163:1 1891:2 2120:1 2612:1 3940:1 #
0.22635836306257531291841189613478 815:1 828:1 4507:2 #
0.22635836306257531291841189613478 499:1 1436:1 3097:1 3420:1 6088:1 6089:1 #
-0.22635836306257531291841189613478 720:1 #
-0.22635836306257531291841189613478 151:1 401:1 499:2 1939:1 3143:1 7194:1 #
-0.22635836306257531291841189613478 431:1 2239:2 3097:1 3435:1 #
-0.11740903789765436138203824611992 115:1 247:1 499:1 1102:1 1476:1 4874:1 8292:1 8477:1 15465:1 #
-0.22635836306257531291841189613478 380:1 815:1 2236:1 2413:1 5979:1 17538:1 #
-0.22635836306257531291841189613478 161:1 286:2 1987:1 2785:1 3339:1 4541:1 4907:1 5728:1 19052:1 #
0.0055200053796406927178463952543552 337:1 444:1 924:1 1251:1 1295:1 1331:1 1393:1 1486:1 1592:1 2565:1 2654:1 4709:1 5435:1 9745:1 9767:1 9768:1 #
0.22635836306257531291841189613478 567:1 775:1 11671:1 17626:1 #
0.09920649133718130452397332419423 347:1 547:1 980:1 1170:1 2065:2 #
0.023517881663919146251195968488901 204:1 223:1 268:1 460:1 551:1 934:1 1217:3 1844:1 7694:1 9994:1 13548:1 13550:1 #
0.22635836306257531291841189613478 211:1 841:1 1119:1 1272:1 2199:1 2931:1 4112:1 #
-0.22635836306257531291841189613478 397:1 841:1 1899:1 3805:1 4112:2 #
-0.16762240264222083574452426546486 347:1 408:1 1214:1 1217:1 1327:1 4962:3 6893:1 7368:1 21135:1 21494:1 #
-0.22635836306257531291841189613478 255:1 780:1 1061:1 1217:1 1364:1 1436:1 1453:1 1854:1 2120:1 3761:1 3869:1 13167:1 #
-0.12777489359966531790036015081569 347:1 743:1 746:1 1170:1 2468:1 2637:1 4948:1 7192:1 #
-0.22635836306257531291841189613478 553:1 743:1 815:1 1119:2 #
0.22635836306257531291841189613478 699:1 844:1 984:1 1110:1 2239:1 2587:1 4685:1 9533:1 #
0.089023805208117257059541316266404 1189:1 1398:1 1685:2 1939:2 2721:1 5542:1 #
0.076627190269791242704933154072933 1307:1 1340:1 1341:1 1597:1 1736:1 1952:1 2239:1 6354:1 #
0.22635836306257531291841189613478 4762:1 7046:1 #
-0.22635836306257531291841189613478 107:2 792:1 980:1 1183:1 1436:1 1685:1 1938:1 2072:1 12135:1 #
-0.22635836306257531291841189613478 266:1 337:1 793:1 813:1 1152:1 1374:1 3556:1 #
-0.11848057146673918182955276279245 875:1 6711:1 #
-0.22635836306257531291841189613478 359:1 468:1 924:1 990:1 1393:1 2124:2 2361:1 #
-0.22635836306257531291841189613478 278:1 533:1 567:1 818:1 830:1 905:1 993:1 1769:1 4584:1 11084:1 #
0.22635836306257531291841189613478 531:1 743:2 744:1 745:1 746:1 #
0.22462177304922950615839738475188 354:1 815:1 1100:1 1337:1 2468:1 3049:2 15742:2 16398:1 #
-0.22635836306257531291841189613478 3505:1 #
-0.22635836306257531291841189613478 #
0.22635836306257531291841189613478 242:1 #
-0.22635836306257531291841189613478 744:2 1166:1 1373:1 1952:1 2121:1 2640:1 2859:1 16442:1 #
0.22635836306257531291841189613478 763:1 793:1 1436:1 1854:1 2072:1 4371:1 #
-0.22635836306257531291841189613478 262:1 627:1 969:1 1312:1 1537:1 1867:1 2583:1 3198:1 3605:1 3681:1 4515:1 5623:1 5665:1 7374:1 #
-0.22635836306257531291841189613478 982:1 1364:1 1663:1 1758:1 1945:1 4704:1 4990:1 #
-0.12046642974189437913512534805704 531:1 1486:1 1582:1 2931:1 4805:1 5760:1 11203:1 #
-0.22635836306257531291841189613478 517:1 763:2 1320:1 1944:1 2593:1 4951:2 5103:1 #
-0.22635836306257531291841189613478 5:1 503:1 742:1 2629:1 3442:1 15764:1 #
-0.089152252343501325881902630499098 12060:1 #
0.22635836306257531291841189613478 408:1 1921:1 2637:1 4660:1 5698:1 6233:1 6527:1 9848:1 9895:1 #
0.12266813864480959062053244679191 405:1 433:1 577:1 882:1 924:1 1166:1 1274:1 1304:1 1672:1 3372:1 17487:1 18858:1 25450:1 #
0.22635836306257531291841189613478 186:1 306:1 533:1 553:1 722:1 1001:2 1302:1 2802:1 #
0.22635836306257531291841189613478 1084:1 1773:1 2227:1 3267:1 #
-0.22635836306257531291841189613478 1001:2 1271:1 1655:1 1823:1 3384:1 4778:1 9911:1 #
-0.22635836306257531291841189613478 416:1 780:1 1061:1 1337:3 1405:1 7602:1 #
-0.22635836306257531291841189613478 388:1 581:1 668:1 987:1 1001:1 1061:1 1281:1 1352:1 2093:1 4878:1 7292:1 #
0.033135390615643210698859633112079 495:1 652:1 698:1 893:1 1945:2 2266:1 4704:2 #
0.22635836306257531291841189613478 2361:1 2432:1 4990:2 11168:1 22738:1 #
0.22635836306257531291841189613478 347:1 742:1 1294:1 1743:1 2105:1 2121:1 2124:1 2652:1 5366:1 8817:1 13167:1 21561:1 #
0.023683956291031822705139830986809 5:1 101:1 397:1 1099:1 1346:1 1733:1 2103:1 3629:1 3662:1 3795:1 11025:1 13488:1 18358:1 21398:1 #
0.025336856852236355752694407783565 594:1 610:1 687:1 2064:1 2367:1 3531:1 4023:1 4275:1 17997:2 #
-0.22635836306257531291841189613478 2065:1 11168:1 #
-0.22635836306257531291841189613478 917:2 1294:1 1700:1 2277:1 3736:1 #
-0.075420337739786971753552791142283 631:1 1068:1 1099:1 1217:1 1794:1 1850:1 2280:1 2553:1 2852:1 3372:1 5115:1 6289:2 7653:1 10304:1 10747:1 #
-0.22635836306257531291841189613478 101:1 418:1 915:1 1141:1 2823:1 10235:1 #
-0.22635836306257531291841189613478 437:1 1611:1 2065:1 2273:1 #
0.22635836306257531291841189613478 151:1 895:1 1271:2 1899:1 4737:1 12727:1 13209:1 15240:1 #
0.22635836306257531291841189613478 424:1 832:1 2009:1 #
0.22635836306257531291841189613478 857:1 926:1 1238:1 1271:1 12551:1 #
0.22635836306257531291841189613478 640:1 1173:1 2029:1 3198:1 3379:1 4955:1 5623:1 9034:1 #
-0.22635836306257531291841189613478 550:1 843:1 1271:1 3376:1 4057:1 8052:1 #
-0.22635836306257531291841189613478 381:1 772:1 829:1 923:1 1238:1 2633:1 7046:1 14347:1 14348:1 #
-0.13573670448759370121827316779672 204:1 347:1 991:1 1271:1 #
0.22635836306257531291841189613478 #
0.22635836306257531291841189613478 1161:2 2277:3 #
0.058515852863657263904784144870064 1741:1 2320:1 5682:2 10149:1 #
0.041142604508933484919186440720296 504:1 780:1 2277:2 4829:1 4910:1 9922:1 13089:1 24086:1 24087:1 #
-0.11726809278703931305187779798871 541:1 1526:1 8017:1 #
-0.22635836306257531291841189613478 385:2 520:2 763:2 1163:2 1614:1 2277:5 19585:1 #
-0.22635836306257531291841189613478 234:1 555:1 842:1 1819:1 2274:1 2275:2 2276:1 2277:2 2278:1 2279:1 2280:1 2281:1 #
-0.22635836306257531291841189613478 332:1 408:1 444:1 649:1 652:1 833:1 1149:1 1161:1 1274:1 2008:1 2168:1 2214:1 6541:1 11586:1 #
-0.22635836306257531291841189613478 934:2 1098:1 3841:1 #
-0.22635836306257531291841189613478 353:1 512:1 911:1 1141:1 1971:1 3479:1 4089:1 4667:1 #
0.22635836306257531291841189613478 3440:1 5164:1 #
0.19992590367263254891305734872731 101:1 365:1 378:1 530:1 533:1 702:1 892:1 1422:1 1486:1 1519:1 2064:1 2188:1 2344:1 3805:1 3921:1 4953:1 6665:1 16338:1 19910:1 #
0.070325292332760219737863849331916 550:1 977:1 1006:1 1700:1 3646:2 6840:1 10233:2 10555:1 20814:1 #
-0.22635836306257531291841189613478 #
0.07513928108289144591758201841003 11:1 259:1 652:1 697:1 792:3 1136:1 2273:1 5002:1 #
-0.22635836306257531291841189613478 475:1 556:1 807:1 1470:1 2200:1 #
-0.22635836306257531291841189613478 80:1 1276:1 1287:1 3741:1 4366:1 4990:1 7344:1 8590:1 8921:1 #
-0.076268550418318703520981216570362 1712:1 #
-0.098725495482418115789080559352442 807:1 1472:1 3674:1 3850:1 6352:1 14945:2 #
-0.01334498759606150830592241618433 4347:1 10600:1 #
-0.22635836306257531291841189613478 230:1 1097:1 2068:1 8904:1 #
-0.22635836306257531291841189613478 11:1 223:1 770:1 982:1 1098:1 1101:1 1307:1 #
-0.22635836306257531291841189613478 551:1 745:1 1799:1 3522:1 4275:1 #
-0.22635836306257531291841189613478 289:1 504:1 1952:1 2637:1 3084:1 3497:1 3674:1 4319:1 #
-0.19972642804955326178983909812814 378:2 816:1 848:1 1086:1 1814:1 2332:1 4269:1 7211:1 11707:2 #
-0.22635836306257531291841189613478 812:1 1304:1 2530:1 4078:1 8079:1 #
0.22635836306257531291841189613478 1460:1 2097:1 2188:1 7089:1 #
0.22635836306257531291841189613478 353:1 394:1 506:1 1582:1 2703:1 2955:1 7050:1 #
0.032000428048217392784646762038392 507:1 521:1 1069:1 1291:1 1351:1 2478:1 3064:1 5809:1 6242:1 8219:1 9263:1 #
0.22635836306257531291841189613478 579:1 2210:1 2211:1 #
-0.22635836306257531291841189613478 420:1 672:1 1582:1 4057:1 11617:1 #
-0.22635836306257531291841189613478 327:1 506:1 652:1 832:1 987:1 1127:1 2653:1 4405:1 6763:1 10336:1 #
-0.22635836306257531291841189613478 353:1 730:1 832:1 983:1 1570:1 2084:1 4549:1 13571:1 #
-0.22635836306257531291841189613478 65:1 242:2 350:1 1099:1 1494:1 1741:1 5744:1 #
0.22635836306257531291841189613478 401:2 1915:1 1952:4 #
0.049105074918312355269911506638891 262:1 770:1 1061:1 2008:1 2117:1 3069:1 4091:1 4901:1 6014:1 9606:1 10899:1 19033:1 19198:1 #
0.22635836306257531291841189613478 332:1 930:1 1312:1 1952:1 5062:1 7290:1 8529:1 12772:1 #
0.22635836306257531291841189613478 980:1 982:1 983:1 1045:1 1402:1 3768:1 #
-0.22635836306257531291841189613478 259:1 536:1 550:1 579:1 982:1 1100:1 1444:1 #
-0.22635836306257531291841189613478 186:1 896:1 1102:1 1272:1 1402:1 3816:1 7484:1 13000:1 #
-0.22635836306257531291841189613478 73:1 1313:1 1460:1 5123:1 10391:1 12772:1 #
-0.22635836306257531291841189613478 262:1 727:1 1033:1 1141:1 1310:1 1597:1 3964:1 4955:1 6378:1 9456:1 9557:1 9743:1 #
0.22635836306257531291841189613478 351:1 394:1 1642:1 #
0.22635836306257531291841189613478 242:1 #
-0.22128626378851729006314030812064 218:1 1086:1 2272:1 2360:1 16835:1 #
-0.072332083034396935095067249221756 224:1 550:1 1576:1 1776:1 2474:1 16561:1 25616:1 #
0.22635836306257531291841189613478 1443:1 4091:1 #
0.065711859783834855597284274608683 389:1 1275:1 1442:1 7486:1 8172:1 #
-0.22635836306257531291841189613478 394:1 729:1 882:1 1274:1 1952:1 2763:1 4319:1 11430:1 20853:1 #
-0.22635836306257531291841189613478 22:1 242:1 394:1 562:1 971:1 #
-0.22635836306257531291841189613478 354:1 544:1 1006:1 2149:1 2824:1 3270:1 5054:1 6188:1 #
-0.18630019073526388195816139159433 508:1 530:1 719:2 1291:1 1896:1 2662:1 3402:1 10478:1 11885:1 16387:1 #
0.19565848665005297624119862121006 266:1 337:1 517:1 536:2 537:1 550:1 632:1 1279:1 3261:1 8412:1 #
0.22635836306257531291841189613478 1582:1 1953:1 12089:1 15827:1 #
0.22635836306257531291841189613478 234:1 499:1 1252:1 1287:1 1444:1 1702:1 3271:1 3613:1 6188:1 7385:1 #
-0.22635836306257531291841189613478 1325:1 #
-0.22635836306257531291841189613478 336:1 1371:1 1444:1 3768:1 #
-0.22635836306257531291841189613478 837:1 1274:1 1444:1 2064:1 3613:1 5525:1 5801:1 #
-0.22635836306257531291841189613478 224:1 1823:1 2217:1 2224:1 2652:1 11731:1 #
-0.22635836306257531291841189613478 141:1 434:1 1287:1 1712:1 1952:1 2020:1 9584:1 #
-0.22635836306257531291841189613478 128:1 336:1 743:1 837:1 1826:1 5286:1 6065:2 #
0.22635836306257531291841189613478 169:3 562:1 777:1 3435:2 4087:1 5388:1 #
0.17529473401015055467055958615674 971:1 1390:1 3095:1 3096:1 3097:1 #
0.097006141492163369677292905635113 65:1 652:1 757:1 1100:1 1293:1 1301:1 2668:1 3497:1 4953:1 4994:1 8217:1 #
0.22635836306257531291841189613478 649:1 1009:1 1037:1 1412:1 1951:1 3362:1 #
0.04558512761523749595715671034668 350:1 822:1 987:1 1938:1 4166:1 7373:1 7374:1 #
-0.22635836306257531291841189613478 137:1 332:1 1201:1 1460:1 3362:2 4347:1 15147:1 #
-0.22635836306257531291841189613478 581:1 737:1 1009:1 1062:1 1189:1 4014:1 19966:1 #
-0.22635836306257531291841189613478 256:1 2370:1 2873:1 4664:1 7373:1 7411:1 #
-0.22635836306257531291841189613478 895:1 970:1 1951:1 2424:1 2802:1 2803:1 #
-0.22635836306257531291841189613478 #
0.22635836306257531291841189613478 818:1 971:1 1444:1 #
0.22635836306257531291841189613478 837:1 1018:1 2201:1 4951:1 #
0.22635836306257531291841189613478 247:1 791:1 818:1 837:1 856:1 1378:1 1630:1 3817:1 10039:1 10550:1 #
0.076366205459384869924654992701107 1033:5 2905:1 4103:1 9717:3 9820:1 #
-0.22635836306257531291841189613478 375:1 1018:1 1393:1 2211:3 5957:2 9555:1 10015:1 10093:1 #
-0.22635836306257531291841189613478 1110:1 1944:1 3165:1 3679:1 3916:1 4087:1 6051:1 8157:1 9895:1 18058:1 #
-0.22635836306257531291841189613478 604:1 652:1 1304:1 1331:1 1373:1 1680:1 2085:1 2103:1 9949:1 #
-0.22635836306257531291841189613478 509:2 984:1 1216:1 1573:1 3372:1 3373:1 9535:1 #
-0.22635836306257531291841189613478 1108:1 1109:1 2016:1 2085:2 2687:1 5209:1 #
0.22635836306257531291841189613478 #
-0.22635836306257531291841189613478 368:1 1152:1 1946:1 #
0.03482761432709100685167769029249 151:1 1083:1 1313:1 1724:1 3402:1 4405:1 4647:1 4996:1 9671:1 10391:1 11628:1 #
0.22635836306257531291841189613478 223:1 224:1 1247:1 1867:1 10009:1 #
-0.22635836306257531291841189613478 590:1 813:1 824:1 934:1 1045:1 1472:1 2223:1 3050:1 3696:1 6803:1 7434:1 9089:1 9767:1 #
-0.22635836306257531291841189613478 5:1 151:1 1398:1 1472:1 4685:1 #
-0.22635836306257531291841189613478 982:1 983:1 1045:1 1472:1 2201:1 #
-0.22635836306257531291841189613478 368:1 654:1 677:1 746:1 1507:1 2774:1 3588:1 3620:1 5403:1 9671:1 #
-0.22635836306257531291841189613478 541:1 875:1 1507:1 2227:1 4091:1 22738:1 #
0.22635836306257531291841189613478 225:1 841:1 1956:1 3572:1 13656:1 #
-0.22635836306257531291841189613478 #
-0.04473917044522596198063979500148 7556:1 11612:1 #
0.22635836306257531291841189613478 262:1 501:1 1405:1 2085:1 3896:1 4322:1 9410:1 #
0.22635836306257531291841189613478 584:1 825:1 1217:1 1892:1 2332:1 3679:1 13438:1 #
-0.22635836306257531291841189613478 805:1 835:1 1578:1 1581:1 2939:1 3279:1 3673:1 4072:1 4288:1 9262:1 #
-0.11493603020443357576318987867126 262:1 309:1 519:1 530:1 581:1 777:3 964:1 970:1 1247:1 1386:1 4687:1 6033:1 6771:1 10678:1 10679:1 #
-0.22635836306257531291841189613478 1033:1 1276:1 1793:1 2341:1 3321:1 7512:1 8818:1 11889:1 #
-0.22635836306257531291841189613478 881:1 1151:1 1343:1 1581:1 3421:1 7032:1 #
0.12745918372440157018132822486223 541:1 875:2 966:1 1016:1 1060:1 1785:1 2538:1 4087:1 7837:1 #
0.22162180495210090369617716987705 1819:1 4951:2 5103:1 7032:1 #
0.097320593904157051690084756501165 444:1 475:1 1216:1 1573:1 2568:1 2966:1 4077:2 4939:1 6447:1 9135:1 10261:1 18168:1 #
-0.22635836306257531291841189613478 #
0.16584452803001614729083712518332 333:1 551:1 730:1 982:1 1038:1 1090:1 1179:1 1854:1 4077:1 5718:1 9504:1 9508:1 9509:1 #
-0.22635836306257531291841189613478 875:1 1060:1 1086:1 1460:1 2070:1 #
0.22635836306257531291841189613478 109:1 1073:1 4728:1 10061:1 14830:1 15398:1 16602:1 #
-0.22635836306257531291841189613478 95:1 801:1 2527:1 3109:1 7050:1 #
0.22635836306257531291841189613478 1151:1 2850:1 6737:1 #
0.22635836306257531291841189613478 80:1 840:1 970:1 2069:1 2227:1 5665:1 8833:1 14807:1 #
0.22635836306257531291841189613478 204:1 970:1 2941:1 2974:1 8033:1 #
0.22635836306257531291841189613478 524:1 3213:1 3341:1 #
0.22635836306257531291841189613478 1073:1 3176:1 3816:1 4288:1 11759:1 11761:1 #
-0.22635836306257531291841189613478 80:1 337:1 980:1 1191:1 1442:1 2427:1 2652:1 18004:1 #
-0.059118080435401509920012586007942 553:1 1666:1 5550:1 11357:1 13885:1 #
-0.22635836306257531291841189613478 1178:1 1470:1 1938:1 2731:1 4053:1 #
-0.22635836306257531291841189613478 24:1 1141:1 1939:1 2858:1 4873:1 5201:1 5882:1 #
0.14896707657701854787823947390279 2951:2 3441:2 3983:2 #
-0.22635836306257531291841189613478 2735:1 #
-0.22635836306257531291841189613478 1482:1 1537:1 2200:1 2785:1 3143:1 3770:1 4498:1 #
-0.22635836306257531291841189613478 770:1 4072:1 4774:1 19033:1 #
-0.22635836306257531291841189613478 2247:1 2488:1 4581:1 #
-0.11920748713241630101222767734725 335:1 533:1 1361:1 2071:1 2212:1 2732:1 3741:1 4401:1 8700:1 8701:1 #
-0.22635836306257531291841189613478 1426:1 1537:1 1823:1 1863:1 3246:1 #
0.15677990531833074783207848668098 263:1 590:1 911:1 1472:1 5952:1 6402:1 18657:1 #
0.061905407050696956150481753411441 833:1 1343:1 1364:1 2149:1 9091:1 15306:1 #
-0.22635836306257531291841189613478 #
0.22635836306257531291841189613478 205:1 1549:1 2456:1 2791:1 #
-0.22635836306257531291841189613478 590:1 649:1 911:1 1110:1 1321:1 1733:1 2688:1 19129:1 #
-0.22635836306257531291841189613478 416:1 833:1 972:1 1617:1 2587:1 2652:1 3110:1 4175:1 4245:1 4887:1 9595:1 #
-0.22635836306257531291841189613478 303:1 356:1 833:1 1841:1 1921:1 2964:1 6242:1 25691:1 #
-0.22635836306257531291841189613478 662:1 905:1 1270:1 1381:1 1486:1 6747:1 7927:1 9173:1 #
-0.22635836306257531291841189613478 811:1 844:1 1073:1 3187:1 3940:1 17310:1 #
0.22635836306257531291841189613478 336:1 1141:1 2275:1 2280:1 2281:1 3770:2 #
0.20106069783331304012818918636185 509:1 512:1 1252:1 2117:1 3741:4 #
0.08564976601106591425072167567123 420:1 630:1 1092:1 1537:1 2785:1 4234:1 7927:2 #
0.22635836306257531291841189613478 276:1 408:1 826:1 1316:1 1454:1 1823:1 3346:1 #
0.22635836306257531291841189613478 770:2 815:1 1274:1 2200:1 4364:1 5241:1 6753:1 22570:1 #
-0.049279219335916363275984508618421 1060:1 2699:1 2838:1 3916:1 6188:1 6320:1 7927:1 11871:1 13041:1 14067:1 #
-0.22635836306257531291841189613478 22:1 930:1 1179:1 3696:1 9848:1 10238:1 #
-0.22635836306257531291841189613478 225:1 475:1 1402:1 1454:1 1822:1 2316:1 4766:1 8097:1 14135:1 #
0.22635836306257531291841189613478 151:1 1582:1 1712:1 1915:1 2277:1 2279:1 3187:1 3564:1 #
0.22635836306257531291841189613478 482:1 1304:1 1423:1 1680:1 1921:2 #
0.22635836306257531291841189613478 1310:1 1507:1 1814:1 2224:1 4245:1 9465:1 #
0.22635836306257531291841189613478 746:1 881:1 905:1 1310:1 2500:1 6012:1 11122:1 #
0.19043596231326148648932417017932 969:1 1921:1 1938:1 4622:1 5235:1 5272:1 #
-0.22635836306257531291841189613478 770:1 1365:1 1886:1 2224:1 5149:1 #
-0.22635836306257531291841189613478 276:1 2224:1 2732:1 10311:1 #
-0.22635836306257531291841189613478 1333:1 1819:1 1915:1 2361:1 6171:1 7054:1 #
0.22635836306257531291841189613478 1276:2 2070:1 #
0.22635836306257531291841189613478 813:1 815:1 1276:1 1494:1 2199:1 2266:1 3255:1 4277:1 4887:1 #
0.22635836306257531291841189613478 667:1 1153:1 1161:1 1287:2 1799:1 2477:1 5816:1 8358:1 8617:1 #
0.22635836306257531291841189613478 219:1 815:1 1830:1 2211:1 3167:1 #
-0.22635836306257531291841189613478 1004:1 1276:1 2919:1 7718:1 #
-0.22635836306257531291841189613478 699:1 702:1 746:1 1569:1 1592:1 1955:1 2018:1 2199:1 2919:1 5913:1 19133:1 #
-0.22635836306257531291841189613478 815:1 1423:1 2064:1 2085:1 2173:1 3138:2 4214:1 5189:1 6919:1 7112:1 12643:1 14336:1 18517:1 21935:1 #
-0.22635836306257531291841189613478 5:1 324:1 506:1 507:1 815:1 982:1 1939:1 1983:1 #
-0.22635836306257531291841189613478 633:1 1345:1 2266:1 2413:1 2553:1 2692:1 2765:1 3521:1 22521:1 #
0.22635836306257531291841189613478 833:1 1119:1 2224:1 #
0.22635836306257531291841189613478 1281:1 2022:1 2688:1 2823:1 3679:1 4907:1 5514:1 12747:1 #
-0.22635836306257531291841189613478 3112:1 #
0.22635836306257531291841189613478 692:1 2224:1 14917:1 23080:1 24526:1 #
0.22635836306257531291841189613478 415:1 1314:1 1320:1 2361:2 3143:2 3363:1 10131:1 #
-0.22635836306257531291841189613478 415:1 2933:1 3329:1 3331:1 3332:1 3333:1 #
-0.22635836306257531291841189613478 1241:1 1576:1 1621:1 1723:1 2719:1 2914:1 3737:1 7914:1 8603:1 8675:1 #
-0.22635836306257531291841189613478 719:2 788:1 1018:1 1758:1 5566:1 8083:1 10702:1 #
0.18996585539537577669300105753791 743:1 982:1 1100:1 1110:1 1939:1 2775:1 3840:1 7117:1 14134:1 #
-0.1682564150654180523680736314418 1813:1 4380:1 10086:1 11233:1 #
0.1592892310367914066038252940416 954:1 1281:1 1426:1 1447:1 1775:1 1829:1 2029:1 4201:1 22212:1 23843:1 #
0.22635836306257531291841189613478 619:1 1138:1 1569:1 #
0.22635836306257531291841189613478 #
-0.22635836306257531291841189613478 394:1 1136:1 1141:1 1281:1 1637:1 4200:1 16100:1 #
-0.22635836306257531291841189613478 633:1 762:1 769:1 886:1 1001:1 1320:1 2468:1 4462:1 #
-0.22635836306257531291841189613478 394:1 464:1 729:1 881:1 941:1 1151:1 1458:1 #
0.22426738735302551019934469422878 324:1 1009:1 1170:1 1700:1 1773:1 1775:1 1814:2 2093:1 3488:1 4568:1 8432:1 17979:1 #
-0.22635836306257531291841189613478 550:1 #
0.22635836306257531291841189613478 842:1 967:1 1102:1 3018:1 #
0.089553384253627632549665804617689 800:1 2553:1 2774:1 3321:1 3409:1 3442:1 5343:1 6801:1 8039:1 8040:1 18643:1 19801:1 21063:1 #
0.22604148279201571880570043049374 1086:1 1402:1 1444:1 2015:1 2131:2 4812:1 #
-0.18974635302307671369526076432521 666:1 841:1 1084:1 1156:1 1775:1 2182:1 5968:1 12597:1 #
-0.16889235503454949616219948893558 955:1 9738:1 10466:1 #
-0.22635836306257531291841189613478 620:1 1630:1 2780:1 5974:1 20730:1 #
-0.22635836306257531291841189613478 541:1 942:1 1549:1 4540:1 9994:1 #
0.22635836306257531291841189613478 702:1 1569:1 5945:1 #
0.14495793609682319780240788986703 299:1 1098:1 1458:1 2418:1 2939:1 2970:1 4331:1 5799:1 6105:1 6818:1 9662:1 13719:1 13949:1 17516:1 22521:1 23562:1 25093:1 #
0.22635836306257531291841189613478 394:1 1004:1 11084:1 12569:1 #
-0.22635836306257531291841189613478 #
0.014579452044495611745533736325342 107:1 394:1 1317:1 2277:1 2588:1 3144:1 6033:1 7133:1 8042:1 11147:1 11780:1 13541:1 #
-0.22635836306257531291841189613478 33:1 365:1 1775:1 1922:1 #
-0.22635836306257531291841189613478 3075:1 3768:1 #
-0.10207364274792808667147170353928 263:1 344:1 801:1 1930:1 2107:1 2447:1 3351:1 4091:1 4698:1 6273:1 11270:1 11271:1 #
0.22635836306257531291841189613478 1309:1 2608:1 3165:1 4181:1 #
0.22635836306257531291841189613478 431:1 541:1 6053:1 8017:1 9994:1 #
0.22635836306257531291841189613478 530:1 838:1 841:1 2182:1 8223:1 #
0.22635836306257531291841189613478 567:1 858:1 1199:1 1712:1 1823:1 2434:1 3341:1 #
0.22635836306257531291841189613478 151:2 223:1 729:1 1788:1 2583:1 2687:1 2792:1 2919:1 4804:1 #
-0.22635836306257531291841189613478 841:1 1337:1 2584:1 9034:1 #
-0.22635836306257531291841189613478 151:1 982:1 3467:1 8713:1 25595:1 #
-0.22635836306257531291841189613478 564:1 1915:1 3528:1 9667:1 #
-0.22635836306257531291841189613478 2069:1 2516:1 2720:2 3195:1 3250:1 4412:1 5292:1 14326:1 20199:1 24881:1 #
0.19726511464228688175204240451421 325:1 805:1 965:1 1271:1 2719:1 3075:2 4526:1 #
0.22635836306257531291841189613478 365:1 482:1 2201:1 4366:1 #
0.22635836306257531291841189613478 696:1 1320:1 1356:1 3763:1 4734:1 20730:1 #
0.22635836306257531291841189613478 462:1 465:1 895:1 984:1 1549:1 2253:1 2791:1 5213:1 7211:2 7439:1 9713:1 #
0.21442308848089969286476730303548 520:1 1225:1 1434:1 1453:1 1741:1 2316:1 2364:1 12671:1 #
-0.22635836306257531291841189613478 1330:1 3311:1 5809:1 10585:1 #
0.22635836306257531291841189613478 229:1 243:1 813:1 1819:1 1951:1 3810:1 5813:2 8713:1 #
0.22635836306257531291841189613478 1102:2 3503:1 3767:1 7571:1 8821:1 #
0.22635836306257531291841189613478 468:1 966:1 1421:1 1448:1 1519:1 1736:1 1793:1 2478:1 2646:1 3673:1 9808:1 10675:1 11967:1 #
-0.089014521071694718834521609096555 15850:1 #
0.22635836306257531291841189613478 368:1 654:1 719:1 5500:1 8447:1 #
-0.089889568302051220394233155275288 807:1 1061:1 1393:1 2451:1 4237:1 5401:1 8556:1 9779:1 #
-0.22635836306257531291841189613478 680:1 1189:1 1201:1 1892:1 2253:1 2424:1 2567:1 2846:1 4683:1 13514:1 #
-0.20428946519418744731666492953082 503:1 1257:1 2117:1 3004:1 3385:1 4654:1 18480:1 #
-0.22635836306257531291841189613478 521:1 2117:1 3674:1 4089:1 #
-0.22635836306257531291841189613478 394:1 1427:1 1921:1 3077:1 4495:1 12729:1 #
0.22635836306257531291841189613478 1099:1 3402:1 4668:1 8329:1 10311:1 13827:1 18727:1 #
0.22635836306257531291841189613478 379:1 668:1 824:1 1228:1 3143:1 15743:1 #
0.22635836306257531291841189613478 242:1 1775:1 #
0.20346263799216060541574790931918 65:1 324:1 423:1 499:1 3771:1 4175:1 5743:1 6403:1 #
-0.22635836306257531291841189613478 375:1 590:1 944:1 1403:1 3402:1 6411:1 8140:1 9671:1 #
-0.22635836306257531291841189613478 96:1 1086:1 2235:1 3146:1 #
0.22635836306257531291841189613478 632:1 931:1 1266:1 1983:1 2567:1 2824:1 4288:1 7352:1 20988:1 #
0.22635836306257531291841189613478 268:1 849:1 1392:1 2633:1 3311:1 4569:1 20449:1 #
0.22635836306257531291841189613478 7273:1 8052:1 #
0.22635836306257531291841189613478 151:1 767:1 815:1 983:1 1189:1 1441:1 2104:1 2914:1 3186:1 4382:1 #
-0.22635836306257531291841189613478 #
0.22635836306257531291841189613478 375:2 447:1 648:1 650:1 1403:1 2041:1 8140:1 24290:1 #
-0.22635836306257531291841189613478 1161:1 1249:1 1585:1 2239:1 2724:1 #
-0.22635836306257531291841189613478 1180:2 2085:1 #
-0.22635836306257531291841189613478 368:1 541:1 993:1 1340:1 1341:1 5355:1 #
0.22635836306257531291841189613478 2104:1 2405:1 #
-0.22635836306257531291841189613478 471:1 3054:1 4562:1 #
0.22635836306257531291841189613478 594:1 633:1 1642:1 #
0.22635836306257531291841189613478 234:2 729:1 1327:1 1393:1 1576:1 1819:1 1824:1 2209:1 3136:1 3317:1 3422:1 8076:1 16759:1 18772:1 #
0.22635836306257531291841189613478 24:1 835:1 1141:1 2735:1 2894:1 3008:1 5787:1 #
-0.22635836306257531291841189613478 234:1 667:1 840:1 1219:1 1402:1 1712:1 1733:1 1793:1 4106:1 5929:1 8103:1 8376:1 8377:1 8378:1 8379:1 #
-0.22635836306257531291841189613478 #
0.22635836306257531291841189613478 555:1 841:1 1952:1 2239:1 4112:1 #
-0.22635836306257531291841189613478 #
0.22635836306257531291841189613478 1180:1 4091:2 #
0.1761963185847170709763531704084 649:1 923:1 944:1 1427:1 2479:1 2689:1 2786:1 3442:1 #
-0.22635836306257531291841189613478 1141:1 1952:1 2360:1 10818:1 #
-0.22635836306257531291841189613478 1468:1 2651:1 2786:1 4461:1 #
-0.22635836306257531291841189613478 923:1 983:1 1095:1 1315:1 2097:1 #
-0.14375774388813478132931322761578 190:1 2316:1 3726:1 3805:1 19735:1 #
-0.22635836306257531291841189613478 851:1 1136:1 3524:1 5062:1 #
-0.22635836306257531291841189613478 #
0.22635836306257531291841189613478 416:1 788:1 1312:1 1504:1 1733:1 2340:1 3514:1 4214:1 4540:1 #
0.0053278527364764641238714659721154 341:1 553:1 667:1 982:1 1001:1 1470:1 1700:1 2257:1 4515:1 5209:1 16438:1 20506:1 #
0.22635836306257531291841189613478 507:1 982:1 8140:1 19831:1 24275:1 #
0.22635836306257531291841189613478 815:1 2015:1 2544:1 4715:1 18003:1 #
-0.22635836306257531291841189613478 262:1 433:1 3633:1 8633:1 19061:1 20506:2 #
-0.22635836306257531291841189613478 332:1 334:1 802:1 1073:1 1309:1 1565:1 1592:1 2878:1 5259:1 7050:1 8863:1 #
-0.15956710819054181760279220725351 982:1 3140:1 3679:1 4704:1 10600:1 #
-0.22635836306257531291841189613478 519:1 823:1 1616:1 1917:1 7033:1 #
0.19221157190619317378654784533865 22:1 178:1 219:1 1813:1 2277:1 2786:1 5000:1 5001:1 #
0.22635836306257531291841189613478 331:1 926:1 1663:1 2873:1 3331:1 5727:1 #
0.22635836306257531291841189613478 460:1 502:1 564:1 953:1 1062:1 1362:1 1564:1 1867:1 2316:1 4072:1 4074:1 4075:1 #
0.22635836306257531291841189613478 178:1 644:1 777:2 1134:1 1151:1 1985:1 #
0.22635836306257531291841189613478 547:1 550:1 758:1 3110:1 3309:2 #
-0.22635836306257531291841189613478 5:1 1238:1 1470:1 1507:1 1899:1 3202:1 5001:1 9069:1 #
-0.22635836306257531291841189613478 698:1 947:1 1813:1 10784:1 11355:1 13392:1 #
0.22635836306257531291841189613478 433:1 737:2 746:1 2630:1 3173:1 4517:1 9775:1 #
0.22635836306257531291841189613478 896:1 1042:1 #
0.22635836306257531291841189613478 525:1 2951:1 3441:1 #
-0.095883335150762000198554346752644 3381:1 11687:1 11688:1 #
0.22635836306257531291841189613478 37:1 1340:1 1341:1 1529:1 4275:1 4462:1 7679:1 #
-0.22635836306257531291841189613478 224:1 354:2 895:2 896:2 2743:2 3442:2 #
-0.22635836306257531291841189613478 581:1 648:1 737:1 759:1 1214:1 1402:1 1504:1 1951:1 3192:1 4347:1 #
-0.22635836306257531291841189613478 173:1 550:1 1435:1 3128:1 #
-0.22635836306257531291841189613478 389:1 401:1 737:1 982:1 987:1 1831:1 3624:1 5546:1 20206:1 #
0.22635836306257531291841189613478 345:1 1246:1 1899:1 3156:1 4089:1 #
0.086205444741713446732411796347151 197:1 211:1 1109:2 1899:1 2273:1 2899:1 7012:1 8945:1 #
0.15918231310392738642178755981149 337:1 1549:1 1773:1 1899:1 2011:1 2774:1 3033:1 6578:1 6763:1 7050:1 13630:1 14263:1 14800:1 16693:1 19571:1 19572:1 #
0.22635836306257531291841189613478 843:1 986:1 1147:1 1309:1 1915:1 3165:1 #
0.22635836306257531291841189613478 262:1 947:1 2086:1 10784:1 #
-0.22635836306257531291841189613478 211:1 297:1 992:1 1546:1 1724:1 1820:1 6862:1 6883:1 10391:1 #
-0.22635836306257531291841189613478 336:1 521:1 1157:1 8263:1 #
-0.22635836306257531291841189613478 941:1 1001:1 1060:1 3950:1 4378:1 #
0.1194150359913564579672495824525 80:1 382:1 389:1 394:1 581:1 1095:1 1252:1 2237:1 2317:1 5648:1 6252:1 6810:1 #
0.20039303993257470692945787504868 719:1 924:1 1209:1 1423:1 2660:1 3660:1 4447:1 12521:1 #
0.22635836306257531291841189613478 168:1 581:1 3673:1 3674:1 #
0.22635836306257531291841189613478 1642:1 2261:1 2572:1 #
-0.22635836306257531291841189613478 677:1 1149:1 1208:1 1426:1 1447:1 1819:1 4707:1 7911:1 8266:2 19928:1 #
-0.22635836306257531291841189613478 544:1 858:1 979:1 2847:1 4836:1 5673:1 #
-0.22441890634952851857342182029242 610:2 1155:1 5432:1 21112:2 #
-0.22635836306257531291841189613478 188:1 2391:1 2908:1 10979:1 19016:1 #
-0.22635836306257531291841189613478 482:1 #
0.22635836306257531291841189613478 184:1 336:1 712:1 2945:1 4461:1 5575:1 8633:1 12155:1 12156:1 #
0.20102788609417501786147397524473 255:3 946:1 1642:1 1867:1 2052:1 2297:1 7010:1 #
0.043583332643390926275372976306244 309:1 387:1 567:1 737:1 1170:1 1393:1 1609:1 2839:1 3408:1 5145:1 10043:1 10044:1 #
-0.074003284792852036533261639306147 470:1 581:1 1170:1 2320:1 3016:1 3637:1 3687:1 4887:1 7200:2 #
-0.22635836306257531291841189613478 375:1 770:1 986:1 1393:1 1443:1 2529:1 2627:1 #
-0.22635836306257531291841189613478 1919:1 2064:1 4194:1 9802:1 10043:1 18242:1 #
0.22635836306257531291841189613478 468:1 504:2 544:1 620:1 1238:1 1804:1 4295:1 5608:1 6849:1 #
0.22635836306257531291841189613478 544:1 1461:1 1621:1 3128:1 #
0.073617244957103505909046248234517 5:1 743:1 1943:1 2642:1 5810:1 8726:1 #
0.22635836306257531291841189613478 1402:1 2173:1 3428:1 3624:1 4687:1 20362:1 25279:1 #
-0.012987974851735972769972704554675 1977:1 #
-0.22635836306257531291841189613478 5:1 61:1 792:1 2970:1 4239:1 4780:1 5304:1 10478:1 #
-0.22635836306257531291841189613478 5:2 211:1 431:1 562:1 865:1 934:1 9234:1 11255:1 17805:1 #
-0.18809450501046595660703530938918 187:1 1375:1 15252:1 19457:1 #
-0.22635836306257531291841189613478 447:1 1340:1 1341:1 1354:1 2030:1 4156:1 8083:1 24595:2 #
-0.22635836306257531291841189613478 585:1 1165:1 2912:1 18291:1 #
0.062574292503320985692205624673079 375:2 1193:1 1515:1 3522:1 5957:1 15326:1 #
0.22635836306257531291841189613478 95:1 375:2 1972:1 4065:1 5867:1 8942:1 11265:1 18895:1 #
0.22635836306257531291841189613478 770:1 982:1 983:1 1758:1 3146:1 #
-0.22635836306257531291841189613478 #
-0.22635836306257531291841189613478 #
-0.22635836306257531291841189613478 666:1 770:1 982:1 1066:1 1307:1 1327:1 1422:1 4034:1 6157:1 #
-0.22635836306257531291841189613478 712:1 #
0.22635836306257531291841189613478 211:1 1592:1 1723:1 1724:1 1725:1 #
0.22635836306257531291841189613478 354:1 648:1 998:1 1630:1 1831:1 1941:1 #
0.22635836306257531291841189613478 917:1 1381:1 2785:1 #
0.029194547516806911013897973816711 1136:2 2328:1 2584:1 10798:1 #
-0.22635836306257531291841189613478 #
-0.22635836306257531291841189613478 801:1 920:1 1331:1 1519:1 1725:1 2103:1 3451:1 8073:1 #
-0.22635836306257531291841189613478 648:1 1156:1 1945:1 2722:1 3612:1 9349:1 #
-0.22635836306257531291841189613478 841:1 934:1 2355:1 3600:1 4879:1 6252:1 7099:1 8863:1 9366:1 10023:1 14982:1 20365:1 23227:1 23229:1 #
-0.22635836306257531291841189613478 841:1 1620:1 2629:1 #
-0.22635836306257531291841189613478 586:1 #
0.1089413658846534460611366057492 982:1 2064:1 3100:2 3435:1 3805:1 13673:2 #
-0.05940681765081939902373164841265 468:1 502:1 #
0.065579692974905956504017012775876 779:1 982:1 1157:1 2854:1 3557:1 4884:1 10777:1 16056:1 17546:1 #
0.090303021130685071082844217471575 223:2 656:1 698:1 2687:1 4350:1 10584:2 10585:2 #
-0.22635836306257531291841189613478 22:1 953:1 1442:1 2027:1 11574:1 #
-0.22635836306257531291841189613478 338:1 447:1 955:1 1166:1 1456:1 2732:1 #
0.22635836306257531291841189613478 353:1 640:1 666:1 895:1 1095:1 2602:1 3237:1 4717:1 4718:1 #
0.22635836306257531291841189613478 666:1 923:1 1086:1 1540:1 5768:1 5769:1 5770:1 #
-0.054019176615497398186160893374108 151:1 1674:1 2970:1 6256:1 6257:1 #
0.22635836306257531291841189613478 1393:1 2370:1 2371:1 #
0.22635836306257531291841189613478 271:1 1390:2 2990:2 6711:1 8788:1 #
-0.22635836306257531291841189613478 382:1 1329:1 1597:1 2108:1 4138:1 4718:1 6711:1 8507:1 #
-0.22635836306257531291841189613478 95:1 783:1 3696:1 5882:1 14917:2 #
-0.22635836306257531291841189613478 898:2 1835:1 #
-0.22635836306257531291841189613478 1654:3 #
0.0647772469166684322638971593733 1442:2 1983:2 #
0.082674144486968248468627962211031 667:1 763:1 801:1 1068:1 1442:1 1565:1 3117:1 5257:1 5538:1 5934:1 14389:1 #
0.20961445150712121332503556914162 80:1 279:1 389:1 799:1 1358:1 2258:1 3373:1 4062:1 4106:1 6447:1 7449:1 #
0.22635836306257531291841189613478 447:1 1340:1 1341:1 2236:1 4766:1 8083:1 13816:1 #
-0.13652862361507550614803108146589 982:1 3910:1 #
-0.22635836306257531291841189613478 279:1 1291:1 1891:1 #
0.22635836306257531291841189613478 585:1 719:1 1165:1 1166:1 1167:1 1168:1 1169:1 #
0.22635836306257531291841189613478 953:1 993:1 2627:1 5311:1 5312:1 5313:1 #
0.22635836306257531291841189613478 921:1 2121:1 8266:1 8507:1 #
-0.22635836306257531291841189613478 5:1 327:1 408:1 533:1 553:1 607:1 788:1 1313:1 2121:1 6885:1 7432:1 #
-0.18462381360687923903540763603814 112:1 719:2 835:1 1012:1 5119:1 5120:1 5121:2 #
0.023094573342327465170775724345731 22:1 190:1 491:1 1291:1 1519:1 2731:1 3765:1 7837:1 10283:1 16116:1 #
0.22635836306257531291841189613478 5:1 841:1 895:1 1338:1 1988:1 #
0.22635836306257531291841189613478 350:1 897:1 955:1 1358:1 2637:1 2933:1 #
-0.22635836306257531291841189613478 1098:1 #
-0.22635836306257531291841189613478 242:1 1125:1 1338:1 4660:1 #
-0.22635836306257531291841189613478 306:1 886:1 2146:1 12385:1 17538:1 #
0.22635836306257531291841189613478 801:1 986:1 1428:1 1652:2 2121:1 3950:2 13937:1 #
0.22635836306257531291841189613478 408:1 679:1 2691:1 3696:1 3792:1 3994:1 3996:1 #
0.15139528628935217113848921144381 553:1 656:1 751:1 905:1 2084:1 2786:1 3439:1 #
0.22635836306257531291841189613478 533:1 833:1 848:1 1390:1 2068:1 2233:1 3957:1 5275:1 5809:1 #
-0.22443785904894228422357116414787 1664:1 1718:1 1831:1 2478:1 2691:1 5065:1 12526:1 13267:1 18067:1 #
-0.22635836306257531291841189613478 255:1 438:1 751:1 1614:1 1947:1 1955:1 2731:1 3439:1 4349:1 12446:1 #
-0.22635836306257531291841189613478 544:2 1699:1 2341:1 #
0.22635836306257531291841189613478 923:1 1125:2 1648:1 8350:1 15764:1 16137:1 #
0.22635836306257531291841189613478 755:1 1125:1 1476:1 2427:1 13789:1 #
0.22635836306257531291841189613478 938:1 1751:1 2320:1 2432:1 4053:1 13392:1 #
0.22635836306257531291841189613478 835:2 1125:1 1470:1 15341:1 15450:1 #
0.023182035772847435495247481185288 37:1 544:1 1393:1 1406:1 1408:1 4111:1 5213:1 #
0.10123785767301290983155581670871 385:1 722:1 1921:1 2069:1 2131:1 3415:1 4340:1 #
-0.22635836306257531291841189613478 207:1 381:1 792:1 1470:1 19093:1 #
-0.22635836306257531291841189613478 262:1 502:1 550:1 594:1 1219:1 1607:1 2512:1 3250:1 5177:1 10529:1 #
0.11382462757172062683963531526388 1099:1 1228:1 4654:1 9031:1 9671:1 #
0.22635836306257531291841189613478 471:1 544:1 1835:1 1886:1 #
0.22635836306257531291841189613478 763:1 936:1 970:1 1084:1 3861:1 5945:1 6642:1 #
0.22635836306257531291841189613478 259:1 544:1 #
0.18660429043459098030766085685173 840:1 1617:1 1664:1 1983:1 2253:1 2254:1 2255:1 #
-0.22635836306257531291841189613478 70:1 259:1 833:1 1172:1 2642:1 3119:1 #
-0.22635836306257531291841189613478 1084:1 2587:1 2650:1 13628:1 #
-0.22635836306257531291841189613478 2253:1 2867:1 22738:1 #
-0.22635836306257531291841189613478 2948:1 3283:1 4462:1 10784:1 #
0.14305138398602806892867533861136 207:2 4036:2 4200:2 7913:2 #
0.22635836306257531291841189613478 95:1 550:2 665:1 1274:1 2117:1 3866:2 4326:1 8655:1 #
0.19751918337872012565448187615402 291:1 730:1 790:1 1028:1 2506:1 2512:1 2743:1 4709:1 5974:1 6678:1 7351:1 8081:1 8862:1 9064:1 9066:1 #
0.22635836306257531291841189613478 116:1 207:1 813:1 932:1 2277:1 2360:1 9326:1 #
0.22635836306257531291841189613478 550:1 3329:1 #
-0.22635836306257531291841189613478 #
0.22635836306257531291841189613478 541:1 1523:1 1758:1 5355:1 #
0.22635836306257531291841189613478 2188:1 9117:1 25259:1 #
0.22635836306257531291841189613478 594:1 986:1 1018:1 1470:1 1585:1 #
0.22635836306257531291841189613478 1315:1 1546:1 2257:1 5103:1 5565:1 8590:1 8591:1 #
0.22635836306257531291841189613478 1106:1 2085:1 2104:1 2225:1 2322:1 5065:2 #
-0.054376581397718892763037956683547 4873:1 11357:1 #
-0.22635836306257531291841189613478 2679:1 4453:1 11889:1 #
0.22635836306257531291841189613478 354:1 369:1 987:1 4087:1 4250:1 4405:1 6591:1 #
0.22635836306257531291841189613478 65:1 247:1 391:1 2743:1 4349:1 8073:1 #
0.22635836306257531291841189613478 1243:1 1654:1 2277:1 3894:1 14987:1 #
0.22635836306257531291841189613478 354:1 633:1 1337:1 13097:1 21750:2 #
-0.078125697073977096174246526061324 961:1 1110:1 1161:1 2239:1 2361:1 15919:1 #
-0.22635836306257531291841189613478 37:1 844:1 1047:1 1062:1 1773:1 6171:1 14041:1 14045:1 #
0.22635836306257531291841189613478 231:1 332:1 1398:1 1951:1 2649:1 2650:1 #
-0.22635836306257531291841189613478 #
-0.22635836306257531291841189613478 #
0.091907067214173188141046466625994 262:1 562:1 1307:1 1358:1 2510:1 2616:1 3279:1 5408:1 5550:1 8522:1 10065:1 #
0.22635836306257531291841189613478 335:1 1104:2 1775:1 2085:1 #
-0.22635836306257531291841189613478 231:1 332:1 544:1 655:1 783:2 2140:1 2227:1 2237:1 2370:1 2571:1 #
-0.22635836306257531291841189613478 663:1 1398:1 2694:1 4685:1 5384:1 5624:1 #
0.22635836306257531291841189613478 699:1 4664:1 6171:1 7373:1 7621:1 #
0.22635836306257531291841189613478 109:2 1497:1 2214:2 20466:2 #
-0.22635836306257531291841189613478 2413:1 8272:1 #
-0.047641425528886956197727187145574 982:1 983:1 1101:1 1830:1 1921:1 2316:2 4283:1 4973:1 #
-0.22635836306257531291841189613478 851:1 1189:1 1661:2 #
-0.22635836306257531291841189613478 730:1 1141:1 1325:1 1668:1 3940:1 4263:1 #
0.22635836306257531291841189613478 783:1 2157:1 2424:1 4683:1 5180:1 5181:1 5871:1 8514:1 #
-0.22635836306257531291841189613478 #
0.22635836306257531291841189613478 1208:1 1654:1 2644:1 2922:1 3213:1 4009:1 5384:1 #
0.18883596794191098711124254805327 816:2 1122:1 1281:1 2239:1 2732:1 6273:1 13553:1 #
0.20754050512106428372227640011261 1060:1 1440:1 1863:1 2313:1 9229:1 #
-0.22635836306257531291841189613478 524:1 955:1 1130:1 1443:1 1954:1 1963:1 3213:1 9790:1 #
-0.22635836306257531291841189613478 775:1 1515:1 2424:1 8139:1 8140:1 #
-0.078004508632853450378341619853018 1359:1 1594:1 2505:1 5189:1 7856:1 10211:1 12426:1 13488:1 21398:1 #
-0.22312483332658211709897955188353 640:1 930:1 1663:1 2651:1 10053:1 #
-0.22635836306257531291841189613478 206:1 875:1 877:1 878:1 880:1 881:1 882:1 #
0.22635836306257531291841189613478 354:1 1006:1 1661:1 2149:1 2691:1 3270:1 5054:1 #
-0.22635836306257531291841189613478 #
-0.012032965706414572304439047911728 222:1 1448:1 6412:1 12385:1 #
0.22635836306257531291841189613478 804:1 2694:1 3940:1 11817:1 #
-0.22635836306257531291841189613478 160:1 256:1 665:1 1084:1 1668:1 3773:1 #
-0.22635836306257531291841189613478 196:1 292:1 506:1 804:1 2117:1 14912:1 #
-0.22635836306257531291841189613478 256:1 464:1 465:1 2174:1 #
0.034972501289004351288092209415481 471:1 547:1 566:1 585:1 719:1 770:1 2117:1 #
0.126721557255648570317063672519 257:1 930:2 3710:1 7841:2 #
0.086895265313760336467474587607285 234:1 775:1 987:1 1562:1 3161:1 4778:1 16192:1 #
0.005512456468939299497611372657957 242:1 930:1 1189:1 6427:1 7372:1 8588:1 13288:1 #
0.016195171717612359685301015588266 11:1 101:1 491:1 763:1 770:1 875:1 881:1 944:1 1642:1 1813:1 16115:1 17193:1 #
-0.22635836306257531291841189613478 930:1 1111:1 9522:1 9523:1 9524:1 #
-0.22635836306257531291841189613478 944:1 4091:1 6691:1 19033:1 #
-0.22635836306257531291841189613478 247:1 470:1 1189:1 3279:1 3315:1 4515:1 8119:1 8270:1 #
-0.22635836306257531291841189613478 967:1 2652:1 #
0.22635836306257531291841189613478 464:1 465:1 1426:1 3597:1 4121:1 9473:1 10600:1 12321:1 #
0.1640157800662922493728501649457 256:1 780:1 1219:1 1915:1 2633:1 7182:1 #
0.22635836306257531291841189613478 256:1 701:2 1270:1 #
0.22635836306257531291841189613478 972:1 1146:1 1310:1 1952:1 1953:1 1954:1 #
-0.19656681919073984432522195220372 256:1 1346:1 3963:1 3964:1 3965:1 3966:1 #
0.22635836306257531291841189613478 1281:1 1782:1 #
0.22635836306257531291841189613478 69:1 983:1 1291:1 1405:1 2015:1 9069:1 #
0.22635836306257531291841189613478 196:1 551:1 2117:1 2227:1 2706:1 #
0.22635836306257531291841189613478 334:1 553:1 1320:1 1944:1 2420:1 2490:1 #
-0.22635836306257531291841189613478 416:1 1324:1 1424:1 1425:1 1426:1 #
-0.22635836306257531291841189613478 222:1 812:1 1068:1 1425:1 1952:1 2107:1 4470:1 7589:1 #
-0.22635836306257531291841189613478 #
-0.22635836306257531291841189613478 22:1 1952:1 8081:1 #
0.22635836306257531291841189613478 405:1 1377:1 1408:1 2028:1 2468:1 2972:1 4707:1 4804:1 5103:1 6088:1 18889:1 #
0.22635836306257531291841189613478 338:1 344:1 937:1 1062:1 1491:1 1702:1 8083:1 8157:1 13075:1 #
0.22635836306257531291841189613478 356:1 637:1 1055:1 2108:1 2635:1 4313:1 #
0.22635836306257531291841189613478 405:1 748:1 777:1 1329:1 3335:1 #
-0.22635836306257531291841189613478 332:1 356:1 581:1 770:1 3146:1 14715:1 #
-0.22635836306257531291841189613478 #
-0.22635836306257531291841189613478 507:1 1180:1 2732:1 5275:1 #
-0.22635836306257531291841189613478 656:1 864:1 1006:1 1249:1 6657:1 14279:1 #
0.22635836306257531291841189613478 1179:1 4553:1 23027:1 23762:1 #
0.22635836306257531291841189613478 759:1 1084:1 1095:1 1592:1 #
0.076913185843745263126081113114196 276:1 1061:1 1581:1 2370:1 3402:1 4080:1 5220:1 #
-0.1200396710141271722216416151241 129:1 293:1 940:1 1095:1 3768:1 5172:1 #
-0.22635836306257531291841189613478 242:1 759:1 4955:1 #
-0.22635836306257531291841189613478 1546:1 2500:1 3198:1 #
0.22635836306257531291841189613478 332:2 #
0.22635836306257531291841189613478 394:1 770:2 881:1 #
0.22635836306257531291841189613478 332:1 980:1 1062:1 1309:1 2706:1 4633:1 6376:1 9071:1 10393:1 #
0.057559616788199499670675152174226 380:1 719:1 930:1 2279:1 2973:1 3662:1 3945:1 4284:1 7050:1 20566:1 #
-0.22635836306257531291841189613478 394:1 1293:1 6789:1 #
0.22635836306257531291841189613478 268:1 468:1 1003:1 3077:1 3198:1 5925:1 9794:1 #
-0.22635836306257531291841189613478 #
0.19699190133068442132291409052414 112:1 648:1 1821:1 1822:1 #
0.22635836306257531291841189613478 4057:1 #
0.19333415450773827615194022655487 504:1 506:2 544:2 3119:1 6852:1 #
-0.033828530774642678879970958405465 897:1 1072:1 1436:1 2731:1 4299:1 4382:1 4540:1 #
0.19501106974733434240576457341376 783:1 846:1 2112:1 9654:1 20508:2 #
0.050424714997898613388915833866122 391:1 616:1 617:1 649:1 840:1 2024:1 2651:1 2652:1 2653:1 2654:1 2655:1 #
-0.22635836306257531291841189613478 617:1 1468:1 #
-0.22635836306257531291841189613478 161:1 1173:1 2488:1 #
-0.22635836306257531291841189613478 262:1 341:1 1291:1 1436:1 1685:1 1775:1 1823:1 #
-0.22635836306257531291841189613478 141:1 1291:1 1356:1 1423:1 #
0.22468668372486147455369120962132 519:1 953:1 1172:1 1741:1 1977:1 6311:1 #
0.15421909684405626927983234963904 338:1 567:1 875:1 1166:1 1422:1 1434:1 5259:1 #
0.22635836306257531291841189613478 385:1 1338:1 1339:1 2042:1 2878:1 6378:1 #
0.070095030499699326198559390377341 22:1 1075:2 1313:1 1721:1 2454:1 5459:1 7562:1 11681:1 12884:1 #
0.22635836306257531291841189613478 16:1 1381:1 1673:2 1718:1 1775:1 4728:1 5005:1 5100:1 #
0.22635836306257531291841189613478 1444:1 1741:1 2403:1 #
0.22635836306257531291841189613478 420:1 1291:1 2445:1 4654:1 9994:1 16090:1 #
0.22635836306257531291841189613478 424:1 832:1 #
0.22635836306257531291841189613478 2201:1 2994:1 4384:1 9876:3 10086:1 #
-0.22635836306257531291841189613478 813:1 983:1 1312:1 1952:1 #
0.22635836306257531291841189613478 737:1 915:1 933:1 1231:1 1232:1 1422:1 4923:1 5616:1 7445:1 8505:1 #
0.22635836306257531291841189613478 231:1 649:1 759:1 1086:1 1928:1 4275:1 #
0.22635836306257531291841189613478 378:1 2146:1 6231:1 9261:1 #
0.22635836306257531291841189613478 1427:1 1986:1 2964:1 10742:1 10967:1 #
0.22635836306257531291841189613478 1423:1 1558:1 2991:1 21081:1 #
0.016875217173001652581909581840591 1364:1 3897:1 4549:1 #
0.22635836306257531291841189613478 757:1 3229:1 8670:1 #
0.058157678315987608452797275049306 533:1 805:1 1249:1 5913:1 6849:1 7486:1 #
0.22635836306257531291841189613478 2609:1 4639:1 5579:2 6625:1 22430:1 #
-0.22635836306257531291841189613478 737:1 2272:1 6233:1 8978:1 #
-0.22635836306257531291841189613478 95:1 2785:1 5809:1 #
-0.22635836306257531291841189613478 263:1 801:1 4429:1 7050:1 #
0.22635836306257531291841189613478 151:1 648:1 1443:1 1453:1 1952:1 4462:1 10530:1 #
0.22635836306257531291841189613478 607:1 1515:1 6285:1 23430:1 #
0.13668429045806887445202448816417 368:1 853:1 947:1 1001:1 1060:1 1952:1 2642:1 3110:1 6303:1 6305:1 6306:1 #
-0.22635836306257531291841189613478 1473:1 1952:1 #
-0.22635836306257531291841189613478 6724:1 18667:1 #
0.22635836306257531291841189613478 89:1 394:1 864:1 1291:1 2199:1 2272:1 7094:1 #
0.22635836306257531291841189613478 719:1 777:1 1425:1 #
0.22635836306257531291841189613478 737:1 3883:1 5669:1 22738:1 #
0.22635836306257531291841189613478 107:1 137:1 650:1 807:1 2514:1 #
-0.22635836306257531291841189613478 89:1 222:1 224:1 947:1 1062:1 12574:1 #
-0.22635836306257531291841189613478 368:1 930:1 1111:1 1460:1 7580:1 12475:1 #
0.22635836306257531291841189613478 530:1 581:1 1952:1 6682:1 12886:1 12887:1 #
0.22635836306257531291841189613478 336:1 944:1 980:1 1939:1 #
0.22635836306257531291841189613478 327:1 470:1 667:1 1952:1 3842:1 17627:1 #
-0.22635836306257531291841189613478 853:1 1189:1 1939:1 5049:1 #
-0.22635836306257531291841189613478 1189:1 1939:1 3036:1 3096:1 11035:1 23101:1 #
-0.22635836306257531291841189613478 581:1 2287:1 #
-0.22635836306257531291841189613478 719:1 1956:1 7854:1 9671:1 #
0.21947658773771433482480119891989 930:1 1214:1 1307:1 1312:1 1377:1 1840:1 2239:1 4642:1 4879:1 9016:1 9387:1 #
0.22635836306257531291841189613478 207:1 1460:1 19033:1 #
0.22635836306257531291841189613478 2121:1 3315:1 3631:1 8978:1 18020:1 #
0.22635836306257531291841189613478 970:1 1126:1 2316:1 2745:1 4170:1 5324:1 9696:1 17770:1 18215:1 #
0.22635836306257531291841189613478 224:1 447:1 1033:1 1451:1 1983:1 2731:1 6611:1 7589:1 18044:1 #
-0.22635836306257531291841189613478 394:1 550:1 1643:1 2121:1 2560:1 2642:1 4584:1 #
-0.22635836306257531291841189613478 207:1 1048:1 19033:1 #
-0.22635836306257531291841189613478 2239:1 2516:1 2798:1 #
-0.0040583814503089010727876484452281 533:1 #
0.22635836306257531291841189613478 1001:1 1062:1 1140:1 1189:1 1813:1 1939:1 5946:1 6124:1 9839:1 #
0.22635836306257531291841189613478 1189:1 2355:1 3834:1 3980:1 4347:1 #
0.22635836306257531291841189613478 811:1 1174:1 9671:1 #
0.22635836306257531291841189613478 665:1 987:1 2651:1 6716:1 8959:1 11958:1 18481:1 #
-0.22635836306257531291841189613478 37:1 1272:1 1436:1 1915:1 3187:1 3440:1 4347:1 9879:1 #
0.22635836306257531291841189613478 301:1 347:1 356:1 2505:1 4364:1 4683:1 11581:1 14528:1 #
0.22635836306257531291841189613478 70:1 898:1 1201:1 2328:1 14316:1 #
0.22635836306257531291841189613478 2560:1 2732:1 6111:1 15765:1 22515:1 #
0.12860461660244043580192396802886 89:1 851:1 1890:1 3605:1 7570:1 11914:1 #
0.21535873227631985304952877413598 693:1 740:1 792:1 915:1 1361:1 2272:1 #
-0.22635836306257531291841189613478 792:1 1482:1 2643:1 7863:1 #
-0.20850522673213811586379051732365 1098:1 1110:1 1585:1 2028:1 #
0.22635836306257531291841189613478 924:1 990:1 3187:1 6053:1 6065:1 10057:1 13459:1 #
0.22635836306257531291841189613478 905:1 6796:1 7561:1 11963:1 11964:1 #
0.22635836306257531291841189613478 448:1 581:1 1365:1 1547:1 #
0.22635836306257531291841189613478 939:1 1356:1 9994:1 11837:1 #
0.22635836306257531291841189613478 2516:1 3589:1 8642:1 #
-0.22635836306257531291841189613478 178:1 309:1 1365:1 1886:1 #
-0.22635836306257531291841189613478 377:1 677:1 7968:1 15905:1 #
-0.21230204599373239671145086049364 18:1 581:1 3775:1 #
-0.22635836306257531291841189613478 #
0.22635836306257531291841189613478 475:1 668:1 1291:1 1482:1 #
0.22635836306257531291841189613478 160:2 541:1 3040:2 #
-0.22635836306257531291841189613478 259:1 807:1 6958:1 #
0.22635836306257531291841189613478 18:1 1178:1 1963:1 3510:1 11352:1 14326:1 #
0.22635836306257531291841189613478 178:1 394:1 2629:1 3488:1 5087:1 5708:1 #
0.22635836306257531291841189613478 344:1 394:1 491:1 677:1 #
0.22635836306257531291841189613478 186:1 1281:1 2628:1 9802:1 20068:1 #
-0.026793828431448132865178024530906 394:1 928:1 2478:1 4460:1 4605:1 10057:1 10838:1 #
-0.22635836306257531291841189613478 186:1 2341:1 4860:1 7164:1 8052:1 10703:1 #
-0.22635836306257531291841189613478 186:1 247:1 662:1 2206:1 #
-0.22635836306257531291841189613478 186:1 737:1 986:1 #
0.22635836306257531291841189613478 829:1 830:1 1192:1 1831:1 3250:1 4742:1 7577:1 10174:1 11905:1 16731:1 16971:1 #
0.22635836306257531291841189613478 662:1 807:1 955:1 1313:1 1685:1 2277:1 5726:1 #
0.22635836306257531291841189613478 746:1 1141:1 6669:1 #
0.22635836306257531291841189613478 550:1 983:1 2153:1 2361:1 5195:1 6498:1 8008:1 9566:1 9567:1 #
-0.22635836306257531291841189613478 141:1 2331:1 #
-0.12788795734148847293987216744426 141:1 5444:1 6330:1 9493:1 13820:1 14400:1 #
-0.22635836306257531291841189613478 141:1 6333:1 #
-0.22635836306257531291841189613478 141:1 #
0.084461079705634600767183428615681 905:1 3683:1 4675:1 11270:1 11386:1 #
-0.088689569268212808950124781404156 7167:1 #
0.22635836306257531291841189613478 186:1 475:1 801:1 2628:1 #
0.22635836306257531291841189613478 186:1 1454:1 2628:1 4993:1 10157:1 15327:1 17655:1 #
-0.055100247548438070765985941079634 447:1 801:1 1333:1 1680:1 2355:1 2470:1 3250:1 3815:1 4300:1 4340:1 5683:1 #
-0.22635836306257531291841189613478 186:1 378:1 1718:1 3638:1 #
-0.22635836306257531291841189613478 550:1 1295:1 1331:1 2614:1 #
0.22635836306257531291841189613478 1365:1 5839:1 9524:1 #
0.09893920180283702348056351638661 2785:1 3084:1 3501:1 #
0.22635836306257531291841189613478 738:1 4844:1 6411:1 8052:1 #
-0.22635836306257531291841189613478 416:1 822:1 1304:1 1482:1 5447:1 9155:1 #
-0.11017102551484576899998302224049 577:1 1157:1 1672:1 4296:1 5732:1 8113:1 10174:1 11516:1 #
-0.22635836306257531291841189613478 173:1 544:1 #
0.22635836306257531291841189613478 840:1 1244:1 1648:1 1718:1 2028:1 6065:1 #
0.22635836306257531291841189613478 97:1 2121:1 3637:1 3638:1 3639:1 3640:1 #
0.22635836306257531291841189613478 378:1 717:1 1418:1 2379:1 4704:1 13907:1 #
-0.01332962151581174037318078262615 219:1 #
-0.22635836306257531291841189613478 221:1 882:1 3613:1 5673:1 #
0.058298712507788015557697036683749 564:1 822:2 3719:2 10563:2 #
0.037371124864762815531715745009933 173:1 231:1 313:1 1010:1 1260:1 2391:1 2921:1 3897:1 6673:1 11845:1 #
0.22635836306257531291841189613478 247:1 2328:1 3542:1 4112:1 4683:1 5665:1 9756:1 11436:1 #
-0.22635836306257531291841189613478 533:1 2097:1 #
0.22635836306257531291841189613478 844:1 981:1 1519:1 2271:1 8284:1 8863:1 #
0.22635836306257531291841189613478 3250:1 5355:1 18195:1 18198:1 #
0.1746889481383818720772183041845 627:1 763:1 2934:1 3529:1 14446:1 14447:1 14448:1 #
-0.22635836306257531291841189613478 841:1 9366:1 9994:1 #
-0.22635836306257531291841189613478 216:1 321:1 354:1 887:1 #
-0.22635836306257531291841189613478 2468:1 3097:1 #
0.22635836306257531291841189613478 2097:1 19033:1 #
0.22635836306257531291841189613478 178:1 533:1 1733:1 4887:1 9895:1 18062:1 18067:1 #
0.22635836306257531291841189613478 3081:1 3343:1 3600:1 5424:1 #
0.12628639601934948943906533713744 336:1 1482:2 2544:1 8996:1 13571:1 #
-0.22635836306257531291841189613478 533:1 2097:1 #
-0.22635836306257531291841189613478 610:1 662:1 9524:1 #
-0.22635836306257531291841189613478 1230:1 1315:1 1429:1 11814:1 #
-0.22635836306257531291841189613478 96:1 1506:1 #
-0.22635836306257531291841189613478 1354:1 1482:1 3674:1 #
0.22635836306257531291841189613478 321:1 9994:1 #
0.22635836306257531291841189613478 982:1 2422:1 4156:1 7421:1 23121:1 #
0.22635836306257531291841189613478 610:1 841:1 1814:1 4563:1 5238:1 14635:1 #
0.22635836306257531291841189613478 321:2 418:1 953:1 983:1 1115:1 #
-0.22635836306257531291841189613478 321:1 1952:1 2002:1 2451:1 #
0.22635836306257531291841189613478 43:1 1315:1 2560:1 8826:1 #
0.22635836306257531291841189613478 289:1 1002:1 2735:1 4874:1 5268:1 19982:1 21811:1 #
0.22635836306257531291841189613478 291:1 1156:1 1426:1 1987:1 3674:1 4393:1 15275:1 #
-0.22635836306257531291841189613478 1426:1 1841:1 1843:1 #
0.22635836306257531291841189613478 115:1 619:1 933:1 1952:1 4822:1 5236:1 #
0.22635836306257531291841189613478 436:1 1293:1 1952:1 3764:1 12167:1 16603:1 #
-0.22635836306257531291841189613478 347:1 509:1 2919:1 3795:1 #
-0.22635836306257531291841189613478 #
0.22635836306257531291841189613478 80:1 971:1 1426:1 #
-0.22635836306257531291841189613478 #
0.22635836306257531291841189613478 184:1 824:1 1151:1 2274:1 4347:1 5544:1 #
-0.14226770105291361434574071154202 1375:1 2027:1 3455:1 14770:1 #
-0.22635836306257531291841189613478 141:1 #
-0.22635836306257531291841189613478 378:1 875:1 943:1 4303:1 25703:1 #
-0.22635836306257531291841189613478 1173:1 1404:1 1952:1 2224:1 3444:1 3908:1 10983:1 12591:1 #
0.22635836306257531291841189613478 509:1 1238:1 1938:1 3385:1 4056:1 4057:1 #
0.22635836306257531291841189613478 468:1 993:1 2064:1 3277:1 5673:1 8153:1 #
0.22635836306257531291841189613478 52:1 107:1 327:1 3736:1 10942:1 23305:1 #
0.22635836306257531291841189613478 509:1 942:1 2124:1 2125:1 2272:1 #
0.22635836306257531291841189613478 650:1 823:1 1436:1 #
-0.22635836306257531291841189613478 207:1 2064:1 2780:1 3682:1 4683:1 #
0.22635836306257531291841189613478 5:1 980:1 1826:1 2027:1 5052:1 12828:1 13390:1 #
0.22635836306257531291841189613478 530:1 1470:1 2211:1 3908:1 4119:1 15969:1 #
0.22635836306257531291841189613478 207:1 2224:1 2722:1 4686:1 #
-0.22635836306257531291841189613478 1315:1 1330:1 #
0.15976070263427441520143190700765 1300:1 1383:1 2652:1 3682:1 13643:1 #
0.22635836306257531291841189613478 3682:1 10512:1 18667:1 25360:1 #
0.22635836306257531291841189613478 875:1 972:1 4478:1 19399:1 #
0.22635836306257531291841189613478 18:1 380:1 1161:1 2424:1 2662:1 4785:1 12443:1 #
-0.22635836306257531291841189613478 259:1 564:1 1170:1 1921:1 2227:1 2388:1 #
-0.22635836306257531291841189613478 447:1 919:1 1386:1 2405:1 2652:1 #
-0.22635836306257531291841189613478 823:1 1572:1 2561:1 2732:1 6705:1 #
0.22635836306257531291841189613478 685:1 1100:1 1152:1 1330:1 2333:1 3049:1 3497:1 3696:1 3697:1 3698:1 #
0.22635836306257531291841189613478 569:1 581:1 934:1 1606:1 4707:1 6006:1 #
-0.20861298777707898421951426826126 628:1 923:1 6118:1 16349:1 #
0.22635836306257531291841189613478 759:1 1504:1 3964:1 4040:1 6940:1 11816:1 #
0.22635836306257531291841189613478 5:1 3791:1 #
-0.22635836306257531291841189613478 178:1 581:1 #
-0.22635836306257531291841189613478 196:1 581:1 #
-0.22635836306257531291841189613478 581:1 1494:1 2749:1 4263:1 #
0.22635836306257531291841189613478 196:2 259:1 815:1 12288:1 #
0.22635836306257531291841189613478 2652:1 4411:1 #
0.22635836306257531291841189613478 2652:1 23693:1 25779:1 25780:1 #
-0.027759470364887739446402292742277 394:1 981:1 1092:1 2333:1 3619:1 7909:1 #
0.22635836306257531291841189613478 541:1 581:1 664:1 3131:1 #
0.22635836306257531291841189613478 581:1 921:1 1345:1 2141:1 10600:1 #
-0.16883145048988412728618868641206 1086:1 11077:1 #
-0.22635836306257531291841189613478 1302:1 1331:1 1964:1 2492:2 3113:1 3114:1 3233:1 4990:1 6438:1 8804:1 10172:1 11196:1 14676:1 #
0.22635836306257531291841189613478 2009:1 2488:1 4251:1 #
0.22635836306257531291841189613478 2009:1 2331:1 6897:1 #
0.22635836306257531291841189613478 2009:1 2488:1 4251:1 23408:1 #
-0.22635836306257531291841189613478 173:1 525:1 823:1 2009:1 4925:1 12508:1 #
-0.22635836306257531291841189613478 3768:1 #
0.22635836306257531291841189613478 1086:1 2731:1 4432:1 4683:1 13186:1 #
0.22635836306257531291841189613478 2736:1 6466:1 7750:1 7909:1 13847:1 19223:1 #
0.22635836306257531291841189613478 1665:1 1956:1 3621:1 4836:1 20662:1 #
0.22635836306257531291841189613478 2732:1 #
0.22635836306257531291841189613478 129:1 936:1 981:1 1611:1 4832:1 4856:1 #
-0.22635836306257531291841189613478 #
0.22635836306257531291841189613478 1181:1 1333:1 2103:1 #
0.22635836306257531291841189613478 427:1 5156:1 5834:1 7214:1 7215:1 7216:1 7217:1 #
0.22635836306257531291841189613478 196:1 259:1 260:1 1865:1 #
-0.22635836306257531291841189613478 259:1 260:1 1504:1 1594:1 8577:1 #
-0.15532397056887478625775145246735 610:1 1565:1 2355:1 2824:1 4660:1 11601:1 #
0.22635836306257531291841189613478 425:1 1799:1 13033:1 #
0.22635836306257531291841189613478 16:1 772:1 947:1 3012:1 #
-0.22635836306257531291841189613478 923:1 2553:1 2627:1 #
0.22635836306257531291841189613478 242:1 394:1 13720:1 #
-0.22635836306257531291841189613478 581:1 897:1 13531:1 #
-0.22635836306257531291841189613478 186:1 187:1 324:1 2206:1 6711:1 9928:1 #
0.22635836306257531291841189613478 2355:1 2824:1 9671:1 #
0.22635836306257531291841189613478 337:1 2028:1 2451:1 2824:1 #
0.22635836306257531291841189613478 804:1 1099:1 2235:1 5511:1 16349:1 #
0.22635836306257531291841189613478 365:1 2108:1 4774:1 #
0.22635836306257531291841189613478 897:1 4243:1 26641:1 #
0.18687159382821422193288185553683 65:1 1470:1 2048:1 2358:1 2390:1 4117:1 4813:2 7494:1 7941:1 9922:1 14855:1 #
0.22635836306257531291841189613478 788:1 1643:1 2117:1 2176:1 #
0.22635836306257531291841189613478 65:1 527:1 2174:1 2737:1 4903:1 6691:1 #
-0.22635836306257531291841189613478 #
0.22635836306257531291841189613478 553:1 763:1 2002:1 2082:1 17150:1 #
0.22635836306257531291841189613478 1329:1 2097:1 2169:1 2761:1 #
-0.22635836306257531291841189613478 #
0.0067557833903539032949225884294719 291:1 934:1 2112:1 9302:1 #
0.22635836306257531291841189613478 207:1 1328:1 4581:1 6981:1 21526:1 #
-0.22635836306257531291841189613478 751:1 3097:1 3652:1 #
-0.22635836306257531291841189613478 882:1 2584:1 #
0.22635836306257531291841189613478 67:1 380:1 590:1 1337:1 1710:2 11922:1 #
0.22635836306257531291841189613478 1337:1 1423:1 2165:1 2166:1 3819:1 #
0.22635836306257531291841189613478 981:1 1337:1 1511:1 1532:1 #
0.22635836306257531291841189613478 3684:1 3805:1 6378:1 9693:1 #
-0.14761558770487320790820717775205 1952:1 3528:1 4780:1 #
0.22635836306257531291841189613478 648:1 881:1 882:1 961:1 1476:1 #
0.22635836306257531291841189613478 474:1 3097:1 5123:1 6247:1 #
-0.22635836306257531291841189613478 129:1 293:1 1110:1 #
0.22635836306257531291841189613478 1952:1 4540:1 4907:1 12308:1 20506:1 #
-0.22635836306257531291841189613478 923:1 2124:1 #
0.22635836306257531291841189613478 262:1 1896:1 2077:1 4785:1 9178:1 13647:1 23055:1 #
-0.20124769397343136856370904297364 2867:1 3336:1 5809:1 #
-0.22635836306257531291841189613478 1110:1 2064:1 #
0.095886053715824565157888059729885 547:2 7388:1 12143:2 18649:1 #
0.22635836306257531291841189613478 630:1 1504:1 4937:1 10465:1 13222:1 #
0.22635836306257531291841189613478 567:1 944:1 1076:1 1170:1 1266:1 1658:1 3737:1 3933:1 4780:1 5299:1 5459:1 16444:1 #
-0.22635836306257531291841189613478 581:1 589:1 875:1 1673:1 #
0.14347146550172851231508275304805 347:1 1007:1 3752:1 3903:1 3904:1 6482:1 6751:1 #
0.22635836306257531291841189613478 919:1 5134:1 7868:1 15117:1 17350:1 #
0.14694574119031542092095321550005 77:1 525:1 788:1 1175:1 2218:1 6151:1 #
0.22635836306257531291841189613478 979:1 1028:1 1682:1 2609:1 2687:1 6157:1 6711:1 #
0.22635836306257531291841189613478 875:1 891:1 1546:1 3988:1 #
0.22635836306257531291841189613478 1069:1 1570:1 7108:1 #
0.031640928655723210560779534716858 284:1 1460:1 1594:1 3734:1 5673:1 5974:1 18924:1 #
0.22635836306257531291841189613478 823:1 1436:1 2413:1 #
-0.017553113742377297185059958906095 812:1 3768:1 21005:1 #
0.22635836306257531291841189613478 589:1 837:1 1775:1 3883:1 3908:1 8170:1 9962:1 #
0.22635836306257531291841189613478 982:1 1069:1 1611:1 3270:1 4097:1 17899:1 #
0.22635836306257531291841189613478 533:1 2266:1 11671:1 12127:1 #
0.22635836306257531291841189613478 858:1 1620:1 4418:1 #
0.22635836306257531291841189613478 719:1 923:1 #
0.22635836306257531291841189613478 219:1 719:1 881:1 987:1 1426:1 1819:1 1854:1 6456:1 8818:1 9649:1 #
0.22635836306257531291841189613478 719:1 1098:1 1729:1 #
-0.22635836306257531291841189613478 22:1 1161:1 2919:1 #
0.22635836306257531291841189613478 259:1 825:1 1673:1 2341:1 4139:1 4639:1 5117:1 #
0.058426903147069816912839712585992 714:1 1053:1 3379:1 8831:1 8832:1 14641:1 21277:1 #
0.22635836306257531291841189613478 1257:1 1365:1 1456:1 2405:1 #
0.22635836306257531291841189613478 1354:1 4875:1 5736:1 10135:1 #
0.22635836306257531291841189613478 2919:1 8076:1 10133:1 10134:1 #
0.22635836306257531291841189613478 980:1 1161:1 3978:1 8147:1 9528:1 12436:1 #
0.22635836306257531291841189613478 22:1 699:1 1146:1 2931:1 #
0.22635836306257531291841189613478 350:1 356:1 368:1 813:1 992:1 4325:1 #
0.17252309817059691132712373473623 590:1 1831:1 2403:1 5438:1 6221:1 14632:1 #
0.22635836306257531291841189613478 564:1 2064:1 8904:1 13372:1 #
0.22635836306257531291841189613478 887:1 980:1 2121:1 6295:1 #
0.22635836306257531291841189613478 271:1 1044:1 1625:1 1712:1 3737:1 5882:1 7581:1 #
0.22635836306257531291841189613478 347:1 984:1 1712:1 3719:1 4252:1 15992:1 #
0.22635836306257531291841189613478 60:1 460:1 1061:1 2121:1 2738:1 2739:1 #
0.22635836306257531291841189613478 804:1 980:1 1422:1 1582:1 1585:1 8503:1 #
-0.22635836306257531291841189613478 216:1 984:1 1460:1 #
-0.22635836306257531291841189613478 65:1 379:1 628:1 793:1 821:1 829:1 1061:1 2544:1 2547:1 4319:1 5313:1 5399:1 6816:1 #
0.22635836306257531291841189613478 141:4 474:1 738:1 887:1 5577:1 15271:1 #
-0.17812998400288887479447907935537 284:1 679:1 815:1 1758:1 1867:3 2182:1 3071:1 6242:2 7328:1 7332:1 #
-0.1587701363840976764851831148917 207:1 864:3 1592:1 1830:1 2864:1 3269:1 4331:1 4349:1 5070:2 9693:1 11759:1 #
-0.22635836306257531291841189613478 115:1 955:1 1140:1 1172:1 1513:1 2111:1 2327:1 3598:1 3865:1 13186:1 13271:1 20180:1 #
-0.22635836306257531291841189613478 5:1 234:1 1328:1 1390:2 1685:1 2272:2 7372:1 10734:1 13435:1 #
-0.15659645778505854041284806044132 297:1 743:1 881:1 1310:1 1611:1 1819:1 2218:1 2237:1 2432:1 2972:1 3707:1 4928:1 5154:1 #
0.14456863473515935147872824018123 509:1 679:1 934:1 1565:2 1823:2 2248:1 7050:1 7076:1 7301:1 7935:1 8269:1 #
0.22635836306257531291841189613478 610:1 1401:1 1939:1 2206:2 4901:1 #
0.22635836306257531291841189613478 564:3 656:1 763:2 1523:2 1693:1 #
0.22635836306257531291841189613478 306:1 550:1 581:2 1061:1 1192:1 2077:1 2117:1 3018:1 5756:1 #
-0.22635836306257531291841189613478 569:1 649:1 2320:1 2468:1 #
0.22635836306257531291841189613478 262:1 350:1 1594:1 2798:1 #
-0.22635836306257531291841189613478 408:1 550:1 792:2 793:1 825:1 1101:1 1252:1 1343:1 2077:1 2750:1 9922:1 11989:1 #
-0.22635836306257531291841189613478 219:1 391:1 555:1 840:1 2055:1 2079:1 2201:1 2852:1 3661:1 5544:1 5946:1 8601:1 9895:1 10305:1 18892:1 #
-0.22635836306257531291841189613478 650:1 729:1 800:1 1181:1 1405:1 1442:1 1983:1 2266:1 2340:1 4077:1 8845:1 #
-0.22635836306257531291841189613478 351:1 770:1 816:1 972:1 1986:1 3800:1 #
0.22635836306257531291841189613478 70:1 368:1 712:1 875:2 1110:1 1685:1 4737:1 5102:1 5103:1 #
-0.22635836306257531291841189613478 #
0.22635836306257531291841189613478 5:1 263:1 341:1 577:1 801:1 1333:1 1361:1 1592:1 1743:1 2124:2 3421:1 3455:1 8995:1 #
-0.22635836306257531291841189613478 #
0.10637401249523109614258942201559 95:1 381:1 1272:1 1317:1 4230:1 5565:1 #
-0.22635836306257531291841189613478 325:1 338:1 341:1 1325:1 2149:1 2477:1 2773:1 4040:1 4366:1 5283:1 5503:1 15944:1 17615:1 #
-0.22635836306257531291841189613478 426:1 553:1 1102:1 1942:1 2149:1 3364:1 4251:1 4268:1 5782:1 9197:1 22138:2 22140:1 #
-0.22635836306257531291841189613478 990:2 1957:1 2328:1 2623:1 3113:1 3233:1 4583:1 5069:1 9696:3 13553:1 16701:1 16753:1 #
-0.22635836306257531291841189613478 324:1 632:1 743:1 934:1 1582:1 1668:1 1972:1 3309:1 3631:1 3684:1 9522:1 15450:1 #
-0.22635836306257531291841189613478 242:1 321:1 354:1 471:1 922:1 1138:1 1193:1 1415:1 2149:1 4239:1 #
0.22635836306257531291841189613478 107:1 729:1 798:1 882:1 1092:1 1102:1 1354:1 1979:1 2083:1 2584:1 5810:1 #
0.22635836306257531291841189613478 118:1 828:1 969:1 1219:1 1356:1 1843:1 2355:1 3695:1 5436:1 6171:1 13982:1 #
0.22635836306257531291841189613478 190:1 1330:1 1654:2 2553:1 5576:1 #
0.22635836306257531291841189613478 347:1 447:1 579:1 841:1 1266:1 1611:1 2002:3 2169:1 2432:1 4444:1 4986:1 9243:1 #
-0.22635836306257531291841189613478 564:1 1819:1 #
-0.22635836306257531291841189613478 266:1 970:1 1302:1 1617:1 1979:2 2364:1 16400:1 #
-0.22635836306257531291841189613478 648:1 1789:1 1799:1 4939:1 7775:1 7886:1 8491:2 #
-0.22635836306257531291841189613478 234:1 648:1 964:1 1166:1 1426:1 2279:1 3776:1 4076:1 6263:1 #
-0.22635836306257531291841189613478 840:1 917:1 1302:1 2413:1 2931:1 3788:1 #
-0.22635836306257531291841189613478 190:1 1074:1 1075:2 1549:1 1721:1 3600:1 14982:1 #
0.033669243644410151716783730080351 354:1 3440:1 3768:1 7801:1 7802:1 #
0.12969969597053593313162878075673 416:1 556:1 1304:1 1316:1 1772:1 1826:1 2977:1 3020:1 3551:1 3708:1 5273:1 9696:1 11243:1 15647:1 #
0.22635836306257531291841189613478 1668:2 #
-0.22635836306257531291841189613478 531:1 937:1 1826:2 4969:1 5057:1 #
-0.22635836306257531291841189613478 504:2 610:1 1772:1 5867:1 14775:1 #
-0.22635836306257531291841189613478 416:1 1340:1 1345:1 1526:1 2236:1 2313:2 2560:1 3146:1 7014:1 7948:1 12089:1 13829:1 #
-0.22635836306257531291841189613478 271:1 436:1 604:1 1004:1 1519:1 1743:1 1826:1 1835:1 1916:1 2340:1 4302:1 13442:1 17960:1 #
-0.0010781103622226695729069412266199 333:2 541:1 3417:1 10306:1 #
0.10412214554322565818189616493328 332:2 465:2 662:2 1074:2 1313:1 3389:2 #
0.22635836306257531291841189613478 824:1 1073:1 2732:1 3661:1 3707:1 6694:1 9493:1 #
-0.021057490061429151584349028780707 1201:1 2239:1 #
-0.22635836306257531291841189613478 324:1 1814:1 2201:1 3131:1 4016:1 6665:1 #
0.16573372788866710947353055871645 677:1 815:1 3919:1 5177:3 #
-0.15061458239681732584891449278075 1073:2 1247:1 1814:1 2117:1 3805:1 6582:1 #
-0.22635836306257531291841189613478 887:2 1073:1 1373:1 1532:1 3883:1 #
-0.22635836306257531291841189613478 336:1 1073:2 1343:1 1486:1 8815:1 #
-0.22635836306257531291841189613478 223:1 1733:1 4405:1 5177:1 5723:2 7516:1 10620:1 #
-0.22635836306257531291841189613478 22:1 168:1 332:1 621:1 818:1 1749:1 2687:1 #
0.22635836306257531291841189613478 271:1 930:1 1173:1 1956:2 3017:1 3736:1 6455:1 #
0.22635836306257531291841189613478 80:1 271:1 982:1 3910:2 5235:1 5867:1 #
0.22635836306257531291841189613478 533:1 897:2 1343:2 #
0.20221463874279560490876406220195 207:1 225:1 229:1 841:1 982:1 1734:1 7172:1 23173:1 #
-0.22635836306257531291841189613478 897:1 1292:1 1343:1 1758:1 1983:1 2463:1 9079:1 #
-0.0030935652804920622457873768951231 897:2 1343:1 1758:1 2462:1 #
-0.22635836306257531291841189613478 263:2 338:1 347:1 577:1 701:1 1004:1 1724:1 1956:1 3493:1 5235:1 8931:1 #
-0.22635836306257531291841189613478 151:1 544:1 630:1 1638:1 #
-0.22635836306257531291841189613478 205:1 379:1 389:1 420:1 567:1 1705:1 2255:1 5951:1 #
0.206050351127987863009138891357 3310:1 4622:1 #
0.0040387120878695673825697909364862 1604:1 4078:1 7878:1 14192:1 15676:1 #
0.053211344357887019329567124259484 698:1 1443:1 1663:1 6727:1 6974:1 #
0.22635836306257531291841189613478 780:1 1048:1 1084:1 19680:1 #
0.22635836306257531291841189613478 632:1 818:1 984:1 1153:1 1447:1 5968:1 9084:1 15181:1 15507:1 20569:1 #
-0.22635836306257531291841189613478 833:1 1362:1 1685:1 1938:1 2553:1 4137:1 6217:1 6927:1 6928:1 8529:1 16590:1 #
-0.22635836306257531291841189613478 207:1 234:1 338:1 649:1 888:1 1119:1 2064:1 18358:1 #
-0.14030737485697189481648194941954 271:1 780:1 1084:1 1295:1 1563:1 1897:1 2280:1 8040:1 10747:1 13438:1 15249:1 20284:1 20566:1 #
-0.22635836306257531291841189613478 499:1 738:1 3420:1 9895:1 15271:1 #
-0.22635836306257531291841189613478 353:1 547:1 639:1 799:1 987:1 1658:1 2224:1 #
0.20035550550944772330019816308777 1470:1 1506:1 1680:1 2355:1 2424:1 2933:1 9238:1 14776:1 #
0.22635836306257531291841189613478 293:1 980:1 1234:2 1444:1 1611:1 1921:1 2719:1 4429:1 #
0.22635836306257531291841189613478 460:1 823:1 2633:1 3136:1 5046:1 5047:1 5048:1 5049:2 #
0.22635836306257531291841189613478 37:1 332:1 347:1 385:1 1309:1 1620:1 2969:1 6403:1 6622:1 10710:1 #
0.074820722565402633663644849093544 263:1 934:1 1045:1 1866:1 2201:1 5321:1 5432:1 5551:1 9451:1 #
-0.22635836306257531291841189613478 2015:1 2654:1 4540:1 6622:1 8442:1 13541:1 #
-0.089596597945373890325981847126968 6104:1 #
-0.22635836306257531291841189613478 423:1 428:1 670:1 729:1 971:1 1025:1 1339:1 1562:1 1921:1 3441:1 13571:1 #
-0.22635836306257531291841189613478 332:1 350:1 1037:1 1291:1 1309:1 1346:1 1497:1 2120:1 3840:1 4959:1 6751:1 11795:1 #
-0.22635836306257531291841189613478 695:1 1323:1 1493:1 1565:1 1610:1 2413:1 2633:1 3080:1 9887:1 #
0.22635836306257531291841189613478 341:1 780:1 833:1 1549:1 3283:1 10353:1 #
0.22635836306257531291841189613478 544:1 837:1 3380:1 13108:1 #
0.14970201904893468136670264811983 262:1 1295:1 1331:1 2227:1 4728:1 5365:1 13834:1 #
0.22635836306257531291841189613478 67:1 720:1 886:3 923:1 1033:3 1608:1 3963:1 4164:1 4261:1 8785:1 #
-0.11718400780598758892381283658324 389:1 1064:1 1118:2 1320:1 1523:1 1604:1 1654:1 2215:1 2328:1 3649:1 5569:1 8455:1 10353:2 15377:1 #
-0.22635836306257531291841189613478 719:1 833:1 1104:1 1575:1 5888:1 6447:1 #
-0.22635836306257531291841189613478 341:2 727:1 1794:1 1795:1 2247:2 2650:1 3909:1 4245:1 12922:1 12923:1 #
-0.22635836306257531291841189613478 118:4 341:1 1166:1 2850:1 #
-0.22635836306257531291841189613478 401:1 551:1 848:1 1252:1 3763:1 #
0.22635836306257531291841189613478 447:1 1099:1 1346:1 1929:1 5189:1 5957:1 #
0.22635836306257531291841189613478 269:1 656:1 1007:1 1125:1 1266:1 1343:1 2749:2 3016:1 3036:1 3696:1 4541:1 5606:2 5743:1 5840:1 6171:1 7295:1 7296:1 #
-0.22635836306257531291841189613478 669:1 930:1 1099:2 1152:1 1327:1 2174:1 2201:1 3986:1 8022:1 #
-0.22635836306257531291841189613478 5:1 67:1 207:1 648:1 973:1 1099:1 1294:1 1680:2 2117:1 10957:1 11358:1 #
-0.22635836306257531291841189613478 344:1 447:1 1655:1 2839:1 9734:1 10777:1 #
-0.22635836306257531291841189613478 1099:1 1125:1 2206:1 3136:1 #
-0.22635836306257531291841189613478 1125:1 1958:1 2201:1 3222:1 #
0.22635836306257531291841189613478 222:1 259:1 260:1 #
0.1649311556910167397838051783765 266:1 677:1 3146:1 4780:1 7968:1 9998:1 15173:1 #
0.22635836306257531291841189613478 259:1 430:1 431:1 1354:1 3965:1 7067:1 #
-0.22635836306257531291841189613478 632:1 650:1 1279:1 3317:1 #
-0.22635836306257531291841189613478 632:1 3488:1 4275:1 4568:1 #
-0.22635836306257531291841189613478 269:1 358:1 656:1 3354:1 3588:1 3703:1 10363:1 #
-0.22635836306257531291841189613478 266:1 712:1 1316:1 1470:1 2988:1 3605:1 5551:1 12431:1 #
-0.22635836306257531291841189613478 266:2 1364:1 1685:1 2500:1 4601:1 #
0.22635836306257531291841189613478 555:1 882:1 2679:1 3136:1 4091:1 6383:1 9899:1 #
0.22635836306257531291841189613478 329:1 628:1 1141:1 3619:1 7544:1 #
0.015030571681350994237003071418712 547:1 1141:1 1953:1 3631:1 #
-0.22635836306257531291841189613478 67:1 247:2 759:1 966:1 1589:1 1664:1 2041:1 9030:1 #
-0.22635836306257531291841189613478 67:1 240:1 475:1 1209:1 1710:1 15208:1 #
-0.12086086871424060740221051446497 67:1 924:1 2277:4 2995:1 9062:1 10420:1 20462:1 20463:1 #
-0.22635836306257531291841189613478 67:1 1084:1 1293:1 1529:1 1664:1 1758:1 2072:1 2545:1 9007:1 9008:1 9012:1 #
-0.22635836306257531291841189613478 34:1 35:1 67:1 301:1 982:1 1664:2 19077:1 #
-0.0071367319599305867328098429425154 790:1 #
0.22635836306257531291841189613478 1072:1 1271:1 14778:1 #
0.22635836306257531291841189613478 266:1 435:1 1315:1 1316:1 1317:1 1318:1 1319:1 #
0.22635836306257531291841189613478 394:1 887:1 2780:1 #
0.10752298936889934100058496824204 22:1 1823:1 2451:1 3173:1 3233:1 3358:1 6072:1 6173:1 7332:1 8103:1 9756:1 10462:1 #
-0.22635836306257531291841189613478 1112:1 1663:1 2786:1 3016:1 5585:1 6376:1 #
-0.22635836306257531291841189613478 1377:1 1928:1 3770:1 6424:1 9801:1 #
-0.22635836306257531291841189613478 555:1 758:1 1251:1 1337:1 1630:1 #
-0.17719020868479043451237942008447 923:2 926:2 1093:1 2084:1 8642:1 #
-0.22635836306257531291841189613478 841:1 1734:1 5343:1 10310:1 #
0.083538914266763172888907718061091 247:1 616:1 1189:1 1643:1 2026:1 2041:1 5806:1 9458:1 12574:1 #
0.2035467141876844132664103881325 263:1 416:1 801:1 812:1 814:1 1664:1 1794:1 1795:1 1952:1 8558:1 10303:1 #
-0.22635836306257531291841189613478 631:1 801:1 1790:1 1791:1 1792:1 1793:1 1794:1 1795:1 #
-0.22635836306257531291841189613478 1794:1 1795:1 4305:1 #
-0.22635836306257531291841189613478 818:1 830:1 1643:1 1741:1 #
-0.22635836306257531291841189613478 #
-0.22635836306257531291841189613478 263:1 289:1 623:1 1620:1 2544:1 2637:1 4371:1 #
0.22635836306257531291841189613478 96:1 954:1 1375:1 3731:1 17995:1 #
0.22635836306257531291841189613478 495:1 3310:1 #
-0.22635836306257531291841189613478 1951:1 2070:1 2131:1 3017:1 3795:1 #
-0.22635836306257531291841189613478 1356:1 1393:1 1453:1 2581:1 3349:1 10106:1 11922:1 13247:1 13249:1 #
-0.22635836306257531291841189613478 1365:1 1886:1 2131:1 2266:1 2982:1 15937:1 #
-0.22635836306257531291841189613478 347:1 411:1 585:1 812:1 954:1 1007:1 1671:1 1765:1 2340:1 2852:1 9135:1 11826:1 18198:1 #
-0.1535155119878068019634298480014 815:1 1114:1 1511:2 9693:1 11426:2 #
-0.099532748364615591940562921990931 470:1 10117:1 #
0.17770981090831625137660410018725 324:1 596:1 658:1 936:1 984:1 1402:1 1441:1 1546:1 3436:1 3455:1 7806:1 8139:1 10410:1 #
0.22635836306257531291841189613478 196:1 677:1 #
0.22635836306257531291841189613478 813:1 840:1 848:1 #
-0.22635836306257531291841189613478 387:1 677:1 1149:1 3755:1 16949:1 18673:1 #
-0.22635836306257531291841189613478 677:1 1252:1 4040:1 4230:1 #
-0.22635836306257531291841189613478 324:1 354:1 1451:1 2124:1 3726:1 7194:1 9342:1 #
-0.22032180129821599123829400923569 218:1 888:1 1307:2 1358:1 4313:1 #
-0.22635836306257531291841189613478 77:1 337:1 677:1 1291:1 3785:1 4432:1 8622:1 9881:1 9882:1 #
0.075249250673963777313879575103783 334:1 471:1 783:1 1291:1 1565:1 1886:1 1951:1 3402:1 3622:1 3674:1 4205:1 7810:1 25377:1 #
0.22635836306257531291841189613478 858:1 982:1 1100:1 1835:1 3795:1 5441:1 #
0.22635836306257531291841189613478 813:1 934:1 1321:1 4650:1 6622:1 #
-0.1134371714171342054866542525815 336:1 555:1 813:1 881:1 882:1 1085:1 1100:1 1849:1 2028:1 2201:1 2703:1 3156:1 3903:1 #
-0.22635836306257531291841189613478 380:1 813:1 1061:1 1337:1 1915:1 2153:1 2361:1 3143:1 4686:2 4971:1 #
-0.22635836306257531291841189613478 169:1 1006:1 4638:1 4639:1 #
-0.22635836306257531291841189613478 66:1 984:1 986:1 2077:1 2467:1 9093:1 17967:1 17995:1 18781:1 #
-0.22635836306257531291841189613478 536:1 832:1 914:1 1441:1 1507:1 1932:1 2320:1 6562:1 8230:1 #
0.22635836306257531291841189613478 11:1 1111:2 4584:1 14326:1 #
-0.22635836306257531291841189613478 11:1 633:1 775:1 805:1 1642:1 1773:1 3317:1 #
-0.016174760164490181724161743659351 219:2 770:1 1549:1 1611:1 1952:1 2024:1 2735:1 4023:1 #
-0.22635836306257531291841189613478 151:2 219:1 792:1 1047:1 1055:1 1166:1 1732:1 1758:1 2316:1 2516:1 5189:1 5365:1 5399:1 7994:1 10303:1 10555:1 12438:1 #
-0.22635836306257531291841189613478 1141:1 1302:2 1775:1 2261:1 11893:1 18649:1 #
-0.22635836306257531291841189613478 229:1 1246:1 1611:1 2117:1 #
0.010876037938700112289724941661007 880:1 984:1 1214:1 1273:1 3353:1 3706:1 4051:1 4175:1 5346:1 9437:1 9775:1 22307:1 #
0.22635836306257531291841189613478 221:1 882:1 12545:1 #
0.038500421134791067145908272095767 95:1 1614:1 1712:1 2666:1 4312:1 4461:2 #
-0.22635836306257531291841189613478 769:1 777:1 1729:1 2327:1 3719:1 4762:1 #
-0.16144895145956145166010742286744 656:1 987:1 1565:2 1791:1 3435:1 3624:1 3770:1 4562:1 6242:1 6768:1 9649:1 11269:1 11506:1 #
-0.22635836306257531291841189613478 190:1 946:2 2052:1 2297:1 2722:1 7009:1 7010:1 18730:1 #
-0.1449841765111981595204326822568 338:1 373:1 447:1 1102:1 1309:1 1321:1 1417:2 2199:1 6403:1 8996:1 13199:1 #
-0.22635836306257531291841189613478 106:1 242:1 471:1 1076:1 1702:1 3281:1 7523:1 19701:1 #
0.13330180097036425923562319439952 841:1 1279:1 1733:1 2223:1 6776:1 8852:1 #
0.22635836306257531291841189613478 222:1 730:1 1307:1 2506:1 2516:1 5365:1 5585:1 7228:1 #
-0.22635836306257531291841189613478 517:1 875:1 1041:1 1092:2 2506:1 3335:1 3632:1 8552:1 8659:1 #
-0.22635836306257531291841189613478 448:1 1824:1 2945:2 7228:1 #
-0.16980150201126048559174819274631 222:1 1530:1 2737:1 10303:1 #
-0.22635836306257531291841189613478 60:1 222:1 590:1 648:1 649:1 1597:1 2627:1 3178:1 4785:1 #
-0.22635836306257531291841189613478 186:1 1009:1 1160:1 2628:1 4642:1 20449:1 #
0.22635836306257531291841189613478 914:1 1217:1 1549:1 1565:2 2678:1 3402:1 3562:1 9887:1 #
0.22635836306257531291841189613478 216:1 335:1 656:1 1954:1 5486:1 #
-0.22635836306257531291841189613478 327:1 930:1 1238:1 2246:1 2492:1 3950:1 4106:1 5946:1 7433:1 11811:1 19409:1 #
-0.12254881713841929424813059767985 920:1 1565:1 1594:1 1614:1 3845:1 4205:1 5189:1 6532:1 7319:1 11092:1 11557:1 11659:1 11660:1 #
-0.22635836306257531291841189613478 380:1 562:1 800:1 1287:1 1565:1 1854:1 2422:1 2878:1 3279:1 5945:1 12165:1 #
-0.22635836306257531291841189613478 840:1 921:1 1271:1 2355:1 2500:1 2687:1 3402:1 3945:1 5254:1 5713:1 9109:1 #
-0.22635836306257531291841189613478 231:1 1565:1 1711:1 2530:1 16203:1 #
0.22220286815939671587472048486234 378:1 875:1 1031:1 1339:1 4879:1 7224:1 11375:1 #
0.22635836306257531291841189613478 187:1 722:2 875:1 924:1 1402:1 1403:1 #
0.12394614656937759378241281638111 317:1 318:1 369:1 378:1 610:1 1092:1 1606:1 6395:1 #
-0.18814780117104693002438864368742 699:1 722:1 1422:1 2108:1 2743:1 4364:1 7686:1 8494:1 11239:1 23248:1 #
-0.22635836306257531291841189613478 16:2 1343:1 1402:1 2977:1 6173:1 #
-0.22635836306257531291841189613478 107:1 378:1 953:1 2073:1 #
-0.22635836306257531291841189613478 11:1 924:1 1486:1 1614:1 1712:1 5271:1 5957:1 7679:1 #
-0.22635836306257531291841189613478 607:1 619:1 875:1 1086:1 1735:1 6140:1 #
0.089030509433170285094050200314086 470:1 1178:1 1201:1 1291:1 1494:1 1968:1 2514:1 5189:1 5741:1 6862:1 8832:1 10814:1 15520:1 #
0.22635836306257531291841189613478 22:1 1045:1 2500:1 #
-0.22635836306257531291841189613478 329:1 #
-0.22635836306257531291841189613478 43:1 599:1 823:1 857:1 964:1 970:1 1201:1 1456:1 #
-0.22635836306257531291841189613478 679:1 685:1 943:1 986:1 1320:1 1760:1 1899:1 1945:1 5575:1 17628:1 #
-0.22635836306257531291841189613478 553:1 1310:1 1494:1 4461:1 6006:1 6927:1 #
-0.22635836306257531291841189613478 335:1 697:1 701:1 823:1 8770:1 13651:1 #
-0.22635836306257531291841189613478 151:1 334:1 541:1 600:1 1112:1 8209:1 #
0.22635836306257531291841189613478 788:1 829:1 947:1 1105:1 1110:1 1241:1 1470:1 4553:1 6723:1 #
