SVM-light Version V6.02
0 # kernel type
3 # kernel parameter -d 
1 # kernel parameter -g 
1 # kernel parameter -s 
1 # kernel parameter -r 
empty# kernel parameter -u 
26722 # highest feature index 
15762 # number of training documents 
12833 # number of support vectors plus 1 
0.95642466 # threshold b, each following line is a SV (starting with alpha*y)
-0.069498834023448100016828732350405 102:1 172:1 173:1 26722:2 #
-0.0096706172614461349823500313505065 790:1 26722:1 #
-0.069498834023448100016828732350405 5:1 423:1 424:1 425:1 426:1 427:1 26722:1 #
-0.069498834023448100016828732350405 256:1 464:1 465:1 468:1 26722:8 #
-0.069498834023448100016828732350405 489:1 491:1 492:1 26722:3 #
0.069498834023448100016828732350405 1426:1 3310:1 26721:1 26722:2 #
0.069498834023448100016828732350405 80:1 83:1 89:1 93:1 26722:2 #
0.05884747559245195880350820516469 22:1 95:1 96:1 97:1 101:1 102:1 26722:2 #
-0.043217012456631766215142675946481 329:1 26722:1 #
-0.069498834023448100016828732350405 26722:1 #
0.069498834023448100016828732350405 391:1 2214:1 2522:1 3144:1 5070:1 5665:1 6087:1 10374:1 26722:2 #
-0.069498834023448100016828732350405 25020:1 26722:2 #
-0.069498834023448100016828732350405 141:1 6333:1 26721:1 26722:1 #
0.069498834023448100016828732350405 2200:1 4207:1 9528:1 26722:0 #
0.069498834023448100016828732350405 256:1 464:1 465:1 882:2 1610:1 1928:1 4812:1 6424:1 7149:1 26722:3 #
0.069498834023448100016828732350405 331:2 507:1 2873:1 13046:1 26722:3 #
0.069498834023448100016828732350405 329:2 433:1 1251:1 1769:1 1915:1 2521:1 26722:2 #
0.069498834023448100016828732350405 329:2 668:1 767:1 790:1 919:1 2970:1 9139:1 26722:2 #
-0.069498834023448100016828732350405 737:1 2272:1 6233:1 8978:1 26721:1 26722:1 #
0.069498834023448100016828732350405 262:1 982:1 1939:1 3682:1 4322:1 9994:1 12255:1 26722:1 #
-0.069498834023448100016828732350405 22:1 2323:1 6796:1 7372:1 26721:1 26722:1 #
-0.069498834023448100016828732350405 191:1 979:1 3819:1 10311:1 26721:1 26722:1 #
-0.069498834023448100016828732350405 65:1 1365:1 2277:1 3736:1 26721:1 26722:1 #
0.069498834023448100016828732350405 5:1 4028:1 4030:1 26722:0 #
-0.069498834023448100016828732350405 190:1 2002:1 2140:1 2141:1 5111:1 26721:1 26722:1 #
0.069498834023448100016828732350405 151:1 650:1 1006:1 1274:1 1472:1 2117:1 2323:1 26722:1 #
0.069498834023448100016828732350405 1364:1 1655:1 6376:1 10356:1 26722:2 #
0.069498834023448100016828732350405 1293:1 4952:1 26722:1 #
0.069498834023448100016828732350405 329:2 1799:1 4853:1 26722:1 #
0.069498834023448100016828732350405 256:1 465:1 6237:1 6238:1 26722:1 #
-0.069498834023448100016828732350405 37:1 65:1 222:1 551:1 1045:1 1152:1 1444:1 1983:1 2859:1 3249:1 10942:1 26721:1 26722:7 #
-0.069498834023448100016828732350405 80:1 115:1 502:1 769:1 815:1 1251:1 1320:1 1823:1 2427:1 2731:1 3899:1 26721:1 26722:7 #
0.069498834023448100016828732350405 1592:1 2092:1 3561:1 5204:1 23074:1 26722:0 #
0.069498834023448100016828732350405 173:1 823:1 1052:1 1053:1 26722:1 #
0.069498834023448100016828732350405 278:1 489:1 26722:1 #
-0.069498834023448100016828732350405 385:2 520:2 763:2 1163:2 1614:1 2277:5 19585:1 26721:1 26722:0 #
-0.069498834023448100016828732350405 66:1 190:1 7129:1 26722:1 #
-0.069498834023448100016828732350405 22:1 69:1 216:1 230:1 965:1 1506:1 1938:1 2016:1 2646:1 3682:1 8796:1 9124:1 9410:1 9994:2 26722:6 #
-0.069498834023448100016828732350405 22:2 4003:1 26722:5 #
0.069498834023448100016828732350405 11:1 324:1 743:1 1758:1 3791:1 5508:1 26722:4 #
0.044053870832065168683389089210323 1307:1 1926:1 9044:1 26721:1 26722:4 #
0.069498834023448100016828732350405 544:1 832:1 1571:1 26722:1 #
0.069498834023448100016828732350405 468:2 564:1 7883:1 26721:1 26722:2 #
0.069498834023448100016828732350405 33:1 388:1 815:2 835:1 4582:1 5741:1 26722:0 #
-0.069498834023448100016828732350405 196:1 197:1 239:1 1546:1 26722:1 #
-0.069498834023448100016828732350405 66:1 190:1 368:1 553:1 1319:1 2805:1 4603:1 10235:1 16480:1 26722:5 #
-0.069498834023448100016828732350405 65:1 67:1 555:1 1293:1 1453:1 2291:1 2345:1 2824:1 4715:1 26722:6 #
-0.069498834023448100016828732350405 207:1 2970:1 10201:1 26722:1 #
0.057969670464615499771987572330545 22:2 2232:1 2608:1 2805:1 26722:2 #
0.069498834023448100016828732350405 905:1 1921:1 9994:2 26722:3 #
0.069498834023448100016828732350405 669:1 9994:2 26722:3 #
-0.069498834023448100016828732350405 70:2 2028:1 2703:1 9754:1 11465:1 26722:3 #
-0.069498834023448100016828732350405 89:2 2465:1 4275:1 4604:1 26722:3 #
-0.054365167681817774814057031562697 3984:1 4902:1 26722:1 #
0.069498834023448100016828732350405 491:1 815:1 875:1 1293:1 26722:1 #
0.069498834023448100016828732350405 58:1 1111:1 1141:1 1940:1 6763:1 8521:1 8522:1 26722:2 #
-0.069498834023448100016828732350405 815:1 1102:1 1486:1 1820:1 1844:1 2085:1 2103:1 26721:1 26722:5 #
-0.069498834023448100016828732350405 219:1 535:1 661:1 1850:1 2227:1 2272:1 3509:1 3510:1 5369:1 6568:1 9994:1 26721:1 26722:5 #
0.069498834023448100016828732350405 70:1 502:1 971:1 4918:1 5651:1 7750:1 9410:1 24285:1 26722:2 #
0.069498834023448100016828732350405 1396:1 3304:1 3439:1 11147:1 25351:1 26722:4 #
-0.069498834023448100016828732350405 350:1 6242:1 26721:1 26722:1 #
0.069498834023448100016828732350405 1364:1 2103:1 3551:1 4275:2 10751:1 26722:1 #
0.069498834023448100016828732350405 594:1 1340:1 1341:1 1766:1 2028:2 2467:1 3047:1 4841:1 5408:1 6504:1 17736:1 26722:1 #
-0.069498834023448100016828732350405 465:1 875:1 1293:1 2070:1 26722:1 #
-0.069498834023448100016828732350405 2277:2 26722:0 #
0.069498834023448100016828732350405 984:1 1757:1 2631:1 3316:1 5951:1 14200:1 26722:4 #
0.069498834023448100016828732350405 338:1 858:1 1102:1 8119:1 10160:2 19795:1 26722:2 #
-0.069498834023448100016828732350405 26722:1 #
0.059113475339342747005844103114214 219:1 659:1 1685:1 3527:1 5201:1 7259:1 8048:1 18208:1 21182:1 26721:1 26722:4 #
0.069498834023448100016828732350405 289:1 420:1 777:1 804:1 858:1 1076:1 1359:1 1979:1 26722:2 #
-0.069498834023448100016828732350405 26722:1 #
-0.069498834023448100016828732350405 101:2 5151:1 26722:1 #
-0.069498834023448100016828732350405 191:2 1209:1 2149:1 26722:1 #
-0.069498834023448100016828732350405 196:1 564:1 833:1 1942:1 13165:1 13801:1 26722:2 #
0.069498834023448100016828732350405 1161:2 2277:3 26722:1 #
0.037733422438144349764232998722946 1320:1 5209:2 7674:1 9982:1 10233:1 18626:1 26722:5 #
0.025537647023954335168127727229148 338:1 722:1 1406:1 1454:1 1525:1 5273:1 6242:1 7615:1 26722:4 #
0.069498834023448100016828732350405 115:2 1398:1 1826:1 2085:2 2192:1 5687:1 26722:1 #
-0.069498834023448100016828732350405 353:1 1913:1 7934:1 12858:1 26722:57 #
0.069498834023448100016828732350405 661:1 2272:1 26721:1 26722:0 #
0.069498834023448100016828732350405 833:1 915:1 1141:1 1251:1 1918:1 7018:1 7808:1 26722:0 #
0.069498834023448100016828732350405 178:1 644:1 777:2 1134:1 1151:1 1985:1 26722:0 #
0.069498834023448100016828732350405 65:1 877:1 1047:1 3805:1 8217:1 8701:1 15597:1 26722:0 #
0.069498834023448100016828732350405 66:1 184:1 1047:2 1178:1 1775:1 2859:1 10872:1 26722:0 #
-0.069498834023448100016828732350405 5:1 234:1 1328:1 1390:2 1685:1 2272:2 7372:1 10734:1 13435:1 26721:1 26722:1 #
-0.069498834023448100016828732350405 332:1 607:1 1172:1 2002:1 4683:1 26722:0 #
-0.069498834023448100016828732350405 1507:1 1799:1 2124:1 2272:1 5809:1 7108:1 26721:1 26722:2 #
-0.069498834023448100016828732350405 95:1 160:1 1001:1 5213:1 5293:1 8232:1 26722:0 #
0.069498834023448100016828732350405 11:2 368:2 692:1 1102:1 2227:1 12356:1 26722:1 #
0.069498834023448100016828732350405 763:1 915:1 2070:1 3209:1 4136:1 4180:1 5166:1 5220:1 5221:1 26721:1 26722:2 #
0.025705631143199736410309697021148 207:1 385:1 1119:1 1163:1 1373:1 1595:1 1939:1 2651:1 3840:1 26722:1 #
0.069498834023448100016828732350405 763:1 2070:1 2153:1 6665:2 26722:1 #
0.069498834023448100016828732350405 321:1 1302:1 1938:1 2015:1 3861:1 6218:1 26722:2 #
-0.043725085087495063618234780733474 97:1 129:1 26722:0 #
-0.069498834023448100016828732350405 289:1 669:1 840:1 841:1 2361:1 26722:0 #
-0.069498834023448100016828732350405 2599:1 2608:1 26722:0 #
-0.069498834023448100016828732350405 97:1 205:1 380:1 590:1 779:1 833:1 1009:1 1153:1 1708:1 1956:1 2583:1 2645:1 2991:1 4010:1 5586:1 13481:1 15246:1 26722:1 #
-0.013419337551004717479230521348654 141:1 5444:1 6330:1 9493:1 13820:1 14400:1 26722:1 #
-0.069498834023448100016828732350405 151:1 1281:1 2970:1 17918:1 26722:3 #
0.069498834023448100016828732350405 813:1 3807:2 26722:4 #
0.069498834023448100016828732350405 271:1 1390:2 2990:2 6711:1 8788:1 26722:1 #
0.069498834023448100016828732350405 234:1 1001:1 1310:1 1603:1 4102:1 26722:0 #
0.053880107240213789832061763718229 334:1 744:1 1507:1 1942:1 7515:2 26722:0 #
0.036305148029560176115015934783514 234:1 840:1 846:1 1489:1 2642:1 3755:1 26722:0 #
0.069498834023448100016828732350405 553:1 800:1 875:1 896:1 3255:1 7372:1 12760:1 26722:0 #
0.069498834023448100016828732350405 590:1 648:1 1122:1 1472:1 2081:2 2642:1 2643:1 2644:1 2645:1 2646:1 26722:3 #
-0.069498834023448100016828732350405 66:1 1373:1 9111:1 26721:1 26722:1 #
0.069498834023448100016828732350405 257:1 1895:1 3882:1 10738:1 20490:1 26722:5 #
0.069498834023448100016828732350405 544:1 2092:1 2093:1 2259:1 2340:1 12105:1 17174:1 26722:1 #
0.069498834023448100016828732350405 344:1 520:1 840:1 2009:1 2901:1 3080:1 3263:1 4054:1 6566:1 6567:1 6568:1 26722:2 #
0.069498834023448100016828732350405 823:1 1874:1 2092:1 2608:1 2636:1 26722:1 #
0.069498834023448100016828732350405 347:1 520:1 699:1 870:1 1434:1 2232:1 2596:1 2691:1 3635:1 3951:1 5246:1 5391:1 7117:1 8124:1 8232:1 8796:1 24949:1 26722:3 #
-0.069498834023448100016828732350405 858:1 2277:1 26722:0 #
-0.069498834023448100016828732350405 101:1 835:1 1060:1 4668:1 26722:1 #
-0.069498834023448100016828732350405 891:1 942:1 1472:1 2272:1 6837:1 26722:0 #
-0.069498834023448100016828732350405 141:1 26722:1 #
0.069498834023448100016828732350405 433:1 737:2 746:1 2630:1 3173:1 4517:1 9775:1 26721:1 26722:2 #
0.015587841745773101109762137639336 2341:1 5612:1 8713:1 13443:2 24698:1 25351:1 26062:1 26722:8 #
0.069498834023448100016828732350405 5:1 800:1 1001:1 1342:1 2477:1 4836:1 12069:1 20842:1 26721:1 26722:2 #
0.069498834023448100016828732350405 632:1 931:1 1266:1 1983:1 2567:1 2824:1 4288:1 7352:1 20988:1 26721:1 26722:3 #
0.069498834023448100016828732350405 2277:2 2553:1 18643:1 26722:0 #
-0.069498834023448100016828732350405 196:1 332:1 416:1 6665:1 26721:1 26722:2 #
-0.027250517044834998703350947835133 5924:1 13820:2 26722:1 #
0.069498834023448100016828732350405 101:2 9109:1 13209:1 26722:1 #
0.069498834023448100016828732350405 219:1 229:1 535:1 1850:1 2802:1 5062:1 9485:1 26722:1 #
0.069498834023448100016828732350405 946:1 2092:1 3612:1 9077:1 9078:1 26722:2 #
-0.069498834023448100016828732350405 96:1 1086:1 26721:1 26722:1 #
-0.069498834023448100016828732350405 964:1 1189:1 2069:1 4460:1 4993:1 6527:1 26721:1 26722:0 #
-0.069498834023448100016828732350405 1119:1 2332:1 5084:1 8996:1 9066:1 14731:1 20847:1 26721:1 26722:0 #
-0.069498834023448100016828732350405 426:1 4364:1 26722:2 #
-0.069498834023448100016828732350405 971:1 26721:1 26722:0 #
0.035544776166662225835857213951385 1314:1 1427:1 1470:1 2451:1 2475:1 2779:1 2970:1 3795:1 8544:1 8545:1 26722:2 #
0.069498834023448100016828732350405 196:1 551:1 2117:1 2227:1 2706:1 26722:2 #
0.069498834023448100016828732350405 416:3 1819:2 3360:1 5070:1 5092:1 7298:1 26722:4 #
0.069498834023448100016828732350405 332:1 864:1 908:1 1073:1 2427:1 2731:1 7658:1 26722:4 #
0.069498834023448100016828732350405 832:1 1782:2 1867:1 26722:2 #
-0.069498834023448100016828732350405 719:1 833:1 1104:1 1575:1 5888:1 6447:1 26722:2 #
0.069498834023448100016828732350405 191:1 230:1 2467:1 3830:1 5809:1 26722:1 #
0.069498834023448100016828732350405 107:1 656:1 1025:1 7074:1 26722:1 #
-0.069498834023448100016828732350405 196:1 2500:1 26722:1 #
-0.069498834023448100016828732350405 1426:1 2169:1 2735:1 4322:1 26722:1 #
0.069498834023448100016828732350405 877:1 880:1 2099:1 3717:1 5925:1 26721:1 26722:2 #
-0.069498834023448100016828732350405 26722:1 #
0.069498834023448100016828732350405 520:1 979:1 1343:1 26721:1 26722:1 #
0.069498834023448100016828732350405 555:1 971:1 1482:1 1986:1 5213:1 26721:1 26722:4 #
-0.069498834023448100016828732350405 26722:0 #
0.069498834023448100016828732350405 151:1 1729:1 2006:1 2897:1 5874:1 26722:1 #
-0.069498834023448100016828732350405 107:1 468:1 1189:1 26722:1 #
-0.069498834023448100016828732350405 107:1 1061:1 2575:1 3551:1 8856:1 26722:1 #
0.060659778224126742474098250568204 434:1 1136:1 1543:1 2492:1 6684:1 7632:2 8910:1 26722:1 #
0.069498834023448100016828732350405 350:1 1086:1 1102:1 1733:1 1915:1 4405:1 26721:1 26722:1 #
-0.069498834023448100016828732350405 6104:1 26722:1 #
0.069498834023448100016828732350405 107:1 637:1 1137:1 1680:1 1913:1 26722:1 #
0.069498834023448100016828732350405 160:2 541:1 3040:2 26722:1 #
-0.069498834023448100016828732350405 979:1 7049:1 26721:1 26722:0 #
-0.069498834023448100016828732350405 541:1 875:1 1549:1 1988:1 26721:1 26722:0 #
-0.069498834023448100016828732350405 2271:1 2931:1 5495:1 9755:1 26721:1 26722:0 #
-0.069498834023448100016828732350405 95:1 2785:1 5809:1 26721:1 26722:2 #
0.069498834023448100016828732350405 52:1 107:1 327:1 3736:1 10942:1 23305:1 26722:2 #
-0.069498834023448100016828732350405 943:1 2077:1 3339:1 7049:1 26722:1 #
0.069498834023448100016828732350405 324:1 1814:1 11326:1 13114:1 13854:1 26722:2 #
-0.024425026065546973086384241469204 679:1 1799:1 1946:1 5528:1 7225:1 26722:3 #
-0.069498834023448100016828732350405 107:1 378:1 953:1 2073:1 26722:1 #
0.069498834023448100016828732350405 502:1 5809:1 6242:1 10861:1 26721:1 26722:3 #
0.069498834023448100016828732350405 317:1 979:1 2272:1 6377:1 10545:1 26721:1 26722:2 #
0.045360021907763087289922054878843 242:1 930:1 1189:1 6427:1 7372:1 8588:1 13288:1 26721:1 26722:1 #
0.069498834023448100016828732350405 66:1 555:1 712:1 2224:1 2283:1 2988:1 3605:1 6919:1 16035:1 26722:0 #
0.069498834023448100016828732350405 66:1 701:1 8050:1 26722:0 #
-0.069498834023448100016828732350405 26721:1 26722:0 #
-0.069498834023448100016828732350405 8063:1 26721:1 26722:0 #
0.069498834023448100016828732350405 66:1 190:1 1886:1 3939:1 4462:1 26722:1 #
0.069498834023448100016828732350405 66:1 837:1 1307:1 4514:1 5414:1 9754:1 14182:1 17795:1 26722:1 #
-0.069498834023448100016828732350405 107:1 701:1 1156:1 1293:1 2134:1 26722:1 #
0.069498834023448100016828732350405 1243:1 1654:1 2277:1 3894:1 14987:1 26721:1 26722:2 #
0.069498834023448100016828732350405 289:1 953:1 1202:1 2011:1 13644:1 26721:1 26722:2 #
0.069498834023448100016828732350405 160:1 1365:1 5260:1 26721:1 26722:3 #
0.069498834023448100016828732350405 5:1 734:1 828:1 1365:1 26721:1 26722:1 #
0.069498834023448100016828732350405 517:1 982:1 1083:1 1614:1 8733:1 9110:1 13276:1 25615:1 26721:1 26722:2 #
-0.057786124893251800127558226449764 1941:1 4581:1 9333:1 26721:1 26722:2 #
-0.069498834023448100016828732350405 1519:1 6466:1 26721:1 26722:0 #
-0.069498834023448100016828732350405 26721:1 26722:0 #
-0.069498834023448100016828732350405 536:1 26722:2 #
0.032973755423412048903841764513345 1293:1 1813:1 2124:2 3402:1 6200:1 7946:1 26722:2 #
0.068230221733752816071216784621356 354:1 369:1 426:1 880:1 979:1 2003:1 4919:1 26722:2 #
-0.069498834023448100016828732350405 278:1 2277:2 2604:1 4865:1 7934:1 9473:1 26722:1 #
-0.069498834023448100016828732350405 1344:1 3277:1 26721:1 26722:0 #
-0.069498834023448100016828732350405 26721:1 26722:0 #
0.069498834023448100016828732350405 353:1 469:1 701:1 1095:1 2977:1 26721:1 26722:3 #
0.069498834023448100016828732350405 896:1 1314:1 3346:1 3421:1 25351:1 26722:3 #
-0.069498834023448100016828732350405 923:1 5936:1 19059:1 26721:1 26722:0 #
0.069498834023448100016828732350405 5904:1 7934:1 26721:1 26722:1 #
0.069498834023448100016828732350405 666:1 923:1 1086:1 1540:1 5768:1 5769:1 5770:1 26721:1 26722:1 #
-0.069498834023448100016828732350405 26721:1 26722:0 #
-0.069498834023448100016828732350405 26721:1 26722:0 #
-0.069498834023448100016828732350405 5814:1 26721:1 26722:0 #
-0.069498834023448100016828732350405 924:1 972:1 2941:2 17473:2 17475:2 26721:1 26722:0 #
-0.069498834023448100016828732350405 9079:1 26721:1 26722:0 #
0.069498834023448100016828732350405 427:1 5156:1 5834:1 7214:1 7215:1 7216:1 7217:1 26721:1 26722:0 #
0.069498834023448100016828732350405 508:1 779:1 2211:1 2363:1 9745:1 26434:1 26721:1 26722:0 #
0.069498834023448100016828732350405 196:1 840:1 937:1 1073:1 26721:1 26722:0 #
0.069498834023448100016828732350405 830:1 1507:1 1519:1 2106:1 3109:1 3110:1 3111:1 3112:1 3113:1 3114:1 3115:1 3117:1 3118:1 26721:1 26722:0 #
0.069498834023448100016828732350405 1446:1 2735:1 3112:1 4003:1 26721:1 26722:1 #
-0.069498834023448100016828732350405 482:1 695:1 26721:1 26722:0 #
-0.069498834023448100016828732350405 1741:1 26721:1 26722:0 #
-0.069498834023448100016828732350405 581:1 589:1 875:1 1673:1 26721:1 26722:1 #
0.069498834023448100016828732350405 204:1 970:1 2941:1 2974:1 8033:1 26721:1 26722:0 #
0.069498834023448100016828732350405 924:1 981:1 1258:1 2028:1 5352:1 18001:1 26721:1 26722:3 #
0.069498834023448100016828732350405 743:1 1152:1 1209:1 20598:1 26721:1 26722:3 #
0.069498834023448100016828732350405 1247:1 1668:1 1948:1 26722:3 #
0.069498834023448100016828732350405 695:1 1943:1 14850:1 26722:4 #
0.069498834023448100016828732350405 1238:1 1673:1 6416:1 26721:1 26722:0 #
0.069498834023448100016828732350405 22:1 471:1 687:1 758:1 965:1 2140:1 2141:1 2142:2 2143:1 26722:3 #
0.014051088030754305124858660747122 581:1 7516:1 10311:1 10620:1 12041:1 26721:1 26722:1 #
-0.069498834023448100016828732350405 550:1 26722:1 #
0.069498834023448100016828732350405 234:2 729:1 1327:1 1393:1 1576:1 1819:1 1824:1 2209:1 3136:1 3317:1 3422:1 8076:1 16759:1 18772:1 26721:1 26722:2 #
0.069498834023448100016828732350405 495:1 1214:1 1938:1 26722:1 #
-0.069498834023448100016828732350405 1546:1 2500:1 3198:1 26721:1 26722:1 #
0.0096461211029393242877283398684085 591:1 2016:2 2277:1 13046:1 17210:1 17211:1 26722:2 #
0.069498834023448100016828732350405 1114:1 1115:1 3899:1 21664:1 26721:1 26722:1 #
0.069498834023448100016828732350405 2073:1 3861:1 3972:1 10410:1 13785:1 26721:1 26722:1 #
0.069498834023448100016828732350405 1275:1 5209:1 6466:1 26721:1 26722:1 #
-0.069498834023448100016828732350405 875:1 1799:1 3176:1 26721:1 26722:2 #
0.069498834023448100016828732350405 875:1 891:1 1546:1 3988:1 26722:1 #
0.069498834023448100016828732350405 468:1 993:1 2064:1 3277:1 5673:1 8153:1 26721:1 26722:1 #
0.069498834023448100016828732350405 585:1 690:2 5671:1 5672:1 26722:0 #
0.069498834023448100016828732350405 1286:1 3198:1 26721:1 26722:1 #
0.069498834023448100016828732350405 3041:1 3277:1 4156:1 9489:1 18172:1 26721:1 26722:1 #
0.069498834023448100016828732350405 338:1 875:1 2320:1 2637:1 26721:1 26722:1 #
0.069498834023448100016828732350405 917:1 1799:1 3736:1 4616:1 5439:1 26721:1 26722:1 #
0.069498834023448100016828732350405 380:2 2897:1 5179:1 7658:1 26721:1 26722:1 #
-0.069498834023448100016828732350405 617:1 823:1 858:1 1073:1 1114:1 1115:1 1436:1 1729:1 2097:1 3186:1 3869:1 26722:1 #
0.069498834023448100016828732350405 10223:1 15182:1 26722:0 #
-0.069498834023448100016828732350405 324:1 970:1 1585:1 9105:1 26722:2 #
-0.069498834023448100016828732350405 26722:1 #
0.069498834023448100016828732350405 550:1 1342:1 2277:1 11362:1 26721:1 26722:1 #
0.069498834023448100016828732350405 151:1 767:1 964:1 2069:1 26721:1 26722:1 #
0.069498834023448100016828732350405 535:1 536:1 537:1 1273:1 1274:1 26721:1 26722:1 #
0.069498834023448100016828732350405 524:1 837:1 1710:1 7392:1 26722:1 #
0.069498834023448100016828732350405 1939:1 5145:1 5495:1 26721:1 26722:1 #
-0.069498834023448100016828732350405 338:1 1274:1 2637:1 26721:1 26722:1 #
-0.069498834023448100016828732350405 502:1 737:2 919:1 1373:1 3173:1 3883:1 26722:1 #
-0.069498834023448100016828732350405 1108:1 1109:1 2016:1 2085:2 2687:1 5209:1 26722:1 #
0.069498834023448100016828732350405 13:1 875:1 921:1 1060:1 1402:1 3256:1 3257:1 26722:1 #
-0.069498834023448100016828732350405 109:1 1062:2 1917:1 2420:1 26721:1 26722:1 #
-0.069498834023448100016828732350405 115:1 507:1 3703:1 4489:1 7507:1 11914:1 26721:1 26722:2 #
0.069498834023448100016828732350405 875:1 982:1 1060:1 1849:1 26722:1 #
0.069498834023448100016828732350405 107:1 581:1 1201:1 7506:1 11870:1 26722:1 #
0.069498834023448100016828732350405 1114:1 1115:1 2277:1 3737:1 26722:0 #
0.069498834023448100016828732350405 80:1 695:1 953:1 1156:1 3950:1 26722:0 #
-0.069498834023448100016828732350405 815:1 947:1 1161:1 1343:1 1654:1 3187:1 5726:1 5909:1 10828:1 26722:1 #
0.069498834023448100016828732350405 101:1 365:1 378:1 530:1 533:1 702:1 892:1 1422:1 1486:1 1519:1 2064:1 2188:1 2344:1 3805:1 3921:1 4953:1 6665:1 16338:1 19910:1 26722:1 #
-0.069498834023448100016828732350405 329:1 1101:1 7135:1 26721:1 26722:1 #
-0.069498834023448100016828732350405 178:1 842:1 844:1 26722:1 #
0.069498834023448100016828732350405 26722:0 #
-0.069498834023448100016828732350405 226:1 263:1 506:1 662:1 881:1 905:1 966:1 1402:1 1581:1 3840:1 4327:1 24549:1 26721:1 26722:5 #
-0.069498834023448100016828732350405 368:1 654:1 677:1 746:1 1507:1 2774:1 3588:1 3620:1 5403:1 9671:1 26722:3 #
-0.069498834023448100016828732350405 153:1 475:1 616:2 722:1 930:1 984:2 2077:1 4937:1 10091:1 11099:1 26722:3 #
-0.069498834023448100016828732350405 531:1 937:1 1826:2 4969:1 5057:1 26722:3 #
0.069498834023448100016828732350405 107:1 368:1 2749:1 7810:1 14869:1 20880:1 21487:1 21489:1 26722:1 #
0.069498834023448100016828732350405 211:1 841:1 1119:1 1272:1 2199:1 2931:1 4112:1 26722:1 #
-0.069498834023448100016828732350405 536:1 832:1 914:1 1441:1 1507:1 1932:1 2320:1 6562:1 8230:1 26722:1 #
-0.069498834023448100016828732350405 25:1 369:1 482:1 553:1 1409:1 3434:1 26721:1 26722:37 #
-0.069498834023448100016828732350405 26722:1 #
-0.069498834023448100016828732350405 801:1 6518:1 26722:2 #
-0.069498834023448100016828732350405 804:1 2015:1 3918:1 4537:1 4890:1 6652:1 19670:1 26722:1 #
0.069498834023448100016828732350405 292:1 701:1 3602:1 3767:1 6123:1 26721:1 26722:1 #
-0.069498834023448100016828732350405 1042:1 2392:1 5727:1 26722:2 #
0.069498834023448100016828732350405 151:1 895:1 1271:2 1899:1 4737:1 12727:1 13209:1 15240:1 26722:0 #
0.069498834023448100016828732350405 337:1 2824:1 4245:1 4366:1 5691:1 26721:1 26722:1 #
0.069498834023448100016828732350405 1486:1 26721:1 26722:1 #
0.069498834023448100016828732350405 18864:1 26721:1 26722:0 #
0.069498834023448100016828732350405 1180:1 4091:2 26721:1 26722:1 #
-0.069498834023448100016828732350405 970:1 1447:1 9671:1 26722:2 #
0.019376878106455525108131610068085 581:1 835:1 1537:1 1799:1 1942:1 3099:1 3100:1 6443:1 26722:1 #
0.069498834023448100016828732350405 599:1 1988:1 2271:1 9139:1 18187:1 26722:0 #
-0.069498834023448100016828732350405 260:1 331:1 823:1 1298:1 1832:1 2873:1 26721:1 26722:2 #
0.046251730344783532899999300980198 95:1 1069:1 1214:1 2134:1 3140:1 3315:1 7117:1 20559:1 26722:1 #
0.059876055811987745347568790066362 482:1 830:1 875:1 1249:1 1663:1 1685:1 2786:1 2805:1 3165:1 3678:1 7213:1 12219:1 13110:1 13111:1 26722:1 #
-0.069498834023448100016828732350405 389:1 937:1 1270:1 1910:1 1970:1 2121:1 26721:1 26722:2 #
-0.069498834023448100016828732350405 389:1 984:1 1098:1 3174:1 6683:1 26721:1 26722:2 #
-0.069498834023448100016828732350405 67:1 2488:1 8161:1 15678:1 26721:1 26722:2 #
-0.069498834023448100016828732350405 743:1 2735:1 26721:1 26722:1 #
-0.069498834023448100016828732350405 436:1 1342:1 26721:1 26722:1 #
-0.069498834023448100016828732350405 743:1 1092:1 1166:1 1273:1 1964:1 2719:1 2768:1 3507:1 3909:1 5885:1 26721:1 26722:1 #
0.054021856722479451307084019617832 698:1 981:1 1061:1 1099:1 3845:1 4117:1 11108:1 26722:0 #
0.068230682454680391391121929700603 187:1 1163:1 2140:1 2141:1 2296:1 2313:1 3243:1 4546:1 6019:1 6124:1 13199:1 26722:1 #
0.069498834023448100016828732350405 1832:1 2149:1 2500:1 14367:1 26722:0 #
0.069498834023448100016828732350405 425:1 1799:1 13033:1 26722:1 #
-0.069498834023448100016828732350405 1468:1 2651:1 2786:1 4461:1 26722:2 #
-0.069498834023448100016828732350405 427:1 547:1 815:1 1775:1 1799:1 2757:1 5262:1 10174:1 10423:1 26722:4 #
-0.069498834023448100016828732350405 1234:1 1586:1 3685:1 5065:1 26722:1 #
-0.069498834023448100016828732350405 17570:1 24093:1 26722:1 #
-0.069498834023448100016828732350405 3434:1 26722:5 #
0.069498834023448100016828732350405 26721:1 26722:1 #
0.069498834023448100016828732350405 555:1 701:1 1373:1 4709:1 17627:1 26722:2 #
0.069498834023448100016828732350405 1937:2 1938:1 3984:1 26722:0 #
0.069498834023448100016828732350405 247:1 5945:1 7144:1 26721:1 26722:1 #
-0.069498834023448100016828732350405 970:1 1219:1 1276:1 1831:1 2914:1 26721:1 26722:1 #
-0.069498834023448100016828732350405 262:1 309:1 519:1 530:1 581:1 777:3 964:1 970:1 1247:1 1386:1 4687:1 6033:1 6771:1 10678:1 10679:1 26721:1 26722:2 #
-0.069498834023448100016828732350405 666:1 770:1 982:1 1066:1 1307:1 1327:1 1422:1 4034:1 6157:1 26721:1 26722:2 #
-0.069498834023448100016828732350405 11:2 530:1 1231:1 1361:1 1442:1 1453:1 2316:1 2895:1 3805:1 4087:1 5810:1 11106:1 13937:1 18131:1 26721:1 26722:3 #
-0.069498834023448100016828732350405 581:1 648:1 737:1 759:1 1214:1 1402:1 1504:1 1951:1 3192:1 4347:1 26721:1 26722:3 #
-0.069498834023448100016828732350405 11:2 793:2 26721:1 26722:2 #
-0.069498834023448100016828732350405 415:1 2933:1 3329:1 3331:1 3332:1 3333:1 26721:1 26722:1 #
-0.069498834023448100016828732350405 151:1 544:1 630:1 1638:1 26721:1 26722:1 #
-0.069498834023448100016828732350405 262:1 502:1 550:1 594:1 1219:1 1607:1 2512:1 3250:1 5177:1 10529:1 26721:1 26722:2 #
0.069498834023448100016828732350405 26722:0 #
0.069498834023448100016828732350405 221:1 482:1 572:1 1125:1 1345:1 26722:0 #
-0.02332926640369714643696852363064 637:1 656:1 1062:1 26721:1 26722:1 #
0.069498834023448100016828732350405 555:1 1060:1 1177:1 2687:1 4429:1 4988:1 6290:1 26722:0 #
-0.069498834023448100016828732350405 80:1 1937:2 26722:1 #
0.069498834023448100016828732350405 22:1 97:1 1073:1 1177:1 1707:1 4887:1 7050:2 26722:0 #
0.069498834023448100016828732350405 936:1 1529:1 1530:1 1741:1 26722:0 #
0.069498834023448100016828732350405 1466:1 1491:1 3685:1 11409:1 18673:1 19921:1 26722:0 #
0.069498834023448100016828732350405 573:1 3056:1 3281:1 26722:0 #
-0.069498834023448100016828732350405 955:1 26721:1 26722:1 #
-0.069498834023448100016828732350405 1072:1 26722:0 #
-0.069498834023448100016828732350405 331:1 378:1 9080:1 13636:1 26721:1 26722:4 #
0.069498834023448100016828732350405 191:1 1001:1 1166:1 7194:1 26722:0 #
-0.069498834023448100016828732350405 518:1 748:1 979:1 1170:1 6897:1 26721:1 26722:1 #
0.069498834023448100016828732350405 101:1 519:1 2468:1 3807:1 4692:1 26722:1 #
-0.069498834023448100016828732350405 1359:1 1654:1 6246:1 26721:1 26722:2 #
-0.069498834023448100016828732350405 242:1 321:1 354:1 471:1 922:1 1138:1 1193:1 1415:1 2149:1 4239:1 26721:1 26722:2 #
-0.069498834023448100016828732350405 229:1 998:1 2413:1 4091:1 5728:1 7050:1 13379:1 19589:1 26721:1 26722:3 #
0.069498834023448100016828732350405 191:1 262:1 525:1 5444:1 26722:1 #
-0.069498834023448100016828732350405 262:1 447:1 536:1 1047:1 2199:1 2487:1 26722:0 #
-0.069498834023448100016828732350405 262:1 271:1 596:1 649:1 891:1 1343:1 2085:1 26722:2 #
-0.069498834023448100016828732350405 205:1 379:1 389:1 420:1 567:1 1705:1 2255:1 5951:1 26722:1 #
-0.069498834023448100016828732350405 11:1 802:1 1099:1 1271:2 1697:1 1718:1 1831:1 2188:1 2365:1 3000:1 26722:3 #
-0.069498834023448100016828732350405 1180:2 2085:1 26722:1 #
0.069498834023448100016828732350405 729:1 1192:1 1739:1 3389:1 3683:1 26722:3 #
-0.069498834023448100016828732350405 207:1 331:1 1112:1 1161:1 1343:1 26722:1 #
-0.069498834023448100016828732350405 2642:1 5086:1 6665:1 26721:1 26722:1 #
0.069498834023448100016828732350405 378:1 875:1 1031:1 1339:1 4879:1 7224:1 11375:1 26722:1 #
-0.069498834023448100016828732350405 204:1 262:1 1031:1 1504:1 3441:1 5439:1 5440:1 26722:3 #
-0.069498834023448100016828732350405 544:1 858:1 979:1 2847:1 4836:1 5673:1 26722:1 #
-0.069498834023448100016828732350405 939:1 1062:2 1101:1 2026:1 2141:1 2495:1 26721:1 26722:1 #
-0.069498834023448100016828732350405 391:1 644:1 648:1 1062:1 5070:1 5122:1 6619:1 6959:1 7878:1 9539:1 26722:1 #
-0.069498834023448100016828732350405 1062:1 1952:1 2719:1 2858:1 4495:1 9417:1 13069:1 26721:1 26722:1 #
-0.069498834023448100016828732350405 928:1 1073:1 3376:1 4462:1 7117:1 26722:1 #
-0.069498834023448100016828732350405 503:1 1482:1 1831:1 26722:1 #
-0.069498834023448100016828732350405 1069:1 1173:1 1214:1 2077:1 2644:1 3370:1 14732:1 26722:1 #
-0.069498834023448100016828732350405 115:1 1831:1 2272:1 4087:1 11116:1 26722:1 #
-0.069498834023448100016828732350405 1813:1 2874:1 3140:1 11805:1 26722:0 #
-0.069498834023448100016828732350405 247:1 556:1 3172:2 26721:1 26722:2 #
-0.069498834023448100016828732350405 324:1 354:1 1451:1 2124:1 3726:1 7194:1 9342:1 26722:1 #
-0.069498834023448100016828732350405 581:1 1069:1 1074:1 1075:1 2259:1 4642:1 11265:1 12431:1 26722:2 #
-0.069498834023448100016828732350405 426:1 905:1 1251:1 2413:1 26722:1 #
-0.069498834023448100016828732350405 207:1 426:1 550:1 640:1 667:1 833:1 915:1 1060:1 1246:1 1938:1 1948:1 4057:1 10710:1 26722:5 #
0.024634748310157772444028978497954 262:1 388:1 584:1 941:1 1364:1 2805:1 3438:1 5058:1 26722:3 #
-0.069498834023448100016828732350405 128:1 336:1 743:1 837:1 1826:1 5286:1 6065:2 26722:1 #
-0.069498834023448100016828732350405 327:1 984:1 4184:1 26722:1 #
-0.054466214673298839199500065433313 394:1 780:1 1181:1 1731:1 2743:1 3984:1 4288:1 14648:1 26722:2 #
-0.037151779834890298614968884294285 917:1 981:2 1401:1 3635:1 3775:1 26722:2 #
-0.069498834023448100016828732350405 43:1 137:1 357:1 369:1 415:1 815:1 1493:1 2873:1 5103:1 6402:1 26722:2 #
0.069498834023448100016828732350405 465:1 656:1 5371:1 26722:0 #
-0.069498834023448100016828732350405 1060:1 1169:1 1340:1 1341:1 1617:1 1741:1 2124:1 17664:1 26722:2 #
-0.069498834023448100016828732350405 447:1 1340:1 1341:1 1354:1 2030:1 4156:1 8083:1 24595:2 26722:1 #
-0.069498834023448100016828732350405 5:1 509:1 615:1 930:1 1173:1 1238:1 1252:1 1340:1 3585:1 4205:1 5391:1 8295:1 9910:1 12402:1 20138:1 26722:2 #
-0.069498834023448100016828732350405 126:1 853:1 881:1 1155:1 1317:1 8288:1 13483:1 16447:1 26721:1 26722:1 #
-0.069498834023448100016828732350405 875:1 1060:1 1086:1 1460:1 2070:1 26722:1 #
-0.069498834023448100016828732350405 1060:1 1287:1 1470:1 2313:1 7580:1 11194:1 26722:2 #
0.069498834023448100016828732350405 2392:1 4156:1 26722:0 #
-0.069498834023448100016828732350405 628:1 698:1 905:1 1814:1 3683:1 3795:1 10627:1 26722:0 #
-0.047145778469213972527995792916045 517:1 649:1 1274:1 1606:1 1901:1 3708:1 20375:1 26722:4 #
-0.069498834023448100016828732350405 693:1 905:1 1293:1 1454:1 26722:1 #
-0.069498834023448100016828732350405 5:1 905:1 5268:1 26722:1 #
0.069498834023448100016828732350405 541:1 3186:1 4450:1 5533:1 26721:1 26722:1 #
-0.069498834023448100016828732350405 541:1 875:1 1507:1 2227:1 4091:1 22738:1 26721:1 26722:3 #
-0.069498834023448100016828732350405 1867:1 1921:1 2200:1 3609:1 26721:1 26722:1 #
-0.069498834023448100016828732350405 224:1 987:1 2266:1 5220:2 9749:1 20433:2 26721:1 26722:1 #
0.069498834023448100016828732350405 415:1 1314:1 1320:1 2361:2 3143:2 3363:1 10131:1 26722:1 #
-0.069498834023448100016828732350405 11:1 813:1 1819:1 1826:1 3143:1 9428:1 13514:1 19197:1 22938:1 26722:2 #
-0.069498834023448100016828732350405 1148:1 1582:1 1616:1 2153:1 2214:1 2361:1 3143:1 3678:1 4366:1 26722:3 #
-0.069498834023448100016828732350405 380:1 813:1 1061:1 1337:1 1915:1 2153:1 2361:1 3143:1 4686:2 4971:1 26722:4 #
-0.069498834023448100016828732350405 1060:1 1125:1 1320:1 2749:2 10811:1 26722:1 #
-0.069498834023448100016828732350405 1333:1 1819:1 1915:1 2361:1 6171:1 7054:1 26722:1 #
-0.069498834023448100016828732350405 338:1 1243:1 1320:1 1607:1 4358:1 6466:1 9700:1 26721:1 26722:2 #
0.069498834023448100016828732350405 380:1 530:1 1295:1 1619:1 2408:1 3249:1 3483:1 26722:1 #
-0.069498834023448100016828732350405 380:1 562:1 800:1 1287:1 1565:1 1854:1 2422:1 2878:1 3279:1 5945:1 12165:1 26722:2 #
-0.069498834023448100016828732350405 864:1 3376:1 9745:1 26722:1 #
-0.069498834023448100016828732350405 530:1 616:1 743:1 1007:1 2009:1 2316:1 2731:1 26722:2 #
-0.069498834023448100016828732350405 416:1 1340:1 1345:1 1526:1 2236:1 2313:2 2560:1 3146:1 7014:1 7948:1 12089:1 13829:1 26722:2 #
-0.069498834023448100016828732350405 178:2 416:2 584:1 986:1 1390:1 2991:1 26721:1 26722:2 #
-0.069498834023448100016828732350405 379:1 1119:1 1427:1 1757:1 2478:1 2544:1 3984:1 4684:1 10306:1 14052:1 26722:2 #
-0.069498834023448100016828732350405 416:1 992:1 3972:1 4214:1 8048:1 26722:1 #
-0.069498834023448100016828732350405 471:1 780:1 1823:1 1939:1 7045:1 26722:2 #
-0.069498834023448100016828732350405 1823:2 26722:1 #
-0.069498834023448100016828732350405 359:1 468:1 924:1 990:1 1393:1 2124:2 2361:1 26722:3 #
0.069498834023448100016828732350405 242:1 840:1 1948:1 26722:1 #
0.069498834023448100016828732350405 898:1 1045:1 1189:1 1939:1 2651:1 2687:1 11268:1 22386:1 26722:0 #
-0.069498834023448100016828732350405 1819:1 13420:1 26721:1 26722:1 #
-0.069498834023448100016828732350405 547:1 767:1 2173:1 2898:1 9617:1 9685:2 13374:1 26722:1 #
-0.069498834023448100016828732350405 3619:1 7658:1 26721:1 26722:1 #
-0.069498834023448100016828732350405 1819:1 4327:1 9343:1 13581:1 26721:1 26722:1 #
-0.069498834023448100016828732350405 211:1 1424:1 1823:1 1885:1 2706:1 4087:2 16509:1 18792:1 26722:1 #
-0.029863351319904578307085074584393 897:2 1343:1 1758:1 2462:1 26722:1 #
-0.069498834023448100016828732350405 677:1 1149:1 1208:1 1426:1 1447:1 1819:1 4707:1 7911:1 8266:2 19928:1 26722:0 #
-0.069498834023448100016828732350405 699:1 702:1 746:1 1569:1 1592:1 1955:1 2018:1 2199:1 2919:1 5913:1 19133:1 26722:2 #
-0.069498834023448100016828732350405 1314:1 1358:1 1402:1 3861:1 4066:1 7854:1 26722:1 #
0.026073239933652903044247750585782 528:1 584:1 1569:1 3729:1 26721:1 26722:1 #
-0.069498834023448100016828732350405 334:1 368:1 530:1 877:1 26721:1 26722:1 #
-0.069498834023448100016828732350405 415:1 792:1 960:1 1155:1 4971:1 5783:1 6579:1 9969:1 15165:1 16022:1 16024:1 26721:1 26722:2 #
-0.069498834023448100016828732350405 1295:1 1563:1 1576:1 6056:1 26721:1 26722:1 #
-0.069498834023448100016828732350405 276:1 3136:1 7433:1 7927:1 26721:1 26722:1 #
-0.069498834023448100016828732350405 1442:1 2103:1 4393:1 26721:1 26722:1 #
-0.069498834023448100016828732350405 216:1 223:1 354:1 567:1 2711:1 3132:1 26722:0 #
-0.069498834023448100016828732350405 858:1 1372:1 1604:1 2279:1 3979:1 7628:1 26722:0 #
-0.069498834023448100016828732350405 1073:1 1341:1 11400:1 14089:1 26722:0 #
-0.069498834023448100016828732350405 669:1 930:1 1099:2 1152:1 1327:1 2174:1 2201:1 3986:1 8022:1 26722:1 #
-0.069498834023448100016828732350405 470:1 581:1 1170:1 2320:1 3016:1 3637:1 3687:1 4887:1 7200:2 26722:1 #
-0.069498834023448100016828732350405 356:1 405:3 1295:1 2934:1 4322:1 5366:1 26722:7 #
0.069498834023448100016828732350405 482:1 1099:1 26722:0 #
-0.069498834023448100016828732350405 65:1 259:1 286:1 1938:1 6828:1 26722:1 #
-0.069498834023448100016828732350405 1172:1 3017:1 3719:1 3916:1 26722:1 #
-0.069498834023448100016828732350405 544:1 936:1 1835:1 1937:1 5254:1 5725:1 26722:0 #
-0.069498834023448100016828732350405 953:1 1161:1 1819:1 26722:1 #
0.069498834023448100016828732350405 356:1 6412:1 26722:0 #
-0.069498834023448100016828732350405 234:1 489:1 990:1 1201:1 1732:1 2027:1 26722:0 #
-0.069498834023448100016828732350405 687:1 833:1 26722:0 #
-0.069498834023448100016828732350405 1426:1 1506:1 26721:1 26722:1 #
-0.069498834023448100016828732350405 1074:1 1582:1 2153:1 2642:2 3143:1 5752:1 7646:1 7674:1 9899:1 11253:1 14670:1 16097:1 26721:1 26722:7 #
-0.069498834023448100016828732350405 207:1 864:3 1592:1 1830:1 2864:1 3269:1 4331:1 4349:1 5070:2 9693:1 11759:1 26722:6 #
-0.069498834023448100016828732350405 350:1 1163:1 1315:1 1382:1 1743:1 2320:1 2355:1 2648:1 4105:1 6711:1 26722:2 #
-0.069498834023448100016828732350405 168:1 256:1 380:1 425:1 464:1 465:1 6709:1 6711:1 26722:5 #
-0.069498834023448100016828732350405 853:1 1189:1 1939:1 5049:1 26722:2 #
-0.069498834023448100016828732350405 190:1 329:1 692:1 923:1 982:1 984:1 1939:1 8226:1 26722:2 #
-0.069498834023448100016828732350405 1122:1 1939:1 2567:1 26722:1 #
-0.069498834023448100016828732350405 247:1 470:1 1189:1 3279:1 3315:1 4515:1 8119:1 8270:1 26722:1 #
-0.069498834023448100016828732350405 584:1 3507:1 6840:1 26721:1 26722:80 #
0.069498834023448100016828732350405 334:1 1942:1 2743:1 4811:1 10296:1 26722:0 #
-0.069498834023448100016828732350405 24:1 368:1 464:1 465:1 550:1 26722:1 #
-0.069498834023448100016828732350405 256:1 464:1 465:1 2174:1 26722:2 #
-0.069498834023448100016828732350405 341:1 1302:1 3764:1 8781:1 10530:1 17436:1 18076:1 26721:1 26722:1 #
-0.049322103003799161458076127928507 16269:1 16490:1 26722:2 #
-0.069498834023448100016828732350405 669:1 695:1 1006:1 3785:2 26722:1 #
-0.069498834023448100016828732350405 262:1 1365:1 1373:1 1886:1 7909:1 19769:1 26722:1 #
-0.055219049033560271833032118138362 347:1 804:1 882:1 2651:1 3737:1 4091:1 4515:1 6751:1 9899:1 10905:1 14272:1 26722:2 #
-0.069498834023448100016828732350405 460:1 1569:1 5441:1 6376:1 7810:1 26722:2 #
0.069498834023448100016828732350405 1180:1 1320:1 5698:1 6680:1 12316:1 26722:1 #
-0.069498834023448100016828732350405 3399:1 5058:1 26721:1 26722:1 #
-0.069498834023448100016828732350405 460:1 1815:1 1951:1 9579:1 26722:1 #
-0.069498834023448100016828732350405 3082:1 4880:1 26722:1 #
-0.069498834023448100016828732350405 338:1 541:1 796:1 1287:1 1316:1 2933:1 4150:1 26722:3 #
0.069498834023448100016828732350405 1009:1 3674:1 4225:1 4521:1 7610:1 8726:1 14413:1 26721:1 26722:1 #
0.069498834023448100016828732350405 65:1 1470:1 2048:1 2358:1 2390:1 4117:1 4813:2 7494:1 7941:1 9922:1 14855:1 26722:0 #
0.069498834023448100016828732350405 4544:1 26721:1 26722:0 #
0.01020546038922726106434879511653 579:1 654:1 677:1 678:1 26722:3 #
-0.027018202245291604579602307012465 1101:1 1199:1 3119:1 26721:1 26722:1 #
-0.053601077521599149733333433687221 219:1 633:1 1074:1 1075:1 1425:1 2133:1 2239:1 2637:1 3244:1 4683:1 6077:1 6078:1 12597:1 26722:3 #
0.069498834023448100016828732350405 541:1 2544:1 2758:1 4059:1 26722:0 #
0.069498834023448100016828732350405 207:1 541:1 932:1 2973:1 26722:0 #
-0.069498834023448100016828732350405 329:1 616:1 1819:1 1833:1 2132:1 2227:1 2468:1 3158:2 5825:1 6512:1 7672:1 10925:1 26721:1 26722:4 #
-0.069498834023448100016828732350405 800:1 1003:1 1252:1 1772:1 2084:1 2254:1 3706:1 4874:1 5809:1 26721:1 26722:20 #
0.069498834023448100016828732350405 334:1 1967:1 3805:1 5058:1 12887:1 26722:0 #
-0.069498834023448100016828732350405 533:1 737:1 1281:1 26722:28 #
0.069498834023448100016828732350405 436:1 1772:1 4283:1 6747:2 26721:1 26722:1 #
-0.069498834023448100016828732350405 344:1 886:1 1504:1 2011:1 2550:1 3684:1 5346:1 9149:1 13001:1 26722:8 #
0.028886355047837271314836726787689 190:1 475:1 1209:1 2543:1 2884:1 9066:1 10512:1 26722:0 #
-0.069498834023448100016828732350405 767:1 790:1 1246:1 1329:1 26722:1 #
-0.069498834023448100016828732350405 11139:1 26722:1 #
-0.069498834023448100016828732350405 329:1 26721:1 26722:1 #
-0.069498834023448100016828732350405 224:1 354:2 895:2 896:2 2743:2 3442:2 26722:4 #
0.069498834023448100016828732350405 2637:1 2660:1 26722:0 #
0.069498834023448100016828732350405 930:1 1287:1 3198:1 5623:1 13685:1 26722:0 #
0.069498834023448100016828732350405 460:1 509:1 851:1 1251:1 2191:1 26722:0 #
0.069498834023448100016828732350405 815:1 1310:1 1563:1 1792:1 3372:1 16114:1 17647:1 17898:1 18922:1 26722:0 #
0.069498834023448100016828732350405 983:1 1115:1 6466:1 15330:1 19223:1 20212:1 26722:0 #
0.069498834023448100016828732350405 680:1 730:1 921:1 4079:1 26721:1 26722:1 #
0.069498834023448100016828732350405 129:1 1733:1 6505:1 8475:1 26722:0 #
0.069498834023448100016828732350405 369:1 2009:1 3434:1 6523:1 26722:0 #
-0.069498834023448100016828732350405 1886:1 3674:1 3939:1 26722:1 #
-0.069498834023448100016828732350405 475:1 556:1 807:1 1470:1 2200:1 26722:1 #
-0.056798398787445449065192093485166 4963:1 5264:1 11370:1 19446:1 26722:2 #
-0.069498834023448100016828732350405 422:1 491:1 978:1 979:1 1007:1 1680:1 2781:1 2970:1 8329:1 16314:1 26722:1 #
0.069498834023448100016828732350405 1820:1 8462:1 26722:0 #
-0.012424404095375526924094344849436 197:1 824:1 1702:1 2651:1 2824:1 6223:1 10033:1 26722:0 #
-0.069498834023448100016828732350405 226:1 581:1 648:1 979:1 1266:1 2111:1 2432:1 2797:1 4225:1 9681:1 13680:1 26722:5 #
-0.069498834023448100016828732350405 33:1 219:1 426:1 502:1 701:1 957:1 1002:1 2124:1 2274:1 2687:1 3800:1 12359:1 26722:4 #
-0.069498834023448100016828732350405 503:1 685:1 875:1 964:1 1292:1 1320:1 3404:1 4487:1 5520:1 5523:1 26722:6 #
-0.055051753010320975123548237206705 502:1 525:1 984:1 1264:1 2077:1 2468:1 8645:1 26722:3 #
0.069498834023448100016828732350405 2691:1 2785:1 26721:1 26722:1 #
0.069498834023448100016828732350405 1320:1 3435:1 10245:1 26721:1 26722:1 #
0.069498834023448100016828732350405 306:1 550:1 581:2 1061:1 1192:1 2077:1 2117:1 3018:1 5756:1 26722:0 #
-0.069498834023448100016828732350405 475:1 1102:1 1122:1 1609:1 26721:1 26722:1 #
-0.069498834023448100016828732350405 2009:1 26721:1 26722:1 #
-0.069498834023448100016828732350405 24:1 830:1 1274:1 1470:1 1658:1 6407:1 13825:1 26721:1 26722:1 #
-0.069498834023448100016828732350405 1364:1 1489:1 3674:1 4125:1 5230:1 26721:1 26722:2 #
-0.069498834023448100016828732350405 388:1 581:1 668:1 987:1 1001:1 1061:1 1281:1 1352:1 2093:1 4878:1 7292:1 26722:7 #
-0.069498834023448100016828732350405 837:1 1138:1 1453:1 1857:1 1949:1 4994:1 6285:1 8140:1 26722:0 #
0.069498834023448100016828732350405 1092:1 15297:1 26722:0 #
-0.069498834023448100016828732350405 420:1 1470:1 1486:1 3561:1 3911:1 4630:1 5696:1 5697:1 5698:1 26722:6 #
0.069498834023448100016828732350405 813:1 1352:1 1470:1 1604:1 3708:1 5525:1 12825:1 26722:0 #
-0.069498834023448100016828732350405 268:1 1599:1 1823:2 1826:1 26722:5 #
0.069498834023448100016828732350405 823:1 987:1 2385:1 26722:0 #
0.069498834023448100016828732350405 234:1 3755:1 4748:2 26722:0 #
0.069498834023448100016828732350405 502:1 2015:1 2193:1 4214:1 26721:1 26722:4 #
-0.069498834023448100016828732350405 4514:1 6976:1 26722:1 #
-0.069498834023448100016828732350405 266:1 970:1 1302:1 1617:1 1979:2 2364:1 16400:1 26722:7 #
-0.069498834023448100016828732350405 1099:3 1271:4 2785:1 26722:5 #
0.069498834023448100016828732350405 541:1 875:1 1823:1 7927:1 26722:0 #
-0.069498834023448100016828732350405 106:1 1842:1 2447:1 6056:1 26721:1 26722:2 #
-0.069498834023448100016828732350405 190:1 1001:1 1192:1 1343:1 1814:2 1942:1 2201:1 2351:1 8274:1 26722:4 #
-0.069498834023448100016828732350405 223:1 1733:1 4405:1 5177:1 5723:2 7516:1 10620:1 26721:1 26722:4 #
0.069498834023448100016828732350405 387:1 1271:1 1506:1 1844:1 6472:1 7344:1 9614:1 26721:1 26722:1 #
-0.019886267855047989883132686372846 306:2 584:1 777:1 2121:1 2333:1 8581:1 26722:2 #
-0.069498834023448100016828732350405 205:1 842:1 2462:1 2691:1 3136:1 3807:1 14921:1 26722:3 #
-0.069498834023448100016828732350405 211:1 649:1 934:1 2217:1 2296:1 5741:2 12404:1 26722:3 #
-0.069498834023448100016828732350405 743:1 1180:1 1209:1 3078:1 3539:1 7235:1 26722:3 #
0.069498834023448100016828732350405 241:1 436:1 964:1 1370:1 1403:1 1733:1 1830:1 2495:1 5666:1 26721:1 26722:1 #
0.069498834023448100016828732350405 11:1 379:1 701:1 971:1 1814:1 2085:1 3645:1 26722:0 #
0.069498834023448100016828732350405 699:1 1001:1 1128:1 2360:1 5464:1 26722:0 #
-0.069498834023448100016828732350405 701:2 1110:1 1214:1 1983:1 2875:1 6293:1 8900:1 13343:1 26722:0 #
-0.069498834023448100016828732350405 830:1 897:1 4478:1 10545:1 10589:1 12416:1 26721:1 26722:3 #
-0.069498834023448100016828732350405 191:1 368:1 1655:1 2360:1 4657:1 26721:1 26722:2 #
0.069498834023448100016828732350405 777:1 26722:0 #
0.069498834023448100016828732350405 777:1 4373:1 7565:1 26722:0 #
0.069498834023448100016828732350405 921:1 2121:1 8266:1 8507:1 26722:0 #
-0.069498834023448100016828732350405 80:1 433:1 530:1 547:1 722:1 2328:1 5527:1 8140:1 12143:1 26722:6 #
-0.069498834023448100016828732350405 579:1 628:1 981:2 1506:1 2028:1 6113:1 8475:1 8476:1 26722:3 #
-0.069498834023448100016828732350405 118:4 341:1 1166:1 2850:1 26722:3 #
-0.069498834023448100016828732350405 422:2 1314:1 1733:1 1865:1 5103:1 5638:1 26722:2 #
0.069498834023448100016828732350405 1307:1 1487:1 1702:2 1772:1 2355:1 26721:1 26722:1 #
0.069498834023448100016828732350405 955:1 1012:1 3813:1 3814:1 4426:1 26721:1 26722:1 #
0.069498834023448100016828732350405 551:1 590:1 911:1 1735:1 1944:1 2097:1 3178:1 3436:1 5132:1 26721:1 26722:1 #
-0.069498834023448100016828732350405 4251:1 26722:1 #
-0.069498834023448100016828732350405 537:1 858:1 2719:1 26722:1 #
-0.069498834023448100016828732350405 499:1 1839:1 5537:1 26722:2 #
-0.069498834023448100016828732350405 1251:1 4905:1 5608:1 25261:1 26722:2 #
0.069498834023448100016828732350405 751:1 4767:1 26722:0 #
0.069498834023448100016828732350405 519:1 26721:1 26722:1 #
0.069498834023448100016828732350405 379:1 788:1 1201:1 1680:1 4255:1 26722:0 #
0.069498834023448100016828732350405 420:1 491:1 3621:1 6128:1 11357:1 12107:1 26721:1 26722:1 #
0.069498834023448100016828732350405 1668:2 26721:1 26722:1 #
-0.069498834023448100016828732350405 243:1 394:1 491:1 623:1 677:1 757:1 777:1 1274:1 1549:1 1625:1 1977:1 2332:1 3643:1 26721:1 26722:0 #
-0.069498834023448100016828732350405 173:1 550:1 1435:1 3128:1 26721:1 26722:1 #
-0.069498834023448100016828732350405 337:1 917:1 2184:1 2279:1 2703:1 3241:1 26721:1 26722:3 #
-0.069498834023448100016828732350405 43:1 161:1 337:1 770:1 1129:1 1967:1 4126:1 7678:1 16679:1 20479:1 20512:1 26721:1 26722:2 #
0.069498834023448100016828732350405 129:1 936:1 981:1 1611:1 4832:1 4856:1 26722:0 #
0.069498834023448100016828732350405 67:1 337:1 422:1 807:1 2015:1 2316:1 2982:1 3791:1 3792:1 26722:0 #
0.069498834023448100016828732350405 2223:1 3256:1 26722:0 #
-0.069498834023448100016828732350405 160:1 256:1 665:1 1084:1 1668:1 3773:1 26722:2 #
-0.061069366117960856288338078456945 129:2 550:1 1010:1 3621:2 10256:1 26722:1 #
-0.069498834023448100016828732350405 368:1 655:1 730:1 837:1 936:1 1119:1 1573:1 18106:1 26722:1 #
-0.069498834023448100016828732350405 553:2 936:1 1831:1 2341:1 2679:1 3165:1 26722:3 #
0.069498834023448100016828732350405 118:1 4111:1 11984:1 16203:1 16204:1 26721:1 26722:1 #
0.069498834023448100016828732350405 770:1 26721:1 26722:1 #
0.069498834023448100016828732350405 190:1 2313:1 3817:1 5419:1 17669:1 26722:3 #
0.069498834023448100016828732350405 1582:1 2720:1 6086:1 8501:1 26722:0 #
-0.032197521764773751051791350619169 656:1 2214:1 4111:1 5177:1 11357:1 18904:1 26722:0 #
0.069498834023448100016828732350405 266:1 659:1 26722:0 #
-0.069498834023448100016828732350405 379:1 424:1 926:1 1275:1 1611:1 3149:1 3411:1 4405:1 4928:1 10226:1 26721:1 26722:2 #
-0.069498834023448100016828732350405 1137:1 13800:1 26721:1 26722:1 #
-0.069498834023448100016828732350405 701:1 1012:1 1707:1 6244:1 26721:1 26722:1 #
-0.069498834023448100016828732350405 800:1 1594:1 2015:1 5086:1 26721:1 26722:2 #
0.051671594538027026954907228173397 655:1 1537:1 1711:1 1742:1 2806:1 3822:1 6033:1 8701:2 26722:0 #
0.05192781793237511572813858151676 381:2 388:1 422:2 923:1 4319:1 26722:2 #
-0.069498834023448100016828732350405 1921:1 2099:1 2316:1 26722:0 #
0.013097693530036463166466020879852 324:1 555:1 649:1 744:1 2064:1 3292:1 5546:1 6942:1 18721:1 26721:1 26722:3 #
-0.069498834023448100016828732350405 385:1 780:1 4044:1 10606:1 11870:1 14657:1 26722:2 #
-0.069498834023448100016828732350405 861:1 933:1 1177:1 2003:1 2458:1 2874:1 2963:2 3612:1 6472:1 6475:1 26722:2 #
0.069498834023448100016828732350405 594:1 1317:1 2069:1 3146:1 3521:1 26722:4 #
0.056438386095678805265407618207973 368:1 1573:1 1679:1 2017:1 2102:1 2106:1 2239:1 4072:1 4152:1 4583:1 16114:1 17898:1 26721:1 26722:1 #
0.069498834023448100016828732350405 858:1 10025:1 16700:1 26721:1 26722:1 #
0.069498834023448100016828732350405 1729:1 3563:1 3632:1 13550:1 26721:1 26722:1 #
0.069498834023448100016828732350405 1140:1 3533:1 26721:1 26722:1 #
-0.069498834023448100016828732350405 231:1 1565:1 1711:1 2530:1 16203:1 26721:1 26722:1 #
-0.069498834023448100016828732350405 687:1 1094:1 26721:1 26722:1 #
-0.069498834023448100016828732350405 1680:1 6322:1 26721:1 26722:1 #
-0.069498834023448100016828732350405 1403:1 2242:1 15181:1 22759:1 26721:1 26722:1 #
-0.069498834023448100016828732350405 13:1 1048:1 26721:1 26722:1 #
-0.069498834023448100016828732350405 262:1 1157:1 1405:1 1921:1 3213:1 3421:1 3853:1 4218:1 8042:1 9013:1 26722:1 #
-0.044266041238246914280018984300114 332:1 788:1 1165:1 1403:1 1420:1 3376:1 3674:1 5544:1 7050:1 19085:1 26722:1 #
-0.069498834023448100016828732350405 22:1 547:1 26722:1 #
-0.01764867824757147818370839331692 910:1 1685:1 1988:1 2211:1 5463:1 6797:1 10011:1 10667:1 26722:1 #
-0.069498834023448100016828732350405 420:1 5379:1 9015:1 9994:1 26722:1 #
0.069498834023448100016828732350405 617:1 893:1 2104:1 26721:1 26722:1 #
0.069498834023448100016828732350405 211:1 278:1 336:1 924:1 970:1 1345:1 1541:1 2008:1 3082:1 5592:1 15968:1 25828:2 26721:1 26722:1 #
0.069498834023448100016828732350405 351:1 1062:1 1867:1 5982:1 26722:0 #
0.069498834023448100016828732350405 772:1 861:1 1655:1 11326:1 19956:1 26721:1 26722:0 #
0.069498834023448100016828732350405 499:1 917:1 5684:1 26722:0 #
-0.069498834023448100016828732350405 893:1 1249:1 6657:1 11628:1 26722:0 #
-0.069498834023448100016828732350405 335:1 347:1 1073:1 1333:1 1512:1 1964:1 3593:1 26722:0 #
-0.069498834023448100016828732350405 242:1 1685:1 2692:1 2823:1 2824:1 14394:1 17619:1 26722:1 #
-0.069498834023448100016828732350405 1189:1 1939:1 3036:1 3096:1 11035:1 23101:1 26721:1 26722:2 #
-0.069498834023448100016828732350405 207:1 2064:1 2780:1 3682:1 4683:1 26721:1 26722:2 #
-0.051328811185382294812740155975916 1448:1 1530:1 5896:1 6438:1 26721:1 26722:2 #
0.069498834023448100016828732350405 332:1 2120:1 2258:1 5782:1 26722:0 #
0.069498834023448100016828732350405 332:1 2385:1 14149:1 26722:0 #
-0.069498834023448100016828732350405 271:1 347:1 368:1 1122:1 1564:1 2069:1 4245:1 4366:1 4965:1 8153:1 8545:1 26721:1 26722:6 #
-0.037833907471050226556386064658 187:1 3805:1 8592:1 13516:1 26722:3 #
-0.0055284349480247962915768766833935 255:1 297:1 577:1 1867:1 6242:1 26722:1 #
-0.069498834023448100016828732350405 137:1 332:1 1201:1 1460:1 3362:2 4347:1 15147:1 26722:1 #
-0.069498834023448100016828732350405 394:1 464:1 729:1 881:1 941:1 1151:1 1458:1 26722:2 #
0.069498834023448100016828732350405 2027:1 3266:1 5643:1 7014:1 26721:1 26722:1 #
0.069498834023448100016828732350405 801:1 26721:1 26722:1 #
0.069498834023448100016828732350405 1581:1 1784:1 2719:1 4045:1 26721:1 26722:1 #
0.069498834023448100016828732350405 1006:1 1247:1 2413:1 2489:1 26721:1 26722:1 #
-0.069498834023448100016828732350405 169:1 1006:1 4638:1 4639:1 26722:0 #
-0.069498834023448100016828732350405 356:1 767:1 833:1 1526:1 1643:1 2303:1 3054:1 21259:1 26721:1 26722:2 #
-0.069498834023448100016828732350405 187:1 26721:1 26722:2 #
-0.069498834023448100016828732350405 1986:1 26721:1 26722:2 #
-0.069498834023448100016828732350405 1179:1 6894:1 12326:1 26721:1 26722:1 #
0.069498834023448100016828732350405 426:1 930:1 1342:1 2198:1 12069:1 13709:1 26722:3 #
0.069498834023448100016828732350405 489:1 546:1 830:1 1201:2 2720:1 26722:2 #
0.069498834023448100016828732350405 1339:1 1789:1 3442:1 3674:1 14015:1 26722:0 #
0.069498834023448100016828732350405 137:1 896:1 26722:0 #
0.069498834023448100016828732350405 729:1 875:1 1454:1 3149:1 8603:1 21646:1 26722:0 #
-0.069498834023448100016828732350405 423:1 428:1 670:1 729:1 971:1 1025:1 1339:1 1562:1 1921:1 3441:1 13571:1 26722:1 #
-0.069498834023448100016828732350405 729:1 932:1 1900:1 4089:1 4487:1 5644:1 10953:1 26722:1 #
-0.069498834023448100016828732350405 225:1 475:1 1402:1 1454:1 1822:1 2316:1 4766:1 8097:1 14135:1 26722:1 #
0.069498834023448100016828732350405 338:1 895:1 1558:1 1907:1 26721:1 26722:1 #
0.069498834023448100016828732350405 356:1 1189:1 2905:1 3402:1 23500:1 26721:1 26722:1 #
0.069498834023448100016828732350405 356:1 10150:1 26721:1 26722:0 #
0.069498834023448100016828732350405 1330:1 1590:1 2732:1 2972:1 3539:1 26721:1 26722:1 #
0.069498834023448100016828732350405 223:1 693:2 26721:1 26722:1 #
-0.069498834023448100016828732350405 1001:1 1444:1 2015:1 3402:1 10357:1 26721:1 26722:1 #
-0.069498834023448100016828732350405 1308:1 5217:1 26721:1 26722:1 #
-0.069498834023448100016828732350405 4112:1 26721:1 26722:1 #
-0.069498834023448100016828732350405 3587:1 4546:1 6058:1 8981:1 26721:1 26722:1 #
-0.069498834023448100016828732350405 1307:1 1330:1 7972:1 9856:1 26721:1 26722:2 #
-0.069498834023448100016828732350405 69:1 333:1 1595:1 2277:2 2362:1 3402:1 5299:2 6935:1 10152:1 26721:1 26722:2 #
-0.069498834023448100016828732350405 4873:1 11357:1 26721:1 26722:2 #
0.069498834023448100016828732350405 729:1 2169:1 26722:0 #
0.069498834023448100016828732350405 4965:1 6282:1 7772:1 26722:0 #
0.069498834023448100016828732350405 979:1 10545:1 26722:0 #
0.069498834023448100016828732350405 1343:1 26722:0 #
-0.061974590676475684036805802179515 379:1 712:1 1195:1 2972:1 4580:1 5122:1 6967:1 7211:2 7878:1 8861:1 26722:1 #
-0.069498834023448100016828732350405 387:1 482:1 551:1 1826:1 2056:1 4275:1 4611:1 26722:1 #
0.069498834023448100016828732350405 2398:1 3768:1 3986:1 13092:1 18252:1 18381:1 26722:3 #
0.069498834023448100016828732350405 3441:1 15753:1 26721:1 26722:1 #
0.069498834023448100016828732350405 122:1 1489:1 6296:1 11600:1 11870:1 26721:1 26722:1 #
-0.069498834023448100016828732350405 616:1 3628:1 4319:1 4790:1 4793:1 6399:1 26721:1 26722:1 #
-0.069498834023448100016828732350405 841:1 844:1 26721:1 26722:2 #
-0.069498834023448100016828732350405 1073:1 19278:1 26721:1 26722:1 #
0.069498834023448100016828732350405 875:1 888:1 905:1 939:1 1409:1 1410:1 1411:1 1412:1 26722:0 #
-0.069498834023448100016828732350405 830:1 3719:1 12105:1 12747:1 26722:1 #
-0.069498834023448100016828732350405 888:1 1776:1 1867:1 26722:1 #
-0.069498834023448100016828732350405 610:2 1155:1 5432:1 21112:2 26722:1 #
-0.069498834023448100016828732350405 751:1 1663:1 2083:1 2266:1 26722:1 #
0.069498834023448100016828732350405 544:1 1178:1 2077:1 12103:1 26721:1 26722:1 #
0.069498834023448100016828732350405 979:1 23420:1 26721:1 26722:1 #
0.069498834023448100016828732350405 1315:1 2121:1 14437:1 15927:1 26721:1 26722:1 #
0.069498834023448100016828732350405 541:1 623:1 26721:1 26722:1 #
-0.069498834023448100016828732350405 1178:1 2866:1 3872:1 26721:1 26722:1 #
-0.069498834023448100016828732350405 793:1 1102:1 1322:1 1324:1 1899:1 2077:1 4068:1 11677:1 26721:1 26722:2 #
-0.069498834023448100016828732350405 659:1 777:1 1238:1 1281:1 26722:1 #
0.068725491316648804063227373717382 636:1 707:1 708:1 709:1 710:1 711:1 712:1 713:1 714:1 717:1 26722:0 #
0.069498834023448100016828732350405 1025:1 3380:1 5618:1 9669:1 9728:1 9901:1 9940:1 9941:1 26722:4 #
0.069498834023448100016828732350405 610:1 1494:1 18376:1 26722:0 #
-0.069498834023448100016828732350405 944:1 954:1 1294:1 2660:1 7810:1 26722:1 #
-0.069498834023448100016828732350405 356:1 365:1 783:1 1313:1 1938:1 2024:1 7051:1 7052:1 26722:0 #
-0.069498834023448100016828732350405 204:1 221:1 1799:1 2131:2 4541:1 26722:1 #
0.069498834023448100016828732350405 631:1 920:1 1201:1 1270:1 1910:1 4068:1 26722:0 #
-0.069498834023448100016828732350405 581:1 1879:1 3978:1 26721:1 26722:1 #
-0.069498834023448100016828732350405 581:1 2287:1 26721:1 26722:1 #
0.069498834023448100016828732350405 1324:1 2440:1 4681:1 26722:0 #
0.069498834023448100016828732350405 18:1 190:1 389:1 1018:1 1422:1 1597:1 4037:1 17821:1 26722:0 #
0.069498834023448100016828732350405 255:1 269:1 1623:1 5201:1 26722:0 #
0.069498834023448100016828732350405 1763:1 10747:1 14670:1 26722:0 #
0.069498834023448100016828732350405 1320:1 2498:1 2499:1 3872:1 7273:1 26722:0 #
-0.069498834023448100016828732350405 1201:2 2079:1 2080:1 26722:1 #
0.069498834023448100016828732350405 893:1 1271:1 2785:1 5211:1 26721:1 26722:1 #
0.069498834023448100016828732350405 722:1 1102:1 3955:1 7725:1 26721:1 26722:1 #
0.069498834023448100016828732350405 1250:1 1294:1 2099:1 3006:1 4209:1 8277:1 16480:1 26721:1 26722:1 #
0.0077393255349381979285583454952757 291:1 934:1 1109:1 1337:1 4913:1 4914:1 26722:4 #
-0.069498834023448100016828732350405 151:1 26721:1 26722:1 #
-0.030512819365876884397659196679342 151:1 1966:1 3497:1 26721:1 26722:1 #
-0.069498834023448100016828732350405 1320:1 1510:1 26721:1 26722:1 #
0.069498834023448100016828732350405 129:1 257:1 1201:1 3444:1 6200:1 7180:1 10147:1 11592:1 26722:0 #
-0.069498834023448100016828732350405 1009:1 1102:1 1172:1 1489:1 3275:1 26722:1 #
-0.069498834023448100016828732350405 257:1 391:1 2514:1 2636:1 6562:1 22205:1 26721:1 26722:1 #
0.069498834023448100016828732350405 1172:1 5164:1 26722:0 #
-0.059991339502460203081390943680162 1939:1 19328:1 26722:1 #
0.069498834023448100016828732350405 1048:1 1148:1 1251:1 1949:1 1950:1 26722:0 #
0.069498834023448100016828732350405 590:1 1155:1 1343:1 6128:1 7194:1 7653:1 26721:1 26722:1 #
0.069498834023448100016828732350405 334:1 1343:1 1354:1 26722:0 #
0.069498834023448100016828732350405 1193:1 2642:1 8263:1 26722:0 #
0.069498834023448100016828732350405 596:1 1477:1 4639:1 26722:0 #
0.069498834023448100016828732350405 160:1 1290:1 2919:1 26721:1 26722:1 #
0.059285223032648534657873540254514 11:1 379:1 474:1 551:1 792:1 986:1 1359:1 2688:1 26722:0 #
0.069498834023448100016828732350405 1405:1 1757:1 26721:1 26722:1 #
0.069498834023448100016828732350405 2355:1 2824:1 9671:1 26721:1 26722:1 #
0.069498834023448100016828732350405 347:1 751:1 1663:1 12340:1 26722:0 #
0.069498834023448100016828732350405 1100:1 1444:1 3619:1 26721:1 26722:1 #
0.069498834023448100016828732350405 748:1 972:1 5256:1 6596:1 26721:1 26722:1 #
0.069498834023448100016828732350405 804:1 1358:1 2272:1 2273:1 26722:0 #
0.069498834023448100016828732350405 866:1 4200:1 21701:1 26722:0 #
0.069498834023448100016828732350405 1230:1 1401:1 5997:1 26722:0 #
0.069498834023448100016828732350405 1569:1 2131:1 5028:1 26722:0 #
0.069498834023448100016828732350405 1631:1 6056:1 26721:1 26722:1 #
0.069498834023448100016828732350405 2743:1 2994:2 10571:1 10572:1 26721:1 26722:1 #
0.069498834023448100016828732350405 4386:1 4996:1 6247:1 17808:1 26722:0 #
-0.069498834023448100016828732350405 144:1 1076:1 1642:1 3673:1 5726:1 9752:1 15240:1 15350:1 26722:0 #
-0.061678470427406484333232583594508 3112:1 26722:0 #
-0.069498834023448100016828732350405 846:1 980:1 3254:1 3903:2 4708:2 5352:1 6855:1 6856:1 26722:0 #
0.069498834023448100016828732350405 410:1 2474:1 4541:1 7248:1 7249:1 7250:1 26722:0 #
0.069498834023448100016828732350405 97:1 276:1 911:1 1630:1 1732:1 2168:1 26722:0 #
0.069498834023448100016828732350405 418:1 528:1 619:1 1904:1 2069:1 2749:1 4541:1 5867:1 10354:1 10355:1 26722:0 #
0.069498834023448100016828732350405 805:1 1718:1 2206:1 3254:1 3752:1 26722:0 #
0.069498834023448100016828732350405 1955:1 2882:1 5403:1 6590:1 26722:0 #
0.069498834023448100016828732350405 4498:1 4875:1 6657:1 10737:1 26721:1 26722:1 #
0.069498834023448100016828732350405 990:1 4214:1 8119:1 12933:1 18036:1 26721:1 26722:1 #
0.069498834023448100016828732350405 169:1 893:1 3621:1 4564:1 26721:1 26722:1 #
0.069498834023448100016828732350405 2736:1 4087:1 26721:1 26722:1 #
0.069498834023448100016828732350405 350:1 489:1 10081:1 26721:1 26722:1 #
0.069498834023448100016828732350405 137:1 2514:1 7890:1 9386:1 26722:0 #
0.069498834023448100016828732350405 242:1 26722:0 #
0.069498834023448100016828732350405 242:1 6266:1 26722:0 #
0.069498834023448100016828732350405 475:1 924:1 1442:1 2805:1 26722:0 #
0.069498834023448100016828732350405 444:1 551:1 2103:1 4135:1 17155:1 26721:1 26722:1 #
0.069498834023448100016828732350405 1917:1 17664:1 26721:1 26722:1 #
0.069498834023448100016828732350405 1263:1 1482:1 9334:1 14731:1 26721:1 26722:1 #
0.069498834023448100016828732350405 846:1 944:1 1140:1 5439:1 16406:1 23267:3 26721:1 26722:1 #
0.069498834023448100016828732350405 356:1 905:1 2069:1 3521:1 26722:1 #
0.069498834023448100016828732350405 844:1 846:1 1153:1 4028:1 5855:1 15747:1 26722:0 #
0.069498834023448100016828732350405 600:1 1290:1 3529:1 5689:1 26722:5 #
0.069498834023448100016828732350405 447:1 1097:1 2482:1 18750:1 26721:1 26722:1 #
0.069498834023448100016828732350405 953:1 1287:1 1819:1 2422:1 3916:1 26721:1 26722:1 #
0.069498834023448100016828732350405 816:1 842:1 7802:1 20888:1 26721:1 26722:1 #
0.069498834023448100016828732350405 818:1 1356:1 1823:1 2028:1 3930:1 4348:1 4932:1 9193:1 25081:1 26722:0 #
0.069498834023448100016828732350405 507:1 627:1 1152:1 5438:1 26722:0 #
0.069498834023448100016828732350405 1246:1 2214:1 3052:1 26722:0 #
0.069498834023448100016828732350405 2313:1 6666:1 14572:1 26722:0 #
0.069498834023448100016828732350405 665:1 1155:1 1256:1 3939:1 4512:1 5207:1 7194:1 13768:1 26721:1 26722:1 #
0.069498834023448100016828732350405 932:1 963:1 2973:1 3254:1 5644:1 12944:1 16714:1 18638:1 26721:1 26722:1 #
-0.069498834023448100016828732350405 560:1 743:1 2009:1 2227:1 2273:1 26722:0 #
0.069498834023448100016828732350405 263:1 26722:0 #
0.069498834023448100016828732350405 1320:1 5051:1 6606:1 26722:0 #
0.069498834023448100016828732350405 196:1 491:1 1047:1 1149:1 26722:0 #
0.069498834023448100016828732350405 2328:1 5496:1 7670:1 15329:1 15330:2 26722:0 #
0.06573791859910016466272963953088 547:1 633:1 754:1 1758:1 2010:1 2012:1 2013:1 26722:0 #
0.03621210157894479142459687182054 1340:1 1341:1 2483:1 3834:1 10194:1 26721:1 26722:1 #
0.069498834023448100016828732350405 2451:2 5055:1 5056:1 5057:1 26722:0 #
0.069498834023448100016828732350405 151:1 332:1 969:1 1294:1 1437:1 1439:1 1440:1 1441:1 1442:1 26722:0 #
0.069498834023448100016828732350405 905:1 3683:1 4675:1 11270:1 11386:1 26722:0 #
0.069498834023448100016828732350405 1658:1 2651:1 3840:1 26722:0 #
0.069498834023448100016828732350405 169:1 1081:1 1166:1 1472:1 26721:1 26722:1 #
0.065602922822981912798212533743936 880:1 984:1 1214:1 1273:1 3353:1 3706:1 4051:1 4175:1 5346:1 9437:1 9775:1 22307:1 26721:1 26722:0 #
0.069498834023448100016828732350405 5:1 2627:1 5314:1 5503:1 26721:1 26722:1 #
0.069498834023448100016828732350405 1316:1 7658:1 26721:1 26722:1 #
0.069498834023448100016828732350405 882:1 1178:1 1274:1 1365:1 11786:1 18242:1 26722:0 #
0.069498834023448100016828732350405 746:1 1844:1 3328:1 12783:1 26721:1 26722:1 #
0.069498834023448100016828732350405 1507:1 12114:1 26721:1 26722:1 #
0.069498834023448100016828732350405 816:1 1281:1 1485:1 26721:1 26722:1 #
0.069498834023448100016828732350405 224:1 1624:1 2933:1 5286:1 16101:1 26722:2 #
0.050229452594051045288825463330795 178:1 815:1 818:1 1271:1 1525:1 2011:1 4637:1 26722:0 #
0.069498834023448100016828732350405 745:1 1607:1 26721:1 26722:1 #
0.069498834023448100016828732350405 13:1 284:1 503:1 767:1 790:1 3679:1 26721:1 26722:1 #
0.0047098506054880119597871868108996 411:1 1340:1 1341:1 1741:1 4387:1 18082:1 18208:1 26722:2 #
0.069498834023448100016828732350405 746:1 2646:1 4065:1 26722:0 #
0.069498834023448100016828732350405 2131:1 26722:0 #
0.069498834023448100016828732350405 389:1 10092:1 26721:1 26722:1 #
0.057636611268386858664136696006608 262:1 627:1 947:1 1675:1 2024:1 4941:1 4942:1 4943:1 26721:1 26722:1 #
0.069498834023448100016828732350405 356:1 387:1 2675:1 26721:1 26722:1 #
0.069498834023448100016828732350405 1189:1 2355:1 3834:1 3980:1 4347:1 26722:0 #
0.069498834023448100016828732350405 970:1 3546:1 5146:1 8817:1 9465:1 9806:1 26722:0 #
0.059834867933752110269463031499981 378:1 818:1 2077:1 2304:1 2560:1 2805:1 3017:1 3563:1 3763:1 7322:1 26722:1 #
0.069498834023448100016828732350405 178:1 1739:1 3488:1 6919:1 26722:0 #
0.069498834023448100016828732350405 2092:1 2093:1 3882:1 9671:1 26722:1 #
0.069498834023448100016828732350405 719:1 1343:1 1546:1 3563:1 5810:1 9754:1 17570:1 26722:3 #
0.069498834023448100016828732350405 3325:1 26722:0 #
0.069498834023448100016828732350405 12487:1 26721:1 26722:1 #
0.069498834023448100016828732350405 26721:1 26722:1 #
0.069498834023448100016828732350405 207:1 344:1 701:1 1163:1 26721:1 26722:1 #
0.069498834023448100016828732350405 332:1 4616:1 15777:1 26722:0 #
0.069498834023448100016828732350405 341:1 1724:1 14373:1 26722:0 #
0.069498834023448100016828732350405 927:1 2313:1 2468:1 6027:1 7110:1 26722:0 #
0.069498834023448100016828732350405 2933:1 5055:1 12972:1 20550:1 26722:1 #
0.069498834023448100016828732350405 582:1 698:1 1099:1 6081:1 26721:1 26722:1 #
0.069498834023448100016828732350405 207:1 2224:1 2722:1 4686:1 26722:0 #
0.069498834023448100016828732350405 888:1 1238:1 1494:1 2312:1 4180:1 4512:1 4797:1 26722:1 #
0.069498834023448100016828732350405 1283:1 26722:0 #
0.041645550864456266915158977326428 350:1 822:1 987:1 1938:1 4166:1 7373:1 7374:1 26721:1 26722:1 #
0.069498834023448100016828732350405 569:1 26722:0 #
0.069498834023448100016828732350405 1317:1 1382:1 3503:1 4813:1 4814:1 4815:1 4816:1 26722:0 #
0.069498834023448100016828732350405 1180:1 21757:1 26721:1 26722:1 #
0.069498834023448100016828732350405 1320:1 2593:1 2994:1 8503:1 10513:1 26721:1 26722:1 #
0.069498834023448100016828732350405 380:1 4622:1 4623:1 26722:0 #
0.069498834023448100016828732350405 67:1 80:1 708:1 807:1 1869:1 1871:1 2237:1 2609:1 5100:1 6652:1 26722:3 #
0.069498834023448100016828732350405 7997:2 7998:1 26722:0 #
0.05078076838939190457145045343168 151:1 389:1 633:1 783:1 893:1 955:1 2754:1 11316:1 20744:1 26721:1 26722:1 #
0.069498834023448100016828732350405 184:1 336:1 712:1 2945:1 4461:1 5575:1 8633:1 12155:1 12156:1 26721:1 26722:1 #
0.069498834023448100016828732350405 1794:1 1795:1 26722:0 #
0.069498834023448100016828732350405 547:1 5336:1 26721:1 26722:1 #
0.069498834023448100016828732350405 837:1 1018:1 2201:1 4951:1 26721:1 26722:1 #
0.069498834023448100016828732350405 9076:1 26722:0 #
0.069498834023448100016828732350405 18:1 544:1 3719:1 4939:1 6665:1 26722:0 #
0.069498834023448100016828732350405 1104:1 1521:1 26722:0 #
0.069498834023448100016828732350405 26722:0 #
0.069498834023448100016828732350405 630:1 26721:1 26722:1 #
0.069498834023448100016828732350405 630:1 923:1 1094:1 26721:1 26722:1 #
0.069498834023448100016828732350405 1872:1 5534:1 6562:1 26721:1 26722:0 #
0.069498834023448100016828732350405 26722:0 #
0.069498834023448100016828732350405 26722:0 #
0.069498834023448100016828732350405 10292:1 26722:0 #
0.069498834023448100016828732350405 337:1 354:1 818:1 2320:1 2805:1 4780:1 26722:0 #
0.069498834023448100016828732350405 26722:0 #
0.069498834023448100016828732350405 26722:0 #
0.069498834023448100016828732350405 780:1 1048:1 1084:1 19680:1 26722:0 #
0.069498834023448100016828732350405 1402:1 1441:1 2027:1 3529:1 4999:1 26721:1 26722:1 #
0.069498834023448100016828732350405 26722:0 #
0.069498834023448100016828732350405 2666:1 5246:1 10423:1 26722:0 #
0.069498834023448100016828732350405 204:1 636:1 932:1 26721:1 26722:1 #
-0.02129757583777613927367156065884 783:1 1271:1 2636:1 5344:1 6673:1 9857:1 26722:1 #
0.069498834023448100016828732350405 26722:0 #
0.059928143650435181100100123785523 1119:1 1287:1 2008:1 2015:1 3198:1 13663:1 18626:1 26721:1 26722:1 #
0.069498834023448100016828732350405 26721:1 26722:0 #
0.056435868208629766384909487442201 291:1 475:1 1007:1 4497:1 4498:1 8707:1 26722:1 #
-0.069498834023448100016828732350405 1073:2 1247:1 1814:1 2117:1 3805:1 6582:1 26722:8 #
0.069498834023448100016828732350405 6309:1 26722:0 #
0.069498834023448100016828732350405 8542:1 11266:1 26722:0 #
-0.069498834023448100016828732350405 7997:2 7998:1 26721:1 26722:1 #
-0.069498834023448100016828732350405 1179:1 1183:1 1356:1 4057:1 4813:1 9671:2 9754:1 9756:1 10237:1 26721:1 26722:14 #
0.0086013719970567011074980001694712 374:1 420:1 1062:4 2323:1 2392:1 2413:1 2456:1 2690:1 2948:1 3624:1 6586:1 26722:5 #
0.069498834023448100016828732350405 677:1 815:1 3919:1 5177:3 26722:1 #
0.069498834023448100016828732350405 354:1 394:1 550:1 684:1 897:1 1293:1 1343:1 6131:1 7420:1 7421:1 7422:1 26722:3 #
-0.069498834023448100016828732350405 631:1 1068:1 1099:1 1217:1 1794:1 1850:1 2280:1 2553:1 2852:1 3372:1 5115:1 6289:2 7653:1 10304:1 10747:1 26722:7 #
0.069498834023448100016828732350405 224:1 309:1 984:3 2467:1 2914:2 3138:2 10303:1 11306:1 20506:1 21356:1 26722:6 #
0.069498834023448100016828732350405 550:1 669:1 851:1 1402:1 1526:2 2149:2 2866:1 2867:1 26722:2 #
0.01960480612534764438548151588293 137:1 743:1 1943:1 2572:1 26722:2 #
0.069498834023448100016828732350405 269:1 656:1 1007:1 1125:1 1266:1 1343:1 2749:2 3016:1 3036:1 3696:1 4541:1 5606:2 5743:1 5840:1 6171:1 7295:1 7296:1 26722:3 #
-0.069498834023448100016828732350405 1082:1 1174:1 1436:1 1519:1 1685:1 2200:1 2483:1 4065:1 5047:1 5314:1 9234:1 12114:1 19384:1 26722:4 #
0.069498834023448100016828732350405 533:1 897:2 1343:2 26722:1 #
0.069498834023448100016828732350405 178:1 1276:1 1307:1 4087:3 4498:1 15006:1 26722:1 #
0.069498834023448100016828732350405 368:1 530:2 1062:1 1741:1 3221:1 26722:1 #
-0.069498834023448100016828732350405 590:1 875:1 982:1 1100:1 1406:1 26722:3 #
0.069498834023448100016828732350405 271:1 669:1 743:1 914:1 2153:1 3980:1 11160:1 26722:2 #
0.069498834023448100016828732350405 329:1 1141:1 1773:1 1774:1 1775:1 26722:2 #
0.069498834023448100016828732350405 11:1 205:1 923:1 1252:1 2085:1 2749:1 3678:1 4005:1 4366:1 15125:1 26722:1 #
0.069498834023448100016828732350405 5:1 842:1 1247:1 1343:1 1346:1 1507:1 2457:1 5741:1 14240:1 26722:1 #
-0.016393165000946521847602355137496 259:1 944:1 2131:1 5594:1 5624:1 26722:2 #
-0.069498834023448100016828732350405 337:1 633:1 881:1 987:1 1489:1 1614:1 2272:1 2364:1 2468:1 3805:1 4804:1 8456:1 13092:1 26722:10 #
0.069498834023448100016828732350405 223:1 259:1 533:1 628:1 731:1 982:1 1101:1 1161:1 1302:1 1758:1 2853:1 4515:1 26722:4 #
0.069498834023448100016828732350405 5:1 263:1 341:1 577:1 801:1 1333:1 1361:1 1592:1 1743:1 2124:2 3421:1 3455:1 8995:1 26722:2 #
-0.069498834023448100016828732350405 70:1 115:1 301:1 954:1 2085:1 2092:1 2093:1 2214:1 26722:7 #
0.067134892804386975262431747069058 1260:1 1281:1 2687:1 3140:1 4319:1 26722:3 #
-0.069498834023448100016828732350405 9870:1 26722:1 #
0.035795133707099177633459419212159 243:1 846:1 1073:1 1799:1 1831:1 1899:1 2487:1 3143:1 3539:1 4222:1 26722:2 #
-0.069498834023448100016828732350405 359:1 385:1 924:2 972:1 1623:1 6161:1 26722:11 #
0.064546371286656564758565934880608 80:1 433:1 2153:1 3056:1 3336:1 3488:1 3529:1 4550:1 5116:1 5485:1 23825:1 26722:3 #
0.069498834023448100016828732350405 219:1 719:1 881:1 987:1 1426:1 1819:1 1854:1 6456:1 8818:1 9649:1 26722:1 #
-0.069498834023448100016828732350405 1444:1 26722:16 #
-0.069498834023448100016828732350405 553:1 642:1 993:1 1228:1 1246:1 1288:1 2500:1 4581:1 4832:1 11841:1 17298:1 26721:1 26722:9 #
-0.069498834023448100016828732350405 26722:1 #
0.069498834023448100016828732350405 509:1 679:1 934:1 1565:2 1823:2 2248:1 7050:1 7076:1 7301:1 7935:1 8269:1 26722:2 #
0.069498834023448100016828732350405 743:1 924:1 1819:1 1940:1 3215:1 3589:1 3974:1 20388:1 21229:1 26722:1 #
-0.069498834023448100016828732350405 630:1 911:2 923:1 2027:1 2185:1 2212:1 2627:1 2779:1 5240:1 26722:4 #
-0.069498834023448100016828732350405 26722:1 #
-0.069498834023448100016828732350405 9260:1 26722:1 #
0.069498834023448100016828732350405 1546:1 1691:1 2410:1 4068:1 6483:1 26722:5 #
-0.069498834023448100016828732350405 278:1 625:1 730:1 840:1 893:1 2003:1 2133:1 2775:1 2956:1 5283:1 5946:1 12430:1 26722:3 #
0.069498834023448100016828732350405 1246:1 2214:1 2765:1 4654:1 10726:1 26722:4 #
0.069498834023448100016828732350405 262:1 594:1 1001:1 1420:1 1421:1 1598:1 1630:1 1702:1 2077:1 2413:1 3036:1 3768:1 6107:1 7523:1 15208:1 26722:1 #
0.069498834023448100016828732350405 224:1 1161:2 1510:1 1579:1 1952:1 2852:1 26722:3 #
0.069498834023448100016828732350405 347:1 447:1 579:1 841:1 1266:1 1611:1 2002:3 2169:1 2432:1 4444:1 4986:1 9243:1 26721:1 26722:8 #
0.067630296985871585224714408468571 204:1 422:1 722:1 864:1 1073:1 1573:1 2284:1 2346:1 3530:1 8745:1 26722:6 #
-0.069498834023448100016828732350405 378:1 875:1 943:1 4303:1 25703:1 26722:1 #
0.069498834023448100016828732350405 677:1 875:1 1460:1 4040:1 26722:1 #
-0.069498834023448100016828732350405 754:1 1907:1 4008:1 6590:1 26722:10 #
-0.069498834023448100016828732350405 783:1 829:1 1028:1 1048:1 1081:1 1564:1 2504:1 2505:1 6257:1 12970:1 22030:1 26722:4 #
0.069498834023448100016828732350405 301:1 1189:1 1819:1 1826:1 1939:1 7921:1 26722:1 #
0.069498834023448100016828732350405 394:1 770:2 881:1 26722:2 #
0.069498834023448100016828732350405 25:1 1155:1 2199:1 2200:1 2238:1 2325:1 3299:1 5298:1 5726:1 6176:1 26722:3 #
0.069498834023448100016828732350405 628:1 697:1 1568:1 1921:1 2214:1 4969:1 5160:1 5417:1 7878:1 26722:2 #
0.069498834023448100016828732350405 829:1 830:1 1192:1 1831:1 3250:1 4742:1 7577:1 10174:1 11905:1 16731:1 16971:1 26722:1 #
-0.069498834023448100016828732350405 1409:1 26721:1 26722:10 #
-0.069498834023448100016828732350405 1486:1 1810:1 2092:1 8405:1 9322:1 9858:1 23074:1 26722:3 #
-0.069498834023448100016828732350405 303:1 356:1 833:1 1841:1 1921:1 2964:1 6242:1 25691:1 26722:42 #
0.063187809184317739186198537026939 917:1 1317:1 2034:1 5246:1 8529:1 10245:2 15860:1 26722:2 #
0.069498834023448100016828732350405 1450:1 3542:1 10649:1 10738:1 26721:1 26722:3 #
0.069498834023448100016828732350405 145:1 737:2 758:1 1424:2 4057:1 10015:1 26722:4 #
0.050755471449391853511201588844415 368:1 1307:1 1442:1 2238:1 5414:1 26722:2 #
-0.069498834023448100016828732350405 1238:1 2805:1 26721:1 26722:1 #
0.069498834023448100016828732350405 262:1 937:1 1073:1 1702:1 7590:1 26722:2 #
-0.069498834023448100016828732350405 186:1 333:1 1849:1 2628:1 3901:1 26722:7 #
-0.069498834023448100016828732350405 234:1 1444:1 4654:1 26722:3 #
0.069498834023448100016828732350405 205:1 579:1 1092:1 1964:1 6025:1 26722:8 #
-0.069498834023448100016828732350405 401:1 422:1 729:1 792:1 815:1 1111:1 1141:1 1158:1 1364:1 1685:1 2581:1 2765:1 4375:1 5760:1 5762:1 5763:1 26721:1 26722:5 #
0.069498834023448100016828732350405 561:1 579:1 875:1 897:1 1060:2 1504:1 1611:1 1814:1 2459:1 2460:1 2462:1 2463:1 26722:5 #
0.069498834023448100016828732350405 669:1 911:1 1361:1 1405:1 1504:1 2627:1 2826:1 10168:1 26722:3 #
0.069498834023448100016828732350405 460:2 536:1 1330:1 1460:1 1971:1 3841:1 6916:1 26722:1 #
0.069498834023448100016828732350405 460:1 502:1 564:1 953:1 1062:1 1362:1 1564:1 1867:1 2316:1 4072:1 4074:1 4075:1 26722:4 #
-0.069498834023448100016828732350405 206:1 875:1 877:1 878:1 880:1 881:1 882:1 26722:4 #
-0.069498834023448100016828732350405 1061:1 1379:1 2346:1 3950:1 26722:5 #
0.069498834023448100016828732350405 936:1 1003:1 1028:1 1158:1 1375:1 1582:1 2280:1 2743:1 4510:1 4890:1 5638:1 8893:1 10438:1 15827:1 16531:1 26722:5 #
0.069498834023448100016828732350405 354:1 815:1 1100:1 1337:1 2468:1 3049:2 15742:2 16398:1 26722:1 #
-0.069498834023448100016828732350405 26722:1 #
-0.069498834023448100016828732350405 350:1 818:1 1362:1 6472:1 10061:1 26722:1 #
-0.069498834023448100016828732350405 555:1 758:1 1251:1 1337:1 1630:1 26722:2 #
-0.069498834023448100016828732350405 546:1 616:1 844:1 846:2 953:1 1119:1 3662:1 20621:1 20890:1 26721:1 26722:4 #
-0.069498834023448100016828732350405 818:1 920:1 1310:1 1386:1 1592:1 2103:1 2121:1 7050:1 26722:3 #
0.069498834023448100016828732350405 224:1 984:1 1274:1 3119:2 4642:1 26722:1 #
-0.069498834023448100016828732350405 1095:1 1246:1 1782:2 1799:1 2905:1 3953:1 10410:1 26722:5 #
-0.069498834023448100016828732350405 631:1 801:1 1790:1 1791:1 1792:1 1793:1 1794:1 1795:1 26722:4 #
0.069498834023448100016828732350405 640:1 1460:1 3033:1 3441:1 4654:1 4694:1 9700:1 23476:1 26721:1 26722:4 #
0.03539114825077538384334729926195 426:2 784:1 846:2 1045:1 1630:1 2405:1 11067:1 26722:5 #
0.069498834023448100016828732350405 354:1 648:1 998:1 1630:1 1831:1 1941:1 26722:2 #
-0.069498834023448100016828732350405 1444:1 3401:1 26722:2 #
0.069498834023448100016828732350405 649:1 2367:1 2462:1 4409:1 6231:1 26722:3 #
-0.069498834023448100016828732350405 347:1 509:1 1125:1 1486:1 1743:1 3422:1 3834:1 4546:1 6424:1 8199:1 10086:1 26722:3 #
0.069498834023448100016828732350405 225:1 354:1 577:1 1181:1 1380:1 1442:1 1794:1 1795:1 1983:1 2085:1 5483:1 8113:1 9164:1 26722:2 #
0.0044705250485978509367157585074892 151:1 530:1 823:1 830:1 1061:1 1102:1 1119:1 1304:1 1826:1 2316:1 3419:1 3420:1 26722:4 #
0.069498834023448100016828732350405 501:1 763:1 793:2 980:1 3924:1 7743:1 8964:1 26722:4 #
0.069498834023448100016828732350405 218:1 743:1 796:1 982:1 1327:1 2065:1 3343:1 5241:1 17853:1 26722:2 #
-0.069498834023448100016828732350405 378:1 1380:1 1751:1 2107:1 3760:1 11213:1 26722:1 #
0.069498834023448100016828732350405 373:2 1234:3 2367:1 4105:1 13435:1 26722:2 #
-0.069498834023448100016828732350405 190:1 946:2 2052:1 2297:1 2722:1 7009:1 7010:1 18730:1 26722:5 #
-0.069498834023448100016828732350405 335:1 533:1 1361:1 2071:1 2212:1 2732:1 3741:1 4401:1 8700:1 8701:1 26722:5 #
0.069498834023448100016828732350405 737:1 2679:1 3883:2 3911:1 6768:1 26722:4 #
0.069498834023448100016828732350405 416:1 992:2 1099:1 1609:1 1751:1 3331:1 3441:1 26722:2 #
0.069498834023448100016828732350405 329:1 695:1 799:1 1426:1 1952:1 2083:1 3587:1 4687:1 7680:1 11333:1 26722:2 #
-0.069498834023448100016828732350405 698:1 1630:1 1832:1 5038:1 5421:1 9366:1 14507:1 26722:3 #
-0.069498834023448100016828732350405 67:1 1084:1 1293:1 1529:1 1664:1 1758:1 2072:1 2545:1 9007:1 9008:1 9012:1 26722:3 #
0.065530120991547424758039142034249 509:1 512:1 1252:1 2117:1 3741:4 26721:1 26722:7 #
0.069498834023448100016828732350405 471:1 895:1 1364:1 1831:1 2913:1 3143:1 4418:1 26722:1 #
0.069498834023448100016828732350405 11:1 379:1 1271:1 2009:1 2077:1 26722:1 #
0.065830365464359247296144417305186 598:1 618:1 655:1 767:1 833:1 1246:1 4245:1 6285:1 9617:1 26722:2 #
-0.069498834023448100016828732350405 763:1 1585:1 2869:1 3488:2 3529:2 4568:1 5058:1 6440:1 11883:1 26722:1 #
0.069498834023448100016828732350405 670:1 987:1 1092:1 1823:1 1964:1 2104:1 8069:1 18381:1 26722:3 #
0.032774396444568226760551965526247 67:2 278:1 391:1 895:1 942:1 1119:1 1664:2 1758:1 1955:1 3279:1 8014:1 14933:1 26722:4 #
-0.069498834023448100016828732350405 26722:1 #
0.069498834023448100016828732350405 173:1 743:1 1101:1 1435:1 6893:1 7013:1 9994:1 26722:2 #
-0.042544130827938536620891341044626 2500:1 5024:1 26722:1 #
-0.069498834023448100016828732350405 262:1 627:1 969:1 1312:1 1537:1 1867:1 2583:1 3198:1 3605:1 3681:1 4515:1 5623:1 5665:1 7374:1 26722:4 #
-0.069498834023448100016828732350405 11:1 521:1 600:1 1663:1 1729:1 7106:1 8455:1 26722:8 #
0.069498834023448100016828732350405 18:1 332:1 815:1 1062:1 1099:1 1327:1 2227:1 7322:1 7741:1 26721:1 26722:2 #
0.069498834023448100016828732350405 168:1 581:1 3673:1 3674:1 26722:2 #
0.069498834023448100016828732350405 914:1 1217:1 1549:1 1565:2 2678:1 3402:1 3562:1 9887:1 26722:2 #
-0.063789952237114644351123615706456 551:2 1702:1 2121:1 2432:2 11763:1 12174:1 14764:1 26722:7 #
-0.069498834023448100016828732350405 763:1 920:1 1439:1 2169:1 26722:2 #
0.069498834023448100016828732350405 416:1 503:1 1732:1 4125:1 26722:1 #
0.036906669697424294984688941667628 333:1 954:1 1302:1 1426:1 1447:2 1867:1 1952:1 2073:1 2277:1 2484:1 2982:1 3854:1 4437:1 6317:1 6318:1 9681:1 26722:3 #
0.069498834023448100016828732350405 262:1 416:1 1166:1 3108:1 3176:1 26722:1 #
0.069498834023448100016828732350405 422:1 1062:1 1320:1 1654:1 1655:1 1661:1 1698:1 2583:2 2694:1 2695:1 2696:1 2698:1 5743:1 7742:1 16620:1 26722:5 #
0.042287867930854955433872532921669 11:1 801:1 1166:1 1826:1 3628:1 3629:1 3630:1 26721:1 26722:2 #
-0.069498834023448100016828732350405 278:1 533:1 567:1 818:1 830:1 905:1 993:1 1769:1 4584:1 11084:1 26722:4 #
-0.069498834023448100016828732350405 231:1 332:1 1052:1 1673:1 1928:1 1938:1 2802:1 3015:1 22908:1 26722:6 #
0.069498834023448100016828732350405 368:1 846:1 934:1 1152:1 1343:1 1702:1 1772:1 1951:1 26722:4 #
-0.069498834023448100016828732350405 2743:1 8555:1 10020:1 26722:1 #
0.069498834023448100016828732350405 667:1 677:1 986:1 1074:1 1460:1 2843:1 11883:1 26722:1 #
0.069498834023448100016828732350405 685:1 1382:1 2361:1 2973:1 4087:1 7766:1 9279:1 16714:1 26722:1 #
0.069498834023448100016828732350405 359:1 530:1 1161:1 2199:1 3008:1 3684:1 5418:1 19269:1 19270:1 26722:1 #
0.069498834023448100016828732350405 864:1 1593:1 2553:1 2720:1 10700:1 26722:5 #
-0.069498834023448100016828732350405 333:1 520:1 528:1 835:1 1343:1 2272:1 3522:1 5855:1 10265:1 26722:4 #
-0.069498834023448100016828732350405 336:1 4780:1 12099:1 13375:1 26722:8 #
0.069498834023448100016828732350405 256:1 607:1 1101:1 2227:1 3539:1 4135:1 26722:3 #
0.056144912268664637355897184534115 332:2 465:2 662:2 1074:2 1313:1 3389:2 26722:5 #
0.069498834023448100016828732350405 426:1 858:1 1243:1 2016:1 23133:1 26722:2 #
0.069498834023448100016828732350405 581:1 905:1 1673:1 26722:1 #
-0.069498834023448100016828732350405 1393:1 2092:1 2093:1 2737:1 26722:4 #
-0.069498834023448100016828732350405 5:1 67:1 207:1 648:1 973:1 1099:1 1294:1 1680:2 2117:1 10957:1 11358:1 26721:1 26722:5 #
0.069498834023448100016828732350405 503:1 972:1 5220:1 5336:1 18837:1 26722:1 #
0.069498834023448100016828732350405 394:1 881:1 1729:1 25259:1 26722:4 #
-0.069498834023448100016828732350405 26722:1 #
-0.069498834023448100016828732350405 662:1 972:1 1051:1 2413:1 3950:1 26722:33 #
-0.069498834023448100016828732350405 26722:1 #
-0.069498834023448100016828732350405 804:1 875:1 1100:1 1287:1 1307:1 1359:1 8633:1 12227:1 26722:2 #
0.069498834023448100016828732350405 648:1 824:2 1001:1 1319:1 1364:1 26722:4 #
0.069498834023448100016828732350405 151:1 648:1 1443:1 1453:1 1952:1 4462:1 10530:1 26722:2 #
0.069498834023448100016828732350405 387:1 648:1 701:1 984:1 26722:3 #
0.069498834023448100016828732350405 95:1 550:2 665:1 1274:1 2117:1 3866:2 4326:1 8655:1 26722:5 #
-0.069498834023448100016828732350405 378:1 25259:1 26722:1 #
-0.069498834023448100016828732350405 590:1 813:1 824:1 934:1 1045:1 1472:1 2223:1 3050:1 3696:1 6803:1 7434:1 9089:1 9767:1 26722:6 #
-0.069498834023448100016828732350405 1177:1 3435:1 3882:1 3883:1 9994:1 26722:4 #
0.069498834023448100016828732350405 255:1 394:1 1172:1 1393:1 2629:1 4470:1 9671:1 26722:4 #
0.069498834023448100016828732350405 247:1 262:1 1390:1 2227:1 16221:1 26721:1 26722:3 #
0.054103484653219444111549307763198 780:1 1758:1 2361:1 2694:1 6790:1 11817:1 25259:1 26722:2 #
0.069498834023448100016828732350405 333:1 1110:1 2266:1 2313:1 2462:1 2899:1 26722:3 #
0.069498834023448100016828732350405 687:1 793:1 813:1 2121:1 4860:1 26722:4 #
0.069498834023448100016828732350405 169:3 562:1 777:1 3435:2 4087:1 5388:1 26722:1 #
-0.069498834023448100016828732350405 846:1 1110:1 1172:1 1454:1 1842:1 2120:1 4474:1 26722:7 #
-0.069498834023448100016828732350405 338:1 843:1 1216:1 1702:1 26722:9 #
0.069498834023448100016828732350405 262:1 589:1 590:1 591:1 592:1 593:1 594:1 26722:1 #
0.069498834023448100016828732350405 783:1 848:1 2077:1 3016:1 4205:1 5369:1 26722:1 #
0.069498834023448100016828732350405 1365:1 1828:1 1911:1 2605:1 3563:1 26722:3 #
-0.069498834023448100016828732350405 263:1 818:1 964:1 1819:1 1897:1 2720:1 7285:1 14242:1 16114:1 18020:1 26722:4 #
-0.069498834023448100016828732350405 204:1 1878:1 2015:1 2069:1 2451:1 3082:1 26722:4 #
0.069498834023448100016828732350405 11:1 1814:1 3143:1 3819:1 5620:1 17768:1 26722:2 #
-0.069498834023448100016828732350405 26722:1 #
-0.069498834023448100016828732350405 378:1 379:1 857:1 3260:1 3944:1 7790:1 12204:1 12205:1 26722:1 #
-0.069498834023448100016828732350405 378:2 816:1 848:1 1086:1 1814:1 2332:1 4269:1 7211:1 11707:2 26722:3 #
-0.069498834023448100016828732350405 196:1 772:1 897:1 990:1 1166:1 1519:1 3075:1 4829:1 6398:1 26722:3 #
0.069498834023448100016828732350405 268:1 934:1 1819:1 1826:1 1940:1 7593:1 26722:1 #
0.0055752955804006156664831550529016 263:1 394:1 504:1 555:1 1061:1 1813:1 1867:2 3410:1 4295:1 4464:1 5086:2 6358:1 26722:2 #
-0.069498834023448100016828732350405 26722:0 #
-0.069498834023448100016828732350405 26722:1 #
-0.069498834023448100016828732350405 80:1 661:2 1929:1 3455:1 3678:1 12475:1 14164:1 26722:1 #
0.059384588942590486870809485253631 1246:2 1607:1 2361:1 3143:1 26722:11 #
-0.069498834023448100016828732350405 632:1 650:1 1279:1 3317:1 26722:2 #
-0.069498834023448100016828732350405 191:1 763:1 783:1 1935:1 2131:1 10311:1 10312:1 10314:1 26722:9 #
0.069498834023448100016828732350405 1771:2 2332:2 6034:2 26722:4 #
0.069498834023448100016828732350405 1062:1 1281:1 2719:1 7135:1 12500:1 26722:1 #
0.069498834023448100016828732350405 109:1 385:1 1172:1 2072:1 2085:1 3108:1 3683:1 3896:1 16316:1 26722:6 #
0.069498834023448100016828732350405 2361:1 2432:1 4990:2 11168:1 22738:1 26722:2 #
-0.069498834023448100016828732350405 26722:2 #
0.069498834023448100016828732350405 589:1 837:1 1775:1 3883:1 3908:1 8170:1 9962:1 26722:4 #
-0.069498834023448100016828732350405 699:1 1628:1 1733:1 2173:1 3224:1 3755:1 4271:1 10026:1 26722:6 #
-0.069498834023448100016828732350405 211:1 297:1 992:1 1546:1 1724:1 1820:1 6862:1 6883:1 10391:1 26722:5 #
0.049863011735120650602670622220103 18:1 550:1 1068:1 1467:1 3042:1 4170:1 6432:1 9895:1 12409:1 18711:1 26721:1 26722:6 #
0.069498834023448100016828732350405 650:1 1110:1 1506:1 2009:1 2077:1 9776:1 26722:2 #
0.069498834023448100016828732350405 231:1 649:1 759:1 1086:1 1928:1 4275:1 26722:13 #
0.069498834023448100016828732350405 844:1 864:1 1073:1 1402:1 4898:1 26722:1 #
-0.069498834023448100016828732350405 1443:1 2015:1 2253:1 2329:1 6563:1 20700:1 26721:1 26722:3 #
-0.069498834023448100016828732350405 25757:1 26722:1 #
-0.069498834023448100016828732350405 2468:1 3097:1 26722:1 #
-0.069498834023448100016828732350405 3119:1 3279:1 9711:1 26722:1 #
-0.069498834023448100016828732350405 1422:1 2687:1 6882:1 12064:1 26722:3 #
-0.06226937948146367418633673196382 70:1 1519:1 2703:1 10487:1 26722:2 #
0.069498834023448100016828732350405 204:1 897:1 2077:1 4041:1 9079:1 25351:1 26722:2 #
0.069498834023448100016828732350405 5929:1 26722:5 #
0.069498834023448100016828732350405 353:1 581:1 769:1 2016:1 2261:1 26722:4 #
-0.069498834023448100016828732350405 223:1 1950:1 26722:1 #
-0.069498834023448100016828732350405 1486:1 3402:1 4563:1 6946:1 10620:1 20947:1 26722:45 #
-0.034475596152298726426721486859606 218:1 321:1 401:1 649:1 1444:1 2363:1 11525:1 26722:3 #
-0.069498834023448100016828732350405 334:1 1178:1 2030:1 2749:1 6875:1 7804:1 26722:3 #
-0.069498834023448100016828732350405 93:1 669:1 1266:1 1441:1 2805:1 4275:1 7024:2 7025:1 26722:5 #
0.069498834023448100016828732350405 804:1 979:1 1099:1 5220:1 26722:3 #
0.069498834023448100016828732350405 509:1 584:1 987:1 1833:1 3279:1 5358:1 7933:1 8162:1 9603:1 9994:1 12167:1 26722:12 #
0.069498834023448100016828732350405 1101:2 1733:1 2077:1 2173:1 8867:1 8868:1 26722:1 #
-0.069498834023448100016828732350405 420:1 1310:1 1592:1 4057:1 5511:1 6023:1 7717:1 9671:2 11338:2 26722:9 #
-0.069498834023448100016828732350405 648:1 1427:1 1568:1 1741:1 1831:1 3012:1 4263:1 4839:1 4840:1 26722:1 #
-0.069498834023448100016828732350405 80:1 234:1 468:1 830:1 933:1 1582:1 1840:1 2367:2 3113:1 3619:1 10545:1 12769:1 17101:1 26722:5 #
0.069498834023448100016828732350405 118:1 462:1 900:1 1814:1 1977:1 2104:1 2292:1 2297:1 3402:1 3650:1 3684:1 4135:1 5271:1 7439:1 15120:1 15121:1 26722:5 #
0.069498834023448100016828732350405 1095:1 1373:1 2009:1 26722:2 #
0.069498834023448100016828732350405 70:1 743:1 2322:1 2468:1 3978:1 18150:1 18151:1 26722:2 #
-0.069498834023448100016828732350405 65:1 242:2 350:1 1099:1 1494:1 1741:1 5744:1 26722:2 #
0.069498834023448100016828732350405 447:1 1340:1 1341:1 2236:1 4766:1 8083:1 13816:1 26722:2 #
0.040671285405041626703770418771455 262:1 420:1 1214:1 5219:1 9015:1 13828:1 14577:1 24630:1 26722:1 #
0.063465870582634892338447230031306 1172:1 1504:1 1733:1 1952:1 3397:1 4033:1 4405:1 26722:1 #
0.069498834023448100016828732350405 259:1 669:1 2274:2 3131:1 12801:1 26722:1 #
-0.069498834023448100016828732350405 334:1 768:1 769:1 770:1 26722:1 #
-0.069498834023448100016828732350405 553:1 905:1 2121:1 2919:1 3136:1 26722:5 #
-0.069498834023448100016828732350405 788:1 1354:1 4364:1 4868:1 9717:1 10525:1 26722:6 #
0.069498834023448100016828732350405 489:1 714:1 1317:1 1941:1 2191:1 7538:1 26722:2 #
0.069498834023448100016828732350405 151:1 1083:1 1313:1 1724:1 3402:1 4405:1 4647:1 4996:1 9671:1 10391:1 11628:1 26722:4 #
0.069498834023448100016828732350405 932:1 3310:1 26722:3 #
-0.069498834023448100016828732350405 54:1 840:1 2646:1 2824:1 4480:1 26722:9 #
0.069498834023448100016828732350405 247:1 1582:1 4905:2 10256:1 14725:1 18999:2 25261:2 26722:5 #
0.069498834023448100016828732350405 247:1 468:1 1100:1 1921:1 2526:1 2679:1 8140:1 9052:1 9670:1 9728:1 9985:1 10555:1 10853:1 26722:2 #
0.069498834023448100016828732350405 1170:1 1564:1 1589:1 1954:1 2287:1 2522:1 6466:1 9056:1 26722:2 #
-0.069498834023448100016828732350405 101:1 353:1 780:1 864:1 1081:1 1532:1 5153:1 8888:1 11085:1 26722:7 #
0.069498834023448100016828732350405 930:1 1826:1 2795:1 2823:1 2824:1 26722:1 #
0.069498834023448100016828732350405 471:1 1161:1 1964:1 2124:1 2500:1 2646:1 3950:1 5263:1 26722:3 #
0.048660432960511292022065532592023 840:1 984:1 1402:1 1453:1 4611:1 4942:1 9616:1 14831:3 26722:1 #
-0.069498834023448100016828732350405 67:1 416:1 1061:1 1209:1 1380:1 1869:1 1872:1 1921:1 2139:1 2204:1 2474:1 5046:1 6652:1 7818:1 9743:1 12427:1 26722:6 #
0.040196629813223028193647223815788 262:1 502:1 922:1 1081:1 2323:1 2512:1 7264:1 9806:1 26722:3 #
0.069498834023448100016828732350405 69:1 742:1 1073:1 1302:1 5726:1 26722:2 #
0.069498834023448100016828732350405 243:1 1507:1 2478:1 5689:1 5728:1 26722:1 #
0.069498834023448100016828732350405 24:1 347:1 618:1 791:1 1271:1 6087:1 11121:1 20449:1 21051:1 26722:2 #
-0.069498834023448100016828732350405 1377:1 1928:1 3770:1 6424:1 9801:1 26722:6 #
0.069498834023448100016828732350405 207:1 416:1 1122:1 1380:1 1453:1 1819:1 4270:1 6974:1 10935:1 26722:4 #
0.03769046740992274685533303113516 1351:1 1373:1 1380:1 1819:1 2723:1 4021:1 7400:1 8826:1 12416:1 26722:2 #
0.037360460801549894016559960618906 205:1 547:1 917:1 2858:2 3096:1 4668:1 26722:4 #
0.053117357416728960828322669840418 5:1 1189:1 2053:1 2743:1 5740:1 6058:2 8818:1 8986:1 26722:1 #
-0.069498834023448100016828732350405 447:1 887:1 1076:1 1140:1 1494:1 1558:1 2077:1 2215:2 4375:1 26722:4 #
0.069498834023448100016828732350405 5695:1 6796:1 9808:1 26722:5 #
0.069498834023448100016828732350405 667:1 1354:1 2153:1 3800:1 5220:1 6473:1 26722:2 #
0.069498834023448100016828732350405 197:1 211:1 1109:2 1899:1 2273:1 2899:1 7012:1 8945:1 26722:3 #
-0.069498834023448100016828732350405 332:1 851:2 987:1 3198:1 3487:1 3834:1 4288:1 5018:1 6931:1 26722:2 #
0.069498834023448100016828732350405 464:1 465:1 1426:1 3597:1 4121:1 9473:1 10600:1 12321:1 26722:4 #
0.069498834023448100016828732350405 984:1 4611:1 4639:1 9353:1 9616:1 26722:1 #
-0.069498834023448100016828732350405 291:1 1094:1 26722:2 #
-0.069498834023448100016828732350405 648:1 1789:1 1799:1 4939:1 7775:1 7886:1 8491:2 26722:1 #
0.069498834023448100016828732350405 331:1 966:1 1092:1 1963:1 1964:1 1965:1 1966:1 26722:2 #
-0.069498834023448100016828732350405 381:1 389:1 979:1 1314:1 2313:1 14539:1 25279:1 26722:6 #
0.069498834023448100016828732350405 80:1 779:1 1060:1 2332:1 4606:1 5398:1 26722:3 #
0.069498834023448100016828732350405 460:1 584:1 788:1 905:1 944:1 1702:1 1772:1 5018:1 17683:1 26722:4 #
0.069498834023448100016828732350405 783:1 1181:1 1333:1 1826:1 26722:2 #
0.069498834023448100016828732350405 954:1 1281:1 1426:1 1447:1 1775:1 1829:1 2029:1 4201:1 22212:1 23843:1 26722:3 #
0.069498834023448100016828732350405 594:1 1813:1 2991:1 3461:1 3556:1 26722:3 #
-0.046588722575540433834540010593628 589:1 821:1 875:1 14257:1 26721:1 26722:2 #
0.069498834023448100016828732350405 389:1 1970:1 2227:1 2255:1 2413:1 4319:1 26722:2 #
-0.069498834023448100016828732350405 2637:1 26722:2 #
0.049540345906571747747193512623198 190:1 475:1 2071:1 2179:1 6935:1 8545:1 11829:1 13553:1 26722:6 #
0.069498834023448100016828732350405 1216:1 1274:1 1314:1 4169:1 8152:1 12249:1 17048:1 21243:1 26722:4 #
-0.069498834023448100016828732350405 1953:1 2140:1 2378:1 4879:1 9479:1 26722:5 #
0.069498834023448100016828732350405 4319:1 6417:1 26722:5 #
-0.069498834023448100016828732350405 1423:1 26722:1 #
0.069498834023448100016828732350405 447:1 521:1 1644:1 2554:1 3339:1 4670:1 26721:1 26722:2 #
-0.069498834023448100016828732350405 482:1 737:1 738:1 1025:1 2069:1 2642:1 3883:1 7352:1 14280:1 19520:1 26722:4 #
0.069498834023448100016828732350405 187:1 669:1 984:1 1953:1 4546:1 11530:1 20431:1 26722:2 #
0.00066252110439780887395089248315116 368:1 628:1 1125:1 1193:1 1826:1 3060:1 3152:1 4879:1 5790:1 5791:1 26722:1 #
0.069498834023448100016828732350405 520:1 1225:1 1434:1 1453:1 1741:1 2316:1 2364:1 12671:1 26722:4 #
0.069498834023448100016828732350405 738:1 799:1 830:1 1343:1 3821:1 3883:1 26722:1 #
-0.069498834023448100016828732350405 219:1 1373:1 2272:1 3624:1 5698:1 6488:1 9671:1 9895:1 9896:1 26722:1 #
-0.069498834023448100016828732350405 2892:1 4051:2 5116:1 7194:1 9648:1 9658:1 9662:1 26722:1 #
-0.069498834023448100016828732350405 338:1 1664:1 1718:1 2224:1 4953:1 5388:1 26722:1 #
0.069498834023448100016828732350405 2104:1 3224:1 9956:1 9957:1 11679:1 26721:1 26722:4 #
-0.069498834023448100016828732350405 2422:1 2826:1 6527:1 26722:1 #
-0.069498834023448100016828732350405 60:1 222:1 590:1 648:1 649:1 1597:1 2627:1 3178:1 4785:1 26722:3 #
-0.069498834023448100016828732350405 204:1 327:1 434:1 577:1 807:1 1983:1 4429:1 5418:1 6205:1 11361:1 26721:1 26722:3 #
-0.069498834023448100016828732350405 43:1 512:1 616:1 826:1 1048:1 3441:1 4243:1 7270:1 26722:4 #
0.069498834023448100016828732350405 1549:1 2174:1 4501:1 26722:2 #
-0.069498834023448100016828732350405 448:1 1824:1 2945:2 7228:1 26721:1 26722:1 #
-0.069498834023448100016828732350405 205:1 482:1 1655:1 4030:1 26722:3 #
-0.069498834023448100016828732350405 109:1 338:1 562:1 619:1 947:1 1323:1 3018:1 4207:1 26722:1 #
-0.069498834023448100016828732350405 321:1 2224:1 2322:1 6596:1 10100:1 26722:4 #
-0.069498834023448100016828732350405 188:1 369:1 947:1 1758:1 3708:1 4200:1 26722:2 #
-0.069498834023448100016828732350405 504:2 610:1 1772:1 5867:1 14775:1 26722:2 #
-0.069498834023448100016828732350405 70:1 80:1 184:1 965:1 2006:1 2368:1 3488:1 3604:1 3896:1 5088:1 5313:1 5544:1 26722:3 #
0.069498834023448100016828732350405 2153:1 26721:1 26722:5 #
0.069498834023448100016828732350405 2719:1 3128:1 3506:1 3507:1 3508:1 3509:1 3510:1 26722:5 #
-0.069498834023448100016828732350405 517:1 875:1 1041:1 1092:2 2506:1 3335:1 3632:1 8552:1 8659:1 26722:1 #
-0.069498834023448100016828732350405 67:1 219:1 807:1 987:1 1047:1 1086:1 1867:1 10872:1 11505:1 12813:1 15117:1 26722:5 #
-0.069498834023448100016828732350405 18:1 219:2 338:1 389:1 567:1 823:1 924:2 1819:1 4237:1 26722:5 #
-0.069498834023448100016828732350405 368:1 385:1 469:1 836:1 1537:1 1968:1 2182:1 3700:1 6108:1 11795:1 14717:1 15944:1 26722:5 #
0.069498834023448100016828732350405 858:1 1426:1 2382:1 2383:1 2384:1 2385:1 2386:1 26722:3 #
0.069498834023448100016828732350405 562:1 1691:1 3054:1 9754:1 16140:1 16141:1 26722:5 #
-0.069498834023448100016828732350405 1779:1 1971:1 3131:1 6665:1 26721:1 26722:2 #
-0.069498834023448100016828732350405 262:1 447:1 584:1 954:1 4072:1 4267:1 8387:1 10303:1 16626:1 26721:1 26722:4 #
-0.069498834023448100016828732350405 416:1 822:1 1304:1 1482:1 5447:1 9155:1 26722:2 #
0.069498834023448100016828732350405 219:1 807:1 1045:1 1155:1 1287:1 4245:1 4299:1 8083:1 10531:1 10799:1 26722:6 #
0.069498834023448100016828732350405 416:1 482:1 1595:1 1842:1 4091:1 8172:1 9899:1 26722:5 #
-0.069498834023448100016828732350405 940:1 1005:1 1045:1 2192:1 2785:1 7458:1 11082:1 26722:1 #
-0.069498834023448100016828732350405 338:1 1099:1 4245:1 5600:1 6093:1 6984:1 26722:1 #
-0.069498834023448100016828732350405 482:1 1249:1 1414:1 2427:1 5517:1 13868:1 13869:1 26722:4 #
0.069498834023448100016828732350405 802:1 998:1 1819:1 6882:1 26722:6 #
0.052954414776735812819818960406337 667:1 730:1 998:1 1899:1 1951:1 2201:1 2410:1 2603:1 3192:1 3767:1 4478:1 9231:1 9801:1 11492:1 13203:1 13483:1 18525:1 26722:7 #
-0.069498834023448100016828732350405 2201:1 3813:1 3814:1 6722:1 26722:2 #
-0.069498834023448100016828732350405 430:1 431:1 730:1 768:1 783:1 911:1 970:1 1668:2 1952:1 2392:1 26722:4 #
-0.069498834023448100016828732350405 234:1 604:1 3939:2 8746:1 19950:1 26722:2 #
0.069498834023448100016828732350405 205:1 262:1 1986:1 2227:1 2388:1 3269:1 7580:1 13980:1 17895:1 23569:1 26722:8 #
0.069498834023448100016828732350405 89:1 953:1 1081:1 1214:1 1246:1 4409:1 5363:1 26722:4 #
-0.069498834023448100016828732350405 1511:1 5189:1 8119:1 26722:2 #
-0.069498834023448100016828732350405 815:1 1423:1 2064:1 2085:1 2173:1 3138:2 4214:1 5189:1 6919:1 7112:1 12643:1 14336:1 18517:1 21935:1 26722:2 #
-0.069498834023448100016828732350405 499:1 998:1 1867:1 3645:1 7527:1 26722:1 #
-0.069498834023448100016828732350405 633:1 1147:1 2284:1 5172:1 26722:2 #
-0.069498834023448100016828732350405 160:1 405:1 1147:1 1763:1 26722:4 #
-0.069498834023448100016828732350405 920:1 1456:1 2603:1 2687:1 12839:1 12840:1 26722:1 #
0.069498834023448100016828732350405 1110:2 7516:1 10620:1 26722:5 #
-0.069498834023448100016828732350405 229:1 616:1 1201:1 2838:1 3815:1 4916:1 13452:1 26721:1 26722:6 #
-0.069498834023448100016828732350405 115:1 562:1 667:1 893:1 2477:1 2583:1 3108:1 3435:1 3436:1 3619:1 26722:6 #
-0.069498834023448100016828732350405 584:1 26722:2 #
0.069498834023448100016828732350405 616:1 3441:1 26722:2 #
0.069498834023448100016828732350405 616:1 979:1 3131:1 5752:1 11490:1 26721:1 26722:1 #
-0.069498834023448100016828732350405 405:1 986:1 1284:1 2593:1 4280:1 5209:1 26722:2 #
-0.069498834023448100016828732350405 807:1 1060:1 1423:1 3791:1 7094:1 26722:3 #
-0.069498834023448100016828732350405 553:1 955:1 1043:1 1316:1 2982:1 3763:1 4985:1 6414:1 7255:1 14374:1 23163:2 23165:1 26722:2 #
0.069498834023448100016828732350405 470:1 1178:1 1201:1 1291:1 1494:1 1968:1 2514:1 5189:1 5741:1 6862:1 8832:1 10814:1 15520:1 26722:8 #
-0.069498834023448100016828732350405 420:1 465:1 823:1 917:1 1317:1 1436:1 2277:1 5100:1 5651:1 6761:1 7343:1 12167:1 26722:2 #
-0.069498834023448100016828732350405 5867:1 5979:1 26722:2 #
-0.069498834023448100016828732350405 468:1 594:1 692:1 712:1 1106:1 2489:1 12166:1 19082:1 26721:1 26722:3 #
-0.069498834023448100016828732350405 269:1 420:1 10744:1 10861:1 26722:3 #
0.069498834023448100016828732350405 1099:1 3402:1 4668:1 8329:1 10311:1 13827:1 18727:1 26722:12 #
0.0055922928029485952095001266570762 506:1 507:1 983:1 1119:1 1189:1 1364:1 1399:2 2458:1 2874:1 4065:1 4461:1 9155:1 10517:1 26722:5 #
-0.069498834023448100016828732350405 897:1 998:1 1178:1 26722:1 #
-0.069498834023448100016828732350405 22:2 369:1 1106:1 1343:1 1520:1 1786:1 4096:1 8590:1 8827:1 26722:4 #
-0.069498834023448100016828732350405 178:1 241:1 268:1 509:1 928:1 968:1 1930:1 2451:1 26722:3 #
-0.069498834023448100016828732350405 1251:1 1814:1 8603:1 26721:1 26722:3 #
-0.069498834023448100016828732350405 851:1 1189:1 1661:2 26722:1 #
-0.069498834023448100016828732350405 246:1 1189:1 1199:1 1824:1 3346:1 15194:1 26722:3 #
0.069498834023448100016828732350405 1402:1 2173:1 3428:1 3624:1 4687:1 20362:1 25279:1 26722:4 #
0.069498834023448100016828732350405 401:1 482:2 615:1 1814:1 1823:1 5364:1 5483:1 6004:1 26722:6 #
