SVM-light Version V6.02
0 # kernel type
3 # kernel parameter -d 
1 # kernel parameter -g 
1 # kernel parameter -s 
1 # kernel parameter -r 
empty# kernel parameter -u 
9648 # highest feature index 
2498 # number of training documents 
2019 # number of support vectors plus 1 
0.78769073 # threshold b, each following line is a SV (starting with alpha*y)
-0.15159479457805946633897065112251 209:1 #
-0.15159479457805946633897065112251 102:1 170:1 171:1 172:1 173:1 #
-0.15159479457805946633897065112251 204:1 205:1 206:1 207:1 208:1 209:1 210:1 211:1 #
-0.063263281391200895664717052113701 565:2 569:1 3219:1 3841:1 3842:1 #
-0.15159479457805946633897065112251 5:1 423:1 424:1 425:1 426:1 427:1 #
0.02419073362459643952715460102354 12:1 61:1 64:1 65:1 66:1 67:1 69:1 70:1 71:1 73:1 #
0.15159479457805946633897065112251 22:1 95:1 96:1 97:1 98:1 100:2 101:1 102:1 103:1 #
0.015571603734647694941561901771365 98:1 136:1 137:1 139:1 140:1 141:5 #
0.10337993938542272553959833203407 139:1 223:1 224:1 225:1 226:1 227:1 229:1 230:1 231:1 232:1 233:1 234:1 #
0.15159479457805946633897065112251 210:1 222:1 258:1 259:1 260:1 #
-0.15159479457805946633897065112251 100:3 214:1 366:1 444:1 587:1 823:1 854:1 896:1 1799:1 8989:1 #
-0.15159479457805946633897065112251 #
-0.15159479457805946633897065112251 100:2 209:1 232:1 262:1 275:1 308:1 511:1 571:1 579:1 679:1 706:1 986:1 987:1 988:1 #
-0.14113260725207696366645393482031 100:1 139:1 232:1 396:1 539:1 783:1 999:1 1045:1 1084:1 1152:1 2174:1 3620:2 4683:2 6574:1 #
-0.12064393333728645751889985149319 100:2 595:1 1892:1 2859:1 3176:1 #
0.074174119444316677363104872711119 60:1 123:1 160:1 163:1 330:3 536:1 584:1 600:1 777:1 1147:1 1165:1 1507:1 1611:1 2431:1 2432:1 #
0.028700859406087055047951395181371 15:1 163:1 332:1 334:1 396:1 539:1 557:1 649:1 792:1 793:1 824:1 2313:1 #
0.15159479457805946633897065112251 324:1 328:2 542:1 1214:1 6209:1 #
0.15159479457805946633897065112251 173:1 216:1 330:1 565:1 600:1 759:1 2732:1 #
0.059469582745276410029600100415337 171:1 319:1 328:1 342:1 390:1 958:1 1343:1 1625:1 2002:1 2045:1 2068:1 2468:1 2488:1 2558:1 2738:1 #
0.049343682943222222370138752012281 323:1 330:1 405:1 595:1 726:1 1314:1 2236:1 2405:1 2627:1 3709:2 4089:1 4319:2 4540:1 #
-0.15159479457805946633897065112251 22:1 219:1 258:2 347:1 429:1 457:1 564:1 807:1 994:1 #
-0.15159479457805946633897065112251 103:2 139:1 149:1 311:1 342:1 830:1 1707:1 2113:1 5153:1 8172:1 #
-0.045978466189364415594997836933544 328:1 330:1 473:1 542:1 723:1 1092:1 1401:1 #
-0.067673732244945550284853652556194 86:1 210:3 223:1 259:1 688:1 854:1 1343:1 1494:1 2463:1 #
-0.15159479457805946633897065112251 88:1 266:1 348:1 688:1 766:1 5713:1 5802:1 5850:1 #
0.050070035372733419365420814983736 54:1 60:1 100:2 348:1 426:1 595:1 2120:1 7254:1 #
0.14945141908013659381992965791142 100:2 148:1 561:1 579:1 587:1 854:1 875:1 897:1 1060:2 1504:1 1611:1 1814:1 2459:1 2460:1 2462:1 2463:1 #
0.014796128997971780272280284407316 100:2 212:1 214:1 333:1 699:1 1189:1 1444:1 1609:1 #
0.061790153505636907782516686893359 20:2 100:2 8676:2 8678:2 #
-0.15159479457805946633897065112251 8:1 12:1 100:1 160:1 224:1 342:1 405:1 419:1 928:1 1102:1 1103:1 1104:1 1105:1 1106:1 1108:1 1109:1 #
-0.15159479457805946633897065112251 98:1 100:1 497:1 638:1 1792:1 5752:1 #
-0.15159479457805946633897065112251 100:1 600:1 1486:1 2369:1 3391:1 3773:1 #
-0.15159479457805946633897065112251 100:1 212:1 356:1 640:1 645:1 888:1 2313:1 3033:1 4654:1 8563:1 #
0.15159479457805946633897065112251 723:3 858:1 3109:1 3980:1 4274:1 6194:1 6972:1 7050:2 #
-0.15159479457805946633897065112251 196:1 3556:1 #
0.1201528656095544322912616053145 232:1 342:1 378:1 706:1 884:1 1135:1 2253:1 2722:1 #
0.061843742776459195709115590489091 205:1 210:2 244:1 481:1 545:1 563:1 896:1 1549:1 2094:1 2456:1 2791:1 #
-0.15159479457805946633897065112251 381:1 3562:1 6141:1 #
-0.11731629760812348206577837572695 86:1 342:1 511:1 558:1 706:1 1507:1 1799:1 2094:6 2124:1 2272:1 5809:1 7108:1 #
-0.15159479457805946633897065112251 17:1 18:1 22:1 723:1 881:1 882:1 883:1 1135:1 1246:1 1354:1 1741:1 2459:1 5626:1 #
-0.10892782394103650567274144123076 70:1 348:1 362:1 393:1 895:1 896:1 966:1 1551:1 1617:1 3600:1 #
-0.15159479457805946633897065112251 95:1 801:1 2527:1 3109:1 7050:1 #
-0.15159479457805946633897065112251 214:1 232:1 310:1 539:1 558:1 896:1 901:1 972:1 1135:1 2428:1 #
-0.15159479457805946633897065112251 719:1 #
-0.15159479457805946633897065112251 322:1 419:1 464:1 465:1 #
0.055459722742319340904604274555822 20:1 107:1 123:1 495:1 633:1 824:1 1373:1 1623:1 2085:1 3898:1 #
0.15159479457805946633897065112251 22:1 163:1 567:1 792:1 1000:1 8900:1 #
0.03245200284014966574108740360316 98:1 100:1 262:1 557:1 638:1 883:1 1293:1 1364:1 2176:1 3355:1 3442:1 4461:1 4462:1 #
-0.15159479457805946633897065112251 214:1 362:1 401:1 497:1 638:2 899:1 970:1 999:1 1699:1 2277:5 3714:1 5298:1 5300:1 #
-0.080401091784703712650461682187597 214:2 284:1 330:1 638:1 679:1 815:1 854:3 1200:1 1758:1 1867:3 2182:1 3071:1 6242:2 7332:1 #
-0.15159479457805946633897065112251 67:1 214:1 473:1 638:1 899:1 1084:1 1293:1 1529:1 1664:1 1758:1 2072:1 2545:1 9007:1 9008:1 #
-0.15159479457805946633897065112251 226:1 638:1 899:1 1562:1 1575:1 2662:1 #
-0.15159479457805946633897065112251 214:1 224:1 304:1 348:1 571:1 638:1 688:1 1423:1 #
0.15159479457805946633897065112251 5:1 149:1 209:1 539:1 1282:1 1442:1 1983:1 2403:1 6551:1 6919:1 #
0.15159479457805946633897065112251 75:1 331:1 417:1 482:1 541:1 648:1 999:1 1000:1 1001:1 #
0.022410880082605940527562538022721 149:1 160:1 344:1 419:1 420:2 817:1 1135:1 1201:1 1643:1 2025:1 2631:1 2790:2 3170:1 5499:1 #
0.15159479457805946633897065112251 669:1 801:1 1792:1 2329:1 2675:1 #
0.013268048744916077774647078513226 88:1 186:1 291:1 348:1 362:1 464:1 465:1 539:2 759:1 1092:1 1403:1 2188:1 3435:1 #
-0.15159479457805946633897065112251 234:1 1193:1 1403:1 1444:1 2691:1 2850:1 2861:1 3442:1 7192:1 8387:1 #
-0.15159479457805946633897065112251 98:1 167:1 233:1 285:1 346:1 5495:1 6615:1 #
-0.15159479457805946633897065112251 75:1 256:2 464:1 465:1 706:1 778:1 1009:1 1813:1 2022:1 2537:1 #
-0.15159479457805946633897065112251 123:1 244:1 498:1 628:1 1092:1 1218:1 1595:1 3119:1 #
-0.15159479457805946633897065112251 98:1 141:1 275:1 858:1 6472:1 #
-0.10595330425468280077794247517886 3268:1 6161:1 #
0.079662375025690873586725615496107 342:1 571:2 1427:2 1680:1 #
0.15159479457805946633897065112251 91:1 214:1 329:1 638:1 973:1 1251:1 6897:2 #
0.13204184313669503625376933086955 214:1 314:1 348:1 845:1 896:1 901:1 1604:1 5464:1 #
0.15159479457805946633897065112251 207:1 638:1 841:1 932:1 2277:1 3741:1 #
-0.15135211686198069003239652374759 66:1 121:1 458:1 704:1 868:1 894:1 901:2 1201:1 1214:1 1316:1 2030:1 2644:1 4196:1 6365:1 6367:1 #
0.0073187936946456531514537680038757 190:1 778:2 1412:1 2346:2 3819:2 5156:1 #
-0.15159479457805946633897065112251 37:1 60:1 219:1 223:1 328:1 342:1 458:1 509:1 540:1 1060:1 1643:1 2199:2 #
-0.15159479457805946633897065112251 20:1 84:1 88:1 91:1 210:1 258:1 743:1 934:1 1506:1 2227:1 3428:1 3969:1 4304:1 4305:1 #
0.15159479457805946633897065112251 256:1 458:1 553:1 816:1 2271:1 3564:1 3848:1 #
0.058153204942797881438210083615559 123:1 331:1 405:1 941:1 942:2 1147:1 1403:1 1423:1 3063:2 4572:2 #
0.15159479457805946633897065112251 266:1 275:2 1081:1 2024:1 2133:1 2420:1 #
0.10268093351373908106438648246694 84:1 98:1 148:1 285:1 326:1 393:1 426:1 735:1 1080:1 1758:1 3456:1 4752:1 4939:1 #
0.15159479457805946633897065112251 275:1 930:1 1084:1 1444:1 2274:2 3986:1 #
-0.13299566668816864556390555662801 139:1 163:1 220:1 290:1 326:1 390:1 417:1 447:2 646:1 648:1 723:1 883:1 897:1 1630:1 1979:1 3339:1 8552:1 #
-0.15159479457805946633897065112251 212:1 214:1 275:1 6376:1 #
-0.15159479457805946633897065112251 12:1 20:1 21:1 385:1 866:1 942:1 955:1 2085:1 3831:1 5149:1 #
-0.15159479457805946633897065112251 96:2 262:1 285:1 579:1 689:1 1208:1 4562:1 #
-0.15159479457805946633897065112251 498:1 648:1 676:1 1427:1 1568:1 1741:1 1831:1 3012:1 4263:1 4839:1 4840:1 #
0.12948235969538682277324426195264 140:1 354:1 548:1 1006:1 1208:1 1771:1 #
0.13485756551593738872263372741145 458:2 473:1 567:2 688:1 1095:1 1880:1 1922:1 2636:1 #
-0.010932034436571072891219991163325 8:1 319:1 328:1 3254:1 3530:1 6818:1 #
0.15159479457805946633897065112251 498:1 558:1 609:1 1218:1 1246:1 2214:1 3052:1 #
0.12891211515264494602561740066449 22:1 178:1 219:1 831:1 1813:1 2277:1 2786:1 5000:1 #
-0.15159479457805946633897065112251 22:1 247:1 440:1 679:1 757:1 846:1 901:2 931:1 1099:1 1369:2 1642:1 2094:1 4841:1 #
-0.15159479457805946633897065112251 311:2 378:1 509:1 541:1 600:1 628:1 901:1 1901:1 2009:1 2214:1 2259:1 3677:1 3678:1 #
-0.15159479457805946633897065112251 348:1 363:1 458:1 652:1 901:1 1166:1 2111:1 5723:1 6191:1 #
-0.15159479457805946633897065112251 11:1 217:1 521:1 600:1 831:1 1135:1 1143:1 1663:1 1729:1 7106:1 8455:1 #
-0.098521580768509364745000311813783 70:1 121:1 308:1 481:1 526:1 587:1 612:1 859:1 911:1 984:1 1080:1 1380:1 2103:1 2201:1 2304:1 2627:1 3930:1 3931:1 3932:1 3933:1 3934:1 #
0.15159479457805946633897065112251 104:1 105:1 159:1 466:1 1049:1 1091:1 1470:1 1569:1 1640:1 1641:1 1642:1 1643:1 1644:1 #
0.035266922980927588315847032163219 27:1 348:1 489:1 688:1 703:1 1291:1 1537:1 1614:1 2609:1 4320:1 7204:1 #
0.15159479457805946633897065112251 209:1 466:1 692:1 1091:1 1092:1 3071:1 7108:1 7211:1 #
0.066628910958515308315952552220551 204:1 258:1 310:1 347:1 609:1 854:2 888:1 1044:1 1733:1 1830:1 4331:1 4523:1 4524:1 4525:1 4526:1 #
0.073838591510180753840764111828321 42:1 100:1 212:2 291:1 424:1 899:1 1127:1 #
0.15159479457805946633897065112251 8:1 319:1 330:1 548:1 2904:1 6693:1 6879:1 #
-0.14507848622866295618116794230446 105:1 208:1 424:1 513:1 1470:1 1899:1 2786:1 2991:1 6088:2 9117:2 #
-0.15159479457805946633897065112251 265:1 267:1 306:1 581:1 932:2 1068:1 1643:1 1952:1 7397:1 #
-0.15159479457805946633897065112251 110:1 208:1 466:1 676:1 699:1 817:1 1195:1 1363:1 1364:1 #
-0.15159479457805946633897065112251 91:1 139:1 167:1 184:1 275:1 466:1 482:1 769:1 801:1 888:1 1165:1 2121:1 2133:1 2587:1 #
0.15159479457805946633897065112251 344:1 393:1 394:1 491:1 497:1 563:1 677:1 #
0.15159479457805946633897065112251 217:1 600:1 646:1 895:1 934:1 5304:1 5307:1 #
0.15159479457805946633897065112251 9:1 11:2 12:1 170:1 265:1 475:1 1606:1 1607:1 #
0.15159479457805946633897065112251 233:1 419:1 4412:1 4414:1 #
0.097444041084291388443716641631909 139:1 343:1 399:1 416:1 447:1 548:1 553:1 631:1 1166:2 1300:1 3439:1 3550:1 3551:1 3555:1 #
-0.12884664730363837303883656204562 11:1 60:1 123:1 322:1 333:1 609:1 646:1 649:1 884:1 911:1 999:1 1049:1 1186:1 1295:1 1361:1 2148:1 2287:1 2732:1 4966:1 5348:1 5626:1 #
-0.15159479457805946633897065112251 12:1 123:1 296:3 396:1 459:1 568:1 650:1 729:1 800:1 1181:1 1405:1 1442:1 1983:1 2266:1 2340:1 4077:1 #
-0.048713810206312498085612361364838 170:1 568:1 582:1 819:1 1125:1 2637:1 4517:1 6168:1 #
-0.15159479457805946633897065112251 12:1 15:1 296:1 328:1 352:1 429:1 545:1 700:1 1217:1 1940:1 3845:2 4175:1 5182:1 #
-0.15159479457805946633897065112251 42:1 82:1 103:1 548:1 743:1 1092:1 1166:1 1273:1 1964:1 2719:1 2768:1 3507:1 3909:1 5885:1 #
-0.10625751215177398067979197548993 1026:1 3872:1 #
0.15159479457805946633897065112251 328:1 676:1 1143:1 1373:1 1741:1 3472:1 6574:1 #
0.13685158846107536856351316600922 505:1 676:1 858:1 1741:1 2955:1 3099:1 3100:1 #
0.072089865887979470704394202584808 75:1 220:1 547:1 1523:1 2094:4 2326:6 2327:1 2328:1 #
0.059900095270879027964383567450568 71:1 248:1 256:1 322:1 341:1 464:2 465:2 638:1 641:1 703:1 743:1 1302:1 1486:1 2214:1 5621:1 6005:1 7246:1 #
-0.15159479457805946633897065112251 9:1 232:1 389:1 482:1 905:1 1351:1 2660:1 5920:1 6919:1 6920:1 #
-0.15159479457805946633897065112251 8:1 171:1 323:1 393:1 475:1 503:1 543:1 645:1 1319:1 1579:1 1609:1 2082:1 2361:1 2420:1 #
-0.15159479457805946633897065112251 232:1 497:1 638:1 656:1 994:1 1699:1 1704:1 2506:1 3146:1 3411:1 3412:1 3413:1 #
-0.055421825498221478911720083715409 209:1 210:1 212:1 248:1 326:1 505:1 881:1 882:1 961:1 1186:1 1310:1 1476:1 2117:1 4633:1 #
-0.15159479457805946633897065112251 524:1 553:2 1251:1 1949:1 #
0.15159479457805946633897065112251 1042:1 1351:1 1352:1 #
0.15159479457805946633897065112251 103:1 304:1 396:1 585:1 719:1 1165:1 1166:1 1168:1 1169:1 #
0.15159479457805946633897065112251 13:1 91:1 390:1 579:1 800:1 901:2 1092:1 1358:1 1664:1 2104:1 2124:1 2478:1 #
0.12178472587795929893417223865981 82:1 296:1 308:1 417:1 429:1 571:1 735:1 993:1 2103:2 2702:1 5343:1 5810:1 5994:1 6180:1 #
0.15159479457805946633897065112251 104:1 105:1 159:1 208:1 568:1 685:1 778:2 1100:1 1152:1 1330:1 2333:1 3049:1 3497:1 3696:1 3697:1 3698:1 #
-0.15159479457805946633897065112251 78:1 82:1 91:1 399:1 417:1 846:1 901:1 1029:1 1110:1 1172:1 1454:1 1842:1 2120:1 4474:1 #
-0.15159479457805946633897065112251 82:1 88:1 331:1 505:1 555:1 568:1 901:1 958:1 964:1 1369:1 2002:1 2237:1 6188:1 #
-0.15159479457805946633897065112251 82:1 105:1 221:1 289:1 475:1 505:1 744:1 901:1 953:1 964:1 1958:1 #
-0.15159479457805946633897065112251 91:1 103:1 688:1 763:1 898:1 1373:1 3436:1 4023:1 #
-0.15159479457805946633897065112251 91:1 149:1 256:1 310:1 458:1 464:1 465:1 466:1 468:1 #
-0.054764150762350180534632215767488 366:1 460:1 1346:1 #
0.098495146834353522469207575795735 78:1 191:1 356:1 392:1 393:1 553:2 661:1 842:1 1448:1 2547:1 2549:1 2550:1 #
0.15159479457805946633897065112251 390:1 1302:1 1466:1 3285:2 #
0.15159479457805946633897065112251 328:1 348:1 388:1 389:1 531:1 543:1 869:1 1186:1 4291:1 4988:1 #
0.057014964984591548491366097550781 8:1 20:1 393:1 504:2 539:1 628:1 648:1 1004:1 1135:1 1186:1 2525:1 2526:1 3331:1 3435:1 #
-0.14903838556253479197266642586328 108:1 308:1 416:1 780:1 787:1 1061:1 1337:3 1405:1 7602:1 #
-0.15159479457805946633897065112251 348:1 676:1 947:1 1741:1 2730:1 5152:1 5551:1 8761:1 #
-0.15159479457805946633897065112251 308:1 778:1 789:1 1612:1 8284:1 #
-0.074722462266234412897603078818065 1312:1 3402:1 #
-0.10857531305095853568776220754444 21:1 800:1 1797:1 1851:1 2103:2 2852:1 3138:1 3551:1 4789:1 5648:1 8036:1 #
-0.15159479457805946633897065112251 3578:1 #
0.14532289051386579337155069424625 15:1 25:1 217:1 232:1 337:1 505:1 911:1 1246:1 1826:1 2009:1 2644:1 4438:1 #
0.071158864376108355020988938122173 471:1 482:1 645:1 807:1 868:1 1029:1 1208:1 1470:1 1607:1 2199:1 2272:1 2689:1 4727:1 6377:1 6920:1 8878:1 9390:1 #
0.15159479457805946633897065112251 326:2 505:1 584:1 626:1 807:1 883:1 994:1 1092:1 1364:1 1582:1 1899:1 2506:1 2765:1 2951:1 3649:1 3703:1 4841:1 #
0.15159479457805946633897065112251 322:1 499:1 645:1 1029:1 1436:1 3097:1 3420:1 6088:1 #
-0.064977051355017190203966492845211 42:2 149:1 285:1 322:2 342:1 645:2 673:1 1029:3 1601:2 3681:1 #
-0.15159479457805946633897065112251 396:1 505:1 511:1 770:1 817:2 841:2 854:1 1092:1 2104:1 5955:1 #
-0.15159479457805946633897065112251 148:1 217:1 220:1 337:1 848:1 864:1 1486:1 4895:1 #
-0.15159479457805946633897065112251 217:1 571:1 1426:2 2177:1 2322:1 3550:1 4642:1 #
-0.15159479457805946633897065112251 21:1 223:1 322:1 390:1 393:1 408:1 645:1 1049:1 1141:1 #
0.15159479457805946633897065112251 256:1 458:1 778:1 1307:1 2005:1 2474:1 3436:1 #
0.15159479457805946633897065112251 149:1 308:1 309:1 346:1 378:1 513:1 817:1 928:1 994:2 1279:1 2642:1 2735:1 #
0.056301435106978478528638731859246 123:2 466:1 630:1 670:1 745:3 923:1 2418:3 2419:1 #
0.15159479457805946633897065112251 16:1 27:1 82:1 772:1 947:1 3012:1 #
0.070810435805021249011659278949082 98:1 149:1 210:1 310:1 417:1 571:1 819:1 999:1 1369:1 1504:1 2233:1 2235:1 2236:1 2237:1 2238:1 2239:1 #
-0.15159479457805946633897065112251 27:1 368:1 530:1 595:1 772:1 1307:1 1951:1 2536:1 2956:1 #
-0.13162762736187366696682943256747 105:1 219:1 258:1 417:1 429:1 505:1 560:1 994:1 6919:1 #
-0.15159479457805946633897065112251 27:1 123:1 331:1 337:1 378:1 481:1 908:1 939:1 1186:1 4223:1 #
-0.15159479457805946633897065112251 78:1 346:1 416:1 440:1 466:1 565:1 778:1 868:1 983:1 1189:1 1218:1 2013:1 2905:1 #
0.041381130499402625499971719591485 587:4 854:4 5876:8 5877:4 #
0.063533776376524048190574944783293 21:1 82:1 362:1 464:1 465:1 1258:1 1426:1 2646:1 4546:1 4629:1 5191:1 6582:1 #
-0.15159479457805946633897065112251 3798:1 #
0.11072255508903548759658264089012 108:1 204:1 666:1 844:1 1453:1 1949:1 3146:1 4196:1 4465:1 4969:1 5855:1 #
0.1310937689279019768839873449906 291:1 301:1 536:1 831:1 905:1 966:1 1426:1 7697:1 #
0.021119763492092963330648558439862 703:1 777:1 804:1 1007:1 1218:1 2272:1 2866:1 4681:1 #
-0.15159479457805946633897065112251 291:1 599:1 879:2 1758:1 2351:1 2785:1 3131:1 #
-0.12162579504178963607508023869741 82:1 112:1 719:2 835:1 1012:1 5119:1 5120:1 5121:2 #
-0.12788492544412721763080753589747 9:1 232:1 366:1 393:1 719:1 999:1 1135:1 4347:1 #
-0.15159479457805946633897065112251 291:1 405:1 457:1 656:1 901:1 1008:1 1369:1 1582:1 1938:1 1939:1 #
0.15159479457805946633897065112251 78:1 159:1 210:1 258:1 311:1 565:1 772:1 1685:1 #
0.15159479457805946633897065112251 167:1 417:1 622:1 841:1 1049:1 1091:1 3752:1 #
0.15159479457805946633897065112251 319:1 330:1 417:1 645:1 817:1 875:1 1507:1 1955:1 #
0.025552814914640641086318595398552 140:1 594:1 609:1 692:1 884:1 930:1 1016:1 #
0.15159479457805946633897065112251 184:1 258:1 417:1 457:1 766:1 1365:1 1772:1 2138:1 2494:1 4270:1 5947:1 5948:1 5949:1 #
-0.13838324605140570056072135685099 210:2 352:1 414:1 417:2 596:1 701:1 1442:1 1563:1 1983:1 2153:1 2745:1 3113:1 3236:1 3662:1 5189:1 5864:1 #
-0.15159479457805946633897065112251 71:1 380:1 417:1 581:1 646:1 723:1 766:1 817:1 1674:1 1712:1 #
-0.11334059171868163251595262863702 33:1 100:1 123:1 133:1 149:1 188:1 324:1 328:1 348:1 417:1 518:1 768:1 883:1 5626:1 #
-0.03244145290313225904466065685483 21:1 104:1 335:1 543:1 587:1 854:1 1091:1 1346:1 3741:1 3963:1 4400:1 4401:1 4402:1 #
0.029017833039187219262844408262936 447:1 536:1 537:1 558:1 797:1 958:1 1264:1 1988:1 2581:1 4486:1 #
0.15159479457805946633897065112251 393:1 829:1 864:1 1080:1 1135:1 1178:1 1568:1 2375:1 2378:1 2379:1 #
0.15159479457805946633897065112251 656:2 1143:1 1320:1 1758:1 5383:1 #
0.010223676992531294249744178159744 9:1 24:1 901:1 955:1 1141:1 1532:1 5259:1 8082:1 #
0.15159479457805946633897065112251 27:1 208:1 308:1 600:1 879:1 901:1 1287:1 1344:1 6941:1 8452:1 #
-0.11975058476883389257938716809804 27:2 159:1 550:1 551:1 1730:2 5065:1 #
-0.15159479457805946633897065112251 13:1 356:1 512:1 565:1 845:1 857:1 1758:1 3801:1 4264:1 #
-0.15159479457805946633897065112251 207:1 389:1 567:1 579:1 656:1 1986:1 #
-0.15159479457805946633897065112251 78:1 330:1 343:1 419:1 1035:1 1592:1 3661:1 #
-0.15159479457805946633897065112251 304:1 401:1 422:1 638:1 729:1 792:1 815:1 1111:1 1141:1 1150:2 1158:1 1364:1 1601:1 1685:1 2581:1 2765:1 4375:1 5763:1 #
0.060552803026976555200722174276962 380:1 505:1 595:1 646:1 723:1 879:1 936:1 1049:1 1288:1 1456:1 2720:1 3719:1 5264:1 7676:1 8574:1 #
0.11478173518109252571051115410228 225:1 342:1 352:1 354:1 396:1 466:1 577:1 1181:1 1380:1 1442:1 1794:1 1795:1 1983:1 2085:1 5483:1 8113:1 9164:1 #
0.15159479457805946633897065112251 103:1 123:1 338:1 723:1 867:1 879:1 1170:1 1814:1 2212:1 2237:1 3236:1 8489:1 #
0.15159479457805946633897065112251 103:1 267:1 419:1 503:1 587:1 701:1 854:1 2768:1 2769:1 #
0.15159479457805946633897065112251 67:1 335:1 524:1 646:1 1631:1 2153:1 3151:1 4386:1 #
-0.15159479457805946633897065112251 308:1 505:1 1080:1 1279:1 1642:1 3572:1 5399:1 8172:1 #
-0.15159479457805946633897065112251 103:2 139:1 854:1 1273:1 1317:1 1826:1 4225:1 5162:1 6310:2 #
-0.14274757762577391928537906551355 84:1 316:1 539:1 649:1 840:1 1099:1 1186:1 1317:1 2333:1 2843:1 3166:1 3674:1 3719:1 6828:1 #
-0.15159479457805946633897065112251 216:1 321:1 354:1 887:1 #
0.15159479457805946633897065112251 171:1 214:1 579:1 1674:1 1820:1 3335:1 #
0.057360684920554148857885223833364 149:1 296:1 440:1 848:1 1003:1 1060:1 2266:1 3016:1 5124:1 5925:1 6081:1 #
0.15159479457805946633897065112251 579:1 1674:1 1986:1 #
-0.12981238049511764631738230946212 196:1 1813:1 #
0.077353566696343911690547656689887 148:1 743:2 778:1 779:1 925:1 1150:1 1235:1 1236:1 1238:1 #
-0.15159479457805946633897065112251 1143:1 1504:1 1790:1 2542:1 #
0.011256344724211230640120717794161 205:1 763:1 1009:1 1956:1 2488:2 2722:1 3551:1 4471:1 4487:2 4489:1 4492:1 4493:1 #
-0.15159479457805946633897065112251 291:1 600:1 2212:1 #
-0.15159479457805946633897065112251 12:1 1170:1 #
-0.15159479457805946633897065112251 129:1 259:1 875:1 1060:1 2327:1 #
0.15159479457805946633897065112251 139:1 259:1 285:1 368:1 417:1 505:2 540:1 581:1 627:1 1152:1 #
0.15159479457805946633897065112251 133:1 148:1 168:1 217:1 581:1 638:1 1369:1 3673:1 3674:1 #
0.073314917640246377028567792422109 261:1 265:1 706:1 958:1 972:1 1146:1 1218:1 1310:1 1952:1 1953:1 1954:1 #
0.016518762843689402397551191370439 139:1 261:1 334:1 366:1 434:1 548:1 770:1 813:1 924:1 1758:1 1823:1 2027:1 #
-0.15159479457805946633897065112251 148:1 505:1 901:1 994:1 1427:1 1799:1 1879:1 2028:1 #
-0.15159479457805946633897065112251 261:1 265:1 338:1 1310:1 #
-0.15159479457805946633897065112251 139:1 149:1 159:1 548:1 1694:1 1952:1 3491:1 #
-0.15159479457805946633897065112251 139:1 229:1 626:1 627:1 628:1 629:1 #
-0.15159479457805946633897065112251 140:1 261:1 265:1 852:1 2637:1 #
0.15159479457805946633897065112251 256:1 458:1 600:1 666:1 830:1 892:1 1730:1 2094:2 2584:1 #
0.15159479457805946633897065112251 12:1 84:1 91:1 149:1 319:1 408:1 679:1 688:1 1124:1 2691:1 3696:1 3792:1 3994:1 3996:1 #
-0.055238433740966999541122106620605 1049:1 1051:1 2001:1 #
0.15159479457805946633897065112251 380:1 530:1 817:1 1295:1 1619:1 2408:1 3249:1 3483:1 #
0.040201669308918074052794366934904 13:1 91:1 259:1 544:1 645:1 877:1 982:1 983:1 1000:1 1486:1 #
-0.15159479457805946633897065112251 17:1 328:1 346:1 482:1 548:1 645:1 813:1 915:1 1124:1 2124:1 #
-0.04246240145193330706163692411792 366:1 418:1 473:1 641:1 687:1 688:2 1099:1 1119:1 2651:1 3619:1 #
-0.15159479457805946633897065112251 319:1 354:1 399:1 458:1 459:1 544:1 726:1 1006:1 2149:1 2824:1 3270:1 5054:1 6188:1 #
0.10446847800163026886988149044555 21:1 95:1 140:1 550:2 563:2 665:1 1274:1 2117:1 3866:2 4326:1 #
0.15159479457805946633897065112251 27:1 727:1 1630:1 1694:1 1867:1 7166:1 #
0.15159479457805946633897065112251 219:1 233:1 787:1 1828:1 2660:1 3670:1 5621:1 #
0.15159479457805946633897065112251 1001:1 1166:1 1799:1 2536:1 2537:1 2538:1 #
0.037411058134553240583919375694677 8:1 21:1 104:1 140:1 522:1 868:1 947:1 1004:1 1775:1 2629:1 5235:1 5236:1 #
-0.15159479457805946633897065112251 1823:2 #
-0.15159479457805946633897065112251 261:1 609:1 650:1 1104:1 1166:1 1333:1 1373:1 1934:1 2344:1 5359:1 #
-0.15159479457805946633897065112251 42:1 98:1 133:1 353:2 982:1 #
-0.12971787968655673628504132466333 91:1 267:1 390:1 3383:1 3384:2 3385:1 #
0.15159479457805946633897065112251 123:1 220:1 304:1 354:1 595:1 1006:1 1661:1 2149:1 2691:1 3270:1 5054:1 #
0.044893971144364601399967540373837 342:1 459:1 550:1 669:1 851:1 854:2 1402:1 1526:2 2149:2 2866:1 2867:1 #
0.15159479457805946633897065112251 265:1 286:1 326:1 366:1 457:1 661:1 688:1 798:1 896:1 908:1 2669:1 6014:1 #
0.15159479457805946633897065112251 265:1 290:1 548:1 1080:1 1135:1 1528:1 2085:1 3105:1 3622:1 5087:1 #
-0.15159479457805946633897065112251 619:1 1164:1 #
-0.15159479457805946633897065112251 248:1 393:1 394:1 707:1 797:1 1135:1 1218:1 3605:1 #
-0.15159479457805946633897065112251 27:1 212:1 244:1 447:1 540:1 595:1 787:1 896:1 966:1 2277:1 #
-0.15159479457805946633897065112251 71:1 511:1 823:1 830:1 1049:1 1135:1 1295:1 1331:1 2169:1 2576:1 6871:1 #
-0.15159479457805946633897065112251 22:1 326:2 844:1 1337:1 1814:1 #
-0.15159479457805946633897065112251 137:1 405:1 600:1 617:1 701:1 797:1 1267:1 1943:1 7317:1 #
0.10232214275249369717091241227536 137:1 216:1 353:1 399:1 1189:1 1454:1 1506:1 1889:1 #
0.15159479457805946633897065112251 353:2 832:1 #
0.15159479457805946633897065112251 42:1 390:1 558:1 1499:1 2028:1 2184:1 2277:1 2716:1 #
0.024915843918104554205461553806344 22:1 291:1 353:1 581:1 650:1 1246:1 2121:1 2224:1 3711:1 #
0.14413647603974802380299991000356 42:1 299:1 609:1 897:1 970:1 1343:1 1454:1 1694:1 1831:1 1979:1 2069:1 4707:1 4996:1 6425:1 #
-0.15159479457805946633897065112251 11:1 353:1 832:1 923:1 3645:1 #
-0.15159479457805946633897065112251 258:1 352:1 353:1 457:1 571:1 703:1 804:1 919:1 1436:1 2016:1 2833:1 #
-0.15159479457805946633897065112251 220:1 301:1 345:1 565:1 638:1 831:1 848:1 987:1 1084:1 1343:1 2463:1 #
-0.15159479457805946633897065112251 851:1 1189:1 1661:2 #
-0.15159479457805946633897065112251 104:1 121:1 207:1 214:1 646:1 854:1 899:1 925:1 979:1 1951:1 2604:1 3810:1 #
0.10119695413011489670829234910343 27:1 71:1 267:1 310:1 328:1 677:1 744:1 895:1 1398:1 3397:1 6828:1 #
0.013251799979988317795820407241081 137:1 348:2 429:1 464:1 600:1 735:1 1061:1 1110:1 1267:2 1458:1 2711:1 #
0.15159479457805946633897065112251 328:1 938:1 1104:1 3358:1 #
0.094806488075795475323204186679504 797:1 1029:1 1199:1 1218:1 4465:1 5283:1 6548:1 6763:1 8522:1 #
0.15159479457805946633897065112251 139:2 208:1 378:1 511:1 710:1 899:1 1813:1 3376:1 3621:1 4119:1 5752:1 7586:1 #
-0.15159479457805946633897065112251 232:1 285:1 378:1 402:1 511:1 889:1 2955:1 3423:1 #
-0.15159479457805946633897065112251 8:2 9:1 12:1 80:1 139:1 285:1 650:1 729:1 864:1 1246:1 2015:3 2104:1 #
-0.15159479457805946633897065112251 265:1 266:1 267:1 2432:1 2855:1 #
-0.080488684009601213498186211836583 170:1 321:1 342:1 579:1 735:1 1615:2 1617:1 1618:1 1619:1 1620:1 #
-0.15159479457805946633897065112251 1000:1 1218:1 2271:1 3674:1 5344:1 5503:1 #
0.15159479457805946633897065112251 322:1 565:1 646:1 649:1 923:1 1307:1 2440:1 3622:1 #
0.15159479457805946633897065112251 121:2 140:1 244:1 330:1 352:1 626:1 1464:1 1484:1 #
0.15159479457805946633897065112251 66:1 160:1 308:1 429:1 633:1 646:1 703:1 787:1 854:1 999:1 1601:1 2183:1 2758:1 2941:1 8292:1 #
0.070412406652471795642789231806091 163:1 173:1 405:1 521:1 548:1 1029:1 1039:1 1084:1 1086:1 1087:1 1088:1 1089:1 1090:1 #
0.038874073896405327011027708294932 15:1 133:1 322:1 460:1 542:2 545:1 571:1 823:1 994:1 2633:1 3136:1 3236:1 5047:1 5049:2 #
-0.15159479457805946633897065112251 123:1 319:1 807:1 1029:1 1446:1 1454:1 2858:1 #
-0.15159479457805946633897065112251 5:1 20:1 139:1 149:1 244:1 336:1 380:1 1758:1 2099:1 6941:1 7087:1 #
-0.15159479457805946633897065112251 163:2 647:2 1201:2 2079:1 #
-0.070277755439286104799379018004402 1778:1 6092:1 #
0.15159479457805946633897065112251 232:1 402:1 511:2 #
0.15159479457805946633897065112251 103:1 246:1 342:1 565:1 868:1 987:1 1135:1 1218:1 1291:1 1512:1 1592:1 3239:1 4006:1 #
0.15159479457805946633897065112251 89:1 98:1 393:1 394:1 864:1 1200:1 1291:1 2199:1 2272:1 #
0.15159479457805946633897065112251 100:2 139:2 1769:1 2431:1 8150:2 #
0.15159479457805946633897065112251 262:1 341:1 348:1 380:1 1065:1 4288:1 5348:1 #
-0.15159479457805946633897065112251 39:1 396:1 579:1 641:1 656:1 787:1 910:1 970:1 1291:1 1295:1 1674:1 1913:1 2121:1 2893:1 3012:1 5436:1 6642:1 6643:1 #
-0.12137094425681954623641445323301 98:1 243:1 308:1 348:1 393:1 394:1 399:1 457:1 491:1 513:1 623:1 677:1 704:1 757:1 777:1 1274:1 1549:1 1625:1 1977:1 2332:1 #
-0.15159479457805946633897065112251 140:1 151:1 393:1 545:1 1135:1 1589:1 1782:1 1971:1 2193:1 #
-0.15159479457805946633897065112251 121:1 703:1 777:1 879:1 936:1 6200:1 #
-0.13790148528086382251345298755041 366:1 558:2 565:1 673:1 895:1 1613:1 1971:1 5066:1 #
0.028500061014236285905631973491836 110:1 167:1 310:1 414:1 458:1 600:1 647:2 802:1 1337:1 5358:2 #
0.15159479457805946633897065112251 100:1 188:2 319:1 #
0.15159479457805946633897065112251 9:1 258:1 647:1 1728:1 1729:1 1730:1 #
0.15159479457805946633897065112251 319:1 338:1 513:1 551:1 557:1 2511:1 4371:1 #
0.15159479457805946633897065112251 104:1 289:1 466:1 2364:1 6482:1 #
-0.15159479457805946633897065112251 217:1 309:1 557:1 568:1 572:1 709:1 1369:1 5086:1 #
0.15159479457805946633897065112251 60:1 394:1 457:1 458:1 1029:1 1135:1 2271:1 4277:2 5486:1 #
-0.13289202837677399626770124996256 103:1 140:1 208:1 258:1 279:1 322:1 457:1 521:1 564:1 640:1 780:1 905:1 965:1 1170:1 2541:1 2805:1 6236:1 #
-0.15159479457805946633897065112251 17:1 42:1 513:1 1953:1 2140:1 2378:1 4879:1 9479:1 #
-0.15159479457805946633897065112251 466:1 595:1 1813:1 2224:1 2722:1 #
-0.15159479457805946633897065112251 148:1 160:1 458:1 2488:1 3635:1 #
0.15159479457805946633897065112251 220:1 505:1 558:1 627:1 729:1 1201:1 7740:1 #
0.15159479457805946633897065112251 123:1 366:1 615:1 645:1 673:1 706:1 2530:1 4079:1 8432:1 9181:1 #
0.15159479457805946633897065112251 86:1 196:1 259:1 308:1 317:1 325:1 332:1 618:2 979:1 1951:1 2847:1 3012:1 #
0.15159479457805946633897065112251 205:1 233:1 393:1 579:1 704:1 845:1 1092:1 1964:1 #
0.15159479457805946633897065112251 149:1 285:1 777:1 817:1 921:1 1293:1 1758:1 3687:1 #
-0.073475027352547406245264483004576 123:2 311:1 332:1 473:1 1309:1 1470:1 1512:1 1901:1 2364:1 2982:1 3343:1 5156:1 8274:1 #
-0.15159479457805946633897065112251 204:1 205:1 868:1 1004:1 #
-0.15159479457805946633897065112251 70:1 115:1 233:1 301:1 429:1 498:1 954:1 2085:1 2092:1 2093:1 2214:1 #
-0.15159479457805946633897065112251 233:1 342:1 393:1 394:1 464:1 548:1 729:1 881:1 941:1 1151:1 1458:1 #
-0.12968879663146432035247812564194 78:1 98:1 123:1 184:1 232:1 547:1 645:1 868:1 1958:1 3360:1 #
0.048907432296419729722547486971962 42:2 343:1 795:1 840:1 889:1 1068:1 2172:1 4762:1 #
0.15159479457805946633897065112251 17:1 526:1 542:1 1959:1 2193:1 2195:1 2196:1 2197:1 #
0.15159479457805946633897065112251 42:1 95:1 208:1 390:1 814:1 987:1 1337:1 1832:1 2224:1 2935:1 #
0.11249718564089886130297202271322 12:1 67:1 309:1 526:1 700:1 1664:1 2490:1 3661:2 3662:1 #
-0.15159479457805946633897065112251 #
-0.15159479457805946633897065112251 67:1 105:1 352:1 353:1 542:1 735:1 783:1 813:1 1664:1 1743:1 2931:1 3714:1 3716:1 #
-0.15159479457805946633897065112251 42:1 71:1 314:1 899:1 971:1 #
-0.15159479457805946633897065112251 42:1 924:1 1365:1 1987:1 4065:1 #
-0.15159479457805946633897065112251 27:1 42:1 1218:1 1966:1 4143:1 6538:1 #
-0.15159479457805946633897065112251 209:1 330:1 600:1 #
-0.040488091398200601322976410756382 167:1 223:1 7371:1 #
0.15159479457805946633897065112251 160:1 399:1 464:1 465:1 571:1 837:1 1157:1 4692:1 #
0.15159479457805946633897065112251 548:1 626:1 763:1 868:1 905:1 #
0.15159479457805946633897065112251 473:1 650:1 770:1 1782:1 #
0.15159479457805946633897065112251 108:1 229:1 319:1 393:1 565:1 628:1 868:1 889:1 1214:1 1682:1 1901:1 1921:1 7448:1 #
-0.15159479457805946633897065112251 160:1 501:1 609:1 723:1 1484:1 2364:1 3865:1 #
-0.12265288109388426673884708861806 108:1 234:1 328:1 667:1 840:1 1219:1 1402:1 1712:1 1733:1 1793:1 4106:1 5929:1 8103:1 #
-0.15159479457805946633897065112251 563:1 967:1 1484:1 #
0.15159479457805946633897065112251 342:1 352:1 353:1 905:1 1218:1 2016:1 2833:1 #
0.15159479457805946633897065112251 233:1 266:1 435:1 958:1 1315:1 1316:1 1317:1 1319:1 #
0.15159479457805946633897065112251 21:1 100:1 971:1 1813:1 2587:1 2999:1 3000:1 #
0.032757547194411394675395143849528 5:1 80:1 98:1 135:1 261:1 326:1 350:1 393:1 415:1 783:1 845:1 881:1 1252:1 1513:1 2205:1 6392:1 #
-0.15159479457805946633897065112251 693:1 905:1 1293:1 1454:1 #
-0.15159479457805946633897065112251 60:1 669:1 1917:1 #
-0.15159479457805946633897065112251 9:1 242:1 837:1 1503:1 #
-0.15159479457805946633897065112251 102:1 149:1 263:1 390:1 631:1 647:1 801:1 1068:1 5116:1 #
0.15159479457805946633897065112251 9:1 723:1 858:1 879:1 1189:1 1240:1 6310:1 6717:1 #
0.15159479457805946633897065112251 212:1 232:1 328:1 881:1 899:1 987:1 1486:1 1661:1 1782:1 #
0.15159479457805946633897065112251 212:1 234:1 244:1 314:1 587:2 854:2 3755:1 4748:2 #
0.10628275325475242119033225662861 256:1 550:1 723:1 881:1 882:1 1537:1 2749:2 3039:1 7695:1 9091:1 #
-0.130389707696759199473390822277 9:1 256:1 344:1 564:2 587:1 591:1 723:1 854:1 1266:2 1316:2 1453:1 1956:1 2108:1 2506:1 3018:2 3158:1 3160:1 3161:1 #
-0.15159479457805946633897065112251 133:1 587:1 823:1 854:1 1572:1 2561:1 2732:1 #
-0.15159479457805946633897065112251 212:1 330:2 506:1 526:1 868:1 1029:1 1135:1 1315:1 1507:1 1762:1 6004:1 #
0.079624186458814888434076806333906 160:1 600:1 623:1 984:1 1266:1 1614:1 2039:1 2432:1 3310:1 3652:1 #
0.15159479457805946633897065112251 42:1 308:1 840:1 1758:1 3389:1 3849:1 #
0.15159479457805946633897065112251 275:1 595:1 964:1 1147:1 1201:1 3099:1 4683:1 #
0.15159479457805946633897065112251 71:1 241:1 444:1 851:1 898:1 4036:1 4200:1 5612:1 #
0.15159479457805946633897065112251 141:1 151:1 262:1 1568:1 1718:1 2018:1 2020:1 #
-0.15159479457805946633897065112251 275:1 399:1 499:1 642:1 858:1 6160:1 #
-0.15159479457805946633897065112251 216:1 858:1 1313:1 #
-0.085948221885583458989898986146727 313:1 626:1 723:1 845:1 5366:1 5372:1 8017:2 8058:1 #
-0.15159479457805946633897065112251 638:1 1147:1 1267:1 1462:1 1926:1 2716:1 #
-0.15159479457805946633897065112251 60:1 161:1 607:1 700:1 703:1 723:1 817:1 875:1 1330:1 1387:1 4036:1 6009:1 #
0.15159479457805946633897065112251 217:1 330:1 459:1 466:1 509:1 1238:1 1938:1 3385:1 4057:1 #
0.076143656881004120884348651543405 269:1 330:1 600:1 901:1 2015:1 2053:1 5201:1 #
0.043721156924070317395525364645437 343:1 568:1 693:1 763:1 1029:1 1484:1 1537:1 #
0.15159479457805946633897065112251 568:1 1266:1 2179:2 3236:1 #
-0.15159479457805946633897065112251 151:1 261:1 334:1 541:1 600:1 1112:1 #
-0.15159479457805946633897065112251 148:1 509:1 550:1 958:1 6153:1 #
-0.15159479457805946633897065112251 11:2 265:2 319:1 330:1 466:2 793:2 #
-0.094558380197644842368731588067021 86:1 328:1 387:1 571:1 701:1 1252:1 2167:1 2895:1 3236:1 9353:1 #
-0.15159479457805946633897065112251 309:1 600:1 1820:1 3166:1 #
0.15159479457805946633897065112251 638:1 723:1 1454:1 4454:1 4951:1 #
0.15159479457805946633897065112251 258:1 323:1 401:1 805:1 1926:1 2227:1 6843:1 #
0.093910141324913473659385942937661 133:1 258:2 262:1 563:1 604:1 787:1 895:1 896:1 1316:1 1835:1 #
0.15159479457805946633897065112251 511:1 556:1 854:2 1780:1 2544:1 4309:1 #
0.15159479457805946633897065112251 9:1 275:1 321:1 322:1 #
-0.15159479457805946633897065112251 436:1 504:1 511:1 650:1 2544:1 4874:1 #
-0.15159479457805946633897065112251 178:1 342:1 639:1 3119:1 #
-0.15159479457805946633897065112251 258:1 619:1 1092:1 1549:1 #
-0.11737432293546057326949494381552 889:1 1819:1 2670:3 2913:1 3633:1 5383:1 6610:1 #
0.12664928236123315641314945878548 11:1 379:1 701:1 958:1 971:1 1814:1 2085:1 3645:1 #
0.15159479457805946633897065112251 11:1 75:1 84:1 301:1 883:1 888:1 1589:1 7507:1 #
0.15159479457805946633897065112251 11:1 84:1 447:1 970:1 5243:1 #
0.15159479457805946633897065112251 11:1 256:1 571:1 879:1 883:1 1137:1 1440:1 1920:1 3768:1 3814:1 6153:1 6160:1 #
0.15159479457805946633897065112251 77:1 261:1 265:2 470:1 626:1 914:1 1139:1 4250:1 #
-0.15159479457805946633897065112251 84:1 934:1 1370:1 1578:1 2786:1 #
-0.14686375184972721985587895687786 265:1 1601:1 1611:1 1631:1 2005:1 2006:1 #
-0.080094325769113350332872869330458 565:1 651:1 883:1 1358:2 1814:1 2273:2 3718:1 3719:1 #
-0.15159479457805946633897065112251 470:1 581:1 912:1 1029:1 1155:1 1194:1 #
-0.11105727006518700816783962181944 553:1 879:1 1080:1 1310:1 1494:1 4461:1 6006:1 6927:1 #
0.15159479457805946633897065112251 366:1 405:1 706:1 936:1 1570:1 4327:1 #
0.15159479457805946633897065112251 366:1 526:1 594:1 986:1 1018:1 1470:1 1585:1 #
0.1236948835427102988404612915474 116:1 139:1 207:1 813:1 932:1 2277:1 2360:1 #
0.15159479457805946633897065112251 171:1 381:1 457:1 780:1 1135:1 1581:1 2169:1 2313:1 3815:1 4438:1 #
0.15159479457805946633897065112251 214:1 688:1 706:1 806:1 1031:1 #
-0.15159479457805946633897065112251 133:1 420:1 645:1 819:1 1470:1 1486:1 3561:1 3911:1 4630:1 5698:1 #
-0.15159479457805946633897065112251 139:1 214:1 217:1 1200:1 3741:1 5340:1 #
-0.15159479457805946633897065112251 12:1 366:1 5087:1 #
-0.15159479457805946633897065112251 209:1 322:1 405:1 700:1 730:1 772:1 947:1 948:1 949:1 950:1 #
0.15159479457805946633897065112251 8:2 42:1 1090:1 1362:1 2273:2 #
0.15159479457805946633897065112251 296:1 656:1 1161:1 1601:1 2363:1 5111:1 #
0.15159479457805946633897065112251 60:1 219:1 378:1 380:1 912:1 1138:1 1338:1 2627:1 4373:1 #
0.15159479457805946633897065112251 460:1 565:1 818:1 844:1 868:1 915:1 1642:1 #
0.15159479457805946633897065112251 148:1 285:1 925:1 1940:1 5703:1 #
-0.15159479457805946633897065112251 75:1 121:1 431:1 505:1 675:1 688:1 748:1 1504:1 1988:1 #
-0.15159479457805946633897065112251 82:1 296:1 447:1 814:2 1274:1 1565:1 1672:1 #
0.060691468769324581622459646723655 616:1 617:1 866:1 1200:2 #
0.13558892695976224040954605243314 123:1 368:1 645:1 1143:1 1340:1 1341:1 1414:2 2124:1 6538:1 7351:1 #
0.15159479457805946633897065112251 123:1 233:1 338:1 645:1 673:1 1448:1 1901:1 3734:1 #
0.15159479457805946633897065112251 17:1 18:1 366:1 544:1 645:1 884:1 3719:1 4939:1 6665:1 #
0.15159479457805946633897065112251 97:1 645:1 704:1 789:1 1194:1 2121:1 3639:1 #
-0.15159479457805946633897065112251 137:1 308:1 645:1 1954:1 #
-0.15159479457805946633897065112251 204:1 212:1 497:1 994:1 1200:1 1642:1 2229:1 4919:1 5439:1 6568:1 #
-0.15159479457805946633897065112251 21:1 626:1 704:1 4371:1 #
-0.15159479457805946633897065112251 248:1 558:1 766:1 1138:1 1200:1 #
-0.15159479457805946633897065112251 1493:1 #
0.080622971519466651857399597247422 505:2 540:1 751:1 804:1 831:1 879:1 939:1 5395:1 6315:1 8036:1 #
0.15159479457805946633897065112251 12:1 20:1 86:1 265:1 999:1 3241:1 #
0.15159479457805946633897065112251 223:2 420:1 447:1 1147:1 3170:1 4621:2 #
0.15159479457805946633897065112251 12:1 86:1 110:1 414:1 415:2 416:1 417:1 418:1 #
-0.15159479457805946633897065112251 27:1 275:1 789:1 813:1 879:1 1009:1 1291:1 1730:1 3269:1 #
-0.11566330636672622622640460576804 20:1 466:1 505:1 542:1 999:1 1448:1 1758:2 3841:1 5322:1 5324:1 5325:1 #
-0.15159479457805946633897065112251 27:1 352:1 879:1 930:1 1287:1 1309:1 1597:1 7921:1 #
-0.068225467970662256878000562210218 110:1 938:1 1049:1 1102:1 1189:1 2434:1 5271:1 6702:1 7366:1 #
-0.15159479457805946633897065112251 276:1 311:1 326:1 763:1 802:1 868:1 879:1 893:1 1332:1 1474:1 2869:1 3100:1 7858:1 #
0.15159479457805946633897065112251 214:1 248:1 766:1 1595:1 1988:1 2629:1 #
0.15159479457805946633897065112251 328:1 823:1 2015:1 3819:1 #
0.15159479457805946633897065112251 431:1 619:1 1351:1 4041:1 #
0.15159479457805946633897065112251 209:1 466:1 699:1 4664:1 6171:1 7373:1 #
-0.15159479457805946633897065112251 71:1 256:1 2370:1 2873:1 4664:1 7373:1 #
-0.15159479457805946633897065112251 706:1 726:1 766:1 775:1 1515:1 2424:1 8140:1 #
-0.15159479457805946633897065112251 105:1 1031:1 1032:1 1033:1 #
-0.15159479457805946633897065112251 896:1 917:1 1055:1 1150:1 1782:1 #
0.15159479457805946633897065112251 296:1 562:1 879:1 1060:1 1287:1 5014:1 6879:1 #
0.15159479457805946633897065112251 210:1 393:1 547:1 633:1 754:1 1049:1 2010:1 2011:1 2013:1 #
0.15159479457805946633897065112251 159:1 210:1 311:1 405:1 419:1 2117:1 2554:1 #
0.15159479457805946633897065112251 121:1 563:1 868:1 2094:1 3605:1 3606:1 #
0.15159479457805946633897065112251 112:1 1758:1 1799:1 #
-0.15159479457805946633897065112251 15:1 563:1 633:1 #
-0.15159479457805946633897065112251 358:1 563:1 571:1 2948:1 #
0.083682306725585867135386308746092 141:1 206:1 775:1 1009:1 1342:1 1601:1 1858:1 2141:1 3444:1 3897:1 #
0.15159479457805946633897065112251 123:1 336:1 775:1 923:1 #
0.079882502477519004568939919863624 98:1 457:1 543:1 638:1 687:1 793:1 813:1 1730:1 2121:1 4860:1 #
0.15159479457805946633897065112251 263:1 777:1 941:1 1009:1 1899:1 #
0.15159479457805946633897065112251 271:1 1124:1 1294:1 1424:1 1915:1 2104:1 2597:1 2982:1 4164:1 #
-0.15159479457805946633897065112251 338:1 457:1 544:1 1124:1 #
-0.025231195757386137845657003708766 11:1 149:1 263:1 770:1 843:1 883:1 1799:1 1814:1 2785:1 4366:1 #
-0.15159479457805946633897065112251 78:1 389:1 402:1 567:1 972:1 1899:1 2340:1 2669:1 #
-0.15159479457805946633897065112251 234:1 393:1 414:1 555:1 638:1 778:1 842:1 1819:1 2274:1 2275:2 2277:2 2279:1 2280:1 2281:1 #
0.15159479457805946633897065112251 210:1 308:1 505:1 571:1 650:1 658:1 693:1 1337:1 1426:1 1940:1 5000:1 5638:1 6763:1 #
0.15159479457805946633897065112251 511:1 541:1 854:2 1291:1 5815:1 5816:1 #
0.15159479457805946633897065112251 71:1 139:1 223:1 224:1 2064:1 2295:1 #
0.15159479457805946633897065112251 20:1 473:1 638:1 2948:1 #
0.15159479457805946633897065112251 513:1 1504:1 #
-0.15159479457805946633897065112251 9:1 638:1 2117:1 #
-0.15159479457805946633897065112251 8:1 209:1 616:1 981:1 1422:1 1484:1 6319:1 7050:1 #
-0.060179885835276003547278378391638 7042:1 #
0.15159479457805946633897065112251 110:1 466:1 1405:1 1757:1 #
0.15159479457805946633897065112251 595:1 662:1 704:1 807:1 955:1 1313:1 1685:1 2277:1 5726:1 #
0.15159479457805946633897065112251 96:1 261:1 389:1 730:1 797:1 899:1 1029:1 2277:1 2609:1 5294:1 #
0.12328937215212924793927840028118 121:1 217:1 336:1 706:1 884:1 1141:1 2275:1 2280:1 2281:1 3770:2 #
0.15159479457805946633897065112251 260:1 402:1 783:1 1046:1 1986:1 5189:1 #
0.14919612588120825802384672442713 706:1 934:1 1831:1 #
-0.15159479457805946633897065112251 884:1 2178:1 2179:1 #
-0.15159479457805946633897065112251 91:1 622:1 2169:1 2367:1 3308:1 4354:1 #
-0.092000447587912453917269317571481 5049:2 #
-0.15159479457805946633897065112251 269:1 587:1 618:1 #
0.15159479457805946633897065112251 9:1 21:1 105:1 149:1 322:1 1354:1 1730:1 1733:1 #
0.06092331193781444498291932632128 256:2 286:1 405:2 3916:1 #
0.15159479457805946633897065112251 209:1 544:1 665:1 726:1 769:1 1840:1 3719:1 4179:1 4180:1 #
0.034101950238805821269405527118579 8:1 207:1 544:1 851:2 1310:1 2029:1 2620:1 #
0.15159479457805946633897065112251 679:1 981:1 1565:1 1652:1 2525:1 2526:1 2527:1 #
-0.15159479457805946633897065112251 1000:1 1900:1 2525:1 2526:1 #
-0.15159479457805946633897065112251 255:1 544:1 1427:1 1867:1 #
-0.15159479457805946633897065112251 544:1 1757:1 7015:1 #
-0.15159479457805946633897065112251 220:1 505:1 665:1 3834:1 4442:1 #
-0.15159479457805946633897065112251 309:1 2525:1 2526:1 #
0.15159479457805946633897065112251 15:1 366:1 393:1 498:1 564:1 618:1 620:1 999:1 1183:1 4091:1 8432:1 #
0.15159479457805946633897065112251 140:1 1175:1 1274:1 2279:1 3661:1 #
0.15159479457805946633897065112251 22:1 224:1 326:1 1484:1 1848:1 2002:1 #
-0.12641392876304780035212615985074 178:1 366:1 3661:1 8219:1 #
-0.15159479457805946633897065112251 22:1 632:1 1369:1 1582:1 1843:1 #
0.12030719597343350613094514756085 221:1 234:1 505:1 558:1 1136:1 1367:1 3402:1 3657:1 #
0.017252987724889541631956291212191 341:1 548:1 958:1 1092:1 1614:1 3042:1 4161:1 #
0.15159479457805946633897065112251 2785:1 3084:1 3501:1 #
0.15159479457805946633897065112251 801:1 919:1 #
0.15159479457805946633897065112251 311:1 363:1 685:1 778:1 5162:1 #
-0.15159479457805946633897065112251 149:1 208:1 314:1 507:1 994:1 1282:1 1354:1 2028:1 8982:1 #
-0.15159479457805946633897065112251 217:1 830:1 901:2 1086:1 1298:1 #
-0.15159479457805946633897065112251 261:1 1330:1 1393:1 1460:1 1601:1 1733:1 3467:1 #
-0.060195029948328683533365079938449 21:1 393:1 402:1 680:1 704:1 955:1 1028:1 1166:1 1757:1 8230:1 #
-0.12611207917416406010246987534629 1730:1 2875:1 3077:1 #
0.15159479457805946633897065112251 214:1 248:1 300:1 330:1 458:1 497:1 501:1 565:1 645:1 688:1 1086:1 2627:1 #
0.15159479457805946633897065112251 2177:1 2322:1 3710:1 #
0.15159479457805946633897065112251 5:1 285:1 1150:2 4028:1 #
0.15159479457805946633897065112251 22:1 543:1 778:1 1045:1 1369:1 2500:1 #
0.15159479457805946633897065112251 331:1 342:1 982:1 1006:1 1939:1 #
-0.15159479457805946633897065112251 75:1 148:1 232:1 285:1 525:1 539:1 987:1 1940:1 2899:1 #
-0.15159479457805946633897065112251 17:1 285:1 889:1 #
-0.15159479457805946633897065112251 98:1 232:1 416:1 645:1 1324:1 1424:1 1425:1 1426:1 #
-0.15159479457805946633897065112251 75:1 911:1 982:1 1186:1 1863:1 1939:1 #
-0.10917853638271124427916447530151 88:1 104:1 260:1 331:1 854:1 889:1 911:1 1526:1 3095:1 #
0.14199275707367819965298849638202 21:1 98:1 542:1 544:1 823:1 994:1 1125:1 1325:1 1439:1 1617:1 2722:1 2988:1 5392:1 #
0.15159479457805946633897065112251 275:1 321:1 571:1 626:1 663:1 789:1 994:1 999:1 #
0.15159479457805946633897065112251 1460:1 3911:1 3913:1 5128:1 #
-0.15159479457805946633897065112251 22:1 208:1 323:1 326:1 663:1 664:1 778:1 807:1 912:1 2894:1 #
-0.14219701118471761436268252509763 321:1 540:1 936:1 1185:1 1954:1 2133:1 4809:1 5160:1 #
-0.15159479457805946633897065112251 458:1 636:1 2179:1 2271:1 2583:1 #
0.15159479457805946633897065112251 149:1 385:1 848:1 1038:1 1155:1 3897:1 6857:1 #
0.15159479457805946633897065112251 1295:2 1302:1 1334:2 1335:1 #
0.15159479457805946633897065112251 1267:1 7317:1 #
-0.15159479457805946633897065112251 8:2 417:1 475:1 755:1 1896:1 4216:1 #
-0.15159479457805946633897065112251 937:1 961:1 1238:1 1302:1 #
-0.15159479457805946633897065112251 415:1 700:1 2933:1 3331:1 #
-0.15159479457805946633897065112251 1136:1 1537:1 3419:1 5125:1 #
-0.15159479457805946633897065112251 8:1 163:1 390:1 594:1 1112:1 2184:1 #
0.15159479457805946633897065112251 208:1 631:1 719:1 984:1 1819:1 3457:1 #
0.15159479457805946633897065112251 540:1 1122:1 1218:1 2604:1 3269:1 3270:1 #
0.15159479457805946633897065112251 208:1 212:1 932:1 1200:1 2277:1 3444:1 #
0.15159479457805946633897065112251 208:1 356:1 712:1 802:1 1180:1 2976:2 #
0.15159479457805946633897065112251 75:1 636:1 840:1 1519:1 3878:1 #
-0.15159479457805946633897065112251 27:1 98:1 208:1 266:1 3918:1 #
-0.1285045748477376126306381820541 212:1 322:1 2041:1 3049:1 #
-0.15159479457805946633897065112251 123:1 1029:1 1218:1 #
-0.15159479457805946633897065112251 328:1 530:1 565:1 790:1 925:1 1519:1 1730:1 #
0.15159479457805946633897065112251 8:1 396:1 399:1 401:1 402:1 404:1 405:1 406:1 #
0.15159479457805946633897065112251 100:1 426:1 638:1 937:1 5272:1 5913:1 5914:1 #
0.15159479457805946633897065112251 566:1 617:1 700:1 901:1 954:1 2149:1 2571:1 #
-0.089358044609101058841638121066353 21:1 65:1 104:1 105:1 116:1 882:1 3487:1 3488:1 #
-0.15159479457805946633897065112251 396:1 1177:1 1484:1 #
-0.15159479457805946633897065112251 267:1 1122:1 #
0.15159479457805946633897065112251 212:1 804:1 995:1 1029:1 1771:1 3041:1 3108:1 #
0.15159479457805946633897065112251 163:1 663:1 #
0.15159479457805946633897065112251 27:2 489:1 546:1 830:1 1201:2 2720:1 #
0.15159479457805946633897065112251 352:1 548:1 591:1 815:1 1218:1 3080:1 3511:1 #
0.15159479457805946633897065112251 163:1 587:1 792:1 854:1 925:1 1004:1 4350:1 #
-0.15159479457805946633897065112251 71:1 163:1 571:1 854:1 964:1 1081:1 #
-0.15159479457805946633897065112251 275:1 342:1 548:2 579:1 688:1 766:1 1007:1 1166:1 #
-0.15159479457805946633897065112251 96:1 426:1 542:1 676:1 2880:1 4600:1 #
-0.15159479457805946633897065112251 27:1 212:1 214:1 543:1 633:1 899:1 1147:1 2284:1 5172:1 #
0.15159479457805946633897065112251 9:1 137:1 509:1 656:1 1601:1 2009:1 2015:1 3950:1 5958:1 #
0.15159479457805946633897065112251 139:1 458:1 917:1 1147:1 3776:1 #
0.15159479457805946633897065112251 232:1 3627:1 6365:1 #
0.15159479457805946633897065112251 256:1 334:1 419:1 1040:1 1699:1 2013:1 4216:1 8435:1 #
0.15159479457805946633897065112251 88:1 108:1 220:1 246:1 526:1 541:1 558:1 841:1 2133:1 #
-0.15159479457805946633897065112251 1125:1 1428:1 2009:1 3457:1 #
-0.15159479457805946633897065112251 271:1 419:1 797:1 1507:1 1675:1 #
0.15159479457805946633897065112251 71:1 98:1 414:1 571:1 755:1 757:1 758:1 #
0.092298952011540646989118386045448 221:2 548:1 557:1 816:1 912:1 953:1 1084:1 3905:1 #
0.15159479457805946633897065112251 548:1 616:1 638:1 931:1 2719:1 5195:1 #
0.15159479457805946633897065112251 269:1 572:1 644:1 647:1 1147:1 3845:1 5358:1 #
0.15159479457805946633897065112251 447:1 673:1 2483:1 2933:1 3932:1 #
-0.15159479457805946633897065112251 414:1 646:1 840:1 841:1 #
-0.093653929691380893851615496714658 348:1 886:1 937:1 2029:1 3639:1 4371:1 #
-0.15159479457805946633897065112251 330:1 440:1 505:1 550:1 620:1 719:1 #
-0.15159479457805946633897065112251 66:1 330:1 637:1 1287:1 6184:1 #
-0.15159479457805946633897065112251 1062:1 1325:1 #
-0.15159479457805946633897065112251 #
-0.15159479457805946633897065112251 333:1 699:1 2951:1 #
-0.15159479457805946633897065112251 208:1 408:1 526:1 600:1 1147:1 1702:1 2781:1 #
0.038420981875815753137093366831323 324:1 953:1 1773:1 2069:1 2070:1 #
-0.15159479457805946633897065112251 650:1 699:1 1218:1 2264:1 #
-0.15159479457805946633897065112251 319:1 324:1 511:1 626:1 693:1 999:1 3882:1 3883:1 #
-0.028009123302009088229969080430237 1180:2 2085:1 #
-0.15159479457805946633897065112251 140:1 338:1 1835:1 1886:1 6392:1 #
-0.15159479457805946633897065112251 43:1 133:1 326:1 328:1 599:1 638:1 823:1 857:1 964:1 970:1 1201:1 1456:1 #
-0.097328718621777471353695432298991 833:1 980:1 1535:1 1730:1 #
-0.15159479457805946633897065112251 1163:1 1281:1 3528:1 #
-0.15159479457805946633897065112251 27:1 336:1 868:1 1371:1 1444:1 3768:1 #
-0.15159479457805946633897065112251 71:1 611:1 673:1 3932:1 #
-0.15159479457805946633897065112251 275:1 402:1 511:1 669:1 833:1 1337:1 1417:1 #
-0.15159479457805946633897065112251 12:1 275:1 912:1 1365:1 1915:1 4953:1 #
-0.15159479457805946633897065112251 109:1 110:1 498:1 787:1 897:1 #
-0.15159479457805946633897065112251 262:1 505:1 539:1 562:1 726:1 3017:1 7290:1 #
-0.15159479457805946633897065112251 20:1 27:1 225:1 389:1 420:1 447:1 840:1 854:1 993:1 1526:1 1630:1 1702:1 3402:1 4080:1 4664:1 4665:1 5527:1 #
-0.15159479457805946633897065112251 78:1 265:1 324:1 544:1 558:1 1291:1 3683:1 4895:1 #
-0.15159479457805946633897065112251 71:1 102:1 170:1 208:1 232:1 459:1 591:1 1052:1 1132:1 1643:1 #
-0.15159479457805946633897065112251 98:1 1287:1 1625:1 1626:1 1627:1 #
-0.15159479457805946633897065112251 123:1 390:1 600:1 6169:1 #
-0.15159479457805946633897065112251 60:1 460:1 1252:1 1321:1 1766:1 #
-0.15159479457805946633897065112251 712:1 766:1 896:1 1218:1 2988:1 #
-0.15159479457805946633897065112251 460:1 #
-0.15159479457805946633897065112251 210:1 308:1 563:1 579:1 994:1 4081:1 6977:1 #
-0.15159479457805946633897065112251 571:1 1095:1 #
-0.15159479457805946633897065112251 42:1 86:1 160:1 405:1 706:1 797:1 1147:1 1763:1 #
-0.15159479457805946633897065112251 121:1 338:1 399:1 473:1 565:1 833:1 868:1 958:1 1218:1 1290:1 3236:1 4275:1 #
-0.15159479457805946633897065112251 233:1 343:1 399:1 417:1 536:1 703:1 823:1 830:1 883:1 924:1 926:1 1741:1 2199:1 6818:1 #
-0.15159479457805946633897065112251 11:1 42:1 86:1 103:1 173:1 311:1 600:1 743:1 1682:1 2716:1 2990:1 #
-0.15159479457805946633897065112251 220:1 999:1 1872:1 2691:2 4611:1 #
0.15159479457805946633897065112251 104:1 217:1 460:2 536:1 539:1 557:1 1330:1 1460:1 1971:1 3841:1 #
0.15159479457805946633897065112251 244:1 285:1 766:1 896:1 1170:1 4224:1 4225:1 #
0.15159479457805946633897065112251 265:1 324:1 390:1 521:1 1373:1 1476:1 6817:1 #
0.07686708502234346207515613969008 661:1 896:1 1111:2 1172:1 1427:2 1601:1 2079:1 3950:2 #
0.11141257310497500176982299535666 60:1 71:1 234:2 505:1 1292:1 1301:1 2085:1 3030:1 4354:1 #
-0.037339565809361319193016015560715 123:1 209:1 261:1 326:1 425:3 558:1 1060:3 1111:2 4251:2 4876:1 4877:1 4878:1 #
-0.15159479457805946633897065112251 49:1 108:1 267:1 304:1 390:1 417:1 536:1 1092:1 #
-0.15159479457805946633897065112251 104:1 160:1 256:1 308:1 665:1 1084:1 1091:1 1668:1 3773:1 #
-0.15159479457805946633897065112251 258:1 265:1 558:1 995:1 1025:1 1201:1 5161:1 6205:1 #
-0.15159479457805946633897065112251 71:1 159:1 330:1 536:1 550:1 893:1 999:1 1238:1 #
0.15159479457805946633897065112251 579:1 823:1 868:1 6924:1 #
0.12449902609142453335788758295166 103:1 311:1 375:1 558:1 912:1 1112:1 2439:1 2786:1 5070:1 #
0.15159479457805946633897065112251 42:1 209:1 396:1 426:1 565:2 1507:1 #
0.15159479457805946633897065112251 513:1 600:1 1290:1 3529:1 5689:1 #
0.15159479457805946633897065112251 600:1 638:1 1077:1 1385:1 2111:1 3470:1 4305:1 6999:1 #
-0.15159479457805946633897065112251 20:1 42:1 221:1 223:1 261:1 285:1 322:1 402:1 868:2 970:1 1029:1 1143:1 1601:1 #
-0.15159479457805946633897065112251 171:1 223:1 457:1 823:1 1135:1 3658:1 3964:1 #
-0.15159479457805946633897065112251 103:1 328:1 529:1 557:1 1006:1 1098:2 4983:1 #
-0.002521596650908453085548899252899 1354:1 #
-0.10413312374688273032052876487796 67:1 337:1 540:1 1001:1 1009:1 2064:1 2865:1 4013:1 4014:1 4015:1 #
0.15159479457805946633897065112251 160:1 607:1 964:1 1252:1 4318:1 4319:1 4320:1 #
0.15055746857220037027147441222041 20:1 266:1 337:1 505:1 517:1 536:2 537:1 550:1 632:1 723:1 1279:1 3261:1 8412:1 #
0.14498443770372573813354222238559 330:1 889:1 924:1 1083:1 1321:1 1673:1 3418:1 5321:1 5551:1 #
0.15159479457805946633897065112251 137:1 160:2 913:1 2802:1 #
0.14887087251474376281556999401801 133:1 308:1 555:1 905:1 1597:1 1644:1 1654:1 1712:1 1760:1 2982:1 3016:1 5802:1 8570:1 #
-0.15159479457805946633897065112251 75:1 160:1 233:1 256:1 744:1 2687:1 5178:1 #
-0.15159479457805946633897065112251 325:1 362:1 778:1 817:1 831:1 840:1 1489:1 2627:1 2802:1 #
-0.15159479457805946633897065112251 308:1 431:2 719:1 723:1 804:1 884:1 1214:1 1938:1 #
-0.15159479457805946633897065112251 95:1 160:1 1001:1 5213:1 5293:1 #
0.15159479457805946633897065112251 42:1 91:1 934:1 1097:2 1098:2 1099:1 #
0.15159479457805946633897065112251 12:1 71:1 565:1 688:1 763:1 766:1 936:1 970:1 1084:1 3861:1 5945:1 6642:1 #
0.15159479457805946633897065112251 210:2 217:1 267:1 328:1 440:1 1680:1 2873:1 #
0.15159479457805946633897065112251 98:1 178:1 267:1 970:1 999:1 1423:1 2169:1 7640:1 #
0.12306448650606631456394524093412 123:1 346:1 416:3 540:1 868:1 958:1 1819:2 3360:1 5070:1 5092:1 #
-0.15159479457805946633897065112251 17:1 18:1 107:1 267:1 522:1 542:1 626:1 806:1 1166:1 1497:1 2396:1 #
-0.15159479457805946633897065112251 98:1 526:1 540:1 626:1 994:1 7200:1 8063:1 #
-0.15159479457805946633897065112251 91:1 440:1 662:1 706:1 1519:1 1944:1 3236:1 4166:1 4584:1 #
-0.15159479457805946633897065112251 704:1 1150:4 2149:1 2681:1 4711:1 #
0.15159479457805946633897065112251 817:2 1446:1 2735:1 3112:1 4003:1 #
0.10073857329767334223280528249234 15:1 37:1 261:1 265:1 544:1 787:1 1393:1 1406:1 1408:1 4111:1 5213:1 #
0.15159479457805946633897065112251 304:1 308:1 544:1 817:1 877:1 901:1 5387:1 #
0.15159479457805946633897065112251 22:1 308:1 837:1 1393:1 1624:1 1840:1 3119:1 #
0.15159479457805946633897065112251 778:1 1023:1 1151:1 2199:1 #
-0.15159479457805946633897065112251 548:1 584:1 817:1 897:1 1343:1 2752:1 6308:1 #
-0.15159479457805946633897065112251 15:1 261:1 545:1 673:1 723:1 883:1 2008:1 2028:1 3792:1 4034:1 6628:1 #
-0.080728169553721168538729102692741 139:1 184:1 248:1 393:1 830:1 1135:1 1781:1 1782:1 1784:1 #
0.063364663999869549892984821326536 1114:1 1115:1 1150:3 1819:1 2933:1 8886:2 #
0.15159479457805946633897065112251 846:1 1150:1 3658:1 3840:1 #
-0.0037267726075599139946847859761192 170:1 322:1 3167:1 5130:1 7315:1 #
0.11128161298195683726053317741389 187:1 319:1 465:1 701:1 1165:1 1166:1 1184:1 1185:1 1186:1 1188:1 1189:1 #
0.15159479457805946633897065112251 542:1 772:1 930:1 1186:1 3561:1 3883:1 4513:1 5180:1 6576:1 6577:1 #
-0.15159479457805946633897065112251 5:1 207:1 304:1 466:1 706:1 1703:1 1986:1 #
0.15159479457805946633897065112251 163:1 205:1 216:1 363:1 393:1 457:2 497:1 512:1 887:1 1080:1 1694:1 3800:1 4215:1 #
0.094693849210733663235295409776882 21:1 393:1 567:1 1270:1 1444:1 1820:1 2972:1 3165:1 3714:1 5239:1 6434:1 #
0.15159479457805946633897065112251 27:1 379:1 473:1 723:1 1482:1 3060:1 3236:1 #
0.15159479457805946633897065112251 275:1 362:1 921:1 994:1 1141:1 1257:1 2028:1 #
0.15159479457805946633897065112251 71:1 262:1 594:1 883:2 1537:1 1820:1 #
-0.15159479457805946633897065112251 159:1 167:2 205:1 265:1 414:2 536:1 594:1 612:1 699:1 2938:1 2939:1 2941:1 #
-0.05258109815887487825669666108297 565:1 868:1 1178:1 1307:1 3236:1 4831:1 #
-0.15159479457805946633897065112251 1004:1 1218:1 1429:1 2988:1 #
0.15159479457805946633897065112251 109:1 833:1 901:1 1369:1 1504:1 2836:1 2838:1 #
0.15159479457805946633897065112251 210:1 1141:1 2786:1 6934:1 #
0.15159479457805946633897065112251 257:1 358:1 797:1 804:1 833:1 1291:1 1369:1 4450:1 #
0.063071484874363537009855917858658 184:1 304:1 481:1 712:1 823:1 3131:1 5525:1 6184:1 6912:1 8973:2 #
-0.15159479457805946633897065112251 545:1 2259:1 #
-0.063963108969619028587594300461205 304:1 362:2 2489:1 5111:2 7269:2 #
-0.13144358138350309417319294880144 308:1 587:1 656:1 673:1 797:1 854:1 1361:1 1362:1 #
-0.15159479457805946633897065112251 256:1 465:1 641:1 1137:1 6237:1 #
-0.085893686506160429883216522739531 335:1 638:1 857:1 912:1 1572:1 #
0.15159479457805946633897065112251 344:1 346:1 526:1 565:1 626:1 868:1 1484:1 2367:1 #
0.036264833386486623745259549878028 104:1 105:1 261:1 328:1 440:1 548:1 646:1 700:1 788:1 829:1 947:1 1105:1 1110:1 1124:1 1241:1 1470:1 4553:1 #
0.15159479457805946633897065112251 17:1 82:1 526:1 555:2 594:1 799:1 881:1 1453:1 1627:1 #
0.091704761697765327377318556045793 311:1 699:1 884:1 893:1 1001:1 1073:1 2413:1 3707:1 3768:1 6429:1 #
-0.15159479457805946633897065112251 330:1 609:1 841:1 1734:1 #
0.15159479457805946633897065112251 21:1 256:1 422:1 656:1 1872:1 4008:1 #
0.15159479457805946633897065112251 148:1 308:1 540:1 793:2 1405:1 1456:1 #
0.15159479457805946633897065112251 431:1 641:1 1351:1 1642:1 5496:1 8633:1 8634:1 #
-0.067176488455334276705954721364833 163:1 332:1 540:1 879:1 1165:1 1201:1 1901:1 4334:1 4335:1 #
-0.037120818720276282931536115938798 256:1 332:1 679:1 1005:1 3805:1 #
-0.15159479457805946633897065112251 168:1 256:1 348:1 380:1 425:1 464:1 465:1 6711:1 #
0.15159479457805946633897065112251 129:1 291:1 292:1 293:1 295:1 296:1 297:1 #
0.15159479457805946633897065112251 21:1 196:1 362:1 772:1 897:1 990:1 1166:1 1519:1 3075:1 4829:1 6398:1 #
0.10118407389782110850084961839457 43:1 414:1 706:1 884:1 6659:1 #
0.15159479457805946633897065112251 186:1 475:1 801:1 2628:1 #
0.15159479457805946633897065112251 116:1 258:1 1618:1 1878:1 #
-0.15159479457805946633897065112251 121:1 186:1 247:1 457:1 498:1 647:1 1099:1 1988:1 2084:1 2206:1 #
-0.15159479457805946633897065112251 139:1 140:1 412:1 706:1 804:1 1967:1 #
-0.15159479457805946633897065112251 356:1 365:1 545:1 783:1 1313:1 1938:1 2024:1 7052:1 #
0.15159479457805946633897065112251 160:1 209:1 464:1 465:1 1757:1 #
0.15159479457805946633897065112251 163:1 1201:1 1489:1 2313:1 #
0.11701314780524785241766494436888 75:1 91:1 123:1 163:1 390:1 468:1 567:1 568:1 569:2 570:1 571:1 572:1 #
0.15159479457805946633897065112251 256:1 367:1 664:1 2064:1 2065:1 2066:1 #
-0.15159479457805946633897065112251 #
0.15159479457805946633897065112251 204:1 214:1 498:1 1135:1 2145:1 6244:1 #
0.15159479457805946633897065112251 139:1 402:1 499:1 609:1 667:1 1231:1 2826:1 #
0.15159479457805946633897065112251 17:1 342:1 1061:1 1474:1 2637:1 #
0.15159479457805946633897065112251 80:1 309:1 348:1 380:1 1364:1 3527:1 3633:1 3940:1 7605:1 #
0.15159479457805946633897065112251 308:1 309:1 402:1 539:1 700:1 823:1 830:1 4524:1 #
0.15159479457805946633897065112251 285:1 417:1 #
0.15159479457805946633897065112251 291:1 934:1 1109:1 1337:1 #
0.15159479457805946633897065112251 545:1 688:1 3503:1 4840:1 #
0.15159479457805946633897065112251 343:1 399:1 411:1 701:1 1202:1 1741:1 4170:1 9167:1 #
0.15159479457805946633897065112251 408:1 410:1 411:1 412:1 #
0.05045680001324959196296049412922 98:1 248:1 558:1 831:1 911:1 972:1 1186:1 3683:1 3684:1 #
0.15159479457805946633897065112251 338:1 1529:1 8006:1 #
0.15159479457805946633897065112251 265:1 365:1 440:1 726:1 1186:1 1369:1 2108:1 4774:1 #
0.15159479457805946633897065112251 271:1 338:1 815:1 1712:1 2919:1 #
0.15159479457805946633897065112251 265:1 911:1 912:1 2627:1 5213:1 #
0.15159479457805946633897065112251 60:1 879:2 1081:1 1381:1 4501:1 #
-0.15159479457805946633897065112251 304:1 552:1 1060:1 1316:1 1320:1 #
0.15159479457805946633897065112251 167:1 333:1 1080:1 1110:1 1200:1 4251:1 4799:2 4804:1 #
0.15159479457805946633897065112251 396:1 466:1 1828:1 2320:1 #
0.15159479457805946633897065112251 505:1 610:1 1401:1 1939:1 2206:2 #
0.15159479457805946633897065112251 104:1 105:1 242:1 321:1 482:1 609:1 726:1 #
-0.15159479457805946633897065112251 8:1 104:1 105:1 366:1 496:1 799:1 831:1 #
-0.15159479457805946633897065112251 109:1 405:1 706:1 1009:1 2013:1 2427:1 #
0.15159479457805946633897065112251 326:1 342:1 723:1 1218:1 1222:1 1223:1 1224:1 #
0.15159479457805946633897065112251 498:1 506:1 1234:1 4654:1 #
0.15159479457805946633897065112251 82:1 139:1 399:1 422:1 556:1 1272:1 2057:1 2058:1 #
0.15159479457805946633897065112251 263:1 310:1 417:1 890:1 1358:1 3043:1 3248:1 3435:1 #
-0.15159479457805946633897065112251 256:1 630:1 637:1 778:1 1976:1 3341:1 3805:1 #
0.15159479457805946633897065112251 96:1 333:1 342:1 599:1 889:1 4562:1 #
-0.15159479457805946633897065112251 11:1 184:1 548:1 995:1 2719:1 5161:1 #
0.10768448994309083588394315711412 17:1 18:1 86:1 170:1 358:1 402:1 504:1 667:1 1151:1 2224:1 #
0.15159479457805946633897065112251 214:1 351:1 498:1 1062:1 1867:1 #
0.062395345069745776489522626206963 100:1 792:1 852:1 947:1 2086:1 2922:1 2923:1 #
-0.15159479457805946633897065112251 86:1 210:1 289:1 338:1 342:1 346:1 457:1 1308:1 1504:1 2637:1 7295:1 #
-0.15159479457805946633897065112251 244:1 310:1 322:1 1819:1 2065:1 3612:1 #
-0.15159479457805946633897065112251 71:1 168:1 627:1 766:1 947:1 1694:1 #
-0.15159479457805946633897065112251 726:1 1100:1 1546:1 #
-0.15159479457805946633897065112251 169:1 178:1 342:1 571:1 688:1 #
0.048134190111123652255908922370509 5:1 78:1 140:1 327:1 457:2 481:1 530:1 545:1 704:1 845:1 911:1 964:1 994:1 1080:1 1099:1 1208:1 2224:1 2831:1 2948:1 3674:1 #
0.028818977025641945993728043617921 169:1 210:1 348:1 366:1 703:1 831:1 928:1 1029:1 1269:1 1351:1 3260:1 4080:1 #
0.15159479457805946633897065112251 296:1 459:1 539:1 783:1 1181:1 1333:1 1826:1 #
-0.15159479457805946633897065112251 #
0.15159479457805946633897065112251 27:1 232:1 275:1 673:1 706:1 799:1 1601:1 1730:1 1877:1 #
-0.048207299636096413719688058563406 265:1 533:1 542:1 587:1 723:1 854:1 984:1 1062:2 1101:1 1601:1 1606:1 2025:1 2602:1 3910:1 5213:1 8528:1 #
-0.15159479457805946633897065112251 210:1 217:1 258:1 #
-0.15159479457805946633897065112251 123:1 243:1 366:1 368:1 447:1 609:1 923:1 1073:1 1373:1 #
-0.15159479457805946633897065112251 396:1 845:1 2413:1 #
-0.15159479457805946633897065112251 267:1 301:1 939:1 1186:1 #
0.13570471765909586370213446571142 8:1 86:1 368:1 853:1 947:1 1001:1 1060:1 1952:1 2642:1 3110:1 3236:1 6306:1 #
0.14494976672438592002478685571987 86:1 139:1 140:2 309:1 719:1 818:1 1609:1 1743:1 1762:1 3138:1 3202:1 3269:1 3529:1 5648:1 #
0.15159479457805946633897065112251 11:1 49:1 78:1 319:1 1092:1 1246:1 3632:1 #
0.099573016715166662304881128875422 27:1 88:1 100:1 159:1 368:1 550:1 897:1 1009:1 1143:1 1340:1 1341:1 1342:1 1343:1 1344:1 1345:1 #
-0.012807553948640880425724475344396 104:1 159:1 379:1 896:1 981:1 1080:1 1456:1 1634:1 5134:1 #
-0.14373057677362477413396391057177 319:1 509:1 1124:1 1320:1 1743:1 2410:1 2411:1 2413:1 #
-0.10186192541813962608721055858041 17:1 153:1 319:1 646:1 737:1 738:1 2313:1 3017:1 3883:1 3911:1 5128:1 7290:1 7292:1 #
-0.056274805839153209385816722942764 15:1 967:1 1340:1 1341:1 1377:1 2320:1 3674:1 4460:1 4737:1 5682:1 #
-0.15159479457805946633897065112251 21:1 638:1 665:1 1173:1 1581:1 1634:1 3320:1 3321:1 #
-0.15159479457805946633897065112251 27:1 565:1 649:1 704:1 723:1 789:1 879:1 1143:1 1345:1 1506:1 3587:1 #
-0.15159479457805946633897065112251 458:1 600:1 979:1 4808:1 #
-0.15159479457805946633897065112251 600:1 4603:1 5358:1 #
-0.15159479457805946633897065112251 458:1 986:1 2679:1 #
-0.15159479457805946633897065112251 27:1 232:1 766:1 966:1 2608:1 2609:1 2610:1 #
0.15159479457805946633897065112251 129:1 648:1 665:1 999:1 1823:1 2666:1 4305:1 5440:1 #
0.15159479457805946633897065112251 103:1 322:1 495:1 557:1 819:1 1867:1 7417:1 #
0.11984690069025095982002682148959 204:1 256:1 311:1 366:1 393:1 563:1 772:1 924:1 1135:1 1172:1 1581:1 #
0.15159479457805946633897065112251 123:1 366:1 390:1 1330:1 1590:1 2732:1 2972:1 3539:1 #
0.15159479457805946633897065112251 233:1 651:1 676:1 909:1 1373:1 1614:1 1900:1 #
-0.15159479457805946633897065112251 366:1 744:1 772:1 858:1 901:1 947:1 1170:1 1231:1 1330:1 1369:1 1813:1 4209:1 #
-0.064687250199151308249767566849187 78:1 151:1 393:1 568:1 881:1 988:1 2015:1 2117:1 2224:1 #
-0.15159479457805946633897065112251 123:1 275:1 688:1 3470:1 3539:1 #
-0.0911859888427355297357834729155 139:1 204:1 262:1 1031:1 1504:1 3441:1 5439:1 5440:1 #
-0.15159479457805946633897065112251 268:1 813:1 958:1 1135:1 1189:1 1312:1 1952:1 2206:1 #
0.15159479457805946633897065112251 15:1 121:1 190:1 330:1 389:1 600:1 1103:1 2002:1 2420:1 3404:1 6640:1 #
0.15159479457805946633897065112251 108:1 600:1 841:1 1694:1 3224:2 7172:1 7173:1 #
0.15159479457805946633897065112251 104:1 167:1 217:1 232:2 543:1 #
0.096281381654112541124135304926313 107:1 208:1 304:1 766:1 852:1 889:1 982:1 983:1 1819:1 #
0.15159479457805946633897065112251 233:1 600:1 723:1 1460:1 1589:1 2092:1 2093:1 2140:1 2916:1 #
-0.15159479457805946633897065112251 330:1 619:1 700:1 982:1 1601:1 #
-0.15159479457805946633897065112251 17:1 265:1 268:1 396:1 526:1 581:1 723:1 841:2 924:1 1771:1 2104:1 #
-0.15159479457805946633897065112251 541:1 983:1 1257:1 2424:1 8574:1 #
-0.15159479457805946633897065112251 82:1 338:1 390:1 912:1 1099:1 4245:1 5600:1 6093:1 6984:1 #
-0.067958584043271416663678508029989 224:2 352:1 429:1 912:1 914:1 944:1 1194:1 1327:1 1725:1 1833:1 4879:1 5189:1 5808:1 5809:1 5810:1 #
0.15159479457805946633897065112251 323:1 324:1 901:1 2417:1 #
0.15159479457805946633897065112251 1309:1 2608:1 3165:1 4181:1 #
0.15159479457805946633897065112251 497:1 744:1 805:1 888:1 1249:1 1287:1 1328:1 1454:1 5647:1 #
0.15159479457805946633897065112251 123:1 244:1 247:1 324:1 348:1 614:1 868:1 875:1 879:1 1643:1 2201:1 2239:1 4270:1 #
0.087118421721267519375331289666065 71:1 256:1 530:1 568:1 868:1 3293:1 4907:1 4908:1 4909:1 4910:1 #
-0.15159479457805946633897065112251 71:1 1080:1 1201:1 1468:1 1568:1 1933:1 3402:1 3831:1 4456:1 #
-0.15159479457805946633897065112251 232:1 285:1 378:1 402:1 511:1 652:1 889:1 3423:1 #
-0.15159479457805946633897065112251 368:1 5486:1 6172:1 #
-0.15159479457805946633897065112251 328:1 1423:1 2239:1 3420:1 #
-0.15159479457805946633897065112251 98:1 378:1 793:1 844:1 987:1 1790:1 2108:1 3674:1 #
0.15159479457805946633897065112251 102:1 352:1 420:1 567:1 1369:1 1773:1 #
0.15159479457805946633897065112251 268:1 285:1 304:1 830:1 944:1 1611:1 3657:1 3658:1 3659:1 #
0.15159479457805946633897065112251 84:1 115:1 267:1 285:1 619:1 933:1 1952:1 4822:1 5236:1 #
0.15159479457805946633897065112251 840:1 858:1 924:1 3180:1 7373:1 7878:1 #
0.15159479457805946633897065112251 42:1 542:1 1228:1 1229:1 1230:1 1231:1 #
-0.15159479457805946633897065112251 9:1 37:1 115:1 311:1 348:1 539:1 723:1 879:1 1814:1 2478:1 #
-0.15159479457805946633897065112251 15:1 84:1 163:1 393:1 394:1 610:1 1138:1 4746:1 #
-0.15159479457805946633897065112251 209:1 944:1 1023:1 #
-0.15159479457805946633897065112251 352:1 353:1 512:1 911:1 1141:1 1971:1 3479:1 4089:1 4667:1 #
0.15159479457805946633897065112251 322:1 332:1 342:1 368:1 548:1 703:1 723:1 958:1 3566:1 3567:1 #
0.15159479457805946633897065112251 424:1 987:1 1218:1 3598:1 #
0.088295414684610884492599325312767 100:1 564:1 585:1 679:1 726:1 844:1 939:1 965:1 1330:1 1409:1 2153:1 3551:1 5583:1 5585:1 5586:1 #
0.0086227763914453608995458466779382 116:1 207:1 301:1 833:1 939:1 1522:1 1523:1 5718:1 #
-0.13418743686160511385807581064 703:1 841:1 1611:1 2633:1 2931:1 4969:1 7837:1 #
-0.15159479457805946633897065112251 49:1 544:1 726:1 #
-0.049892310241940941717420088252766 346:1 565:1 648:1 868:1 1186:1 1949:1 2332:1 3364:1 6074:1 7200:1 #
-0.15159479457805946633897065112251 20:1 232:1 267:1 447:1 743:1 #
0.15159479457805946633897065112251 296:1 547:1 600:1 1895:1 2908:1 #
0.15159479457805946633897065112251 151:1 353:1 1081:1 #
0.15159479457805946633897065112251 22:1 103:1 139:1 209:1 314:1 699:1 789:1 1146:1 2931:1 #
0.15159479457805946633897065112251 353:1 846:1 2478:1 6436:1 #
-0.15159479457805946633897065112251 98:1 363:1 567:1 568:1 2264:1 2265:1 #
-0.15159479457805946633897065112251 314:1 987:1 990:1 #
-0.15159479457805946633897065112251 308:1 498:1 787:1 #
-0.15159479457805946633897065112251 1369:1 1586:1 1694:1 #
-0.15159479457805946633897065112251 3529:1 3530:1 #
0.15159479457805946633897065112251 20:1 800:1 1098:1 1561:1 1831:1 5690:1 #
0.11880863265565476394325372666572 414:1 447:1 819:1 880:1 1073:1 1604:1 2858:1 2869:1 2955:1 4731:1 #
0.15159479457805946633897065112251 75:1 265:1 267:1 447:1 840:1 889:1 1655:1 1698:1 #
0.15159479457805946633897065112251 641:1 726:1 884:1 1445:1 2108:1 2840:1 #
0.15159479457805946633897065112251 1177:1 1414:1 1415:1 1417:1 1418:1 #
-0.15159479457805946633897065112251 505:1 819:1 1061:1 3012:1 #
-0.15159479457805946633897065112251 96:1 265:1 3696:1 #
-0.030291525650499750987876268482069 353:1 1100:1 1314:1 2742:1 2743:1 #
-0.15159479457805946633897065112251 557:1 #
0.15159479457805946633897065112251 258:1 338:1 390:1 3131:1 #
0.15159479457805946633897065112251 496:1 778:1 4778:1 #
0.15159479457805946633897065112251 769:1 936:1 1320:1 2009:1 4033:1 9007:1 9008:1 #
0.15159479457805946633897065112251 787:1 797:1 1986:1 2513:1 5259:1 6628:1 #
0.15159479457805946633897065112251 107:1 522:1 637:1 1137:1 1680:1 1913:1 #
-0.15159479457805946633897065112251 84:1 140:1 263:1 338:1 769:1 801:1 1181:1 1320:1 1329:1 #
-0.15159479457805946633897065112251 388:1 778:1 3770:1 #
-0.14560135975731955393364103201748 1170:1 1486:1 1893:1 1986:1 2686:1 3531:1 3532:1 #
-0.15159479457805946633897065112251 187:1 214:1 522:1 #
-0.15159479457805946633897065112251 884:1 6176:1 #
-0.15159479457805946633897065112251 #
0.15159479457805946633897065112251 149:1 2077:1 2743:1 #
0.15159479457805946633897065112251 287:2 288:2 289:1 290:2 #
0.15159479457805946633897065112251 579:1 1564:1 2070:1 #
-0.15159479457805946633897065112251 589:1 984:1 1086:1 1377:1 2320:1 #
-0.15159479457805946633897065112251 1092:1 5047:1 #
-0.15159479457805946633897065112251 209:1 285:1 319:1 330:1 614:1 8402:1 #
-0.15159479457805946633897065112251 204:1 457:1 687:1 1091:1 8788:1 #
-0.15159479457805946633897065112251 267:1 954:1 2058:1 #
0.15159479457805946633897065112251 187:1 338:1 901:1 2639:1 2866:1 #
0.15159479457805946633897065112251 345:3 766:1 #
0.15159479457805946633897065112251 1072:1 4341:1 8639:1 9353:1 #
0.052736797083633643601352503083035 233:1 326:1 557:1 845:1 868:1 879:1 932:1 2028:1 3649:1 4315:1 #
0.15159479457805946633897065112251 352:1 1442:1 1983:1 #
-0.15159479457805946633897065112251 42:1 326:1 766:1 788:1 852:1 879:1 893:1 984:1 1080:1 1124:1 6390:2 #
-0.15159479457805946633897065112251 548:1 584:1 766:1 #
-0.15159479457805946633897065112251 208:1 766:1 1405:1 4994:1 7153:1 #
-0.11968830022639438681597567892823 20:1 326:1 399:1 550:1 582:1 1963:1 4717:1 #
-0.15159479457805946633897065112251 101:1 1826:1 5162:1 #
0.15159479457805946633897065112251 112:1 348:1 1377:1 1630:1 3979:1 #
0.15159479457805946633897065112251 91:1 267:1 308:1 522:1 542:1 792:1 1398:1 1466:1 1702:1 3135:1 3674:1 #
0.15159479457805946633897065112251 263:1 482:1 720:1 738:1 1732:1 2544:1 2711:1 3619:1 5472:1 #
0.15159479457805946633897065112251 319:1 707:1 3293:1 #
0.15159479457805946633897065112251 11:1 801:1 1166:1 1826:1 3628:1 3630:1 #
-0.15159479457805946633897065112251 86:1 100:1 482:1 1003:1 1102:1 1486:1 1772:1 #
-0.15159479457805946633897065112251 639:1 720:1 822:1 2694:1 3940:1 #
-0.15159479457805946633897065112251 2976:1 #
-0.092183716034309359788068150010076 800:1 816:1 3971:1 6209:1 #
-0.15159479457805946633897065112251 160:1 4170:1 7246:1 #
0.15159479457805946633897065112251 732:1 984:2 1512:1 1901:1 #
0.15159479457805946633897065112251 247:1 852:1 1082:1 5509:1 6093:1 #
0.15159479457805946633897065112251 22:1 326:2 536:1 1327:1 1582:1 1775:1 3921:1 4134:1 #
0.15159479457805946633897065112251 115:1 1002:1 1003:1 1004:1 1005:1 #
-0.15159479457805946633897065112251 396:1 852:1 2188:1 2313:1 #
0.15159479457805946633897065112251 160:1 573:1 574:1 575:1 #
-0.15159479457805946633897065112251 984:1 1186:1 1277:1 1278:1 #
-0.15159479457805946633897065112251 140:1 326:1 4409:1 #
-0.12825453452525464870248583793 326:1 6194:1 #
-0.15159479457805946633897065112251 21:1 667:1 1157:1 1358:1 2108:1 #
-0.054548093890308971265490356472583 287:1 288:1 308:1 700:1 777:1 841:1 3845:1 4880:1 #
0.15159479457805946633897065112251 970:1 1135:1 6128:1 #
0.15159479457805946633897065112251 1091:1 1426:1 4662:1 #
0.15159479457805946633897065112251 232:1 330:1 414:1 2320:1 6927:1 #
0.15159479457805946633897065112251 638:1 823:1 987:1 2385:1 #
0.15159479457805946633897065112251 21:1 362:1 590:1 703:1 778:1 1155:1 1343:1 6128:1 7194:1 7653:1 #
0.045960201443379353203333437249967 13:1 160:1 482:1 544:1 889:1 986:1 1540:1 #
-0.11185426382278100543299359515004 232:1 348:1 362:1 673:1 723:1 1257:1 1274:1 2630:1 #
-0.15159479457805946633897065112251 590:1 4180:1 #
-0.15159479457805946633897065112251 265:1 1060:1 1525:1 1930:1 4341:1 #
0.15159479457805946633897065112251 1157:1 2006:1 2405:1 3853:1 #
0.15159479457805946633897065112251 64:1 103:1 187:1 408:1 1186:1 1389:1 2041:1 2645:1 2805:1 #
0.15159479457805946633897065112251 579:1 777:1 1354:1 #
0.15159479457805946633897065112251 344:1 748:1 1060:1 1316:1 1451:1 2599:1 #
-0.15159479457805946633897065112251 21:1 344:1 382:1 #
-0.15159479457805946633897065112251 242:1 748:1 837:1 3631:1 #
-0.15159479457805946633897065112251 209:1 932:1 #
-0.15159479457805946633897065112251 133:1 1144:1 1484:1 #
-0.15159479457805946633897065112251 82:1 123:1 1732:1 1779:1 #
0.15159479457805946633897065112251 662:1 1049:1 2719:2 #
0.15159479457805946633897065112251 88:1 223:1 548:1 558:1 2719:1 #
0.15159479457805946633897065112251 389:1 2914:1 3078:1 4446:1 4448:1 4449:1 #
0.15159479457805946633897065112251 121:1 568:1 2719:1 3128:1 3507:1 3508:1 3510:1 #
-0.11679426484604926717025819016271 88:1 3463:1 3622:1 6378:1 #
-0.12255515961226511045811804478944 353:1 525:1 526:1 565:1 1092:1 2719:1 #
-0.15159479457805946633897065112251 308:1 558:1 #
-0.15159479457805946633897065112251 1840:1 2131:1 #
0.15159479457805946633897065112251 20:1 296:1 837:1 1177:1 #
0.15159479457805946633897065112251 1484:1 2859:1 4575:1 4577:1 #
0.15159479457805946633897065112251 159:1 267:1 304:1 1484:1 2005:1 3285:1 #
0.15159479457805946633897065112251 42:1 110:1 547:1 1625:1 5383:1 #
0.10388102662871528947263755071617 278:1 279:1 280:4 #
-0.15159479457805946633897065112251 296:1 726:1 1181:1 1915:1 2289:1 #
-0.15159479457805946633897065112251 159:1 1484:1 7586:1 #
-0.15159479457805946633897065112251 267:1 2490:1 5242:1 #
-0.15159479457805946633897065112251 84:1 777:1 1177:1 3176:1 #
-0.15159479457805946633897065112251 543:1 #
0.15159479457805946633897065112251 2198:1 2199:1 #
0.15159479457805946633897065112251 342:1 608:1 820:1 1042:1 1208:1 1849:1 1850:1 1851:1 #
0.15159479457805946633897065112251 787:1 817:1 1794:1 3699:1 #
-0.15159479457805946633897065112251 100:1 536:1 817:1 844:1 6039:1 #
-0.15159479457805946633897065112251 17:1 1208:1 #
-0.15159479457805946633897065112251 137:1 139:1 787:1 1007:1 1267:1 1707:1 6717:1 #
-0.10295541953038812865717233080431 498:1 505:1 509:1 1049:1 1051:1 2947:1 8310:1 8499:1 #
0.15159479457805946633897065112251 1147:1 #
0.15159479457805946633897065112251 285:1 380:1 988:1 2047:1 2238:1 2866:1 3054:1 4514:1 4768:1 #
0.15159479457805946633897065112251 322:1 669:1 1006:1 1427:1 2491:1 #
0.15159479457805946633897065112251 1972:1 #
-0.14524895807390617030740997961402 429:1 620:1 1147:1 1290:1 1291:1 1292:1 #
-0.15159479457805946633897065112251 151:1 459:1 1119:1 1823:1 5463:1 #
-0.15159479457805946633897065112251 379:1 4513:1 #
-0.15159479457805946633897065112251 1110:1 2064:1 #
-0.15159479457805946633897065112251 970:1 1730:1 3377:1 #
0.024013669079406427253609024319303 75:1 133:1 362:1 505:1 896:1 1042:1 1049:1 1881:1 1883:1 #
0.12765068513036173514230142700399 698:2 1547:2 2422:1 2878:1 #
0.15159479457805946633897065112251 3325:1 #
-0.15159479457805946633897065112251 234:1 629:1 698:1 1179:1 1839:1 #
-0.15159479457805946633897065112251 571:1 811:1 1049:1 #
-0.09187463382820119928151569865804 168:1 505:1 1235:1 1470:1 2003:1 2199:1 6403:1 6404:1 6408:1 #
-0.15159479457805946633897065112251 60:1 1792:1 3056:1 #
0.15159479457805946633897065112251 #
0.15159479457805946633897065112251 3198:1 5512:1 5622:1 5623:1 #
-0.15159479457805946633897065112251 522:1 3136:1 6189:1 #
0.15159479457805946633897065112251 #
-0.15159479457805946633897065112251 1820:1 #
0.15159479457805946633897065112251 #
-0.085979481146616243414371183462208 196:1 1460:1 1461:1 1462:1 #
0.15159479457805946633897065112251 #
-0.15159479457805946633897065112251 551:1 925:1 1149:1 2232:1 4723:1 #
-0.15159479457805946633897065112251 319:1 330:1 547:1 647:1 1234:1 1370:1 2239:1 2361:1 3916:1 #
-0.15159479457805946633897065112251 1630:1 3687:1 #
-0.15159479457805946633897065112251 547:1 1343:1 2313:1 #
-0.11848363350485276168644332983604 188:1 1556:1 4369:1 #
0.15159479457805946633897065112251 2796:1 #
0.15159479457805946633897065112251 369:1 #
0.15159479457805946633897065112251 1215:1 1216:1 4139:1 #
0.15159479457805946633897065112251 2256:1 2257:1 7603:1 #
0.14894623982498644831906631225138 441:1 1436:1 2178:1 2457:2 9058:1 9221:2 #
-0.15159479457805946633897065112251 422:1 464:1 1458:1 2587:1 #
-0.15159479457805946633897065112251 218:1 2722:1 4470:1 7031:1 #
-0.15159479457805946633897065112251 9:1 321:1 #
-0.15159479457805946633897065112251 212:1 499:1 2831:1 #
-0.15159479457805946633897065112251 545:1 #
0.15159479457805946633897065112251 2232:1 4639:1 5962:1 #
0.15159479457805946633897065112251 244:1 1343:1 1702:1 #
0.15159479457805946633897065112251 5904:1 7934:1 #
0.15159479457805946633897065112251 123:1 1238:1 6034:1 #
-0.15159479457805946633897065112251 1694:1 3898:1 #
-0.15159479457805946633897065112251 564:1 609:1 5274:1 #
-0.15159479457805946633897065112251 789:1 1009:1 6160:1 #
-0.15159479457805946633897065112251 795:1 796:1 #
-0.15159479457805946633897065112251 1919:1 1920:1 #
0.15159479457805946633897065112251 1507:1 7151:1 #
0.15159479457805946633897065112251 1251:1 3218:1 #
0.15159479457805946633897065112251 256:1 379:1 381:1 649:1 2536:1 3787:1 4051:1 #
-0.15159479457805946633897065112251 256:1 402:1 464:1 465:1 1730:1 2174:1 #
-0.15159479457805946633897065112251 266:1 438:1 #
0.15159479457805946633897065112251 149:1 824:1 981:1 #
0.15159479457805946633897065112251 489:1 714:1 1317:1 1941:1 2191:1 #
0.15159479457805946633897065112251 633:1 1172:1 1323:1 4230:1 7012:1 #
0.15159479457805946633897065112251 473:1 1448:1 2509:1 #
0.15159479457805946633897065112251 103:1 1214:1 1484:1 4512:1 5004:1 #
-0.15159479457805946633897065112251 1448:1 #
-0.15159479457805946633897065112251 300:1 #
-0.15159479457805946633897065112251 1622:1 4041:1 #
-0.10996667265572963867459321818387 492:1 1895:1 5815:1 #
-0.15159479457805946633897065112251 1294:1 #
0.15159479457805946633897065112251 256:1 465:1 6237:1 #
0.15159479457805946633897065112251 465:1 656:1 5371:1 #
0.15159479457805946633897065112251 875:1 891:1 1546:1 3988:1 #
0.15159479457805946633897065112251 775:1 1252:1 1339:2 1606:1 1912:1 #
-0.15159479457805946633897065112251 539:1 656:1 1175:1 #
-0.15159479457805946633897065112251 160:1 319:1 465:1 7042:1 #
-0.14257420313907906428418925770529 513:1 719:1 775:1 925:1 1252:1 1915:1 3092:2 8827:1 #
-0.15159479457805946633897065112251 341:1 992:1 4020:1 4253:1 #
-0.055840576896751148439079770469107 646:1 4382:1 #
0.15159479457805946633897065112251 265:1 414:1 688:1 852:2 1009:1 3348:1 #
0.15159479457805946633897065112251 637:1 983:1 1682:1 2651:1 5525:1 #
0.15159479457805946633897065112251 530:1 #
0.15159479457805946633897065112251 323:1 707:1 1143:1 2131:1 3075:1 #
-0.15159479457805946633897065112251 214:1 626:1 1867:1 2065:1 5526:1 6903:2 #
-0.15159479457805946633897065112251 703:1 722:1 1100:1 1519:1 #
-0.053070005767116762429580489879299 890:1 1377:1 1766:1 1833:1 2486:1 2972:1 3248:1 3249:1 #
-0.084322894840305057106988328996522 980:1 1325:1 1327:1 3016:1 #
0.15159479457805946633897065112251 341:1 513:1 1249:1 1648:1 2413:1 4313:1 #
0.15159479457805946633897065112251 984:1 2839:1 4347:1 #
0.10966363083002420020228839803167 15:1 102:1 585:1 797:1 984:1 1033:1 2631:1 3196:1 3845:1 4540:1 5077:1 #
-0.15159479457805946633897065112251 984:1 1028:1 1813:1 #
-0.15159479457805946633897065112251 1110:1 1642:1 #
-0.15159479457805946633897065112251 4008:1 #
-0.15159479457805946633897065112251 567:1 3408:1 #
-0.082748155228973302444117621234909 553:1 1112:1 1209:1 6883:1 7456:1 #
0.15159479457805946633897065112251 562:1 647:1 670:1 703:1 778:1 1122:1 1487:1 3953:1 #
0.15159479457805946633897065112251 548:1 1149:1 2223:1 3588:1 4376:1 5526:1 7194:1 #
0.15159479457805946633897065112251 12:1 91:1 163:1 196:1 1365:1 1886:1 2577:1 3556:1 #
0.15159479457805946633897065112251 103:1 990:1 991:1 992:1 #
0.15159479457805946633897065112251 60:1 391:1 719:1 930:1 939:1 1287:1 2186:1 5680:1 5682:1 8804:1 #
-0.15159479457805946633897065112251 196:1 3556:1 #
-0.058116152855133752785921075201259 163:1 540:1 1220:1 1640:1 1760:1 3522:1 3782:1 #
-0.085349986762085855440673753946612 196:1 197:1 239:1 1546:1 #
0.15159479457805946633897065112251 676:1 1073:1 1209:1 2613:1 2956:1 #
0.15159479457805946633897065112251 110:1 3281:1 9331:1 #
0.15159479457805946633897065112251 278:1 590:1 607:1 1094:1 1252:1 1359:1 1843:1 2296:1 3178:1 3179:1 #
-0.15159479457805946633897065112251 1359:1 1654:1 #
-0.043643843408773259906485719739067 330:1 491:1 1611:1 2138:1 2528:1 2529:1 #
0.15159479457805946633897065112251 69:1 171:1 342:1 1521:1 2015:1 2016:1 #
0.15159479457805946633897065112251 259:1 304:1 544:1 #
0.15159479457805946633897065112251 846:1 1342:1 1450:3 #
-0.15159479457805946633897065112251 139:1 544:2 1699:1 2341:1 #
-0.15159479457805946633897065112251 511:1 544:1 2303:1 #
-0.15159479457805946633897065112251 544:1 4379:1 #
-0.15159479457805946633897065112251 595:1 884:1 2270:1 5369:1 #
0.15159479457805946633897065112251 207:1 842:1 #
0.15159479457805946633897065112251 71:1 123:1 210:1 214:2 314:1 579:1 638:1 729:1 730:1 1694:1 2355:1 3844:1 4470:1 #
0.15159479457805946633897065112251 187:1 209:1 322:1 393:1 1425:1 1652:1 2272:1 3236:1 4211:1 4633:1 #
-0.15159479457805946633897065112251 187:1 1314:1 1358:1 3043:1 3046:1 3047:1 #
-0.15159479457805946633897065112251 265:1 3236:1 #
0.15159479457805946633897065112251 103:1 544:1 1461:1 1621:1 3128:1 #
0.15159479457805946633897065112251 42:1 833:1 #
-0.087517321306856299401033538742922 475:1 730:1 1392:1 2392:1 2963:1 #
-0.15159479457805946633897065112251 17:1 18:1 2077:1 2637:1 4415:1 4417:1 #
0.087310265770503811544323014004476 247:1 265:1 831:2 1663:1 1670:1 1928:1 2786:1 3439:1 3442:1 3682:1 #
0.15159479457805946633897065112251 414:1 466:1 619:1 1138:1 1569:1 #
0.15159479457805946633897065112251 107:1 548:1 571:1 656:1 1025:1 7074:1 #
-0.15159479457805946633897065112251 3696:1 #
-0.15159479457805946633897065112251 471:1 581:1 #
-0.15159479457805946633897065112251 214:1 3466:1 #
0.14281640793221170304683198537532 334:1 457:1 557:1 744:1 854:1 1507:1 1942:1 7515:2 #
0.15159479457805946633897065112251 210:1 258:1 337:1 497:1 4453:1 #
0.15159479457805946633897065112251 679:1 801:1 1794:1 1795:1 #
0.098964986879125013685687406450597 405:1 600:1 1149:1 1614:1 2427:1 3139:2 4432:1 5091:1 #
0.15159479457805946633897065112251 86:1 133:1 497:1 641:1 8633:1 #
-0.15159479457805946633897065112251 86:1 1097:1 1904:1 2108:1 #
-0.15159479457805946633897065112251 160:1 210:1 458:1 1212:1 1343:1 #
-0.11116129413024802841114535567613 1039:1 1086:1 2580:1 #
0.15159479457805946633897065112251 22:1 324:1 326:2 1832:1 3800:1 3802:1 #
0.15159479457805946633897065112251 21:1 54:1 170:1 285:1 970:1 3394:1 6128:1 #
0.15159479457805946633897065112251 256:1 3923:1 #
0.12187923332087347016994272053125 160:1 440:1 641:1 648:1 789:1 830:1 1443:1 1444:1 1445:1 1446:1 1447:1 1448:1 #
0.15159479457805946633897065112251 123:1 287:1 288:1 731:1 7002:2 7003:2 #
0.15159479457805946633897065112251 11:1 13:1 220:1 545:1 901:1 999:1 8851:1 #
-0.099080410645420891047052691646968 27:1 86:1 91:1 169:1 287:1 288:1 323:3 365:1 901:1 991:1 1357:1 1673:1 4017:1 4019:1 4020:1 #
-0.15159479457805946633897065112251 103:1 110:1 304:1 706:1 5599:1 #
-0.15159479457805946633897065112251 12:1 214:1 233:1 558:1 804:1 1218:1 2092:1 2093:1 5957:1 #
-0.039930328551605553943915083436877 322:1 457:1 542:2 548:1 555:1 815:1 841:1 881:1 1104:1 1921:1 5271:1 5272:2 #
-0.072478490900600905932904538531147 123:2 390:2 1098:2 6156:2 6157:2 #
0.15159479457805946633897065112251 84:1 232:1 267:1 540:1 630:1 766:1 925:1 3792:1 5213:1 #
0.15159479457805946633897065112251 67:1 100:1 212:1 214:1 700:1 1100:1 1312:1 3654:1 #
0.15159479457805946633897065112251 547:1 626:1 980:1 1170:1 2065:2 #
0.15159479457805946633897065112251 399:1 565:1 759:1 1422:1 1730:1 #
0.15159479457805946633897065112251 78:1 311:1 536:1 565:1 704:1 3165:1 #
-0.067572104906354055198214325628214 342:1 513:1 565:1 641:1 1006:1 1309:1 1865:1 1967:1 2719:1 #
-0.15159479457805946633897065112251 187:1 393:1 503:1 846:1 1001:1 1218:1 1291:1 1364:1 1373:1 1472:1 1489:1 1831:1 3674:1 #
-0.15159479457805946633897065112251 110:1 353:1 414:1 473:1 579:1 787:1 6722:1 #
-0.15159479457805946633897065112251 170:1 256:1 3649:1 #
-0.13084298359546281398380074278975 149:1 159:1 322:1 335:1 347:1 735:1 1073:1 1333:1 1512:1 1964:1 #
0.15159479457805946633897065112251 9:1 402:1 505:1 539:1 1076:1 1150:1 3189:1 #
0.15159479457805946633897065112251 49:1 266:1 459:1 723:1 749:1 1314:1 1423:1 4095:1 #
0.15159479457805946633897065112251 86:1 319:1 1194:1 1243:1 1244:1 1246:1 1247:1 #
0.15159479457805946633897065112251 1607:1 1833:1 6390:1 #
0.15159479457805946633897065112251 507:1 751:1 1086:1 2313:1 #
-0.15159479457805946633897065112251 417:1 631:1 797:1 801:1 1790:1 1791:1 1792:1 1793:1 1794:1 1795:1 #
0.15159479457805946633897065112251 330:1 551:1 893:1 1218:1 1264:1 1369:1 1439:1 2687:1 #
-0.15159479457805946633897065112251 875:1 1231:1 2006:1 2070:1 3939:1 #
-0.15159479457805946633897065112251 304:1 377:1 1018:1 3800:1 4280:1 #
-0.15159479457805946633897065112251 1450:2 #
-0.15159479457805946633897065112251 21:1 103:1 104:1 1464:1 1531:1 1830:1 3254:1 #
0.0026804698315734906167995266201842 58:1 123:1 244:1 647:1 1111:1 1141:1 1218:1 1694:1 1940:1 6763:1 8522:1 #
0.15159479457805946633897065112251 159:1 212:1 912:1 1046:1 3012:1 6582:1 #
0.15159479457805946633897065112251 149:1 687:1 770:1 1092:1 1477:1 #
-0.15159479457805946633897065112251 #
0.15159479457805946633897065112251 160:1 458:1 979:1 2271:1 4864:1 4865:1 #
0.067572532493076487014604936121032 80:1 98:1 123:1 382:1 389:1 394:1 473:1 557:1 581:1 645:1 1095:1 1252:1 1601:1 2237:1 2317:1 5648:1 6252:1 6810:1 #
-0.15159479457805946633897065112251 91:1 149:1 170:1 366:1 399:1 505:1 646:1 703:1 994:1 1423:1 2027:1 4409:1 6958:1 #
-0.15159479457805946633897065112251 972:1 1081:1 1773:1 #
-0.11528331009385950345347282564035 42:1 217:1 1180:1 1362:1 1564:1 8116:1 8592:1 #
-0.15159479457805946633897065112251 15:1 258:1 285:1 #
-0.15159479457805946633897065112251 42:1 71:1 139:1 333:1 970:1 1347:1 3488:1 4568:1 #
0.15159479457805946633897065112251 330:1 390:1 844:1 901:1 1370:1 1373:1 2248:1 #
0.15159479457805946633897065112251 540:1 555:1 1274:1 1472:1 1473:1 2488:1 3763:1 4331:1 5527:1 5850:1 #
0.15159479457805946633897065112251 841:1 2083:1 3099:1 3100:1 4112:1 #
0.15159479457805946633897065112251 187:1 396:1 636:1 2283:1 4664:1 4665:1 #
0.15159479457805946633897065112251 12:1 396:1 771:1 1519:1 4370:1 4371:1 5005:1 #
-0.15159479457805946633897065112251 103:1 1373:1 2242:1 2438:1 #
-0.15159479457805946633897065112251 466:1 543:1 555:1 1682:1 #
-0.15159479457805946633897065112251 167:1 263:1 645:1 801:1 1484:1 4429:1 7050:1 #
-0.15159479457805946633897065112251 287:1 288:1 638:1 1049:1 2419:1 3944:1 #
-0.15159479457805946633897065112251 #
0.079222710717985783679395694889536 21:1 108:1 139:1 167:1 533:1 631:1 806:1 1062:1 1080:1 1180:1 1209:1 1791:1 1820:1 1844:1 2107:1 2316:1 2898:1 4065:1 4250:1 #
0.15159479457805946633897065112251 42:1 123:1 1790:1 3372:1 3980:1 4546:1 #
0.055128345389611588256428831300582 524:1 837:1 840:1 1042:1 1477:1 2479:1 2674:1 3829:1 #
0.12035436964854702435179234498719 100:1 139:1 140:1 3402:1 3475:1 3476:1 7053:1 7109:1 7265:2 #
0.1438441840440873864537252302398 149:1 609:2 1044:1 1741:1 1915:1 1955:1 3093:1 4409:1 5132:1 #
-0.15159479457805946633897065112251 139:1 342:1 837:1 1375:1 3394:1 4263:1 #
-0.049855540292301284144294015732157 219:1 223:1 542:1 646:1 1246:1 1291:1 1704:1 2737:1 #
-0.15159479457805946633897065112251 939:1 973:1 992:1 #
-0.027859333670971184876430370991329 579:1 628:1 981:2 1506:1 1694:1 2028:1 6113:1 8476:1 #
-0.14216045903602031463819344025978 1122:1 4305:1 5526:1 #
0.15159479457805946633897065112251 178:1 208:1 505:1 565:1 787:1 790:1 813:1 868:1 1049:1 1143:1 1269:1 1373:1 #
0.15159479457805946633897065112251 358:1 571:1 1940:1 1976:1 2361:1 3503:1 4245:1 4498:1 #
0.099012926591180258628632770978584 17:1 149:1 219:1 543:1 815:1 1830:1 2211:1 3167:1 #
0.067031130447165507280082863417192 84:1 105:1 209:1 565:1 766:1 787:1 1444:1 1529:1 2082:1 2689:1 5435:1 5548:1 #
0.15159479457805946633897065112251 17:1 259:1 327:1 503:1 723:1 841:1 1091:1 1387:1 1773:1 2563:1 6887:1 #
-0.15159479457805946633897065112251 563:1 571:1 707:1 2576:1 5787:1 #
-0.083400749224235196099819233950257 2892:1 4051:2 5116:1 7194:1 9648:1 #
-0.15159479457805946633897065112251 9:1 322:1 323:1 656:1 723:1 816:1 1002:1 2361:1 2627:1 #
-0.15159479457805946633897065112251 11:1 924:1 1049:1 1486:1 1614:1 1712:1 5271:1 5957:1 #
-0.15159479457805946633897065112251 22:1 7927:1 #
0.15159479457805946633897065112251 196:1 526:1 783:1 925:1 1733:1 3149:1 3188:1 #
0.15159479457805946633897065112251 457:1 1183:1 1327:1 1642:1 8819:1 #
0.15159479457805946633897065112251 82:1 310:1 797:1 801:1 1267:1 1329:1 1926:1 3113:1 #
0.15159479457805946633897065112251 386:1 558:1 581:1 954:1 1679:1 5239:1 7050:1 #
0.15159479457805946633897065112251 275:1 817:1 #
-0.15159479457805946633897065112251 196:1 548:1 1194:1 4184:1 #
-0.15159479457805946633897065112251 265:1 344:1 393:1 394:1 457:1 899:1 1135:1 1581:1 7640:1 #
-0.15159479457805946633897065112251 71:1 688:1 817:1 1094:1 1166:1 #
-0.15159479457805946633897065112251 207:1 2153:1 3492:1 #
0.14845083674808218221485844878771 204:1 422:1 459:1 722:1 723:1 789:1 864:1 1073:1 1573:1 2284:1 2346:1 3530:1 #
0.15159479457805946633897065112251 291:1 352:1 402:1 509:1 511:1 587:1 854:1 1084:1 1112:1 1321:1 1365:1 1878:1 1932:1 5930:1 #
0.15159479457805946633897065112251 382:1 464:1 934:1 1147:1 1402:1 1458:1 #
0.15159479457805946633897065112251 60:1 1077:1 1358:1 3470:1 3764:1 4243:1 #
0.15159479457805946633897065112251 21:1 482:1 706:1 796:1 1956:1 #
-0.14452934009554116445706029026042 21:1 558:1 579:1 649:1 944:1 1163:1 1346:1 1448:1 3119:1 3121:1 3125:1 #
-0.15159479457805946633897065112251 618:1 1702:1 #
-0.15159479457805946633897065112251 324:1 982:1 #
-0.15159479457805946633897065112251 332:1 726:1 1447:1 2191:1 2982:1 #
0.10355490036572578826934432072449 207:1 509:1 544:1 646:1 924:1 1135:1 1173:1 1307:1 1546:1 2367:1 3370:1 5403:1 7676:1 9016:1 #
0.15159479457805946633897065112251 9:1 757:1 817:1 3121:1 3930:1 5925:1 6293:1 #
0.15159479457805946633897065112251 233:1 457:1 816:1 1092:1 1964:1 2082:1 #
0.15159479457805946633897065112251 27:1 616:1 638:1 899:1 1320:1 1781:1 1782:1 2779:1 #
0.15159479457805946633897065112251 531:1 743:2 744:1 745:1 746:1 #
-0.15159479457805946633897065112251 258:1 334:1 457:1 1320:1 1343:1 3131:1 #
-0.15159479457805946633897065112251 91:1 560:1 647:1 743:1 2009:1 2227:1 2273:1 #
-0.15159479457805946633897065112251 233:1 1401:1 2131:1 5465:1 #
-0.15159479457805946633897065112251 163:1 233:1 #
0.15159479457805946633897065112251 458:1 1293:1 1966:1 #
0.15159479457805946633897065112251 160:1 563:1 1568:1 2008:1 2120:1 2327:1 #
0.15159479457805946633897065112251 296:1 539:1 986:1 1813:1 3279:1 4962:1 #
0.15159479457805946633897065112251 163:1 584:1 #
-0.15159479457805946633897065112251 641:1 1147:1 1570:1 #
-0.08616822389700447282212536492807 121:1 595:1 646:1 1238:1 7037:1 #
-0.15159479457805946633897065112251 345:1 1180:1 4734:1 #
-0.15159479457805946633897065112251 636:1 641:1 #
0.15159479457805946633897065112251 519:1 1194:1 1274:1 1879:1 1921:1 2131:1 #
0.11177965068194516129462812159545 308:1 647:1 844:1 869:1 1138:1 1799:1 1879:1 2629:1 4088:1 4089:1 #
0.15159479457805946633897065112251 82:1 689:1 726:1 993:1 #
0.15159479457805946633897065112251 726:1 919:1 1290:1 #
-0.15159479457805946633897065112251 103:1 151:1 311:1 726:1 1674:1 2970:1 6256:1 6257:1 #
-0.15159479457805946633897065112251 265:1 522:1 852:1 3256:1 3563:1 3896:1 6231:1 6285:1 8536:1 #
-0.02537678110889257307447586242688 27:1 102:1 110:2 123:1 414:1 416:1 571:1 673:1 787:1 1092:1 1337:1 1514:1 1548:1 1964:1 3546:1 #
0.15159479457805946633897065112251 27:1 1570:1 #
0.15159479457805946633897065112251 319:1 701:1 1915:1 #
0.15159479457805946633897065112251 524:1 837:1 1710:1 7392:1 #
0.15159479457805946633897065112251 401:1 567:1 3408:1 3410:1 #
0.15159479457805946633897065112251 73:1 137:1 423:1 457:1 1571:1 4083:1 5728:1 #
0.15159479457805946633897065112251 49:1 648:1 982:1 3563:1 #
0.15159479457805946633897065112251 518:1 813:1 1141:1 1933:1 1953:1 2687:1 4548:1 #
0.15159479457805946633897065112251 13:1 234:1 544:1 646:1 673:1 1486:1 1823:1 #
-0.081457317893109310036336978555482 129:1 982:1 983:1 994:1 #
-0.15159479457805946633897065112251 11:1 123:1 259:1 390:1 417:1 701:1 723:1 #
-0.15159479457805946633897065112251 552:1 555:1 802:1 845:1 #
0.15159479457805946633897065112251 505:1 564:1 1009:1 2027:1 #
0.15159479457805946633897065112251 499:1 854:1 917:1 #
0.15159479457805946633897065112251 140:1 852:1 1519:1 2003:1 2823:1 2824:1 #
0.15159479457805946633897065112251 324:1 338:1 417:1 1582:1 3910:1 4245:1 5103:1 6014:1 #
-0.088759587809264198221548269884806 141:1 434:1 854:1 1287:1 1712:1 1952:1 2020:1 #
-0.048480724560582548476883602006637 91:1 466:1 1472:2 1473:1 1474:1 1475:2 1476:1 1477:1 1478:1 #
-0.15159479457805946633897065112251 579:1 1521:1 #
0.15159479457805946633897065112251 390:1 567:1 568:1 884:1 1008:1 3756:1 #
0.15159479457805946633897065112251 3136:2 5778:2 #
0.15159479457805946633897065112251 335:1 #
0.15159479457805946633897065112251 70:1 291:1 429:1 857:1 879:1 915:1 1434:1 4499:1 5203:1 5651:1 #
0.15159479457805946633897065112251 698:1 1486:1 4102:1 4103:1 #
-0.15159479457805946633897065112251 103:1 1091:1 1663:1 #
-0.15159479457805946633897065112251 37:1 210:1 258:1 1507:1 3213:1 #
0.15159479457805946633897065112251 133:1 548:1 1007:1 1099:1 1601:1 2722:1 3556:1 #
0.15159479457805946633897065112251 621:1 1956:1 2239:1 2566:1 2567:1 #
0.15159479457805946633897065112251 209:1 265:1 369:1 610:1 1405:1 5325:1 7794:1 8409:1 #
0.15159479457805946633897065112251 84:1 466:1 720:1 3496:1 4840:1 #
0.15159479457805946633897065112251 2009:1 3056:1 #
-0.15159479457805946633897065112251 104:1 116:1 970:1 1275:1 1832:1 #
0.15159479457805946633897065112251 522:1 1149:1 1295:1 1334:1 #
-0.097990548302620980591903787626507 110:1 133:1 466:1 526:1 1427:1 7397:1 #
-0.15159479457805946633897065112251 778:1 923:1 5388:1 #
-0.15159479457805946633897065112251 285:1 304:1 390:1 779:1 5763:1 #
0.15159479457805946633897065112251 599:1 1135:1 #
0.15159479457805946633897065112251 394:1 848:1 3625:1 #
0.15159479457805946633897065112251 647:1 745:1 3339:1 6141:1 #
0.15159479457805946633897065112251 275:1 498:1 511:1 775:1 777:1 1049:1 1179:1 1281:1 2601:1 #
-0.15159479457805946633897065112251 11:1 348:1 380:1 1387:1 4541:1 6113:1 #
0.15159479457805946633897065112251 526:1 1682:1 #
0.15159479457805946633897065112251 232:1 1779:1 1780:1 #
-0.15159479457805946633897065112251 21:1 275:1 394:1 466:1 579:1 819:1 868:1 4955:1 #
0.13951519634920739321159999235533 440:1 525:2 1141:1 1269:1 4076:1 4077:1 4078:1 4079:1 #
0.15159479457805946633897065112251 163:1 535:1 3335:1 #
0.15159479457805946633897065112251 565:1 1200:1 2797:1 3602:1 4629:1 8588:1 #
0.15159479457805946633897065112251 98:1 333:1 2200:1 2202:1 2849:1 4562:1 #
-0.15159479457805946633897065112251 233:1 643:1 2104:1 2805:1 #
-0.11148863739550995965998936299002 322:1 327:1 354:1 #
0.15159479457805946633897065112251 244:1 248:1 275:1 595:1 650:1 661:1 #
0.13238886547917863567569440874649 219:1 402:1 420:1 511:1 558:1 700:1 832:1 1362:1 1525:1 #
0.11216913166991393513427510697511 65:1 101:1 139:1 348:1 545:1 669:1 688:1 766:1 830:1 1173:2 1381:1 4181:1 6093:1 6306:1 6715:1 6716:1 #
-0.15159479457805946633897065112251 555:1 620:1 815:1 830:1 1238:1 1317:1 #
-0.15159479457805946633897065112251 265:1 414:1 457:1 #
0.15159479457805946633897065112251 823:1 1106:1 1718:1 1739:1 5100:1 5665:1 #
0.15159479457805946633897065112251 296:1 330:1 1723:1 1813:1 #
0.15159479457805946633897065112251 17:1 356:1 387:1 2675:1 #
0.15159479457805946633897065112251 140:1 #
0.0066559243131494938774950220761184 12:1 20:1 265:1 458:1 1147:1 1274:1 2227:1 6006:1 #
0.15159479457805946633897065112251 382:1 607:1 723:1 3236:1 3328:1 4617:1 #
-0.15159479457805946633897065112251 256:1 513:1 3602:1 #
0.094299854671122146365647154198086 304:1 706:1 766:1 824:1 1601:1 1658:1 #
0.15159479457805946633897065112251 766:1 852:1 875:1 879:1 1060:1 1186:1 2104:1 3480:1 4642:1 #
0.15159479457805946633897065112251 932:1 1136:1 4948:1 #
0.15159479457805946633897065112251 971:1 1390:1 3095:1 3096:1 3097:1 #
-0.15159479457805946633897065112251 323:1 1091:1 #
0.15159479457805946633897065112251 21:1 723:1 1161:1 1293:1 #
0.15159479457805946633897065112251 17:1 3136:1 3612:1 9077:1 #
-0.15159479457805946633897065112251 342:1 366:1 380:1 4622:1 #
-0.023009871457632335989273997256532 110:1 163:1 537:1 2674:1 5797:1 #
0.15159479457805946633897065112251 269:1 #
0.15159479457805946633897065112251 687:1 1638:1 #
0.15159479457805946633897065112251 699:1 844:1 984:1 1110:1 2239:1 2587:1 4685:1 #
0.15159479457805946633897065112251 82:1 91:1 241:1 436:1 522:1 845:1 964:1 1370:1 1403:1 1733:1 1830:1 2495:1 5666:1 #
0.15159479457805946633897065112251 5:1 380:1 544:1 652:1 877:1 #
0.15159479457805946633897065112251 9:1 123:1 1279:1 1730:1 5289:1 #
-0.15159479457805946633897065112251 285:1 304:1 571:1 630:1 1281:1 3068:1 3069:1 #
-0.087320022443764286346201686228596 323:1 457:1 521:1 2493:1 2494:1 2495:1 #
-0.14973839004211009218181516189361 103:1 1124:1 1214:1 3679:1 4947:1 5600:1 #
-0.15159479457805946633897065112251 103:1 543:1 858:1 1610:1 2214:1 #
-0.10935030126293887597910270415014 49:1 262:1 1156:1 1365:1 1886:1 2310:1 4864:1 #
-0.15159479457805946633897065112251 310:1 495:1 505:1 854:1 912:1 1526:1 3236:1 3292:1 3293:1 3908:1 #
-0.15159479457805946633897065112251 389:1 419:1 567:1 4865:1 #
-0.15159479457805946633897065112251 700:1 1149:2 2179:1 2232:1 #
0.15159479457805946633897065112251 103:1 1166:1 1484:1 2133:1 2242:1 3665:1 5385:1 #
0.060093350784960593291561536943846 17:1 18:1 205:1 275:1 323:2 604:1 804:1 905:1 1396:2 2637:1 3236:1 6897:1 7727:1 #
0.15159479457805946633897065112251 346:1 719:1 923:1 994:1 1110:1 #
0.15159479457805946633897065112251 17:1 393:1 416:1 579:1 881:1 1674:1 2077:1 3360:1 5629:1 5994:1 #
0.15159479457805946633897065112251 258:1 304:1 390:1 901:1 2149:1 2227:1 2510:1 5798:1 #
-0.15159479457805946633897065112251 565:2 923:1 1042:1 1095:1 1601:1 #
-0.15159479457805946633897065112251 402:1 1484:1 2797:1 3667:1 7402:1 #
-0.15159479457805946633897065112251 402:1 1484:1 #
-0.15159479457805946633897065112251 275:1 518:1 1136:1 4291:1 #
-0.15159479457805946633897065112251 60:1 123:1 329:1 458:1 1166:1 2271:1 #
-0.066173644003977155625406680883316 122:1 579:1 646:1 1001:1 #
