SVM-light Version V6.02
0 # kernel type
3 # kernel parameter -d 
1 # kernel parameter -g 
1 # kernel parameter -s 
1 # kernel parameter -r 
empty# kernel parameter -u 
62169 # highest feature index 
6857 # number of training documents 
6692 # number of support vectors plus 1 
1.0704256 # threshold b, each following line is a SV (starting with alpha*y)
-1.3817236581807726023099795395477e-07 2:1 10:1 19:1 78:1 178:1 183:1 256:1 257:1 258:1 259:1 260:1 261:1 262:1 263:1 264:2 265:1 266:1 267:1 268:1 269:1 62166:21 62167:120 62168:7 62169:2 #
1.3817236581807726023099795395477e-07 10:1 12:1 19:1 91:1 132:1 133:1 134:1 135:1 136:1 137:1 138:1 139:1 140:1 141:1 142:1 143:1 144:1 62165:1 62166:17 62167:78 62168:4 62169:1 #
-1.3817236581807726023099795395477e-07 3:1 88:1 390:1 391:1 429:1 814:1 5438:1 15719:1 44316:1 62166:9 62167:42 62168:3464 62169:4 #
1.3817236581807726023099795395477e-07 8:1 26:1 61:1 78:1 84:1 264:1 293:1 294:1 498:1 585:1 721:1 884:1 906:1 1643:1 3830:1 5226:1 5411:1 8270:1 16477:1 26027:1 62165:1 62166:20 62167:106 62168:4699 62169:1 #
-1.3817236581807726023099795395477e-07 10:1 14:1 19:2 58:2 91:2 93:1 94:1 139:1 143:1 163:1 174:1 178:1 213:1 294:2 424:1 429:1 499:1 549:2 616:1 887:2 904:1 1420:1 1525:1 1719:1 1779:1 1782:2 2075:1 2410:1 2782:1 3680:1 4832:1 8043:1 9136:2 9460:1 16949:1 19506:1 62138:1 62165:1 62166:45 62167:184 62168:5381 62169:3 #
1.3817236581807726023099795395477e-07 2:1 139:1 161:1 162:1 163:1 164:1 165:1 62166:7 62167:29 62168:4 62169:1 #
-1.3817236581807726023099795395477e-07 19:1 57:1 58:1 59:1 60:1 61:1 62:1 63:1 64:1 65:1 62166:10 62167:43 62168:3 62169:2 #
1.3817236581807726023099795395477e-07 3:1 10:1 14:1 85:3 86:1 134:1 165:1 264:1 265:1 293:1 296:1 336:1 616:1 814:1 838:1 888:1 904:1 999:1 1604:1 2454:1 2518:1 2706:1 2997:1 3797:1 13279:1 26218:1 62166:28 62167:142 62168:5379 62169:1 #
-1.3817236581807726023099795395477e-07 21:1 163:1 2034:1 62162:1 62166:4 62167:37 62168:5384 62169:0 #
1.3817236581807726023099795395477e-07 6:1 10:1 20:1 58:1 59:1 85:1 139:1 163:1 172:1 173:1 174:1 175:1 176:1 177:1 178:1 179:1 180:1 181:1 182:1 183:1 184:1 185:1 186:1 62166:23 62167:117 62168:4 62169:2 #
-1.3817236581807726023099795395477e-07 1:1 2:1 3:1 4:1 5:1 6:1 7:1 8:1 9:1 10:2 11:1 12:2 13:1 14:2 15:1 16:1 17:1 18:1 19:1 20:1 21:1 22:1 23:1 24:1 25:1 26:1 27:1 62166:30 62167:159 62168:1 62169:1 #
1.3817236581807726023099795395477e-07 62161:1 62165:1 62166:1 62167:14 62168:5383 62169:14 #
-1.3817236581807726023099795395477e-07 59:1 97:1 213:3 386:1 869:1 1356:1 40715:1 62166:9 62167:32 62168:3941 62169:2 #
1.3817236581807726023099795395477e-07 2:1 19:2 22:1 85:1 97:1 134:1 208:2 209:1 210:1 211:1 212:1 213:1 214:2 215:1 216:1 217:1 62166:19 62167:63 62168:4 62169:2 #
-1.3817236581807726023099795395477e-07 2:1 19:1 65:1 76:1 178:1 236:1 237:1 238:1 239:1 240:1 241:1 242:1 243:1 62166:13 62167:61 62168:4 62169:1 #
1.3817236581807726023099795395477e-07 17:1 65:1 78:1 84:1 91:1 208:2 214:1 290:1 812:1 1132:1 2824:1 53459:1 62131:1 62166:14 62167:65 62168:5380 62169:2 #
-1.3817236581807726023099795395477e-07 2:1 19:1 65:1 78:1 83:1 161:1 163:1 181:1 236:1 292:1 294:1 412:1 522:1 1132:1 1319:1 2380:1 2652:1 4011:1 22892:1 62153:1 62166:20 62167:108 62168:5382 62169:5 #
-1.3817236581807726023099795395477e-07 19:1 180:1 290:1 384:1 498:1 8008:1 62166:6 62167:28 62168:5381 62169:1 #
1.3817236581807726023099795395477e-07 10:1 19:2 57:1 58:1 80:1 85:2 88:1 89:2 163:3 181:1 265:1 297:1 335:1 336:3 337:1 338:1 339:1 340:1 341:1 342:1 343:1 344:1 345:1 346:1 347:1 348:1 349:1 350:1 62166:35 62167:165 62168:11 62169:3 #
-1.3817236581807726023099795395477e-07 2:1 3:1 10:1 19:2 58:2 59:1 75:1 76:2 77:1 78:1 79:1 80:2 81:1 82:1 83:1 84:1 85:1 86:1 87:1 88:1 89:1 90:1 91:1 92:1 93:1 94:1 95:1 96:1 97:1 98:1 62166:34 62167:166 62168:4 62169:7 #
1.3817236581807726023099795395477e-07 2:2 10:2 14:1 26:3 58:1 76:1 80:1 85:1 86:1 133:1 134:1 139:2 163:1 174:1 182:1 290:1 294:2 348:1 392:1 429:1 499:1 616:1 622:1 721:1 791:1 884:1 1852:1 2932:1 3064:1 5438:1 5472:1 6301:1 7020:1 10735:1 62166:40 62167:159 62168:5370 62169:4 #
1.3817236581807726023099795395477e-07 2:1 26:1 161:1 183:1 208:2 212:1 257:1 264:1 314:1 315:1 316:1 317:1 318:1 319:5 62166:19 62167:78 62168:7 62169:30 #
-1.3817236581807726023099795395477e-07 14:1 26:1 58:1 163:1 174:2 289:1 290:1 291:1 292:1 293:1 294:1 295:1 296:1 297:1 298:1 62166:16 62167:63 62168:7 62169:2 #
1.3817236581807726023099795395477e-07 143:1 163:1 294:2 295:1 389:1 2756:1 9305:1 20140:1 62166:9 62167:33 62168:5362 62169:3 #
-1.3817236581807726023099795395477e-07 2:1 10:2 19:1 65:1 85:1 86:1 336:1 384:1 392:1 998:1 12968:1 19728:2 26839:1 41811:1 62046:1 62097:1 62098:1 62099:1 62100:1 62101:1 62102:1 62166:23 62167:125 62168:5379 62169:1 #
1.3817236581807726023099795395477e-07 163:1 294:1 297:1 498:1 548:1 549:1 550:1 551:1 552:1 62166:9 62167:31 62168:15 62169:1 #
-1.3817236581807726023099795395477e-07 19:2 65:1 76:1 78:1 216:1 411:1 412:1 413:1 414:1 62166:10 62167:50 62168:11 62169:2 #
1.3817236581807726023099795395477e-07 65:1 98:1 139:1 163:1 185:1 316:1 668:1 669:1 670:1 671:1 62166:10 62167:41 62168:22 62169:3 #
-1.3817236581807726023099795395477e-07 65:1 316:3 384:1 385:1 386:1 387:1 388:1 389:1 390:1 391:1 392:1 393:1 394:1 395:1 62166:16 62167:84 62168:11 62169:3 #
1.3817236581807726023099795395477e-07 3:1 15:1 19:1 20:1 58:1 91:1 93:1 97:1 134:1 142:1 174:1 178:1 180:1 294:2 336:1 423:1 424:1 425:1 426:1 427:1 428:1 429:2 430:1 431:1 432:1 433:1 434:1 435:1 436:1 62166:31 62167:163 62168:14 62169:4 #
-1.3817236581807726023099795395477e-07 58:4 59:1 88:1 163:1 208:2 294:1 345:1 721:1 814:1 952:1 953:1 954:1 955:1 956:1 957:1 958:1 959:1 960:1 961:1 962:1 963:1 964:1 62165:1 62166:26 62167:136 62168:29 62169:4 #
1.3817236581807726023099795395477e-07 175:1 7767:1 8750:1 62166:3 62167:15 62168:5332 62169:4 #
-1.3817236581807726023099795395477e-07 97:1 98:1 183:1 294:1 340:1 349:1 3406:1 4833:1 13721:1 62166:9 62167:37 62168:5380 62169:3 #
1.3817236581807726023099795395477e-07 10:2 58:2 86:1 89:1 290:1 294:1 814:1 1444:1 2077:1 2570:1 7115:1 9747:1 11750:1 62166:15 62167:66 62168:5364 62169:43 #
1.3817236581807726023099795395477e-07 10:1 13:3 14:1 19:1 58:3 61:1 85:1 93:1 134:1 178:1 294:1 316:1 336:1 429:1 433:1 495:1 496:1 497:1 498:1 499:1 62166:24 62167:109 62168:15 62169:5 #
-1.3817236581807726023099795395477e-07 2:1 14:1 58:2 65:2 78:1 85:1 163:1 172:1 183:1 264:1 316:1 392:1 517:2 518:1 519:1 520:1 521:1 522:1 523:1 524:1 525:1 62166:24 62167:101 62168:15 62169:4 #
1.3817236581807726023099795395477e-07 23:1 58:1 60:1 76:1 91:1 217:1 17538:1 61960:1 62166:8 62167:42 62168:5352 62169:1 #
-1.3817236581807726023099795395477e-07 10:2 19:1 26:1 27:1 58:1 59:1 88:1 97:1 143:1 163:1 178:1 212:1 213:1 243:1 294:1 336:1 585:1 1126:1 2234:1 2297:1 2708:1 2813:1 3755:1 4293:1 5066:1 12379:1 22256:1 62091:1 62166:29 62167:141 62168:5373 62169:3 #
1.3817236581807726023099795395477e-07 26:1 65:1 78:1 97:1 208:4 290:1 294:6 549:1 668:1 838:1 1320:1 1845:1 2518:1 4497:1 5282:1 7147:1 36507:1 62166:25 62167:73 62168:5363 62169:6 #
1.3817236581807726023099795395477e-07 10:1 19:2 57:1 58:2 78:1 85:1 86:1 161:1 239:1 294:1 336:2 466:1 467:1 468:1 469:1 470:1 471:1 472:1 473:1 474:1 475:1 62165:1 62166:24 62167:116 62168:15 62169:2 #
-1.3817236581807726023099795395477e-07 10:2 139:1 498:1 721:2 1133:1 1604:1 9309:1 62083:1 62084:1 62166:11 62167:64 62168:5372 62169:1 #
-1.3817236581807726023099795395477e-07 26:2 172:1 217:1 290:1 294:2 423:1 561:1 562:1 563:1 564:1 565:1 566:1 62166:14 62167:73 62168:15 62169:2 #
1.3817236581807726023099795395477e-07 3:1 10:1 19:1 78:2 163:1 317:1 430:1 549:1 580:1 581:1 582:1 583:1 584:1 585:1 586:1 587:1 588:1 589:1 590:1 591:1 592:1 593:1 62166:23 62167:113 62168:16 62169:3 #
1.3817236581807726023099795395477e-07 85:3 98:1 549:1 3748:1 4981:1 16173:1 18044:1 20922:1 61981:1 61982:1 61983:1 62166:13 62167:65 62168:5358 62169:2 #
-1.3817236581807726023099795395477e-07 10:2 15:1 93:1 143:1 178:1 214:2 294:1 392:1 585:1 616:1 698:1 838:1 2468:1 3155:1 4145:1 7269:1 62166:18 62167:83 62168:5370 62169:1 #
1.3817236581807726023099795395477e-07 58:1 89:1 163:1 294:1 524:1 566:1 681:1 682:1 683:1 62166:9 62167:44 62168:22 62169:1 #
-1.3817236581807726023099795395477e-07 10:1 143:1 294:1 430:1 592:1 692:1 717:1 718:1 719:1 720:1 721:1 722:1 723:1 724:1 725:1 62166:15 62167:93 62168:24 62169:4 #
-1.3817236581807726023099795395477e-07 2:1 19:1 78:1 85:1 172:1 267:1 392:1 423:1 549:1 1129:1 2493:1 3755:1 8658:1 62166:13 62167:47 62168:5370 62169:3 #
1.3817236581807726023099795395477e-07 58:3 86:1 138:1 139:2 143:1 172:1 290:1 297:1 791:2 999:1 1081:1 1357:1 1358:1 1719:1 3945:1 7906:1 9250:1 18268:1 20454:1 57988:1 62166:24 62167:112 62168:5363 62169:5 #
-1.3817236581807726023099795395477e-07 2:1 5:1 58:1 65:1 91:2 134:1 294:2 384:1 882:1 883:1 884:1 885:1 886:1 887:1 888:1 62165:1 62166:17 62167:62 62168:27 62169:2 #
-1.3817236581807726023099795395477e-07 7:1 93:1 163:1 294:1 295:1 884:1 43817:1 51574:1 62063:1 62166:9 62167:43 62168:5370 62169:4 #
1.3817236581807726023099795395477e-07 85:2 336:1 468:1 721:1 904:1 1133:1 1870:1 4857:1 6429:2 11023:1 30141:1 61993:1 62166:14 62167:81 62168:5359 62169:1 #
1.3817236581807726023099795395477e-07 19:1 85:1 340:1 740:1 741:1 742:4 62166:9 62167:35 62168:24 62169:1 #
-1.3817236581807726023099795395477e-07 2:1 19:2 78:1 97:1 294:1 317:1 523:1 585:1 883:1 997:1 998:1 999:1 1000:1 1001:1 1002:1 1003:1 1004:1 1005:1 1006:1 1007:1 1008:1 62166:22 62167:127 62168:32 62169:4 #
-1.3817236581807726023099795395477e-07 2:1 3:1 10:1 14:2 19:1 26:2 76:1 85:2 133:1 290:2 293:1 294:1 499:1 585:1 721:2 754:1 963:1 999:1 1084:1 1322:1 1494:1 1845:1 2180:1 3112:1 3320:1 24597:1 34429:1 36496:1 62010:1 62166:34 62167:162 62168:5363 62169:4 #
-1.3817236581807726023099795395477e-07 19:1 264:1 290:1 349:1 696:1 838:1 62166:6 62167:24 62168:25 62169:1 #
1.3817236581807726023099795395477e-07 183:1 292:1 336:1 430:1 585:1 721:1 788:1 789:1 790:1 791:1 792:1 793:1 794:1 62166:13 62167:75 62168:24 62169:1 #
1.3817236581807726023099795395477e-07 3:1 9:1 14:1 19:1 26:2 88:1 95:1 240:1 719:1 721:1 1462:1 2125:1 2977:1 3731:1 7743:1 7767:1 14392:1 17723:1 62166:19 62167:113 62168:5352 62169:1 #
-1.3817236581807726023099795395477e-07 19:1 85:1 163:1 177:1 212:1 264:1 336:1 1080:1 1715:1 2075:1 62000:1 62001:1 62002:1 62166:13 62167:59 62168:5362 62169:2 #
-1.3817236581807726023099795395477e-07 65:1 83:1 294:3 860:1 861:1 862:1 62165:1 62166:8 62167:23 62168:26 62169:2 #
1.3817236581807726023099795395477e-07 19:2 78:1 85:1 143:1 208:4 294:1 336:1 749:1 750:1 751:1 752:1 753:1 754:1 62166:17 62167:64 62168:24 62169:4 #
1.3817236581807726023099795395477e-07 7:1 14:1 58:4 78:1 85:1 89:1 91:2 93:1 172:1 185:1 257:1 294:2 340:1 470:1 497:1 883:1 884:1 961:1 1081:1 1575:1 2658:1 2824:1 3037:1 3155:1 4794:1 15208:1 61928:1 62166:32 62167:152 62168:5348 62169:6 #
-1.3817236581807726023099795395477e-07 10:3 17:1 19:1 26:2 58:3 78:1 85:1 86:1 177:1 294:2 342:1 350:1 390:1 391:1 392:1 498:1 522:1 524:1 681:2 1034:1 1319:1 1525:1 2782:1 4832:1 4972:1 18182:1 20935:1 34863:1 62166:35 62167:161 62168:5342 62169:5 #
1.3817236581807726023099795395477e-07 2:1 26:1 142:1 243:1 551:1 592:1 721:1 844:1 845:1 846:1 847:1 848:1 62166:12 62167:55 62168:26 62169:5 #
-1.3817236581807726023099795395477e-07 10:1 19:1 61:1 65:2 133:1 139:1 213:2 316:1 523:1 869:1 870:1 62166:13 62167:49 62168:27 62169:1 #
1.3817236581807726023099795395477e-07 2:1 19:1 76:1 161:1 213:1 474:1 592:1 883:1 1319:1 3565:1 6250:1 61885:1 61886:1 62166:13 62167:66 62168:5345 62169:1 #
-1.3817236581807726023099795395477e-07 10:1 19:1 26:2 58:1 178:1 180:1 208:2 217:2 257:1 294:4 316:1 317:1 342:1 350:1 423:1 721:1 844:1 957:1 2442:1 2708:1 6708:1 8663:1 27103:1 49823:1 49824:1 62166:31 62167:135 62168:4012 62169:4 #
1.3817236581807726023099795395477e-07 10:2 19:2 21:1 78:1 139:1 143:1 163:1 208:4 294:3 316:1 336:1 342:1 694:1 1030:1 1085:1 1495:1 1650:1 3688:1 7204:1 7499:2 15876:1 21254:1 22404:1 26630:2 35714:1 35715:1 35716:1 35717:1 62166:37 62167:153 62168:2599 62169:2 #
1.3817236581807726023099795395477e-07 14:1 163:1 174:1 294:3 336:1 429:2 549:2 585:1 769:2 770:2 771:1 772:2 62166:19 62167:67 62168:24 62169:9 #
-1.3817236581807726023099795395477e-07 10:2 26:2 58:2 86:1 139:2 294:1 341:1 391:1 615:1 721:1 1130:1 3776:1 7928:1 22371:1 29991:1 62166:19 62167:76 62168:4007 62169:4 #
-1.3817236581807726023099795395477e-07 65:1 904:1 905:1 906:1 907:1 62166:5 62167:19 62168:27 62169:1 #
1.3817236581807726023099795395477e-07 14:3 58:1 91:1 133:1 163:1 175:1 211:1 264:1 424:1 426:1 429:1 498:1 549:1 589:1 592:1 693:1 721:1 791:2 814:1 1033:1 1570:1 1716:1 2523:1 2783:1 2994:1 3155:1 3248:1 9135:1 10201:1 12405:1 15554:1 16985:1 62166:35 62167:176 62168:5345 62169:7 #
-1.3817236581807726023099795395477e-07 14:1 19:1 91:2 143:1 174:1 183:1 294:2 316:1 429:2 430:1 435:1 1606:1 2304:1 3874:1 4585:1 7147:1 7906:1 33788:1 49763:1 49764:1 62166:23 62167:110 62168:4003 62169:3 #
-1.3817236581807726023099795395477e-07 78:1 989:1 990:1 991:1 992:1 62166:5 62167:26 62168:29 62169:0 #
1.3817236581807726023099795395477e-07 2:2 10:2 208:2 696:1 791:1 5621:1 8481:1 13994:1 62166:11 62167:46 62168:5337 62169:1 #
-1.3817236581807726023099795395477e-07 3:1 10:1 19:1 26:1 161:1 174:1 208:2 264:2 290:1 294:1 1765:1 1868:1 5340:1 44101:1 49777:1 49778:1 62165:1 62166:18 62167:80 62168:4005 62169:5 #
1.3817236581807726023099795395477e-07 2:1 3:1 86:1 163:1 316:1 392:2 430:1 549:1 583:1 616:1 692:2 693:1 694:1 695:1 696:1 697:1 698:1 699:1 62166:20 62167:101 62168:23 62169:2 #
-1.3817236581807726023099795395477e-07 3:1 10:1 19:1 26:2 58:2 88:1 93:1 134:1 163:2 172:1 174:1 181:1 294:1 297:1 316:2 349:1 423:1 424:1 429:1 549:1 585:1 907:1 998:1 1183:1 1273:1 1598:1 2297:1 2298:1 2299:1 2300:1 2301:1 2302:1 2303:1 2304:1 2305:1 2306:1 2307:1 2308:1 62166:42 62167:189 62168:98 62169:4 #
1.3817236581807726023099795395477e-07 58:2 91:1 97:1 620:1 681:1 1319:1 2559:1 62166:8 62167:30 62168:5329 62169:2 #
-1.3817236581807726023099795395477e-07 58:1 163:1 1085:1 2936:1 21699:1 29611:1 34741:1 62166:7 62167:43 62168:3769 62169:1 #
1.3817236581807726023099795395477e-07 8:1 14:1 78:1 86:1 163:1 174:1 239:1 264:1 429:1 807:1 808:1 809:1 810:1 811:1 812:1 813:1 814:1 815:1 816:1 817:1 818:1 62166:21 62167:122 62168:25 62169:1 #
-1.3817236581807726023099795395477e-07 2:1 264:1 391:1 3354:1 4051:1 5340:1 6475:1 17333:1 20665:1 22743:1 62166:10 62167:71 62168:4001 62169:1 #
1.3817236581807726023099795395477e-07 12:1 14:1 178:1 179:1 242:1 497:1 998:1 1180:1 1181:2 1182:1 1183:1 1184:1 62165:1 62166:13 62167:75 62168:41 62169:1 #
-1.3817236581807726023099795395477e-07 5:1 14:1 91:1 93:1 139:1 161:1 174:1 185:1 290:1 294:1 316:1 721:1 1208:1 1209:1 1210:1 1211:1 1212:1 62166:17 62167:77 62168:41 62169:1 #
1.3817236581807726023099795395477e-07 10:1 14:1 19:1 58:2 78:1 85:2 91:3 143:2 213:1 257:2 293:1 316:1 592:1 721:1 1444:1 1680:1 1942:1 2234:1 2490:1 2999:1 3353:1 7146:1 12145:1 12412:1 61851:1 61852:1 61853:1 61854:1 61855:1 62166:35 62167:169 62168:5342 62169:1 #
1.3817236581807726023099795395477e-07 17:1 19:2 57:1 58:5 65:1 80:2 87:1 91:1 93:1 142:1 143:2 161:2 174:2 208:4 293:1 315:1 340:1 384:1 389:2 423:1 498:2 549:2 615:1 912:1 913:1 914:1 915:1 916:1 62166:43 62167:170 62168:27 62169:7 #
-1.3817236581807726023099795395477e-07 65:1 78:1 183:1 208:2 549:1 668:1 1082:1 1694:1 2258:1 2881:1 3179:1 6116:1 49753:1 62166:14 62167:60 62168:4001 62169:1 #
1.3817236581807726023099795395477e-07 58:1 60:1 85:1 172:1 208:2 294:1 297:1 350:1 429:1 1160:1 1161:1 1162:1 1163:1 1164:1 1165:1 62166:16 62167:76 62168:41 62169:3 #
-1.3817236581807726023099795395477e-07 10:1 65:1 426:1 1073:1 1132:1 1196:1 1197:1 1198:1 1199:1 62166:9 62167:48 62168:41 62169:1 #
1.3817236581807726023099795395477e-07 58:1 78:2 91:1 163:1 178:1 293:1 430:1 3043:1 5469:1 6174:2 13719:1 16422:1 17611:1 61805:1 62166:16 62167:70 62168:5333 62169:1 #
-1.3817236581807726023099795395477e-07 10:1 88:1 143:1 163:1 212:1 345:1 430:1 585:1 1719:1 1988:1 2709:1 2710:1 6954:1 17201:1 49721:1 62166:15 62167:72 62168:3999 62169:2 #
1.3817236581807726023099795395477e-07 58:1 78:1 294:1 470:1 498:1 2652:1 5029:1 62166:7 62167:26 62168:5308 62169:1 #
-1.3817236581807726023099795395477e-07 3:1 14:1 58:1 85:1 86:1 88:1 134:1 139:1 316:1 429:1 615:1 1081:1 1582:1 3795:1 4981:1 14336:1 17030:1 18502:1 23829:1 49683:1 62166:20 62167:93 62168:3994 62169:2 #
1.3817236581807726023099795395477e-07 78:1 93:1 264:1 294:2 297:1 861:1 1419:1 1420:1 1421:1 62166:10 62167:47 62168:55 62169:2 #
1.3817236581807726023099795395477e-07 57:1 58:2 78:1 85:1 88:2 93:1 294:2 391:1 427:1 430:1 616:1 1074:1 1320:1 1462:1 1643:1 2616:1 2618:1 2783:1 2930:1 5066:1 9098:1 34271:1 61832:1 62166:26 62167:122 62168:5337 62169:5 #
-1.3817236581807726023099795395477e-07 2:1 6:1 26:2 76:1 84:1 85:1 88:1 208:2 294:1 316:1 342:1 426:1 561:1 580:1 721:2 1269:1 1319:1 1320:1 1321:1 1322:1 62166:23 62167:95 62168:54 62169:1 #
1.3817236581807726023099795395477e-07 3:1 10:1 26:1 65:1 91:1 162:1 172:1 174:1 384:1 585:1 1133:1 1628:1 2231:1 2782:1 6362:1 13128:1 62166:16 62167:69 62168:5329 62169:1 #
-1.3817236581807726023099795395477e-07 10:1 163:1 264:1 294:1 592:1 1030:1 1525:1 1570:1 2454:1 3443:1 27787:1 62166:11 62167:53 62168:3995 62169:1 #
1.3817236581807726023099795395477e-07 3:1 6:1 7:1 10:2 14:2 58:1 78:1 89:1 91:2 163:2 721:1 1030:1 1031:1 1032:1 1033:1 1034:1 1035:1 1036:1 1037:1 1038:1 1039:1 1040:1 1041:1 1042:1 1043:1 62166:29 62167:143 62168:35 62169:1 #
-1.3817236581807726023099795395477e-07 2:1 10:1 19:2 58:2 65:2 76:1 85:1 178:1 180:1 294:2 316:1 349:1 392:2 412:1 423:2 424:1 497:1 524:1 587:1 615:2 668:1 694:1 814:1 998:3 1463:1 2442:1 2570:1 2615:1 2616:1 2617:1 2618:1 62166:40 62167:193 62168:117 62169:5 #
-1.3817236581807726023099795395477e-07 342:1 386:1 668:1 4394:1 22956:1 40010:1 49694:1 62166:7 62167:41 62168:3995 62169:1 #
1.3817236581807726023099795395477e-07 8:1 10:1 14:1 84:1 264:1 316:1 430:1 497:1 592:1 721:1 998:1 1126:1 1127:1 1128:1 1129:1 1130:1 1131:1 1132:1 1133:1 1134:1 1135:1 1136:1 1137:1 62166:23 62167:151 62168:39 62169:1 #
-1.3817236581807726023099795395477e-07 3:1 10:2 26:2 58:1 89:1 93:1 139:1 294:4 316:1 392:2 429:1 522:1 616:1 1269:1 1642:1 1643:1 1644:1 1645:1 1646:1 1647:1 1648:1 1649:1 1650:1 1651:1 62166:30 62167:138 62168:69 62169:6 #
1.3817236581807726023099795395477e-07 93:1 134:1 294:1 345:1 7420:1 61617:1 62166:6 62167:33 62168:5312 62169:1 #
-1.3817236581807726023099795395477e-07 2:1 14:1 19:1 65:1 163:1 178:1 208:2 294:1 316:1 411:1 469:1 616:1 668:1 2039:1 6778:2 49642:1 49643:1 62166:19 62167:81 62168:3989 62169:4 #
1.3817236581807726023099795395477e-07 6:2 10:2 58:1 85:1 89:1 93:1 161:1 163:1 172:1 184:1 185:1 295:1 315:1 336:1 349:1 681:1 788:1 1227:1 1228:2 1229:1 1230:1 1231:1 1232:1 1233:1 62166:27 62167:136 62168:43 62169:1 #
-1.3817236581807726023099795395477e-07 10:2 14:1 19:1 61:1 86:1 88:1 138:1 139:1 143:1 173:1 257:1 294:1 336:1 340:1 392:1 423:1 426:1 470:1 497:1 793:2 794:1 1160:1 1228:1 1444:1 1759:1 3298:1 6212:1 7222:1 7859:1 49368:1 49369:1 49370:1 62166:34 62167:188 62168:3960 62169:3 #
1.3817236581807726023099795395477e-07 2441:1 62166:1 62167:2 62168:105 62169:0 #
-1.3817236581807726023099795395477e-07 10:1 58:1 257:1 1258:1 1259:1 1260:1 1261:1 62166:7 62167:34 62168:43 62169:3 #
-1.3817236581807726023099795395477e-07 10:1 19:2 76:1 78:1 163:1 243:1 294:4 592:1 962:1 963:1 1319:1 1691:1 1898:1 3320:1 16102:1 18268:1 28941:1 29699:1 30438:1 34932:1 49546:1 49547:1 62166:26 62167:128 62168:3978 62169:20 #
1.3817236581807726023099795395477e-07 10:1 23:1 58:1 85:1 294:1 342:1 423:1 499:1 1344:1 1345:1 1346:2 62166:12 62167:54 62168:54 62169:2 #
-1.3817236581807726023099795395477e-07 10:1 58:2 97:1 134:1 143:1 184:1 208:2 342:1 426:1 499:1 549:1 670:1 838:1 1198:1 1320:1 1355:1 1356:1 1357:1 1358:1 1359:1 62166:22 62167:84 62168:54 62169:8 #
1.3817236581807726023099795395477e-07 2:1 14:1 19:1 58:1 86:1 161:1 163:2 178:1 294:1 336:1 392:1 423:1 498:1 696:1 772:1 791:2 814:1 1130:1 1643:1 3755:1 4011:1 5843:1 8566:1 14140:1 17031:1 26637:1 61796:1 62166:29 62167:139 62168:5332 62169:3 #
-1.3817236581807726023099795395477e-07 14:1 19:2 26:1 143:1 180:1 213:2 216:1 264:1 336:1 1078:1 2860:1 3043:1 3338:1 4167:1 14336:1 20538:1 49626:1 49627:1 62166:20 62167:90 62168:3986 62169:3 #
1.3817236581807726023099795395477e-07 2:1 10:1 19:1 88:1 134:1 348:1 391:1 392:1 1320:1 2454:1 2824:1 3320:1 8692:1 9967:1 11192:1 62166:15 62167:71 62168:5294 62169:1 #
-1.3817236581807726023099795395477e-07 10:2 19:1 58:1 93:1 97:1 294:9 499:1 2258:1 2304:1 2454:1 2488:1 5772:1 10270:1 49601:1 49602:1 62166:24 62167:88 62168:3983 62169:3 #
1.3817236581807726023099795395477e-07 9:1 10:2 19:2 76:1 89:1 91:1 293:1 336:1 344:1 549:1 2023:1 3473:1 3830:1 4585:1 5579:1 8692:1 9709:1 62166:19 62167:92 62168:4795 62169:1 #
1.3817236581807726023099795395477e-07 26:1 85:1 294:1 392:1 470:1 2559:1 24279:1 62166:7 62167:26 62168:5305 62169:1 #
1.3817236581807726023099795395477e-07 213:2 243:1 1430:1 1431:1 1432:1 1433:1 1434:1 1435:1 62166:9 62167:45 62168:60 62169:2 #
-1.3817236581807726023099795395477e-07 19:3 61:2 88:1 133:1 161:1 180:1 257:1 336:1 423:1 1650:1 1914:1 2618:1 2708:1 4446:1 4795:1 62166:18 62167:88 62168:3981 62169:1 #
-1.3817236581807726023099795395477e-07 19:2 26:1 78:1 85:1 174:1 294:2 318:1 336:1 670:1 1378:1 1379:1 1380:1 1381:1 1382:1 1383:1 62166:17 62167:79 62168:54 62169:2 #
1.3817236581807726023099795395477e-07 2:1 10:1 19:1 78:1 163:2 257:1 294:1 517:1 591:1 671:1 963:1 1604:1 1870:1 2074:1 3862:1 6709:1 15013:1 61749:1 62166:19 62167:97 62168:5328 62169:1 #
-1.3817236581807726023099795395477e-07 85:1 294:1 906:1 1525:1 2469:1 4763:1 62166:6 62167:27 62168:3986 62169:22 #
1.3817236581807726023099795395477e-07 11:1 19:1 58:1 76:1 84:1 85:1 93:1 174:1 180:1 243:1 290:1 294:1 336:1 423:1 668:1 1398:1 1399:1 1400:1 1401:1 62165:1 62166:19 62167:94 62168:54 62169:2 #
1.3817236581807726023099795395477e-07 58:2 88:1 163:1 178:1 426:1 499:1 2301:1 2930:1 3564:1 61680:1 61681:1 61682:1 62166:13 62167:58 62168:5319 62169:2 #
-1.3817236581807726023099795395477e-07 19:2 58:1 89:1 94:1 174:1 264:3 267:1 294:3 345:1 548:1 551:1 817:1 1462:1 1765:1 1884:2 1961:1 3755:1 3924:1 4049:1 4535:1 6196:1 15607:1 15978:2 23514:1 27587:1 49266:1 62166:33 62167:191 62168:3947 62169:4 #
1.3817236581807726023099795395477e-07 2:1 91:1 163:1 1210:1 1761:1 62166:5 62167:15 62168:72 62169:1 #
-1.3817236581807726023099795395477e-07 58:1 65:1 163:2 214:1 264:1 294:1 348:1 904:1 1444:1 1445:1 1446:1 1447:1 1448:1 1449:1 62166:15 62167:65 62168:62 62169:3 #
1.3817236581807726023099795395477e-07 10:1 14:1 65:1 78:1 163:1 174:1 499:1 549:1 562:1 1643:1 1942:1 3680:1 4294:2 5407:1 32166:1 57988:1 61725:1 62165:1 62166:18 62167:95 62168:5326 62169:3 #
-1.3817236581807726023099795395477e-07 58:1 87:1 265:1 2304:1 13342:1 20174:1 42423:1 42424:1 62166:8 62167:41 62168:3268 62169:1 #
1.3817236581807726023099795395477e-07 161:1 290:1 349:1 426:1 548:1 958:1 1462:1 1481:1 1482:1 62166:9 62167:39 62168:62 62169:29 #
-1.3817236581807726023099795395477e-07 10:1 65:1 85:1 143:1 163:1 290:1 392:1 429:2 904:1 1319:1 1597:1 1598:1 1599:1 1600:1 1601:1 1602:1 1603:1 1604:1 1605:1 1606:1 1607:1 62166:22 62167:108 62168:67 62169:2 #
1.3817236581807726023099795395477e-07 57:1 58:1 65:1 85:1 95:1 97:1 163:2 294:1 318:1 668:1 791:1 915:1 1319:1 1845:1 2977:1 4011:1 6035:1 7223:1 27185:1 29511:1 62166:21 62167:91 62168:5326 62169:12 #
1.3817236581807726023099795395477e-07 10:1 12:1 18:1 19:1 26:1 91:1 163:2 178:1 294:2 336:1 385:1 392:1 791:1 1032:1 1268:1 1269:1 1270:1 1271:1 1272:1 1273:1 1274:1 1275:1 1276:1 1277:1 1278:1 1279:1 1280:1 1281:1 1282:1 1283:1 1284:1 1285:1 62166:34 62167:185 62168:54 62169:4 #
-1.3817236581807726023099795395477e-07 27:1 58:1 97:1 916:1 2881:1 5051:1 5439:1 18069:1 49574:1 62166:9 62167:41 62168:3982 62169:4 #
-1.3817236581807726023099795395477e-07 7:1 10:1 19:1 143:1 174:1 177:1 264:2 294:4 336:1 391:1 1420:1 1495:1 1570:1 1823:1 1824:1 1825:1 1826:1 1827:1 62166:22 62167:104 62168:77 62169:2 #
-1.3817236581807726023099795395477e-07 10:1 14:1 19:1 58:1 97:1 142:1 163:2 264:2 293:1 294:2 297:1 348:1 430:1 524:1 626:1 681:1 1183:1 1355:1 1356:1 1498:1 1597:1 2057:1 2930:1 3037:2 7041:1 62166:29 62167:116 62168:3976 62169:3 #
1.3817236581807726023099795395477e-07 10:1 85:1 93:1 143:1 161:1 551:3 1074:2 1082:1 1198:1 1209:1 1462:1 1463:1 1464:1 1465:1 62166:17 62167:53 62168:62 62169:0 #
-1.3817236581807726023099795395477e-07 2:1 7:1 14:1 19:1 58:1 65:1 85:1 88:1 89:1 163:1 264:1 470:1 904:1 1448:1 1849:1 1850:1 1851:1 1852:1 1853:1 1854:1 62166:20 62167:100 62168:80 62169:6 #
1.3817236581807726023099795395477e-07 19:1 2570:1 12933:1 44370:1 61577:1 62166:5 62167:28 62168:5308 62169:2 #
-1.3817236581807726023099795395477e-07 10:1 58:2 87:2 88:1 134:1 174:1 177:1 178:1 294:2 411:1 429:1 7223:1 11627:1 35740:1 62166:17 62167:75 62168:3976 62169:4 #
1.3817236581807726023099795395477e-07 2:1 243:1 316:1 517:1 698:1 1557:1 1558:1 1559:1 1560:1 62166:9 62167:55 62168:65 62169:0 #
-1.3817236581807726023099795395477e-07 26:1 65:1 83:1 290:1 549:1 906:1 1545:1 1546:1 1547:1 1548:1 62166:10 62167:40 62168:65 62169:1 #
1.3817236581807726023099795395477e-07 3:1 19:1 61:1 83:1 139:1 162:1 264:1 294:1 592:1 1034:1 1132:1 1181:1 1523:1 1681:1 2231:1 2571:1 2710:1 8086:1 12340:1 27010:1 61706:1 62166:21 62167:142 62168:5323 62169:1 #
-1.3817236581807726023099795395477e-07 19:1 97:1 294:3 6820:1 49529:1 62166:7 62167:24 62168:3976 62169:1 #
1.3817236581807726023099795395477e-07 18:1 19:1 58:2 78:1 290:1 295:1 497:1 563:1 1557:1 1628:1 1629:1 1630:1 1631:1 62165:1 62166:14 62167:71 62168:67 62169:3 #
-1.3817236581807726023099795395477e-07 14:1 91:1 97:1 264:1 294:1 340:1 429:1 551:2 616:1 912:1 1074:1 1080:1 1523:1 1715:1 1897:1 4763:1 15841:1 24953:1 33128:1 49358:1 49359:1 62166:22 62167:109 62168:3959 62169:2 #
1.3817236581807726023099795395477e-07 2:1 17:1 668:1 1845:1 62166:4 62167:16 62168:77 62169:4 #
-1.3817236581807726023099795395477e-07 264:1 1569:2 1570:1 62166:4 62167:15 62168:65 62169:2 #
-1.3817236581807726023099795395477e-07 58:1 316:1 814:1 906:1 1574:1 1575:1 62166:6 62167:33 62168:66 62169:1 #
1.3817236581807726023099795395477e-07 19:1 58:1 85:2 91:1 93:1 134:1 264:1 294:2 341:1 345:1 349:1 391:1 523:1 585:1 953:1 963:1 1420:1 1695:1 2711:1 4049:1 4908:1 4909:1 7335:1 20270:1 20532:1 41473:1 42294:1 61689:1 61690:1 61691:1 62166:32 62167:144 62168:5322 62169:3 #
-1.3817236581807726023099795395477e-07 6:1 10:1 174:1 183:1 1444:1 7854:1 62166:6 62167:26 62168:3964 62169:1 #
1.3817236581807726023099795395477e-07 2:1 11:1 26:1 65:1 91:1 174:1 180:1 264:1 290:1 294:1 424:1 585:1 668:1 721:1 1321:1 1581:1 1582:1 1583:1 62166:18 62167:86 62168:66 62169:2 #
-1.3817236581807726023099795395477e-07 2:2 3:1 10:1 14:1 19:1 58:1 143:1 316:2 392:1 497:1 753:1 998:1 1718:1 1719:1 1802:2 2111:1 2442:1 2659:1 9098:1 9241:1 32759:1 62166:24 62167:110 62168:3954 62169:1 #
1.3817236581807726023099795395477e-07 19:1 26:1 142:1 585:1 1382:1 1680:1 1681:1 1682:1 62166:8 62167:48 62168:70 62169:1 #
1.3817236581807726023099795395477e-07 2:1 26:2 78:1 163:1 243:1 294:1 336:1 468:1 470:1 721:1 788:1 5051:1 7113:1 59427:1 62165:1 62166:15 62167:71 62168:5314 62169:1 #
-1.3817236581807726023099795395477e-07 14:1 19:3 20:1 58:2 60:1 61:1 80:1 85:1 86:1 91:1 139:1 161:1 294:3 336:1 345:1 392:1 565:1 580:1 692:1 753:1 883:1 1128:1 1132:1 2881:2 3298:1 3565:1 4049:1 6160:1 62166:34 62167:149 62168:3945 62169:4 #
1.3817236581807726023099795395477e-07 26:1 65:1 133:1 264:1 668:1 1795:1 62166:6 62167:26 62168:75 62169:2 #
-1.3817236581807726023099795395477e-07 10:1 14:1 26:1 86:1 93:1 499:1 518:1 549:1 585:1 721:1 1133:1 1779:1 1780:1 1781:1 1782:1 62166:15 62167:65 62168:74 62169:1 #
-1.3817236581807726023099795395477e-07 10:1 19:1 58:3 85:1 88:1 89:1 163:1 174:1 183:1 294:1 315:1 392:1 499:1 791:1 998:1 1030:1 1630:1 2208:1 2209:1 2210:1 2211:1 2212:1 62166:24 62167:112 62168:90 62169:4 #
-1.3817236581807726023099795395477e-07 10:1 14:1 26:1 85:1 89:1 163:3 172:1 174:1 264:1 294:2 336:1 470:1 499:1 1570:1 3074:1 4909:1 11561:1 24081:1 47625:1 49304:1 49305:1 62166:24 62167:110 62168:3951 62169:2 #
1.3817236581807726023099795395477e-07 2:1 19:1 65:1 1496:1 1650:1 1914:1 62166:6 62167:24 62168:81 62169:1 #
-1.3817236581807726023099795395477e-07 6:1 78:1 85:1 174:1 294:2 1005:1 2180:1 3178:1 3441:1 4832:1 62166:11 62167:45 62168:3518 62169:2 #
1.3817236581807726023099795395477e-07 3:1 19:2 20:1 57:1 58:2 78:1 85:1 89:1 143:1 163:1 212:1 294:2 336:1 345:1 391:1 412:1 591:1 626:1 1597:1 1681:1 1981:1 3354:1 3634:1 4231:1 6898:1 8939:1 32759:1 61671:1 62166:31 62167:140 62168:5316 62169:5 #
-1.3817236581807726023099795395477e-07 58:1 85:1 91:1 161:1 316:1 336:1 392:1 1694:1 1987:1 2057:1 2881:1 3179:1 3862:1 6116:1 9490:1 38371:1 39194:1 39195:1 62166:18 62167:99 62168:2945 62169:2 #
1.3817236581807726023099795395477e-07 7:1 91:1 93:1 142:1 163:1 264:2 315:1 592:1 999:1 1521:1 1522:1 1523:1 1524:1 1525:1 1526:1 1527:1 1528:1 62166:18 62167:107 62168:65 62169:1 #
1.3817236581807726023099795395477e-07 3:1 10:1 83:1 163:1 181:1 210:1 264:1 315:1 336:1 963:1 1604:1 2212:1 3797:1 6709:1 8881:1 25265:1 61633:1 62166:17 62167:90 62168:5314 62169:1 #
-1.3817236581807726023099795395477e-07 2:1 3:1 85:1 139:1 179:1 208:1 264:1 317:1 318:1 336:1 470:1 523:1 904:1 2860:1 16620:1 18029:1 35660:1 39171:1 62166:18 62167:86 62168:2943 62169:2 #
1.3817236581807726023099795395477e-07 65:1 84:1 133:1 386:1 549:2 668:1 1745:1 1746:1 1747:1 1748:1 62166:11 62167:61 62168:71 62169:5 #
-1.3817236581807726023099795395477e-07 8:1 10:2 19:1 58:1 84:1 88:1 143:1 213:1 392:1 423:1 721:1 906:1 1130:1 1444:2 1606:1 1920:1 1921:1 1922:1 1923:1 62166:21 62167:97 62168:82 62169:2 #
1.3817236581807726023099795395477e-07 14:1 19:1 1182:1 15462:1 16681:1 19283:1 61554:1 62166:7 62167:49 62168:5307 62169:1 #
-1.3817236581807726023099795395477e-07 2:1 19:2 65:1 85:1 336:1 668:1 3962:1 5255:1 39207:1 62166:10 62167:44 62168:2946 62169:2 #
1.3817236581807726023099795395477e-07 2:1 6:1 10:2 12:1 14:1 78:1 163:1 264:1 294:4 585:2 721:1 788:1 1084:1 1130:1 1491:1 1492:1 1493:1 1494:1 1495:1 1496:1 1497:1 1498:1 1499:1 62166:28 62167:132 62168:64 62169:1 #
-1.3817236581807726023099795395477e-07 10:1 19:1 76:1 88:1 89:2 143:1 178:1 180:2 294:2 349:3 423:1 522:1 719:2 721:1 998:1 1130:1 1398:1 1988:1 3688:2 3689:1 3690:1 3691:1 3692:1 3693:1 3694:1 3695:1 62166:33 62167:188 62168:165 62169:2 #
-1.3817236581807726023099795395477e-07 3:1 19:1 139:1 163:1 174:1 213:3 336:1 340:1 392:1 549:2 817:1 1230:2 2297:1 2301:1 2573:1 2960:1 4334:1 7836:1 39146:1 39147:1 62165:1 62166:24 62167:96 62168:2939 62169:3 #
1.3817236581807726023099795395477e-07 91:1 387:1 791:2 1269:1 1765:1 1766:1 1767:1 1768:1 1769:1 62166:10 62167:63 62168:74 62169:1 #
-1.3817236581807726023099795395477e-07 7:1 10:1 14:1 21:1 26:1 58:1 65:1 87:1 91:1 161:1 174:1 264:1 290:1 294:2 392:1 424:1 523:1 1030:1 1765:1 3443:1 3488:1 4677:1 5721:1 23462:1 25743:1 38996:1 38997:1 38998:1 38999:1 62166:30 62167:150 62168:2923 62169:27 #
1.3817236581807726023099795395477e-07 10:1 58:1 174:1 264:1 1130:1 1607:1 1868:1 1869:2 1870:1 1871:1 1872:1 62166:12 62167:57 62168:80 62169:14 #
-1.3817236581807726023099795395477e-07 58:2 61:2 163:2 174:1 208:2 290:1 294:2 426:2 499:1 1444:1 1597:2 1886:1 1887:1 62166:20 62167:70 62168:81 62169:2 #
1.3817236581807726023099795395477e-07 10:3 23:1 60:1 85:3 183:1 264:1 267:2 292:1 294:1 344:1 433:1 1496:1 2454:1 2889:1 3352:1 8964:1 15930:1 61621:1 62166:23 62167:90 62168:5313 62169:2 #
-1.3817236581807726023099795395477e-07 26:1 59:1 213:1 952:1 2208:1 3565:1 62166:6 62167:26 62168:2946 62169:5 #
1.3817236581807726023099795395477e-07 7:1 19:1 76:1 86:1 88:1 91:1 143:1 185:1 257:1 424:1 429:1 433:1 1597:1 1689:1 1690:1 1691:1 1692:1 1693:1 1694:1 1695:1 62166:20 62167:105 62168:70 62169:2 #
-1.3817236581807726023099795395477e-07 10:2 14:2 19:1 58:1 86:1 88:1 89:1 94:1 139:1 142:1 163:1 180:1 208:2 294:2 336:1 616:1 722:1 2021:1 2077:1 2258:1 2705:1 3064:1 3262:1 3355:1 8939:1 9136:1 11212:1 13909:1 31781:1 32649:1 37899:1 37900:1 37901:1 37902:1 62166:38 62167:200 62168:2822 62169:4 #
1.3817236581807726023099795395477e-07 58:1 294:1 470:1 3037:1 62166:4 62167:11 62168:130 62169:1 #
1.3817236581807726023099795395477e-07 10:2 14:2 19:4 76:2 84:1 85:2 88:1 133:1 175:1 213:1 294:1 386:1 499:1 590:1 1196:1 1228:1 1444:1 1845:1 4392:1 6316:1 8590:1 8659:1 9818:3 11706:1 14464:1 22808:1 40202:1 61592:1 61593:1 61594:1 62165:1 62166:39 62167:196 62168:5311 62169:10 #
-1.3817236581807726023099795395477e-07 10:1 58:2 134:1 161:1 257:1 426:1 592:1 668:1 1692:1 3279:1 5638:1 39139:1 39140:1 62166:14 62167:71 62168:2937 62169:5 #
1.3817236581807726023099795395477e-07 6:1 14:2 134:1 162:1 184:1 264:1 267:1 290:1 293:1 294:5 316:1 389:1 429:1 814:1 1081:1 1198:1 1359:1 1715:1 1716:1 1717:2 1718:1 1719:1 1720:1 62166:29 62167:133 62168:70 62169:4 #
-1.3817236581807726023099795395477e-07 19:1 85:1 143:1 161:2 243:1 294:1 317:1 586:1 1941:1 1942:1 1943:1 1944:1 1945:1 62166:14 62167:62 62168:83 62169:1 #
1.3817236581807726023099795395477e-07 10:1 19:1 78:1 91:1 163:1 172:1 174:1 236:1 290:1 616:1 1827:1 2658:1 2684:1 18264:1 52090:1 56738:1 61545:1 62166:17 62167:89 62168:5306 62169:1 #
-1.3817236581807726023099795395477e-07 14:2 58:1 499:1 7854:1 25955:1 39161:1 39162:1 39163:1 62166:9 62167:42 62168:2942 62169:1 #
1.3817236581807726023099795395477e-07 6:1 10:1 19:1 21:1 59:1 143:1 561:1 585:2 616:1 693:1 721:2 814:1 1133:1 1597:1 1800:1 1801:1 1802:1 1803:1 1804:1 1805:1 62166:22 62167:127 62168:75 62169:1 #
1.3817236581807726023099795395477e-07 17:1 58:1 65:1 85:1 134:1 174:1 290:1 497:1 615:1 963:1 1133:2 30467:1 62166:13 62167:50 62168:5298 62169:2 #
-1.3817236581807726023099795395477e-07 2:1 65:1 350:1 384:1 1081:1 1559:1 15415:1 30236:1 41425:1 62166:9 62167:45 62168:3167 62169:3 #
1.3817236581807726023099795395477e-07 2:1 10:1 85:1 163:1 294:1 474:1 517:1 550:1 551:1 583:1 616:1 906:1 1896:1 1897:1 1898:1 1899:1 1900:1 62166:17 62167:73 62168:81 62169:2 #
1.3817236581807726023099795395477e-07 26:1 65:1 294:1 391:1 392:1 426:1 2442:1 29836:1 61144:1 62166:9 62167:30 62168:5264 62169:3 #
-1.3817236581807726023099795395477e-07 8:1 10:1 65:1 174:1 178:1 499:1 869:1 904:1 14925:1 16478:1 39124:1 62166:11 62167:55 62168:2934 62169:1 #
1.3817236581807726023099795395477e-07 2:1 10:1 19:1 85:1 86:1 163:1 294:1 318:1 412:1 580:1 616:1 722:1 723:1 1034:1 1958:1 1959:1 1960:1 1961:1 1962:1 62166:19 62167:90 62168:84 62169:1 #
-1.3817236581807726023099795395477e-07 3:1 19:1 57:1 58:3 86:1 91:1 161:1 174:1 180:1 208:2 294:3 336:3 793:2 813:1 1126:1 1398:1 3248:1 3405:1 4693:1 5198:1 8623:1 8624:1 8625:1 8626:1 8627:2 8628:1 8629:1 8630:1 8631:1 62166:38 62167:200 62168:429 62169:8 #
1.3817236581807726023099795395477e-07 65:1 54635:1 62166:2 62167:5 62168:4599 62169:1 #
-1.3817236581807726023099795395477e-07 58:1 60:2 85:1 295:1 4207:2 8566:1 62166:8 62167:32 62168:2934 62169:1 #
1.3817236581807726023099795395477e-07 14:1 19:1 23:1 26:2 91:1 97:1 134:1 143:2 172:1 179:1 185:1 257:1 294:2 350:1 549:1 813:1 992:1 1081:1 1583:1 1978:1 1979:1 1980:1 1981:1 1982:1 1983:1 1984:1 1985:1 1986:1 1987:1 1988:1 1989:1 62165:1 62166:34 62167:162 62168:85 62169:7 #
-1.3817236581807726023099795395477e-07 14:1 91:1 163:2 183:1 294:1 316:1 336:1 392:1 592:1 1319:1 1691:1 2119:1 2235:1 4170:1 4811:1 5297:1 5298:1 6118:1 9307:1 22371:1 39051:1 39052:1 62166:23 62167:105 62168:2928 62169:0 #
1.3817236581807726023099795395477e-07 65:1 133:1 180:1 213:1 345:1 384:1 550:1 1719:1 2023:1 2053:1 2054:1 2055:1 2056:1 2057:1 62166:14 62167:74 62168:87 62169:19 #
-1.3817236581807726023099795395477e-07 19:1 27:1 59:1 78:1 163:1 294:2 524:1 1629:1 2034:1 2035:1 2036:1 2037:1 2038:1 2039:1 62166:15 62167:86 62168:86 62169:3 #
1.3817236581807726023099795395477e-07 14:1 19:1 26:1 58:1 78:1 85:2 243:1 350:1 517:1 626:1 681:1 961:1 1034:1 1606:1 1767:1 2020:2 2072:1 14244:1 62166:20 62167:86 62168:5305 62169:1 #
-1.3817236581807726023099795395477e-07 14:1 19:1 294:4 393:1 565:1 3354:1 10735:1 23135:1 39097:1 39098:1 62166:13 62167:60 62168:2933 62169:0 #
1.3817236581807726023099795395477e-07 2:2 14:1 20:1 26:2 88:1 163:1 179:1 290:1 293:1 294:1 392:1 721:1 844:1 1607:1 1765:1 2037:1 2125:1 2126:1 2127:1 62166:21 62167:100 62168:88 62169:3 #
-1.3817236581807726023099795395477e-07 10:1 14:1 93:1 175:2 294:3 297:1 391:1 1034:1 2616:2 3441:1 5776:1 39073:1 62166:16 62167:79 62168:2929 62169:3 #
1.3817236581807726023099795395477e-07 97:1 813:1 907:1 1006:1 2409:2 2410:1 62166:7 62167:37 62168:103 62169:2 #
-1.3817236581807726023099795395477e-07 10:1 14:1 26:3 58:2 85:1 86:1 217:1 294:2 350:1 430:1 499:1 524:1 817:1 838:1 882:1 1081:1 1559:1 2708:1 3406:1 12030:1 62166:24 62167:97 62168:2924 62169:3 #
1.3817236581807726023099795395477e-07 2:1 65:1 318:1 426:1 561:1 1496:1 2352:1 2353:1 2354:1 2355:1 62166:10 62167:53 62168:100 62169:2 #
-1.3817236581807726023099795395477e-07 19:1 22:1 26:2 60:1 61:1 134:1 174:1 294:1 498:1 2020:1 2021:1 2022:1 2023:1 62166:14 62167:62 62168:85 62169:0 #
-1.3817236581807726023099795395477e-07 7:1 76:3 86:1 134:1 139:2 184:1 294:1 317:2 336:1 349:1 392:1 1958:1 2380:1 2469:1 2515:1 2516:1 2517:1 2518:1 2519:1 2520:1 2521:1 2522:1 2523:1 2524:1 2525:1 62166:29 62167:150 62168:115 62169:2 #
-1.3817236581807726023099795395477e-07 85:1 93:1 265:1 294:1 316:1 392:1 498:1 721:1 1133:1 1961:1 39089:1 62166:11 62167:52 62168:2930 62169:1 #
1.3817236581807726023099795395477e-07 7:1 8:1 65:1 93:1 163:1 236:1 237:1 257:1 336:1 385:1 390:1 430:1 1681:1 1987:1 2156:1 2157:1 2158:1 2159:1 2160:1 62166:19 62167:112 62168:89 62169:1 #
1.3817236581807726023099795395477e-07 10:1 14:1 19:1 26:1 84:2 85:2 178:1 208:2 213:1 386:1 522:1 615:1 721:1 788:1 1198:1 1320:1 2786:1 5050:1 61516:1 62166:22 62167:100 62168:5304 62169:3 #
-1.3817236581807726023099795395477e-07 26:1 58:2 212:1 1130:1 3043:1 39094:1 62166:7 62167:27 62168:2931 62169:2 #
1.3817236581807726023099795395477e-07 10:1 19:1 58:2 85:1 163:1 172:1 178:1 214:1 293:1 294:1 392:1 548:1 1130:1 1870:1 2229:1 2230:2 2231:1 2232:1 2233:1 2234:1 2235:1 2236:1 62166:24 62167:100 62168:91 62169:3 #
-1.3817236581807726023099795395477e-07 26:1 65:2 85:1 97:1 162:1 208:2 213:1 290:1 386:1 549:1 1320:1 1525:1 2145:1 2146:1 62166:16 62167:49 62168:88 62169:3 #
1.3817236581807726023099795395477e-07 10:1 19:2 26:2 86:1 721:1 3113:1 5362:1 22316:1 61453:2 62166:12 62167:52 62168:5297 62169:1 #
-1.3817236581807726023099795395477e-07 26:1 88:1 294:3 721:1 791:1 1074:1 1981:1 2125:1 6898:1 39042:1 39043:1 39044:1 62166:14 62167:54 62168:2926 62169:2 #
1.3817236581807726023099795395477e-07 6:1 8:1 10:1 12:1 14:1 23:1 78:1 83:1 161:1 178:1 183:1 213:1 293:1 294:1 297:1 336:1 619:1 625:1 1382:1 2022:1 2178:1 2179:1 2180:1 2181:1 2182:1 2183:1 2184:1 62166:27 62167:137 62168:90 62169:2 #
-1.3817236581807726023099795395477e-07 3:1 14:1 18:1 19:1 78:1 83:1 85:1 91:1 179:1 185:1 294:2 316:1 392:1 427:1 591:1 592:1 682:1 696:1 904:1 1030:1 2618:1 3443:1 4493:1 4494:1 4495:1 4496:1 4497:1 4498:1 62166:29 62167:190 62168:207 62169:3 #
1.3817236581807726023099795395477e-07 336:1 389:1 585:1 1779:1 60520:1 62166:5 62167:24 62168:5185 62169:1 #
-1.3817236581807726023099795395477e-07 2:1 14:1 26:1 143:1 294:1 341:1 592:1 1462:1 1496:1 3037:1 3406:1 5353:1 7147:1 7538:1 8282:1 39021:1 62166:16 62167:62 62168:2924 62169:6 #
1.3817236581807726023099795395477e-07 65:1 236:1 237:1 257:1 385:1 2342:1 2343:1 2344:1 2345:1 62166:9 62167:62 62168:99 62169:2 #
-1.3817236581807726023099795395477e-07 10:4 14:1 19:1 26:1 58:3 88:1 91:1 143:1 178:1 294:3 295:1 391:1 392:1 412:1 424:1 522:1 722:1 882:1 1083:1 1444:1 2229:1 2352:1 2490:1 4596:1 14408:1 14925:1 16752:1 21979:1 26027:1 38092:1 38093:1 38094:1 62165:1 62166:39 62167:189 62168:2838 62169:5 #
1.3817236581807726023099795395477e-07 2:1 3:1 163:1 2570:1 3093:1 62166:5 62167:22 62168:136 62169:1 #
-1.3817236581807726023099795395477e-07 58:1 91:1 470:1 549:1 1715:1 1719:1 1782:1 2111:1 62166:8 62167:28 62168:87 62169:2 #
1.3817236581807726023099795395477e-07 23:1 58:4 85:1 88:1 91:1 134:1 180:1 184:1 294:2 336:1 392:1 426:1 616:1 721:1 912:1 1041:1 1160:1 2231:1 2519:1 3155:1 5066:2 6134:1 20887:1 62166:28 62167:122 62168:5305 62169:6 #
-1.3817236581807726023099795395477e-07 19:1 78:1 97:1 294:1 549:1 550:1 551:1 907:1 1382:1 1462:1 1643:1 11481:1 62166:12 62167:41 62168:2924 62169:1 #
1.3817236581807726023099795395477e-07 2:1 6:1 19:5 58:2 60:1 93:2 143:3 163:1 179:1 237:2 294:3 336:2 390:1 391:1 591:1 2070:2 2071:1 2072:2 2073:2 2074:1 2075:1 2076:1 2077:1 2078:1 2079:1 2080:1 62166:41 62167:195 62168:87 62169:4 #
-1.3817236581807726023099795395477e-07 6:1 10:1 23:1 89:1 97:1 163:1 180:2 290:1 294:4 426:1 592:1 668:1 814:1 1133:1 1160:1 1643:1 1645:1 2519:1 6212:1 6855:1 7147:1 7767:1 10658:1 14528:1 23462:1 38792:1 38793:1 62166:31 62167:154 62168:2902 62169:5 #
-1.3817236581807726023099795395477e-07 10:1 14:1 19:1 76:2 77:1 85:1 86:1 97:1 294:3 340:1 349:2 1126:1 1765:1 1984:1 2039:1 2518:1 3056:1 3298:1 4677:1 4693:1 6541:1 7735:1 8712:1 12969:1 13700:1 29132:1 37666:1 37667:1 37668:1 37669:1 62166:34 62167:197 62168:2806 62169:5 #
1.3817236581807726023099795395477e-07 85:1 294:1 498:1 3063:1 3064:1 3065:1 62166:6 62167:25 62168:134 62169:1 #
-1.3817236581807726023099795395477e-07 2:1 65:2 668:1 2118:1 2119:1 62166:6 62167:19 62168:87 62169:2 #
1.3817236581807726023099795395477e-07 10:3 14:1 19:2 61:1 78:2 80:1 180:1 183:1 294:2 392:1 430:1 521:1 616:1 1920:1 2443:1 3195:1 4206:1 4728:1 5932:1 8786:1 9983:1 14869:1 14897:1 18943:1 61476:1 61477:1 62166:31 62167:151 62168:5300 62169:3 #
-1.3817236581807726023099795395477e-07 10:1 14:1 19:2 24:1 26:1 85:1 210:1 336:1 585:1 1128:1 6360:1 6961:1 10815:1 14036:1 17700:1 31815:1 38935:1 38936:1 62166:19 62167:102 62168:2919 62169:2 #
1.3817236581807726023099795395477e-07 85:1 178:1 336:1 392:1 585:1 616:1 1583:1 2380:2 2381:1 2382:1 2383:1 62165:1 62166:12 62167:58 62168:100 62169:19 #
1.3817236581807726023099795395477e-07 10:1 80:1 139:1 208:2 242:1 1642:1 6291:1 28768:1 61369:1 62166:10 62167:53 62168:5284 62169:1 #
-1.3817236581807726023099795395477e-07 58:2 85:1 86:1 88:1 89:1 143:1 161:1 163:1 174:1 185:1 217:1 294:3 336:1 423:1 424:2 887:1 1988:1 2301:1 2305:1 4691:1 62166:24 62167:88 62168:2920 62169:2 #
1.3817236581807726023099795395477e-07 19:2 26:2 97:1 163:2 592:3 721:2 1979:1 2263:1 2264:1 2265:1 2266:1 2267:1 2268:1 2269:1 2270:1 2271:1 2272:1 2273:1 62166:24 62167:117 62168:96 62169:0 #
-1.3817236581807726023099795395477e-07 10:1 19:2 78:1 85:3 86:1 91:1 178:1 293:1 294:2 345:2 392:1 616:1 721:1 753:1 2704:1 2705:1 2706:1 2707:1 2708:1 2709:1 2710:1 2711:1 2712:1 62165:1 62166:28 62167:113 62168:118 62169:2 #
1.3817236581807726023099795395477e-07 133:1 134:1 143:1 163:1 2301:1 2304:1 44617:1 61410:1 61411:1 61412:1 62166:10 62167:61 62168:5291 62169:0 #
-1.3817236581807726023099795395477e-07 143:1 161:1 163:1 294:6 318:1 344:1 1084:1 1630:1 4011:1 6105:1 7070:1 8001:1 9115:1 62166:18 62167:71 62168:2920 62169:4 #
1.3817236581807726023099795395477e-07 10:1 61:1 65:1 134:1 175:1 294:1 349:1 423:1 426:1 499:1 1198:1 1719:1 2364:1 2365:1 2366:1 2367:1 62166:16 62167:83 62168:100 62169:2 #
-1.3817236581807726023099795395477e-07 2:1 65:1 83:1 93:1 163:1 174:1 210:1 236:1 237:1 264:1 392:1 1643:1 3442:1 4797:1 62166:14 62167:59 62168:2920 62169:3 #
1.3817236581807726023099795395477e-07 19:1 134:1 142:1 212:1 293:1 294:1 1180:1 1719:1 2416:1 2417:1 2418:1 2419:1 62166:12 62167:66 62168:104 62169:2 #
-1.3817236581807726023099795395477e-07 26:3 65:1 78:1 94:1 290:1 497:1 561:1 585:1 626:1 788:1 1492:1 2020:1 2298:1 24653:1 62166:16 62167:84 62168:2919 62169:1 #
1.3817236581807726023099795395477e-07 91:1 174:1 294:1 813:1 998:1 1765:1 2442:1 2443:1 2444:1 62166:9 62167:45 62168:105 62169:1 #
-1.3817236581807726023099795395477e-07 58:2 93:1 294:1 316:2 340:1 392:1 423:2 2258:1 62166:11 62167:48 62168:91 62169:2 #
1.3817236581807726023099795395477e-07 14:1 19:1 85:2 208:1 336:1 549:1 670:1 1005:1 1597:2 1850:1 2735:1 4767:1 6680:1 16175:1 17874:1 22956:1 49627:1 61418:1 61419:1 61420:1 62166:22 62167:107 62168:5294 62169:3 #
-1.3817236581807726023099795395477e-07 19:1 97:1 991:1 992:1 3797:1 16227:1 38913:1 38914:1 62166:8 62167:44 62168:2915 62169:3 #
1.3817236581807726023099795395477e-07 10:1 65:1 83:1 133:1 265:1 294:3 429:1 1604:1 1606:1 1845:1 2452:1 2453:1 2454:1 2455:1 62166:16 62167:64 62168:107 62169:4 #
-1.3817236581807726023099795395477e-07 2:1 10:1 19:1 85:1 143:1 163:1 208:2 349:1 426:1 681:1 991:1 992:1 1319:1 1719:1 2234:1 2573:1 3093:1 5390:1 8222:1 12664:1 38879:1 62166:22 62167:91 62168:2912 62169:2 #
1.3817236581807726023099795395477e-07 19:1 336:1 1378:1 1680:1 2479:1 2480:1 2481:1 2482:1 62166:8 62167:47 62168:109 62169:1 #
-1.3817236581807726023099795395477e-07 208:2 7499:1 15231:1 15233:1 15234:1 47863:1 47864:1 62166:8 62167:41 62168:3800 62169:1 #
-1.3817236581807726023099795395477e-07 2:1 19:1 65:2 78:1 97:1 236:1 260:1 294:1 348:1 3298:1 4595:1 7310:1 62166:13 62167:53 62168:2913 62169:2 #
1.3817236581807726023099795395477e-07 86:1 429:1 1650:1 2023:1 2559:1 2560:1 2561:1 2562:1 62166:8 62167:49 62168:115 62169:2 #
1.3817236581807726023099795395477e-07 58:1 83:1 93:1 161:1 172:1 294:3 429:1 561:1 963:1 1128:1 2301:1 12072:1 62166:14 62167:54 62168:5283 62169:2 #
-1.3817236581807726023099795395477e-07 58:1 88:1 91:1 134:1 294:2 1358:1 1607:1 2297:1 4145:1 6048:1 9115:1 27879:1 62166:13 62167:56 62168:2912 62169:3 #
1.3817236581807726023099795395477e-07 20:1 58:1 60:1 134:1 139:1 178:1 318:1 524:1 953:1 1430:1 62166:10 62167:50 62168:115 62169:2 #
-1.3817236581807726023099795395477e-07 58:1 134:1 174:1 178:1 590:1 615:1 616:1 2394:1 62166:8 62167:36 62168:101 62169:2 #
1.3817236581807726023099795395477e-07 14:1 19:1 58:2 94:1 142:1 143:2 161:1 180:1 290:1 294:1 336:1 433:1 497:1 817:1 847:1 961:1 1462:1 1496:1 1629:1 1779:1 2234:1 2652:1 4966:1 7929:2 60917:1 61391:1 61392:1 62166:30 62167:159 62168:5288 62169:4 #
-1.3817236581807726023099795395477e-07 76:1 91:1 294:1 336:1 723:1 1546:1 4012:1 21229:1 62166:8 62167:39 62168:2912 62169:1 #
1.3817236581807726023099795395477e-07 10:2 14:1 19:2 78:2 85:1 91:2 336:1 670:1 1133:1 1355:1 1356:1 1604:1 2488:1 2489:1 2490:1 2491:1 2492:1 2493:1 2494:1 2495:1 2496:1 62166:25 62167:122 62168:111 62169:1 #
1.3817236581807726023099795395477e-07 19:1 78:1 174:1 1629:1 39342:1 62166:5 62167:19 62168:5073 62169:1 #
-1.3817236581807726023099795395477e-07 9:1 58:2 80:1 86:1 294:2 316:1 348:1 350:1 392:1 423:1 615:1 1716:1 2231:1 5638:1 8556:1 33077:1 38820:1 38821:1 62166:20 62167:104 62168:2904 62169:4 #
1.3817236581807726023099795395477e-07 2:1 61:1 1126:1 2735:1 2736:1 2737:1 2738:1 62166:7 62167:41 62168:119 62169:1 #
-1.3817236581807726023099795395477e-07 7:1 14:1 19:2 174:1 239:1 242:2 293:1 340:1 517:1 813:1 4585:1 5323:1 14825:1 18287:1 38779:1 38780:1 38781:1 62166:19 62167:96 62168:2900 62169:1 #
1.3817236581807726023099795395477e-07 58:1 61:1 80:1 175:1 615:1 722:1 869:1 1681:1 2658:1 2659:1 2660:1 62166:11 62167:61 62168:117 62169:1 #
-1.3817236581807726023099795395477e-07 78:1 91:1 93:1 264:1 297:1 2398:1 2399:1 2400:1 2401:1 2402:1 62166:10 62167:55 62168:103 62169:1 #
1.3817236581807726023099795395477e-07 3:1 522:1 616:1 814:1 958:1 1132:1 4208:1 11825:1 16079:1 62166:9 62167:65 62168:5280 62169:1 #
-1.3817236581807726023099795395477e-07 10:1 58:2 85:1 163:1 721:1 1130:1 1183:1 3037:1 38873:1 38874:1 62166:11 62167:35 62168:2911 62169:3 #
1.3817236581807726023099795395477e-07 9:1 19:1 212:1 294:1 2496:1 2570:1 2571:1 2572:1 2573:1 2574:1 2575:1 62166:11 62167:72 62168:115 62169:3 #
-1.3817236581807726023099795395477e-07 10:3 14:2 58:3 65:2 78:1 85:1 86:1 89:1 91:1 134:1 142:1 163:2 174:1 178:1 290:1 294:1 316:1 317:1 384:1 429:2 497:1 548:1 615:1 904:1 1164:1 1180:1 1198:1 1430:1 1498:1 1716:1 1782:1 1959:1 1988:1 2258:1 2826:1 3126:1 3298:1 6383:1 13201:1 17872:1 17873:1 17874:1 62166:50 62167:200 62168:1091 62169:12 #
1.3817236581807726023099795395477e-07 294:1 62166:1 62167:1 62168:4045 62169:0 #
-1.3817236581807726023099795395477e-07 58:1 93:1 470:1 814:1 14825:1 46355:1 62166:6 62167:31 62168:3652 62169:2 #
1.3817236581807726023099795395477e-07 19:1 26:1 58:2 76:1 83:1 86:1 87:1 174:1 294:1 295:1 315:1 336:1 426:1 592:3 693:1 904:1 1230:1 2594:1 2595:1 2596:1 2597:1 2598:1 62166:25 62167:118 62168:117 62169:7 #
-1.3817236581807726023099795395477e-07 257:1 294:2 592:1 961:1 1135:1 1462:1 1481:1 1681:1 2710:1 3112:1 4473:1 5734:1 6938:1 13809:1 21260:1 38694:1 38695:1 62166:18 62167:97 62168:2893 62169:2 #
1.3817236581807726023099795395477e-07 58:1 65:1 178:1 183:1 426:1 585:1 1601:1 2873:1 62166:8 62167:36 62168:126 62169:2 #
-1.3817236581807726023099795395477e-07 93:1 264:1 294:1 344:1 390:1 391:1 392:1 615:1 998:1 1845:1 2431:1 62166:11 62167:52 62168:104 62169:3 #
1.3817236581807726023099795395477e-07 3:1 19:1 26:1 57:1 58:1 85:1 91:1 93:1 94:1 143:1 294:2 336:1 340:1 385:1 426:1 1030:1 1084:1 1645:1 3354:1 4011:1 8876:1 9930:1 27385:1 36706:1 48556:1 61376:1 61377:1 62166:28 62167:143 62168:5286 62169:5 #
-1.3817236581807726023099795395477e-07 10:1 257:1 294:1 1444:1 5182:1 6253:1 62166:6 62167:23 62168:2902 62169:1 #
-1.3817236581807726023099795395477e-07 2:3 8:1 12:1 14:1 19:3 59:1 78:1 85:2 91:1 214:1 294:2 386:1 581:1 957:1 1135:1 1196:1 3128:1 3887:1 3888:1 3889:1 3890:1 3891:1 3892:1 3893:1 3894:1 62166:31 62167:156 62168:172 62169:5 #
1.3817236581807726023099795395477e-07 85:1 267:1 294:1 429:1 616:1 4446:1 33419:1 60996:1 62166:8 62167:36 62168:5248 62169:2 #
-1.3817236581807726023099795395477e-07 10:1 19:1 58:1 88:1 142:1 174:1 336:1 882:1 1481:1 1606:1 2594:1 7255:1 62165:1 62166:12 62167:51 62168:2897 62169:1 #
1.3817236581807726023099795395477e-07 3:1 10:2 26:1 78:1 88:1 161:1 174:1 294:2 429:1 499:1 722:1 813:1 1130:1 1605:1 1681:1 1765:1 2682:1 2683:1 2684:1 62165:1 62166:21 62167:101 62168:118 62169:2 #
-1.3817236581807726023099795395477e-07 10:1 14:2 19:1 61:1 76:1 80:1 85:2 133:1 180:1 294:2 340:1 342:1 349:1 389:1 497:1 615:1 998:2 1228:1 1430:1 1630:1 1719:1 1845:1 2210:1 2352:1 2380:1 3113:1 7269:1 8083:1 16624:1 38010:1 38011:1 62166:35 62167:175 62168:2835 62169:5 #
1.3817236581807726023099795395477e-07 58:1 316:1 4202:1 62166:3 62167:16 62168:183 62169:1 #
-1.3817236581807726023099795395477e-07 10:1 26:1 65:1 264:1 497:1 721:1 914:1 2442:1 2467:1 2468:1 2469:1 62166:11 62167:47 62168:107 62169:1 #
1.3817236581807726023099795395477e-07 8:1 10:3 14:3 20:1 78:1 86:1 139:1 163:2 348:1 499:1 1084:1 1495:2 1604:1 1944:1 2021:1 3460:1 4011:1 4228:1 10878:1 10879:1 15388:1 16020:1 62166:28 62167:134 62168:5279 62169:2 #
-1.3817236581807726023099795395477e-07 10:2 19:1 58:1 174:2 290:1 294:2 423:2 474:1 561:1 585:1 668:1 912:1 998:1 1182:1 1198:1 1358:1 2652:1 37901:1 62165:1 62166:22 62167:98 62168:2889 62169:2 #
1.3817236581807726023099795395477e-07 23:1 58:1 85:1 87:1 134:1 294:2 1081:1 1643:1 1779:1 1943:1 2126:1 2812:1 2813:1 62166:14 62167:67 62168:122 62169:2 #
-1.3817236581807726023099795395477e-07 3:1 14:1 19:1 21:2 85:1 88:1 91:4 133:1 294:2 699:1 1546:2 1801:1 1920:1 2813:4 4011:1 4317:2 4692:1 7779:1 19353:1 38027:3 62166:32 62167:172 62168:2835 62169:2 #
1.3817236581807726023099795395477e-07 183:1 208:2 2977:1 3623:1 3624:1 3625:1 3626:1 62166:8 62167:29 62168:160 62169:1 #
-1.3817236581807726023099795395477e-07 2:1 65:1 213:1 2554:1 2555:1 62166:5 62167:17 62168:115 62169:1 #
1.3817236581807726023099795395477e-07 10:1 14:1 19:1 26:1 58:2 83:2 89:1 161:3 165:1 174:1 208:2 257:1 264:2 290:1 294:8 297:2 423:1 589:1 616:1 814:1 2766:1 8750:1 8939:1 10700:1 27172:1 61273:1 62166:40 62167:148 62168:5277 62169:4 #
-1.3817236581807726023099795395477e-07 19:1 91:1 97:1 132:1 133:1 136:1 137:1 8529:1 38653:1 62166:9 62167:43 62168:2887 62169:0 #
1.3817236581807726023099795395477e-07 10:1 14:1 19:1 85:2 91:2 134:1 208:4 294:2 296:1 497:1 498:1 722:1 791:1 1084:1 1321:1 2561:1 2782:1 2783:1 2784:1 2785:1 2786:1 2787:1 62166:28 62167:108 62168:122 62169:2 #
1.3817236581807726023099795395477e-07 178:1 294:1 693:1 1128:1 2454:2 2938:1 61224:1 62166:8 62167:46 62168:5274 62169:1 #
-1.3817236581807726023099795395477e-07 14:1 19:1 57:1 58:1 65:1 163:2 172:1 264:1 297:1 429:1 696:1 1597:1 4350:1 7836:1 8111:1 9365:1 62166:17 62167:69 62168:2886 62169:2 #
1.3817236581807726023099795395477e-07 19:2 26:2 78:1 88:1 95:1 257:1 586:1 721:1 814:1 1444:1 2881:1 62166:13 62167:60 62168:126 62169:1 #
-1.3817236581807726023099795395477e-07 58:1 65:1 78:1 91:1 183:1 236:1 341:1 426:1 523:1 525:1 615:1 1525:1 1765:1 1872:1 2231:1 2669:1 62166:16 62167:75 62168:118 62169:5 #
-1.3817236581807726023099795395477e-07 65:1 143:1 549:1 883:1 1355:1 1356:1 1823:1 6430:1 22239:1 62166:9 62167:41 62168:2887 62169:1 #
1.3817236581807726023099795395477e-07 10:1 26:1 65:2 78:1 174:2 316:1 392:1 549:2 1521:1 1558:1 1782:1 1942:1 2824:2 2825:1 2826:1 2827:1 2828:1 2829:1 2830:1 2831:1 2832:1 62166:25 62167:106 62168:124 62169:7 #
1.3817236581807726023099795395477e-07 2:1 10:2 65:1 143:1 267:1 497:1 1180:2 1961:1 7020:1 21612:1 61186:1 62165:1 62166:13 62167:59 62168:5271 62169:2 #
-1.3817236581807726023099795395477e-07 26:2 81:1 88:1 89:1 163:1 293:1 393:1 423:1 721:1 1184:1 1680:1 7852:1 18999:1 32568:1 62166:15 62167:85 62168:2885 62169:1 #
1.3817236581807726023099795395477e-07 83:1 172:1 294:1 561:1 1128:1 2301:1 2908:1 2909:1 2910:1 62166:9 62167:46 62168:127 62169:3 #
-1.3817236581807726023099795395477e-07 58:1 93:1 294:2 498:2 2651:1 2652:1 62166:8 62167:38 62168:117 62169:2 #
1.3817236581807726023099795395477e-07 3:1 10:1 14:1 27:1 133:1 142:1 163:1 293:1 517:1 698:1 722:1 838:1 904:1 1559:1 2126:1 2381:1 2996:1 5197:1 15820:1 39182:1 61282:1 62166:21 62167:112 62168:5278 62169:1 #
-1.3817236581807726023099795395477e-07 19:1 163:1 294:3 316:1 390:1 391:1 392:1 813:1 912:1 2659:1 5638:1 24590:1 38627:1 38628:1 62166:16 62167:65 62168:2885 62169:4 #
1.3817236581807726023099795395477e-07 2:1 80:1 88:1 89:1 163:1 336:2 844:1 1084:1 2855:1 2856:1 2857:1 2858:1 2859:1 2860:1 62166:15 62167:75 62168:126 62169:1 #
-1.3817236581807726023099795395477e-07 14:2 58:2 85:1 86:2 91:1 93:1 134:1 172:1 174:2 178:1 208:2 236:1 237:1 257:1 294:4 423:1 616:1 721:2 791:1 883:2 884:2 887:2 2783:1 2934:1 2938:1 3688:1 6212:1 14106:1 17734:1 29017:1 62166:42 62167:163 62168:2810 62169:4 #
1.3817236581807726023099795395477e-07 2:1 163:1 3614:1 3615:1 62166:4 62167:28 62168:160 62169:1 #
-1.3817236581807726023099795395477e-07 10:1 26:1 88:1 257:1 721:1 961:1 2111:1 2698:1 62166:8 62167:40 62168:118 62169:1 #
-1.3817236581807726023099795395477e-07 58:1 91:1 549:1 882:1 1782:1 2023:1 4039:1 62166:7 62167:31 62168:2886 62169:1 #
1.3817236581807726023099795395477e-07 2:1 19:2 58:1 76:1 84:1 88:1 133:1 183:1 213:1 297:1 315:1 692:1 883:1 957:1 998:1 1496:1 1526:1 1958:1 2889:1 62166:20 62167:90 62168:126 62169:2 #
-1.3817236581807726023099795395477e-07 58:2 97:1 163:1 185:1 208:2 213:1 424:1 549:1 670:1 814:1 1078:1 1320:1 2745:1 62166:15 62167:58 62168:120 62169:5 #
1.3817236581807726023099795395477e-07 139:1 243:1 264:1 294:3 297:1 549:1 885:1 904:2 1607:1 4334:1 34660:1 61181:1 62166:15 62167:71 62168:5270 62169:4 #
-1.3817236581807726023099795395477e-07 26:1 142:1 163:1 184:1 389:1 721:1 2442:1 3178:1 62166:8 62167:37 62168:2885 62169:1 #
1.3817236581807726023099795395477e-07 75:1 83:1 91:1 139:1 317:1 2658:1 2786:1 2881:1 2919:1 2920:1 62166:10 62167:55 62168:129 62169:0 #
-1.3817236581807726023099795395477e-07 2:1 3:1 23:1 26:1 65:1 88:2 95:1 163:2 165:1 178:1 257:1 294:1 336:1 426:1 497:1 952:1 998:1 3126:1 3776:1 4127:1 6035:1 6291:1 17800:1 36973:1 38470:1 38471:1 38472:1 62166:29 62167:139 62168:2865 62169:2 #
1.3817236581807726023099795395477e-07 143:1 3724:1 3725:1 3726:1 62166:4 62167:23 62168:167 62169:20 #
1.3817236581807726023099795395477e-07 2:1 19:2 26:1 97:1 336:1 497:1 549:1 564:1 615:1 721:1 1606:1 1845:1 2126:1 4066:1 4585:1 6959:1 10964:1 14286:2 22145:1 61229:2 62166:23 62167:124 62168:5274 62169:4 #
-1.3817236581807726023099795395477e-07 10:1 19:2 58:1 65:1 133:1 143:1 216:1 390:1 391:1 499:1 523:1 17496:1 36384:1 62166:14 62167:61 62168:2882 62169:2 #
1.3817236581807726023099795395477e-07 91:1 788:1 2735:1 3040:1 3041:1 3042:1 3043:1 3044:1 3045:1 62166:9 62167:72 62168:134 62169:2 #
-1.3817236581807726023099795395477e-07 14:1 65:2 180:1 340:1 497:2 1180:1 1989:1 2755:1 2756:1 62166:11 62167:48 62168:120 62169:2 #
-1.3817236581807726023099795395477e-07 19:1 133:1 161:1 163:1 165:1 213:1 1131:1 1958:1 2308:1 4476:1 4585:1 6899:1 22920:1 25682:1 38563:1 62166:15 62167:86 62168:2878 62169:1 #
1.3817236581807726023099795395477e-07 77:1 142:1 163:1 297:1 497:1 549:1 722:1 844:1 1131:1 1132:1 1560:1 2659:1 3097:1 3098:1 62166:14 62167:80 62168:136 62169:1 #
-1.3817236581807726023099795395477e-07 10:1 133:1 134:1 264:1 294:4 316:1 349:1 668:1 1199:1 2491:1 2773:1 62166:14 62167:51 62168:120 62169:1 #
1.3817236581807726023099795395477e-07 58:1 61:1 91:2 294:1 345:1 429:1 518:1 5066:1 5323:1 48986:1 61138:1 62166:12 62167:54 62168:5263 62169:3 #
-1.3817236581807726023099795395477e-07 2:1 670:1 2072:1 8469:1 8470:1 38543:1 62166:6 62167:39 62168:2874 62169:1 #
1.3817236581807726023099795395477e-07 2:1 10:1 19:2 76:1 85:2 86:1 88:2 93:1 97:1 142:2 143:1 163:3 183:1 294:1 296:1 317:1 336:2 392:1 550:1 565:1 847:1 1133:1 1398:1 1465:1 2180:1 2454:1 2518:1 2708:1 2994:1 2995:1 2996:1 2997:1 2998:1 2999:1 3000:1 3001:1 62166:43 62167:174 62168:130 62169:1 #
-1.3817236581807726023099795395477e-07 3:1 19:1 58:2 85:1 91:1 134:1 294:1 315:1 318:1 552:1 619:1 722:1 963:1 1042:1 1126:1 2208:1 2442:1 2594:1 2683:1 2994:1 3160:1 3565:1 4011:1 11449:1 20799:1 37510:1 62166:27 62167:157 62168:2787 62169:4 #
1.3817236581807726023099795395477e-07 27:1 213:1 521:1 2824:1 4065:1 4066:1 4067:1 62166:7 62167:32 62168:179 62169:1 #
1.3817236581807726023099795395477e-07 2:1 3:1 5:1 10:2 14:2 19:3 26:1 61:1 85:2 97:1 175:1 184:1 290:1 294:2 349:1 386:1 426:1 549:1 551:4 1005:1 1126:1 1228:1 1462:1 1465:1 1496:1 1958:1 2491:1 2573:1 3000:2 4811:1 4814:1 5776:1 7735:1 8529:1 8787:1 9505:1 13489:1 16681:1 19162:1 22790:1 61193:1 62166:51 62167:194 62168:5272 62169:3 #
-1.3817236581807726023099795395477e-07 19:1 58:1 65:1 78:1 97:1 143:1 163:2 178:1 181:1 294:1 385:1 520:1 589:1 1030:1 2301:1 2930:1 2931:1 2932:1 2933:1 2934:1 2935:1 2936:1 2937:1 2938:1 62166:25 62167:114 62168:130 62169:4 #
1.3817236581807726023099795395477e-07 19:1 58:2 294:2 297:1 348:1 721:1 1319:1 1481:1 2573:1 3338:1 3862:1 27599:1 62166:14 62167:55 62168:5260 62169:3 #
-1.3817236581807726023099795395477e-07 7:1 163:1 213:4 616:1 3943:1 4128:1 7384:1 62166:10 62167:33 62168:2874 62169:1 #
1.3817236581807726023099795395477e-07 10:2 19:1 26:1 65:1 174:1 208:4 384:1 392:1 412:1 592:1 1198:1 1628:1 1845:1 3071:1 3072:1 3073:1 3074:1 3075:1 62166:22 62167:89 62168:136 62169:5 #
-1.3817236581807726023099795395477e-07 10:2 58:1 61:1 65:1 78:1 89:1 91:1 163:1 236:1 264:1 265:1 294:1 521:1 549:2 550:1 551:2 616:1 1074:1 1198:1 1444:2 1989:1 2826:1 3000:1 3114:1 3338:1 7888:1 11314:1 18346:1 38247:1 62166:33 62167:122 62168:2852 62169:3 #
1.3817236581807726023099795395477e-07 19:3 78:1 139:1 217:1 336:1 1420:1 3394:1 3395:1 3396:1 62166:11 62167:44 62168:149 62169:1 #
-1.3817236581807726023099795395477e-07 10:1 58:1 139:1 163:1 264:1 294:1 723:1 1128:1 1129:1 2307:1 2766:1 62166:11 62167:43 62168:120 62169:1 #
-1.3817236581807726023099795395477e-07 58:1 84:1 163:1 212:1 294:2 393:1 590:1 615:1 753:1 961:1 29572:1 37469:1 38490:1 38491:1 62166:15 62167:79 62168:2868 62169:2 #
1.3817236581807726023099795395477e-07 3:1 26:1 65:1 85:1 91:1 178:1 208:4 213:1 316:1 423:1 668:1 3195:1 3196:1 3197:1 62166:17 62167:65 62168:139 62169:2 #
-1.3817236581807726023099795395477e-07 2:1 19:1 58:2 85:1 86:1 88:1 264:1 350:1 592:1 615:1 887:2 2418:1 3074:1 3692:1 3959:1 5185:1 6063:1 6196:1 38336:1 62166:21 62167:110 62168:2859 62169:2 #
1.3817236581807726023099795395477e-07 21:1 23:1 91:1 293:1 294:2 336:1 427:1 753:1 3136:1 3320:1 3321:1 3322:1 62166:13 62167:57 62168:144 62169:2 #
1.3817236581807726023099795395477e-07 14:1 19:1 58:1 76:1 89:1 134:1 163:1 165:1 183:1 257:1 340:1 345:1 349:1 524:1 681:1 1126:1 1421:1 1681:1 2305:1 2523:1 4476:1 8195:1 61149:1 62166:23 62167:121 62168:5265 62169:1 #
-1.3817236581807726023099795395477e-07 58:1 65:1 85:1 214:2 257:1 264:1 293:1 426:1 523:1 589:1 592:1 693:1 723:1 817:1 1523:1 1719:1 1765:1 2145:1 2258:1 3372:1 3373:1 3374:1 3375:1 62166:24 62167:129 62168:149 62169:3 #
-1.3817236581807726023099795395477e-07 5:1 19:1 60:1 61:1 294:3 295:1 2381:1 62166:9 62167:29 62168:2873 62169:1 #
1.3817236581807726023099795395477e-07 19:1 61:1 76:1 88:1 97:1 143:1 183:1 184:1 260:1 296:1 297:1 549:1 1042:1 1421:1 2616:1 2934:1 3133:1 3134:1 3135:1 3136:1 3137:1 62166:21 62167:105 62168:137 62169:1 #
-1.3817236581807726023099795395477e-07 10:1 58:2 85:1 89:1 91:1 213:3 791:2 810:1 2976:1 2977:1 2978:1 2979:1 2980:1 62166:17 62167:62 62168:130 62169:4 #
1.3817236581807726023099795395477e-07 26:1 88:1 163:1 243:1 585:1 698:1 721:1 813:1 1597:1 4368:1 8487:1 8628:1 62166:12 62167:60 62168:5248 62169:1 #
-1.3817236581807726023099795395477e-07 19:1 23:1 58:1 86:1 293:1 294:3 953:1 1319:1 1629:1 3961:1 62166:12 62167:40 62168:3492 62169:2 #
1.3817236581807726023099795395477e-07 10:1 19:1 58:1 78:1 91:1 93:1 180:1 264:1 293:1 336:1 1575:1 1693:1 3155:1 3156:1 3157:1 3158:1 3159:1 3160:1 62166:18 62167:93 62168:138 62169:2 #
-1.3817236581807726023099795395477e-07 10:1 14:2 85:2 88:2 91:1 163:1 264:1 294:1 296:1 315:1 340:1 429:1 1072:1 1079:1 1199:1 1496:2 1604:1 2160:1 2683:1 3830:1 5108:1 7307:1 8085:1 36971:1 36972:1 36973:1 36974:1 36975:1 62165:1 62166:32 62167:165 62168:2735 62169:2 #
1.3817236581807726023099795395477e-07 161:1 345:1 412:1 4305:1 4306:1 4307:1 4308:1 62166:7 62167:40 62168:191 62169:1 #
-1.3817236581807726023099795395477e-07 213:2 257:1 340:1 386:1 549:1 616:1 1199:1 1496:1 2145:1 3564:1 7628:1 8658:1 62166:13 62167:57 62168:2868 62169:24 #
1.3817236581807726023099795395477e-07 10:1 26:1 163:1 172:1 259:1 294:1 392:1 499:1 585:1 791:1 3458:1 3459:1 3460:1 3461:1 62166:14 62167:56 62168:151 62169:1 #
-1.3817236581807726023099795395477e-07 93:1 163:1 183:1 293:1 294:2 314:1 391:1 519:1 549:1 1196:1 2960:1 2961:1 2962:1 2963:1 62166:15 62167:59 62168:130 62169:3 #
1.3817236581807726023099795395477e-07 2:2 60:1 76:1 85:5 88:1 91:1 163:2 294:1 336:2 548:1 549:1 589:1 696:1 698:1 721:1 883:1 1597:2 1681:1 2258:1 2521:1 2559:1 4011:1 4167:1 6160:1 9388:1 9490:1 34715:1 61160:1 61161:1 62166:37 62167:172 62168:5267 62169:3 #
-1.3817236581807726023099795395477e-07 10:1 57:1 58:1 65:1 143:1 293:1 294:1 429:1 565:1 668:1 8469:1 37390:1 62166:12 62167:52 62168:2868 62169:3 #
1.3817236581807726023099795395477e-07 134:1 163:2 345:1 517:1 963:1 1211:1 1558:1 3334:1 3335:1 3336:1 3337:1 3338:1 62166:13 62167:78 62168:147 62169:1 #
-1.3817236581807726023099795395477e-07 6:1 58:2 85:1 86:1 88:1 91:1 93:1 175:1 237:1 294:3 391:1 565:1 616:1 771:1 998:1 1128:1 1398:1 1496:1 2381:1 3037:1 3230:1 3276:1 7930:1 62166:26 62167:119 62168:2852 62169:4 #
1.3817236581807726023099795395477e-07 10:1 91:1 174:1 214:1 296:1 414:1 498:1 2683:1 3441:1 3645:1 3646:1 62166:11 62167:55 62168:160 62169:1 #
-1.3817236581807726023099795395477e-07 19:1 58:1 76:1 549:1 1034:1 3054:1 3055:1 3056:1 62166:8 62167:39 62168:134 62169:2 #
-1.3817236581807726023099795395477e-07 15:1 19:1 25:1 83:1 89:1 294:2 297:1 423:1 524:1 585:1 668:1 998:1 1084:1 3275:1 3276:1 3277:1 3278:1 3279:1 62166:19 62167:102 62168:144 62169:2 #
1.3817236581807726023099795395477e-07 10:1 58:1 93:1 294:1 499:1 814:1 2454:1 62166:7 62167:28 62168:5237 62169:22 #
-1.3817236581807726023099795395477e-07 14:1 139:1 294:1 350:2 470:1 793:1 20935:2 33788:1 62166:10 62167:51 62168:2863 62169:1 #
1.3817236581807726023099795395477e-07 10:1 14:1 17:1 26:1 78:1 81:1 85:1 93:1 142:1 172:1 178:1 213:1 294:1 317:1 392:1 585:2 753:1 998:1 1183:1 1198:1 2651:1 3296:1 3297:1 3298:1 3299:1 62165:1 62166:26 62167:124 62168:144 62169:2 #
-1.3817236581807726023099795395477e-07 2:1 3:1 10:2 65:1 86:1 180:1 384:1 392:1 469:1 793:1 869:1 991:1 998:2 1183:2 2524:2 7507:1 18572:1 27708:2 37767:1 62165:1 62166:24 62167:126 62168:2812 62169:1 #
1.3817236581807726023099795395477e-07 139:1 178:1 294:1 412:1 426:1 4356:1 4357:1 4358:1 62166:8 62167:40 62168:196 62169:1 #
1.3817236581807726023099795395477e-07 2:1 10:1 19:2 26:1 89:1 163:1 208:2 294:3 336:1 592:1 615:1 721:1 791:1 2352:1 2522:1 4350:1 7142:1 7968:1 9273:1 18474:1 61098:1 61099:1 61100:1 62165:1 62166:27 62167:118 62168:5260 62169:1 #
-1.3817236581807726023099795395477e-07 19:1 26:2 78:1 215:1 294:1 585:1 721:1 998:1 1462:1 6105:1 6316:1 11172:1 35134:1 38371:1 62166:15 62167:70 62168:2861 62169:1 #
1.3817236581807726023099795395477e-07 10:1 58:1 85:1 95:1 134:1 212:1 294:1 616:1 788:1 1128:1 1899:1 2297:1 3405:1 3406:1 3407:1 62166:15 62167:70 62168:149 62169:4 #
-1.3817236581807726023099795395477e-07 10:1 14:3 61:1 97:1 292:1 294:1 498:1 670:1 682:1 2380:1 3351:1 3352:1 3353:1 3354:1 3355:1 3356:1 62166:18 62167:97 62168:148 62169:55 #
-1.3817236581807726023099795395477e-07 14:1 23:1 26:1 60:1 65:1 85:1 143:1 163:2 172:1 392:2 814:1 963:1 998:1 1628:1 2301:1 3755:1 11562:1 21994:1 30577:1 38331:1 62166:22 62167:90 62168:2858 62169:2 #
1.3817236581807726023099795395477e-07 2:1 3:1 14:1 19:2 161:1 162:1 163:1 172:1 264:1 907:1 998:1 1133:1 1183:1 1430:1 1606:1 2021:1 3441:1 3442:1 3443:1 62166:20 62167:100 62168:151 62169:1 #
-1.3817236581807726023099795395477e-07 183:1 264:1 294:1 341:1 392:1 498:1 1605:1 2559:1 3111:1 3112:1 3113:1 3114:1 62166:12 62167:59 62168:136 62169:3 #
-1.3817236581807726023099795395477e-07 19:1 65:1 78:1 84:1 163:1 264:1 290:1 523:1 883:1 1135:1 2231:1 2308:1 2480:1 3209:1 3210:1 3211:1 3212:1 3213:1 62166:18 62167:87 62168:140 62169:1 #
1.3817236581807726023099795395477e-07 2:1 14:1 23:1 93:1 161:1 163:1 178:1 294:1 2230:1 2782:1 3355:1 3919:1 9309:1 11212:1 23840:1 61041:1 61042:1 62166:17 62167:88 62168:5253 62169:13 #
-1.3817236581807726023099795395477e-07 78:1 163:1 178:1 294:3 470:1 498:1 2208:1 2571:1 7335:1 62166:11 62167:49 62168:2863 62169:3 #
1.3817236581807726023099795395477e-07 19:1 58:2 350:1 888:1 1196:1 1559:1 2554:1 3158:2 3600:1 3601:1 3602:1 62166:13 62167:63 62168:160 62169:7 #
-1.3817236581807726023099795395477e-07 14:1 19:1 65:1 208:2 294:1 411:1 590:2 791:1 1989:1 3795:1 11540:1 17099:1 22255:1 22761:1 34932:3 36558:2 36921:1 36922:1 36923:1 36924:1 62166:25 62167:159 62168:2729 62169:2 #
1.3817236581807726023099795395477e-07 26:1 58:3 85:1 86:1 87:1 290:1 294:1 316:1 585:1 814:1 3788:1 3789:1 62166:14 62167:56 62168:169 62169:4 #
1.3817236581807726023099795395477e-07 9:1 14:3 19:1 26:3 58:1 88:1 89:1 163:1 184:1 209:1 257:1 264:1 293:1 336:1 424:1 585:1 616:1 721:1 1130:1 1133:1 2125:1 2766:1 2782:1 2784:1 28109:1 37901:1 61121:1 62166:31 62167:150 62168:5261 62169:2 #
-1.3817236581807726023099795395477e-07 91:1 134:1 336:2 394:1 550:1 844:1 1320:1 1801:1 3355:1 7907:1 11830:1 38360:1 38361:1 62166:14 62167:61 62168:2861 62169:1 #
1.3817236581807726023099795395477e-07 2:1 10:2 19:1 26:1 58:1 181:1 436:1 470:1 499:1 1034:1 3634:1 3635:1 3636:1 62166:14 62167:65 62168:160 62169:2 #
1.3817236581807726023099795395477e-07 19:1 294:1 429:1 436:1 1827:1 20966:1 60866:1 62166:7 62167:36 62168:5233 62169:3 #
-1.3817236581807726023099795395477e-07 10:1 293:2 913:1 1133:1 1604:1 2160:1 7852:1 12948:1 62166:9 62167:50 62168:2862 62169:1 #
1.3817236581807726023099795395477e-07 3:1 7:1 10:1 58:2 85:1 86:1 88:1 89:1 174:2 178:1 183:1 264:1 294:1 350:1 392:3 696:2 1084:1 1232:1 1276:1 1767:1 2229:1 2442:1 2977:1 3501:1 3502:1 3503:1 3504:1 3505:1 3506:1 62166:34 62167:166 62168:155 62169:4 #
-1.3817236581807726023099795395477e-07 10:1 19:2 58:1 85:1 88:1 93:1 163:1 174:1 183:1 185:1 336:2 384:1 962:1 998:1 1034:1 1358:1 2618:1 2858:1 5932:1 6959:1 7714:1 9273:1 15693:1 21137:1 37034:1 37035:1 37036:1 62166:29 62167:150 62168:2743 62169:2 #
1.3817236581807726023099795395477e-07 294:1 549:1 2756:1 3614:1 4965:1 62166:5 62167:30 62168:231 62169:1 #
-1.3817236581807726023099795395477e-07 65:1 163:1 213:1 290:1 294:5 385:1 392:1 616:1 668:1 721:1 1211:1 1420:1 3177:1 3178:1 3179:1 3180:1 62166:20 62167:72 62168:138 62169:2 #
1.3817236581807726023099795395477e-07 26:2 88:1 93:1 721:1 1041:1 1692:1 2125:1 5066:1 8705:1 22751:1 62166:11 62167:67 62168:5247 62169:1 #
-1.3817236581807726023099795395477e-07 14:1 78:1 84:1 85:1 91:1 163:1 178:1 294:3 342:1 429:1 616:1 668:1 2180:1 2651:1 3755:2 10290:1 11481:1 18264:2 62166:22 62167:99 62168:2851 62169:2 #
1.3817236581807726023099795395477e-07 10:1 57:1 58:1 86:1 138:1 139:1 318:1 340:1 953:1 1073:1 1130:1 1430:1 1605:1 1984:1 62166:14 62167:64 62168:170 62169:3 #
1.3817236581807726023099795395477e-07 6:1 8:1 10:1 14:1 26:2 78:1 84:1 95:2 133:1 143:1 294:1 296:1 585:1 721:1 1691:1 1988:1 3112:1 3278:1 5066:1 61051:1 62166:22 62167:110 62168:5254 62169:1 #
-1.3817236581807726023099795395477e-07 10:1 58:3 88:1 93:1 94:1 97:1 296:1 430:1 723:1 959:1 1128:1 1358:1 2559:1 5439:1 16393:1 62166:17 62167:85 62168:2856 62169:3 #
1.3817236581807726023099795395477e-07 9:1 10:1 19:2 58:1 59:1 91:1 143:1 336:1 340:1 474:1 1034:1 2755:1 3730:1 3731:1 3732:1 3733:1 3734:1 62166:18 62167:88 62168:167 62169:2 #
-1.3817236581807726023099795395477e-07 2:1 19:1 163:1 348:1 392:1 668:1 3351:2 3459:1 4794:1 5932:1 62166:11 62167:50 62168:2859 62169:6 #
1.3817236581807726023099795395477e-07 3:1 10:1 97:1 161:1 429:1 1604:1 5641:1 5770:1 6820:1 6830:1 62166:10 62167:54 62168:5118 62169:2 #
-1.3817236581807726023099795395477e-07 10:1 65:3 83:1 178:1 257:1 294:3 296:1 1782:1 2683:1 2826:1 6035:1 11070:1 12072:1 38222:1 38223:1 38224:1 62165:1 62166:20 62167:99 62168:2851 62169:4 #
1.3817236581807726023099795395477e-07 19:1 60:1 97:1 239:1 264:1 393:1 429:1 472:1 549:1 818:1 1132:1 1523:1 1694:1 3776:1 62166:14 62167:81 62168:169 62169:2 #
-1.3817236581807726023099795395477e-07 133:1 1421:1 3126:1 3127:1 3128:1 62166:5 62167:32 62168:136 62169:1 #
-1.3817236581807726023099795395477e-07 10:1 58:2 65:1 76:1 93:1 139:1 264:1 295:1 315:1 317:1 721:1 2518:1 3474:1 4562:1 6708:1 38320:1 62166:17 62167:75 62168:2857 62169:7 #
1.3817236581807726023099795395477e-07 26:2 78:1 97:1 143:1 163:2 264:1 615:1 721:1 847:1 1133:1 1198:1 1607:1 1694:1 2258:1 3843:1 3844:1 3845:1 62166:19 62167:79 62168:171 62169:2 #
-1.3817236581807726023099795395477e-07 58:2 91:2 174:1 294:4 350:1 424:1 882:1 1559:1 3037:1 3229:1 3230:2 3231:1 3232:1 3233:1 3234:1 62166:21 62167:79 62168:142 62169:2 #
-1.3817236581807726023099795395477e-07 10:1 65:1 348:1 1079:1 2491:1 18084:1 62166:6 62167:29 62168:2862 62169:1 #
1.3817236581807726023099795395477e-07 2:1 10:2 58:2 80:1 85:1 139:1 174:2 184:1 264:2 392:2 424:1 3155:1 3860:2 3861:2 3862:1 62166:22 62167:102 62168:171 62169:3 #
1.3817236581807726023099795395477e-07 10:1 58:2 293:1 316:1 498:1 589:1 1444:1 5638:1 22297:1 62166:10 62167:45 62168:5213 62169:2 #
-1.3817236581807726023099795395477e-07 10:1 21:1 61:1 163:2 294:2 498:1 1210:1 1493:1 2301:1 62166:11 62167:37 62168:2859 62169:2 #
1.3817236581807726023099795395477e-07 137:1 161:1 208:2 213:3 294:3 549:1 585:1 592:1 3942:1 3943:1 3944:1 3945:1 3946:1 3947:1 62166:19 62167:67 62168:175 62169:4 #
-1.3817236581807726023099795395477e-07 78:1 174:1 208:2 294:1 340:1 392:1 394:1 549:3 670:1 814:1 963:1 1071:1 1210:1 1355:1 1356:1 38264:1 38265:1 38266:1 62166:21 62167:80 62168:2854 62169:5 #
1.3817236581807726023099795395477e-07 19:1 213:1 958:1 1132:1 1465:1 1481:1 1523:1 3961:1 4110:1 4111:1 62166:10 62167:57 62168:179 62169:1 #
1.3817236581807726023099795395477e-07 14:1 19:1 23:2 85:4 93:1 163:1 294:2 295:1 297:1 721:1 906:1 1597:1 1646:1 2994:1 4350:1 4540:1 5049:1 5409:1 11825:1 61006:1 62166:25 62167:103 62168:5249 62169:2 #
-1.3817236581807726023099795395477e-07 10:1 57:1 58:1 89:1 213:4 264:1 497:1 498:1 722:1 904:1 1132:1 1199:1 10444:1 12615:1 14825:1 62166:18 62167:76 62168:2856 62169:9 #
1.3817236581807726023099795395477e-07 76:1 78:1 81:1 133:1 143:1 242:1 265:1 316:1 349:1 2574:1 3921:1 3977:1 3978:1 3979:1 62166:14 62167:73 62168:176 62169:1 #
-1.3817236581807726023099795395477e-07 3:1 6:1 10:1 26:2 58:1 85:1 86:1 91:1 93:1 133:1 134:1 163:1 178:1 213:1 236:1 264:1 294:2 336:2 392:1 615:2 1692:1 1694:1 1719:1 1960:1 2598:1 2881:1 5766:1 7665:1 9650:1 9651:2 9652:1 9653:1 9654:1 9655:1 62166:39 62167:197 62168:501 62169:4 #
-1.3817236581807726023099795395477e-07 26:2 65:1 78:1 88:1 178:1 429:1 470:1 615:1 1628:1 62166:10 62167:40 62168:2856 62169:2 #
1.3817236581807726023099795395477e-07 3:1 14:1 19:1 161:1 294:3 389:1 414:1 429:1 814:1 1135:1 1557:1 1643:1 3565:1 3600:1 3795:1 3796:1 3797:1 3798:1 3799:1 3800:1 3801:1 62166:23 62167:139 62168:170 62169:10 #
-1.3817236581807726023099795395477e-07 10:1 19:1 58:2 86:1 91:1 208:2 212:1 214:1 336:1 348:1 1030:1 2857:1 2858:1 3159:1 5536:1 5638:2 6644:1 6829:1 62166:21 62167:91 62168:2836 62169:3 #
1.3817236581807726023099795395477e-07 2:1 10:1 14:2 76:1 134:1 290:1 294:3 1081:1 3373:1 4010:1 4011:1 4012:1 4013:1 62166:16 62167:67 62168:178 62169:2 #
-1.3817236581807726023099795395477e-07 19:1 26:2 78:1 174:1 585:1 1032:1 1034:1 1630:1 2932:1 3248:1 3249:1 3250:1 62166:13 62167:64 62168:143 62169:1 #
1.3817236581807726023099795395477e-07 10:1 19:1 23:1 60:1 178:1 392:1 585:1 721:1 2125:1 2479:1 6363:1 6489:1 27103:1 60951:1 62166:14 62167:81 62168:5245 62169:1 #
-1.3817236581807726023099795395477e-07 65:1 163:1 264:1 1448:1 7627:1 31844:1 62166:6 62167:36 62168:2856 62169:1 #
1.3817236581807726023099795395477e-07 7:1 26:2 58:3 59:1 78:1 85:1 91:1 94:1 97:1 294:2 499:1 549:1 670:1 1320:1 1497:1 1642:1 3074:1 3919:1 3920:1 3921:1 3922:1 3923:1 3924:1 62166:27 62167:117 62168:173 62169:8 #
-1.3817236581807726023099795395477e-07 10:2 14:1 15:1 19:1 58:2 94:1 174:1 423:1 499:1 692:1 1198:1 1630:1 2111:1 2301:1 2938:1 8186:1 8282:1 18216:1 19647:1 37585:1 37586:1 62166:23 62167:125 62168:2793 62169:8 #
1.3817236581807726023099795395477e-07 2:1 58:1 89:1 143:1 294:1 349:1 424:1 668:1 4595:1 4596:1 62166:10 62167:43 62168:211 62169:1 #
-1.3817236581807726023099795395477e-07 14:1 19:1 58:1 76:1 134:1 162:1 297:1 549:2 1081:1 1782:2 2490:2 2491:1 2976:1 3262:1 3263:1 62166:18 62167:70 62168:144 62169:1 #
1.3817236581807726023099795395477e-07 3:1 14:2 26:1 85:4 86:1 89:1 93:1 97:1 134:1 163:1 208:2 217:1 267:1 294:2 953:1 2301:1 2873:1 2934:1 4167:1 7205:1 9193:1 9307:1 14825:1 52425:1 62166:30 62167:129 62168:5247 62169:2 #
-1.3817236581807726023099795395477e-07 14:2 58:1 76:1 91:2 143:1 392:2 470:1 721:1 1496:1 2444:1 5049:1 5354:1 9886:1 12709:1 38152:1 62166:18 62167:75 62168:2840 62169:1 #
1.3817236581807726023099795395477e-07 91:2 95:1 184:1 315:1 336:1 350:1 386:1 592:1 817:1 2020:1 3993:1 3994:1 3995:1 3996:1 62166:15 62167:91 62168:178 62169:2 #
-1.3817236581807726023099795395477e-07 7:1 10:1 19:2 26:1 61:1 78:1 85:1 93:1 163:1 264:1 294:1 295:1 336:1 345:1 424:1 721:1 1034:1 1607:1 2480:1 3134:1 4228:1 16680:1 18763:1 22760:1 23702:1 27302:1 37179:1 37180:1 62166:29 62167:136 62168:2757 62169:2 #
1.3817236581807726023099795395477e-07 549:1 3614:1 4965:1 4966:1 4967:1 62166:5 62167:40 62168:223 62169:1 #
-1.3817236581807726023099795395477e-07 2:1 10:2 11:1 19:1 26:2 58:3 59:1 93:1 94:1 143:1 163:1 499:1 589:1 818:1 998:1 1183:1 1597:1 1690:1 3418:1 3419:1 62166:24 62167:112 62168:151 62169:4 #
1.3817236581807726023099795395477e-07 10:1 14:2 19:2 61:1 78:1 80:1 85:2 133:1 180:1 294:2 336:1 433:1 589:1 793:2 998:1 1759:2 1779:1 2352:1 3064:1 4317:1 13958:1 26630:1 26667:1 31279:1 49370:1 50798:1 61019:1 61020:1 62166:34 62167:193 62168:5251 62169:2 #
-1.3817236581807726023099795395477e-07 2:1 65:1 163:1 517:1 523:1 549:1 3443:1 9309:1 9930:1 25981:1 62166:10 62167:47 62168:2838 62169:0 #
1.3817236581807726023099795395477e-07 17:1 19:1 26:1 58:1 59:1 85:1 134:1 163:1 294:4 316:1 336:1 345:1 721:1 1130:1 1497:1 2960:1 4126:1 4127:1 4128:2 62166:23 62167:95 62168:180 62169:2 #
-1.3817236581807726023099795395477e-07 3:3 14:2 19:1 20:1 76:3 80:1 86:1 133:3 179:1 180:3 294:3 316:1 424:1 793:1 904:1 991:1 1607:1 1630:1 1782:1 1959:1 2235:1 2826:1 4049:1 4208:1 6007:1 6644:1 16681:1 18501:1 22113:1 35279:1 62166:41 62167:200 62168:2547 62169:4 #
1.3817236581807726023099795395477e-07 7627:1 7628:1 62166:2 62167:11 62168:375 62169:1 #
-1.3817236581807726023099795395477e-07 2:1 3:1 10:1 19:1 26:1 139:1 143:1 181:1 395:1 585:1 997:1 998:1 1643:1 2258:1 3473:1 3474:1 3475:1 62166:17 62167:82 62168:151 62169:1 #
1.3817236581807726023099795395477e-07 85:5 133:6 294:1 4205:1 8299:1 12305:1 14336:1 20859:1 23430:1 39497:1 39498:1 60920:1 60921:1 60922:1 60923:1 62166:24 62167:109 62168:5241 62169:1 #
-1.3817236581807726023099795395477e-07 2:1 19:1 392:1 753:1 791:2 998:1 1135:1 2830:1 4895:1 10785:1 62166:11 62167:56 62168:2835 62169:1 #
1.3817236581807726023099795395477e-07 10:3 57:1 58:2 85:1 89:1 91:1 143:1 163:1 174:1 217:1 316:1 499:1 813:1 814:1 1126:1 1780:1 2297:1 4144:1 4145:1 4146:1 4147:1 4148:1 62166:25 62167:120 62168:181 62169:3 #
-1.3817236581807726023099795395477e-07 8:1 10:1 19:2 20:1 88:1 163:1 243:1 264:1 294:1 496:1 1074:1 1462:1 1630:1 1868:1 4494:1 4814:1 34375:1 37789:1 37790:1 37791:1 62166:21 62167:105 62168:2816 62169:4 #
1.3817236581807726023099795395477e-07 14:1 80:1 84:1 163:2 1607:1 4391:1 4392:1 4393:1 4394:1 4395:1 62166:11 62167:50 62168:200 62169:7 #
-1.3817236581807726023099795395477e-07 14:1 19:1 183:1 1482:1 3406:1 3436:1 62166:6 62167:33 62168:151 62169:2 #
1.3817236581807726023099795395477e-07 58:2 88:1 89:1 97:1 163:1 174:1 294:1 2561:1 2709:1 2710:1 3114:1 7223:1 7458:1 10735:1 12351:1 43472:1 62166:17 62167:74 62168:5237 62169:2 #
-1.3817236581807726023099795395477e-07 2:1 18:1 19:1 65:1 497:1 3126:1 13994:1 22646:1 46496:1 62166:9 62167:44 62168:3668 62169:1 #
1.3817236581807726023099795395477e-07 7:1 19:1 78:1 91:2 436:1 592:1 869:1 1356:1 2232:1 4144:1 4145:1 4226:1 4227:1 4228:1 4229:1 4230:1 4231:1 4232:1 62166:19 62167:110 62168:185 62169:3 #
-1.3817236581807726023099795395477e-07 3:1 19:3 20:1 23:1 78:1 83:1 85:1 93:2 139:1 162:1 163:2 208:2 294:3 297:2 350:1 390:1 392:1 616:1 622:1 721:1 791:1 956:1 957:1 1133:1 2488:1 2960:1 3128:1 3565:1 5932:1 7223:2 11825:1 35917:1 62166:41 62167:184 62168:2620 62169:3 #
1.3817236581807726023099795395477e-07 14:1 294:1 423:1 3491:1 5353:1 5354:1 5355:1 62166:7 62167:36 62168:236 62169:1 #
-1.3817236581807726023099795395477e-07 2:1 592:1 698:1 1558:1 1559:1 3488:1 3489:1 3490:1 3491:1 3492:1 62166:10 62167:61 62168:153 62169:2 #
1.3817236581807726023099795395477e-07 10:1 14:1 58:1 91:1 93:1 163:1 264:1 294:1 426:1 499:1 1496:1 2454:1 2520:1 2766:1 2932:1 12340:1 23076:1 62166:17 62167:73 62168:5236 62169:2 #
-1.3817236581807726023099795395477e-07 6:1 26:2 84:1 134:1 316:2 350:1 390:1 580:1 721:1 1559:1 1988:1 37936:1 62166:14 62167:69 62168:2824 62169:56 #
1.3817236581807726023099795395477e-07 10:2 19:3 58:1 78:1 85:1 89:1 91:1 93:1 94:1 134:1 141:1 143:1 162:1 174:1 294:2 392:1 423:1 429:1 433:1 1198:1 1801:2 2180:1 2454:1 4167:2 4168:1 4169:1 4170:1 4171:1 62166:34 62167:161 62168:182 62169:4 #
-1.3817236581807726023099795395477e-07 2:1 19:2 26:2 88:1 142:1 178:1 180:1 389:1 430:1 587:1 615:1 721:1 912:1 1128:1 1989:1 3891:1 8566:1 8757:1 12947:1 21522:1 62166:22 62167:131 62168:2763 62169:1 #
1.3817236581807726023099795395477e-07 10:1 294:1 340:1 562:1 1545:1 1601:1 1602:1 4613:1 62166:8 62167:47 62168:211 62169:1 #
-1.3817236581807726023099795395477e-07 26:1 65:1 78:1 180:1 290:1 523:1 549:1 3195:1 3537:1 3538:1 62166:10 62167:50 62168:156 62169:1 #
1.3817236581807726023099795395477e-07 10:1 14:1 76:1 133:1 163:1 294:5 295:1 341:1 585:1 592:1 671:1 2518:1 4011:1 4573:1 9409:1 9410:1 10903:1 12380:1 12990:1 60880:1 60881:1 62166:25 62167:118 62168:5236 62169:3 #
-1.3817236581807726023099795395477e-07 6:1 10:1 139:1 3320:1 3776:1 7041:1 37932:1 62166:7 62167:41 62168:2824 62169:1 #
1.3817236581807726023099795395477e-07 26:1 85:1 163:1 293:1 721:1 887:1 957:1 2301:1 4350:1 4366:1 4367:1 4368:1 4369:1 62166:13 62167:66 62168:197 62169:1 #
-1.3817236581807726023099795395477e-07 2:1 10:2 14:1 19:1 20:1 26:1 78:1 85:1 88:1 89:1 97:1 336:1 349:1 350:1 391:1 392:1 429:1 589:1 692:1 791:1 1269:1 1648:1 1782:1 1801:1 2345:1 2523:1 2683:1 2826:1 3298:1 3688:1 4908:1 4909:1 4965:1 6363:1 6898:1 7727:1 14089:1 23575:1 34332:1 62166:40 62167:200 62168:2463 62169:15 #
1.3817236581807726023099795395477e-07 7:1 85:1 1765:1 2490:1 4972:1 4973:1 4974:1 62166:7 62167:40 62168:225 62169:34 #
-1.3817236581807726023099795395477e-07 3534:1 3535:1 62166:2 62167:13 62168:155 62169:1 #
1.3817236581807726023099795395477e-07 83:1 85:1 163:1 172:1 178:1 264:1 293:1 294:1 913:1 1646:1 2308:1 3353:1 3591:1 3801:1 4206:1 7441:1 19889:1 31126:1 60831:1 60832:1 60833:1 60834:1 60835:1 60836:1 62166:24 62167:123 62168:5230 62169:6 #
-1.3817236581807726023099795395477e-07 19:1 91:1 161:1 163:1 174:1 217:1 294:1 696:1 883:1 1198:1 1319:2 1382:1 1494:1 4049:1 4050:1 10295:1 19985:1 37884:1 62166:19 62167:94 62168:2818 62169:2 #
1.3817236581807726023099795395477e-07 264:1 341:1 1526:1 2380:2 2491:1 2492:1 3114:1 4067:1 4443:1 4444:1 4445:1 4446:1 62166:13 62167:69 62168:202 62169:3 #
-1.3817236581807726023099795395477e-07 2:1 14:1 19:1 65:1 83:1 85:3 93:1 133:1 161:1 180:1 340:1 392:1 1498:1 1559:1 1989:1 2111:1 4207:1 12072:1 27920:1 37700:1 62166:22 62167:97 62168:2808 62169:3 #
1.3817236581807726023099795395477e-07 549:1 3614:1 4965:1 5166:1 5167:1 62166:5 62167:39 62168:228 62169:4 #
-1.3817236581807726023099795395477e-07 10:1 91:1 97:1 174:1 183:1 294:3 549:1 550:1 551:1 681:1 810:1 1465:1 2179:1 2709:1 3546:1 3547:1 62166:18 62167:55 62168:157 62169:4 #
1.3817236581807726023099795395477e-07 163:2 294:1 316:1 429:1 5125:1 8712:1 8998:1 17716:1 39819:1 62166:10 62167:55 62168:5221 62169:2 #
-1.3817236581807726023099795395477e-07 14:1 294:1 518:1 1680:1 9933:1 62166:5 62167:27 62168:2822 62169:1 #
1.3817236581807726023099795395477e-07 14:2 19:2 58:4 59:1 60:1 78:1 85:2 139:1 290:2 294:5 295:1 345:1 348:1 589:3 904:3 961:2 1042:1 1085:1 1128:1 1230:1 1420:1 1481:1 1523:3 1630:1 2488:1 2936:1 3338:1 3373:1 4011:1 62166:47 62167:196 62168:200 62169:6 #
-1.3817236581807726023099795395477e-07 3:1 58:2 76:1 83:1 85:1 91:1 97:2 142:1 294:5 411:1 423:1 615:1 952:1 1581:1 1680:2 2229:1 2442:1 2616:1 6573:1 8782:1 10059:1 62166:28 62167:132 62168:2763 62169:4 #
1.3817236581807726023099795395477e-07 2:1 19:1 163:2 336:1 549:1 4693:2 4726:1 4872:2 4873:1 62166:12 62167:55 62168:219 62169:1 #
-1.3817236581807726023099795395477e-07 58:2 91:1 94:1 97:1 161:1 163:1 178:1 297:1 345:1 393:2 1078:1 2683:1 3126:2 3656:1 3657:1 3658:1 3659:1 3660:1 3661:1 62166:22 62167:130 62168:163 62169:2 #
1.3817236581807726023099795395477e-07 14:1 26:3 88:1 183:1 721:1 847:1 953:1 1133:1 1465:1 1559:1 1897:1 2020:1 2125:1 4564:1 60814:1 62166:17 62167:78 62168:5222 62169:1 #
-1.3817236581807726023099795395477e-07 58:1 59:1 172:1 264:1 524:1 7754:1 17120:1 30657:1 37893:1 62166:9 62167:46 62168:2819 62169:2 #
1.3817236581807726023099795395477e-07 10:1 19:2 26:1 61:1 85:1 89:1 97:1 163:1 179:1 264:1 392:1 869:1 1597:1 4252:1 4472:1 4473:1 4474:1 4475:1 4476:1 4477:1 62166:21 62167:104 62168:205 62169:1 #
-1.3817236581807726023099795395477e-07 14:1 19:1 26:3 58:2 85:3 94:1 143:1 163:1 208:2 217:1 243:1 294:6 318:1 522:1 549:1 585:1 616:1 681:1 741:1 883:1 1319:1 1557:1 1693:1 1983:1 2493:1 3043:1 3277:1 4167:1 10942:1 12509:1 34885:1 34886:1 34887:1 62166:44 62167:189 62168:2508 62169:4 #
1.3817236581807726023099795395477e-07 143:1 6103:1 6104:1 6105:1 62166:4 62167:28 62168:281 62169:1 #
-1.3817236581807726023099795395477e-07 2:1 19:2 336:1 883:1 3562:1 3563:1 3564:1 3565:1 62166:9 62167:59 62168:158 62169:1 #
1.3817236581807726023099795395477e-07 10:1 20:1 139:1 163:1 174:1 294:1 499:1 698:1 813:1 5049:1 62166:10 62167:40 62168:5196 62169:1 #
-1.3817236581807726023099795395477e-07 344:1 390:1 391:1 1801:1 14868:1 24294:1 62166:6 62167:31 62168:2817 62169:1 #
1.3817236581807726023099795395477e-07 2:2 11:1 58:1 89:1 91:3 93:1 94:1 213:4 294:2 423:1 1129:1 1320:1 1463:2 2659:2 3372:2 4631:2 62166:27 62167:109 62168:211 62169:5 #
-1.3817236581807726023099795395477e-07 3:1 10:1 95:1 139:1 162:1 175:1 429:1 1630:1 3474:1 3588:1 3589:1 3590:1 3591:1 62166:13 62167:79 62168:160 62169:1 #
1.3817236581807726023099795395477e-07 78:1 97:1 180:1 497:1 1557:1 2258:1 3830:1 4613:1 60736:1 62166:9 62167:60 62168:5208 62169:1 #
-1.3817236581807726023099795395477e-07 10:1 19:1 208:2 499:1 591:1 817:1 3353:1 9653:1 18444:1 62166:10 62167:40 62168:2817 62169:1 #
1.3817236581807726023099795395477e-07 15:1 58:1 59:1 84:1 91:1 172:1 294:1 1420:1 1600:1 1601:1 1602:1 4584:1 4585:1 62165:1 62166:13 62167:65 62168:211 62169:1 #
-1.3817236581807726023099795395477e-07 57:1 163:1 294:3 430:1 582:1 592:1 791:1 2737:1 7249:1 7886:1 12920:1 20859:1 37779:1 37780:1 62166:16 62167:75 62168:2814 62169:1 #
1.3817236581807726023099795395477e-07 19:1 58:3 163:2 164:1 184:1 243:1 294:2 345:2 430:1 471:1 692:1 958:1 959:1 4657:1 4658:2 4659:1 62165:1 62166:22 62167:95 62168:211 62169:4 #
1.3817236581807726023099795395477e-07 12:1 14:1 19:1 21:1 78:1 85:1 91:1 172:1 174:1 236:1 294:1 336:1 518:1 615:1 1496:1 1523:1 2937:1 3961:1 4206:1 4210:1 6755:1 60785:1 62166:22 62167:96 62168:5214 62169:5 #
-1.3817236581807726023099795395477e-07 19:1 133:1 213:1 293:1 585:1 1765:1 3353:1 21785:1 33583:1 62166:9 62167:44 62168:2816 62169:3 #
1.3817236581807726023099795395477e-07 6:1 58:1 78:1 85:1 86:1 89:1 133:1 143:1 163:1 294:5 349:1 719:1 4086:1 4691:1 4692:1 4693:1 4694:1 4695:1 62166:22 62167:93 62168:213 62169:2 #
-1.3817236581807726023099795395477e-07 10:1 58:2 78:2 88:1 94:1 139:1 163:2 174:1 175:1 294:1 426:1 470:1 582:1 721:1 1128:1 1129:1 1605:1 1646:1 2301:1 2651:1 5258:1 37460:1 62166:25 62167:115 62168:2782 62169:3 #
1.3817236581807726023099795395477e-07 2:1 10:1 76:1 163:1 214:1 957:1 1782:1 2826:1 5182:1 5183:1 5184:1 5185:1 5186:1 62166:13 62167:56 62168:231 62169:21 #
-1.3817236581807726023099795395477e-07 2:1 10:1 14:1 19:1 61:1 65:1 143:1 237:1 722:1 3572:1 3573:1 3574:1 3575:1 3576:1 62166:14 62167:64 62168:160 62169:5 #
-1.3817236581807726023099795395477e-07 10:2 14:1 26:4 65:1 78:1 142:2 172:1 217:1 264:2 294:2 342:1 392:3 470:1 497:2 615:1 1074:1 1462:1 1628:3 2020:1 3755:2 62166:33 62167:119 62168:169 62169:2 #
1.3817236581807726023099795395477e-07 10:1 19:1 58:1 1526:1 1868:1 3731:1 4231:1 8705:1 8965:1 17695:1 20654:1 62166:11 62167:64 62168:5205 62169:2 #
-1.3817236581807726023099795395477e-07 10:1 139:1 163:1 294:3 318:1 885:1 1074:1 1319:1 1465:1 2976:1 3689:1 4011:1 62166:14 62167:44 62168:2816 62169:1 #
1.3817236581807726023099795395477e-07 12:1 19:1 58:2 78:1 85:1 91:1 143:1 163:1 293:1 294:3 336:1 953:1 1319:1 1420:1 2234:1 4811:1 4812:1 4813:1 4814:1 4815:1 62166:23 62167:87 62168:218 62169:3 #
-1.3817236581807726023099795395477e-07 6:1 65:1 83:1 93:1 163:1 236:1 237:1 294:2 522:1 1196:1 1607:1 1884:1 7311:1 8495:1 13558:1 15978:1 18776:1 37523:1 37524:1 62166:20 62167:109 62168:2789 62169:3 #
1.3817236581807726023099795395477e-07 2:1 7:1 10:1 65:1 264:1 294:1 392:1 585:1 590:1 697:1 1258:1 3248:1 4793:1 4794:1 4795:1 4796:1 4797:1 62166:17 62167:85 62168:218 62169:2 #
1.3817236581807726023099795395477e-07 58:1 65:1 78:1 85:2 88:1 97:1 161:2 178:1 208:2 316:1 345:1 429:2 523:2 722:1 1129:1 1605:1 2709:1 5255:1 6475:1 62166:24 62167:98 62168:5208 62169:3 #
-1.3817236581807726023099795395477e-07 19:1 65:1 178:1 498:1 668:1 6116:1 37819:1 62166:7 62167:36 62168:2816 62169:2 #
1.3817236581807726023099795395477e-07 10:1 14:1 26:1 85:2 133:1 181:1 294:2 430:1 550:1 551:1 914:1 1073:1 1133:1 1643:1 1984:1 4763:1 4764:1 4765:1 4766:1 4767:1 4768:1 4769:1 4770:1 62166:25 62167:119 62168:217 62169:4 #
-1.3817236581807726023099795395477e-07 143:1 177:1 178:1 692:1 1357:1 1358:1 3618:1 62166:7 62167:43 62168:160 62169:1 #
-1.3817236581807726023099795395477e-07 2:1 15:1 19:2 58:2 78:1 88:1 91:2 136:1 172:1 184:1 294:2 317:1 590:1 692:1 1942:1 1943:1 2737:1 3043:1 4249:1 4250:1 4251:1 4252:1 4253:1 4254:1 62166:28 62167:132 62168:185 62169:3 #
-1.3817236581807726023099795395477e-07 14:1 19:1 78:1 470:1 616:1 883:1 1680:1 28855:1 62166:8 62167:36 62168:2816 62169:1 #
1.3817236581807726023099795395477e-07 3:1 10:1 23:1 27:1 58:2 88:1 93:1 94:1 163:1 181:1 214:1 294:2 345:1 349:1 385:1 499:1 585:2 1032:1 1645:1 2998:1 3488:1 4049:1 4908:1 4909:1 4910:1 4911:1 4912:1 4913:1 62166:31 62167:136 62168:220 62169:4 #
1.3817236581807726023099795395477e-07 3:1 85:1 134:1 264:1 294:1 429:1 998:1 2559:2 3248:1 21137:1 60691:1 62166:12 62167:56 62168:5201 62169:1 #
-1.3817236581807726023099795395477e-07 19:1 348:1 990:1 1492:1 4231:1 13278:1 62166:6 62167:33 62168:2816 62169:1 #
1.3817236581807726023099795395477e-07 26:2 58:2 76:1 85:1 87:1 88:1 94:1 174:1 264:1 294:1 297:1 844:1 1496:1 1605:1 2782:1 5029:1 62166:18 62167:75 62168:225 62169:3 #
-1.3817236581807726023099795395477e-07 19:2 78:1 143:1 161:1 213:1 344:1 1629:1 6499:1 21449:1 37694:1 62166:11 62167:54 62168:2807 62169:1 #
1.3817236581807726023099795395477e-07 2:1 3:1 19:2 88:2 97:2 214:1 294:2 814:1 2301:2 2930:1 5147:2 5148:2 5149:2 62166:21 62167:89 62168:227 62169:2 #
-1.3817236581807726023099795395477e-07 7:1 14:1 65:1 162:1 174:1 178:1 181:1 294:3 390:1 393:1 429:1 585:1 999:1 1133:1 1984:1 4082:1 4083:1 4084:1 4085:1 4086:1 62166:22 62167:102 62168:179 62169:2 #
1.3817236581807726023099795395477e-07 14:1 19:1 58:1 85:1 97:1 178:1 294:1 585:1 1073:1 1597:1 1944:1 2297:1 2930:1 6134:1 9306:1 17028:1 62166:16 62167:74 62168:5196 62169:3 #
-1.3817236581807726023099795395477e-07 85:1 163:1 561:1 884:1 1420:1 37754:1 62166:6 62167:27 62168:2811 62169:21 #
1.3817236581807726023099795395477e-07 3:1 10:1 78:1 83:1 84:1 85:1 88:1 163:1 178:1 180:2 290:1 293:1 294:3 336:1 392:1 430:1 522:1 616:1 668:1 962:1 1034:1 1645:1 3959:2 4724:1 4725:1 4726:1 4727:1 4728:2 4729:1 4730:1 62166:35 62167:181 62168:217 62169:3 #
-1.3817236581807726023099795395477e-07 2:1 7:1 10:1 57:1 58:2 91:1 163:1 294:1 297:1 844:1 1006:2 1261:1 2491:1 2826:3 6230:1 7686:1 13364:1 15366:1 29698:1 37389:1 37390:1 37391:1 62166:26 62167:110 62168:2776 62169:8 #
1.3817236581807726023099795395477e-07 60:3 85:2 243:3 294:1 350:3 62166:12 62167:41 62168:260 62169:11 #
-1.3817236581807726023099795395477e-07 6:1 14:2 19:2 26:1 78:2 86:1 93:1 94:1 143:1 184:1 257:1 294:3 345:1 668:1 721:1 1133:1 1357:1 1358:1 5579:2 5580:1 5581:1 5582:2 5583:1 5584:1 5585:1 62166:32 62167:177 62168:248 62169:3 #
1.3817236581807726023099795395477e-07 85:1 86:1 498:2 1606:2 2826:1 5834:1 62166:8 62167:27 62168:5129 62169:1 #
-1.3817236581807726023099795395477e-07 257:1 317:1 318:1 1164:1 2258:1 2573:1 7984:1 62166:7 62167:40 62168:2808 62169:1 #
1.3817236581807726023099795395477e-07 10:1 14:1 19:1 27:1 58:2 91:1 161:1 163:1 178:1 212:1 243:1 294:1 345:2 722:1 812:1 1084:1 1085:1 1465:1 1581:1 2936:1 4011:1 4350:1 4938:1 4939:1 4940:1 4941:1 4942:1 62166:29 62167:135 62168:222 62169:4 #
-1.3817236581807726023099795395477e-07 6:1 23:1 57:1 58:3 65:1 174:1 257:1 348:1 668:1 1420:2 2977:1 7223:1 11677:3 13128:1 17099:1 28768:1 37431:1 37432:1 62166:23 62167:103 62168:2781 62169:5 #
1.3817236581807726023099795395477e-07 2:1 10:1 83:1 95:1 163:2 174:1 208:2 267:1 390:1 391:1 392:1 549:1 916:1 2488:1 3112:1 62166:17 62167:58 62168:240 62169:2 #
-1.3817236581807726023099795395477e-07 10:1 19:2 61:1 65:1 97:1 163:2 216:1 264:1 344:1 411:1 883:1 1269:1 1597:1 1988:1 3830:1 3831:1 3832:1 62166:19 62167:85 62168:170 62169:1 #
1.3817236581807726023099795395477e-07 10:2 19:2 61:1 180:1 336:1 549:1 1319:1 4210:1 4832:1 6362:1 55076:1 60706:1 60707:1 60708:1 62166:16 62167:95 62168:5205 62169:1 #
-1.3817236581807726023099795395477e-07 10:1 26:1 58:1 89:1 178:1 213:5 696:1 1128:1 1129:1 37692:1 62166:14 62167:46 62168:2807 62169:1 #
1.3817236581807726023099795395477e-07 10:1 58:1 85:1 163:1 174:1 294:2 297:1 349:1 499:1 523:1 616:1 721:1 1321:1 2352:1 2523:1 2651:1 2930:1 3063:1 4793:1 5108:1 62166:21 62167:99 62168:227 62169:2 #
-1.3817236581807726023099795395477e-07 3:1 8:1 10:1 76:1 86:1 89:1 163:1 264:1 315:2 349:1 426:1 592:2 693:1 1845:1 2212:1 4053:1 4562:2 5438:1 6363:1 22477:1 62166:23 62167:110 62168:2770 62169:4 #
1.3817236581807726023099795395477e-07 14:1 26:2 65:1 172:1 236:1 293:2 393:1 423:1 561:1 589:2 1628:1 62166:14 62167:64 62168:244 62169:1 #
-1.3817236581807726023099795395477e-07 10:1 14:2 19:1 65:1 93:2 264:1 817:1 904:1 905:1 906:1 1183:1 1607:1 1694:1 3353:1 3873:1 3874:1 62166:18 62167:83 62168:171 62169:1 #
1.3817236581807726023099795395477e-07 2:1 10:1 19:1 57:1 58:2 78:1 91:1 294:1 336:1 497:1 1034:1 4074:1 4228:1 6362:1 9132:1 13558:1 53633:1 62166:18 62167:82 62168:5200 62169:2 #
-1.3817236581807726023099795395477e-07 10:1 97:1 592:1 722:1 791:1 2454:1 4086:1 37633:1 37634:1 37635:1 62166:10 62167:53 62168:2803 62169:6 #
1.3817236581807726023099795395477e-07 58:1 161:1 163:1 172:1 590:1 814:1 817:1 1872:1 2930:1 2976:1 3043:1 3160:1 5279:1 5280:1 5281:1 5282:1 62166:16 62167:80 62168:233 62169:0 #
-1.3817236581807726023099795395477e-07 10:1 26:1 59:1 65:1 85:1 88:1 91:1 174:2 213:1 264:1 294:1 549:4 590:1 788:2 952:1 1988:1 2381:1 4983:1 7767:1 8468:1 14361:1 14948:1 36948:2 36949:1 36950:1 36951:1 62166:32 62167:135 62168:2732 62169:12 #
1.3817236581807726023099795395477e-07 10:1 19:1 76:1 94:1 1680:1 2491:1 5353:1 5807:1 5808:1 5809:1 62165:1 62166:10 62167:59 62168:260 62169:4 #
-1.3817236581807726023099795395477e-07 14:1 26:1 85:1 294:1 498:2 585:1 3634:1 3680:1 62166:9 62167:33 62168:163 62169:1 #
1.3817236581807726023099795395477e-07 26:1 58:2 78:1 93:1 139:1 163:2 180:1 183:1 209:1 316:1 429:1 497:1 561:1 721:2 3064:1 3112:1 3890:1 4334:1 6363:1 7743:1 11428:1 43778:1 60724:1 60725:1 62166:27 62167:140 62168:5207 62169:4 #
-1.3817236581807726023099795395477e-07 19:1 65:2 163:1 293:1 592:1 1261:1 3298:1 5108:1 6049:1 18047:1 19648:1 19649:1 37614:1 62166:14 62167:75 62168:2797 62169:2 #
1.3817236581807726023099795395477e-07 2:1 19:1 97:1 133:1 143:1 163:1 294:3 517:1 4204:1 5296:1 5297:1 5298:1 5299:1 5300:1 5301:1 62166:17 62167:75 62168:235 62169:58 #
-1.3817236581807726023099795395477e-07 14:1 58:1 93:1 139:1 163:1 172:1 185:1 294:1 318:1 349:1 424:1 1126:1 3232:1 3352:1 6487:1 37467:1 37468:1 37469:1 62166:18 62167:91 62168:2784 62169:1 #
1.3817236581807726023099795395477e-07 23:1 60:1 174:1 183:1 294:4 721:1 2179:1 6350:1 6351:1 62166:12 62167:42 62168:292 62169:2 #
1.3817236581807726023099795395477e-07 2:1 3:1 10:1 19:1 58:1 59:1 85:1 139:1 162:1 267:1 290:1 294:3 692:1 814:1 1131:1 6697:1 15102:1 16437:1 37312:1 38936:1 62165:1 62166:22 62167:105 62168:5198 62169:2 #
-1.3817236581807726023099795395477e-07 10:1 19:1 134:1 181:1 336:1 350:1 912:1 960:1 1081:1 1259:1 1380:1 1629:1 37609:1 62166:13 62167:75 62168:2796 62169:1 #
1.3817236581807726023099795395477e-07 2:1 65:1 85:1 163:1 294:1 344:1 497:1 1607:1 1765:1 2258:1 3623:1 5320:1 5321:1 5322:1 5323:1 62166:15 62167:76 62168:236 62169:2 #
-1.3817236581807726023099795395477e-07 58:1 97:1 163:1 174:1 294:2 317:1 318:1 2258:1 4048:1 4049:1 4050:1 4051:1 4052:1 4053:1 62166:15 62167:78 62168:178 62169:4 #
-1.3817236581807726023099795395477e-07 58:1 470:1 2520:1 3488:1 34293:1 62166:5 62167:20 62168:2803 62169:1 #
1.3817236581807726023099795395477e-07 10:2 14:1 26:2 85:1 93:1 139:1 172:1 294:3 340:1 349:1 423:1 436:1 615:1 616:1 1198:1 1526:1 2300:2 2559:1 2930:1 3113:1 3441:1 5226:1 5227:1 62166:28 62167:120 62168:232 62169:3 #
-1.3817236581807726023099795395477e-07 10:1 57:1 58:2 65:1 83:1 86:1 89:1 134:1 143:1 183:1 264:1 336:1 423:1 435:1 517:1 615:1 668:1 904:1 1525:1 1607:1 1782:1 2521:1 2826:1 4830:2 4831:1 4832:1 4833:1 4834:1 62166:30 62167:133 62168:219 62169:3 #
1.3817236581807726023099795395477e-07 10:1 295:1 345:1 350:1 497:1 589:1 1081:1 1604:1 1630:1 2258:1 3354:1 3373:1 12030:1 22146:1 62166:14 62167:81 62168:5178 62169:2 #
-1.3817236581807726023099795395477e-07 19:1 549:1 3614:1 4965:1 5667:1 8786:1 62166:6 62167:42 62168:2796 62169:1 #
1.3817236581807726023099795395477e-07 19:1 21:2 57:1 58:1 78:1 88:1 91:1 350:1 429:1 523:1 721:2 912:1 1559:1 2683:1 3037:1 3338:2 3776:1 4228:1 5049:1 5255:1 5256:1 5257:1 5258:1 62166:26 62167:132 62168:233 62169:5 #
-1.3817236581807726023099795395477e-07 10:1 58:2 65:1 86:1 88:1 91:2 134:1 143:1 163:1 264:1 290:1 294:1 297:1 345:2 391:1 497:1 517:1 1198:1 1420:1 1430:1 4145:1 4794:1 22886:1 37078:1 62166:27 62167:110 62168:2746 62169:4 #
1.3817236581807726023099795395477e-07 19:1 23:1 95:1 336:1 551:1 585:1 592:1 721:1 1074:1 1981:2 5469:1 5470:1 5471:1 5472:1 5473:1 5474:1 62166:17 62167:78 62168:243 62169:0 #
1.3817236581807726023099795395477e-07 2:1 14:1 91:2 163:2 297:1 336:2 391:1 429:1 838:1 1085:1 2755:1 4770:1 6160:1 6721:1 7069:1 7743:1 7836:1 8221:1 18961:1 60646:1 60647:1 62166:24 62167:134 62168:5200 62169:2 #
-1.3817236581807726023099795395477e-07 8:1 10:2 14:2 19:2 26:1 58:1 65:1 76:1 78:1 84:2 85:2 133:3 134:1 180:2 208:4 243:1 292:1 294:1 316:1 349:1 384:1 499:1 581:1 624:1 721:2 1322:1 3352:1 3353:1 3874:1 5439:1 8083:1 8294:1 8623:1 15978:1 33647:1 33648:1 62166:48 62167:197 62168:2392 62169:4 #
1.3817236581807726023099795395477e-07 217:1 318:1 7307:1 62166:3 62167:17 62168:358 62169:5 #
-1.3817236581807726023099795395477e-07 549:1 1006:1 3748:1 3749:1 3750:1 62166:5 62167:29 62168:169 62169:2 #
-1.3817236581807726023099795395477e-07 2:1 10:1 85:1 180:1 294:3 390:1 549:1 550:1 913:1 998:1 1462:1 10626:1 37574:1 37575:1 37576:1 62166:17 62167:58 62168:2792 62169:1 #
1.3817236581807726023099795395477e-07 10:1 61:1 78:1 133:1 180:1 395:1 587:1 5226:1 9491:1 12947:1 40562:1 62166:11 62167:67 62168:5042 62169:1 #
-1.3817236581807726023099795395477e-07 2:1 3634:1 3636:1 4496:1 37598:1 37599:1 62166:6 62167:36 62168:2795 62169:1 #
1.3817236581807726023099795395477e-07 6:1 21:1 26:1 61:1 88:1 143:1 336:1 350:1 721:1 1559:1 1680:1 2735:1 2830:1 4207:1 5373:1 5374:1 5375:1 62166:17 62167:99 62168:239 62169:2 #
-1.3817236581807726023099795395477e-07 10:1 26:2 65:1 174:1 290:2 341:1 499:2 622:1 904:1 906:1 2826:1 3961:1 5562:1 5834:1 13810:1 18763:1 62166:19 62167:73 62168:2789 62169:2 #
1.3817236581807726023099795395477e-07 3:1 10:1 85:1 86:1 97:1 139:1 294:1 297:1 341:1 391:1 392:1 429:1 817:1 1605:1 2524:2 5255:1 5489:1 5490:1 62166:19 62167:78 62168:244 62169:3 #
-1.3817236581807726023099795395477e-07 17:1 18:1 93:1 163:1 243:1 264:1 293:1 294:3 295:1 336:1 616:1 626:1 1084:1 2180:1 4011:1 4025:1 4026:1 62166:19 62167:76 62168:178 62169:3 #
1.3817236581807726023099795395477e-07 2:1 8:2 17:1 27:2 91:2 133:1 143:1 180:1 294:2 340:2 721:2 998:1 2230:1 2824:2 4066:2 4293:1 8160:1 62166:25 62167:124 62168:5196 62169:2 #
-1.3817236581807726023099795395477e-07 65:1 88:1 236:1 237:1 257:1 498:1 791:1 998:1 3114:1 8661:1 12005:1 37546:1 62166:12 62167:63 62168:2790 62169:2 #
1.3817236581807726023099795395477e-07 19:1 23:1 78:1 163:1 178:1 344:1 791:1 912:1 3297:1 4692:1 5407:1 5408:1 5409:1 5410:1 5411:1 5412:1 62166:16 62167:104 62168:240 62169:0 #
-1.3817236581807726023099795395477e-07 10:1 15:2 58:2 78:1 143:1 429:1 1357:1 1358:1 1420:1 3158:1 13013:2 37318:1 62166:15 62167:89 62168:2770 62169:3 #
1.3817236581807726023099795395477e-07 58:1 592:1 1030:1 2936:1 3137:1 6109:1 6110:1 62166:7 62167:51 62168:282 62169:4 #
-1.3817236581807726023099795395477e-07 19:1 26:1 57:1 58:1 61:1 91:1 174:1 294:2 423:1 1526:1 3959:1 3960:1 3961:1 3962:1 3963:1 62166:16 62167:66 62168:176 62169:3 #
