SVM-light Version V6.02
0 # kernel type
3 # kernel parameter -d 
1 # kernel parameter -g 
1 # kernel parameter -s 
1 # kernel parameter -r 
empty# kernel parameter -u 
62172 # highest feature index 
13714 # number of training documents 
164 # number of support vectors plus 1 
1.5194586e+11 # threshold b, each following line is a SV (starting with alpha*y)
-4.6867138011385483647464137365603e-10 3:1 8:1 10:1 14:1 19:2 76:1 84:1 85:1 88:2 89:1 133:2 264:2 294:1 336:1 356:1 818:1 2497:1 2897:1 2898:1 3682:1 4206:1 4249:1 4346:1 6582:1 6657:1 7127:1 26630:1 39646:1 39647:2 39648:1 39649:1 39650:1 39651:1 39652:1 39653:1 39654:1 39655:1 39656:1 39657:1 39658:1 39659:1 39660:1 39661:1 39662:1 39663:1 39664:1 62165:5 62166:8630 62167:2 62169:26 62170:127 62171:2989 62172:1 #
4.6867138011385483647464137365603e-10 19:2 23:1 89:1 91:1 94:1 125:1 180:1 240:1 250:1 998:1 2126:1 2449:1 2813:1 3114:1 4726:1 7446:1 7447:1 9739:1 14468:1 29345:1 36975:1 42856:1 57384:1 57385:1 57386:1 57387:1 57388:1 57389:1 57390:1 57391:1 62165:3 62166:68007 62167:2 62169:16 62170:93 62171:4827 62172:5 #
-4.6867138011385483647464137365603e-10 84:1 93:1 1410:1 17620:1 42884:1 62165:1 62166:77547 62167:2 62169:3 62170:13 62171:3314 62172:1 #
4.6867138011385483647464137365603e-10 22:1 58:1 86:1 91:2 173:1 174:1 180:1 190:1 294:1 308:1 316:1 392:1 412:1 1521:1 2627:1 2824:1 6536:1 7147:1 7578:1 8307:1 8308:1 8309:1 8310:1 8311:1 8312:1 8313:1 8314:1 8315:1 8316:1 8317:1 8318:1 8319:1 8320:1 8321:1 8322:1 8323:1 62165:1 62166:82092 62167:2 62169:19 62170:98 62171:407 62172:2 #
-4.6867138011385483647464137365603e-10 10:1 14:2 19:1 26:1 27:1 65:1 133:1 143:1 159:1 172:1 179:1 184:1 208:2 294:2 390:1 395:1 549:1 573:1 585:1 668:1 769:1 770:1 773:1 774:1 884:3 920:1 927:1 1008:1 3037:1 3198:1 3395:1 3487:1 4980:1 4985:1 6535:1 6588:1 11054:1 11681:1 19538:1 19539:1 19540:1 19541:1 19542:1 19543:1 19544:1 19545:1 19546:1 19547:1 19548:1 19549:1 19550:1 19551:1 19552:1 19553:1 19554:1 19555:1 19556:1 19557:1 19558:1 19559:1 19560:1 19561:1 19562:1 19563:1 62165:2 62166:51804 62167:2 62169:35 62170:155 62171:1225 62172:4 #
4.6867138011385483647464137365603e-10 2:1 23:1 143:1 163:1 265:1 336:1 517:1 585:1 698:1 1559:1 1563:1 1680:1 1681:1 1810:1 6211:1 9537:1 11561:1 16045:1 19922:1 21960:1 23715:1 28335:1 28345:1 29178:1 29581:1 29582:1 29583:1 29584:1 29585:1 29586:1 29587:1 29588:1 29589:1 29590:1 29591:1 29592:1 29593:1 29594:1 29595:1 62165:5 62166:7485 62167:2 62169:20 62170:119 62171:2015 62172:1 #
-4.6867138011385483647464137365603e-10 10:1 19:1 1032:1 2497:1 3261:1 29511:1 34398:1 34399:1 34400:1 62165:3 62166:49473 62167:2 62169:5 62170:27 62171:2464 62172:1 #
4.6867138011385483647464137365603e-10 2:1 10:2 58:2 80:1 85:1 139:1 174:2 184:1 191:2 202:1 203:1 264:2 392:2 424:1 1844:2 2140:1 2748:1 3155:1 3161:1 3860:2 3861:2 3862:1 3863:1 3864:1 3865:1 3866:1 3867:2 3868:2 3869:1 3870:1 3871:1 3872:1 62165:1 62166:48219 62167:2 62169:22 62170:102 62171:171 62172:3 #
-4.6867138011385483647464137365603e-10 2:1 5:1 134:1 143:1 163:1 223:1 585:1 721:1 1597:1 1608:1 1809:1 2756:1 2995:1 4167:1 4370:1 5049:1 5489:1 6850:1 14971:1 17021:1 32839:1 49096:1 49097:1 49098:1 49099:1 62165:3 62166:45954 62167:2 62169:13 62170:64 62171:3930 62172:1 #
4.6867138011385483647464137365603e-10 10:1 93:1 139:1 172:1 668:1 814:1 877:1 1642:1 1942:1 3351:1 3358:1 4167:1 8469:2 11054:1 12777:1 32696:1 48001:1 48002:1 48003:1 48004:1 48005:1 48006:1 62165:4 62166:57209 62167:2 62169:12 62170:73 62171:3812 62172:1 #
-4.6867138011385483647464137365603e-10 3:1 20:1 58:1 134:1 163:1 264:1 429:2 448:1 642:1 721:1 1447:1 1779:1 5585:1 7407:1 7412:1 11841:1 18868:1 27787:1 27792:1 53965:1 53966:1 53967:1 53968:1 53969:1 53970:1 53971:1 53972:1 53973:1 62165:3 62166:43894 62167:2 62169:15 62170:83 62171:4450 62172:4 #
4.6867138011385483647464137365603e-10 19:2 61:1 133:1 143:1 159:1 294:1 315:1 590:1 611:1 872:1 1132:1 1181:1 1630:1 6033:1 8589:1 8602:1 8603:1 8851:1 12788:1 23002:1 40742:1 40743:1 40744:1 40745:1 40746:1 40747:1 62165:2 62166:56030 62167:2 62169:14 62170:85 62171:3094 62172:5 #
-4.6867138011385483647464137365603e-10 26:2 27:2 65:1 134:1 257:2 294:1 336:2 385:1 1645:1 1646:1 1725:1 2882:2 6820:2 10572:2 19085:1 23334:2 26465:1 38318:2 47159:1 60522:1 60523:1 60524:1 60525:1 60526:1 60527:1 60528:1 60529:1 60530:1 60531:1 60532:1 62165:5 62166:83253 62167:2 62169:20 62170:92 62171:5188 62172:2 #
4.6867138011385483647464137365603e-10 2:1 3:1 19:1 29:1 59:1 68:1 585:2 957:1 1559:1 1719:2 3908:1 5353:2 6573:1 7737:1 13606:1 20141:2 24961:2 38517:1 40078:1 41868:1 62165:1 62166:75540 62167:2 62169:13 62170:72 62171:3217 62172:1 #
-4.6867138011385483647464137365603e-10 2:2 19:2 65:1 94:1 125:1 163:2 236:1 237:1 245:1 336:2 374:1 424:1 1228:1 1697:1 4336:1 4795:1 6898:1 6959:1 6967:1 15411:1 31792:1 39647:2 45566:1 45567:1 45568:1 45569:1 45570:1 45571:1 45572:1 45573:1 45574:1 45575:1 45576:1 45577:1 45578:1 45579:1 45580:1 45581:1 62165:6 62166:22061 62167:2 62169:22 62170:127 62171:3582 62172:4 #
4.6867138011385483647464137365603e-10 14:1 19:1 78:1 102:1 133:1 180:1 336:1 517:1 548:1 549:1 591:1 622:1 847:1 1074:1 1462:2 1782:2 2094:1 2826:2 3166:1 4320:1 6841:1 14291:1 14296:1 17994:1 17999:1 18000:1 21882:1 24342:2 24343:1 24344:1 24345:2 24346:2 24347:1 24348:1 24349:1 24350:1 24351:1 62165:1 62166:60297 62167:2 62169:22 62170:71 62171:1581 62172:0 #
-4.6867138011385483647464137365603e-10 2:1 19:1 143:1 159:1 3249:1 22761:1 24213:1 24480:1 61490:1 61491:1 61492:1 62165:5 62166:83261 62167:2 62169:6 62170:30 62171:5300 62172:1 #
4.6867138011385483647464137365603e-10 3:1 14:1 58:2 88:1 89:1 97:1 98:1 131:1 143:1 163:1 208:2 264:1 295:1 309:1 524:1 549:1 650:1 687:1 844:1 920:1 1524:1 2747:1 3097:1 3103:1 4938:1 5141:1 5255:1 8821:1 17334:1 17791:1 19499:1 25916:1 28578:1 29538:1 33569:1 52586:1 52587:1 52588:1 52589:1 52590:1 52591:1 52592:1 52593:1 62165:1 62166:84005 62167:2 62169:23 62170:97 62171:4302 62172:4 #
-4.6867138011385483647464137365603e-10 19:1 65:1 89:1 163:1 385:1 688:1 753:1 846:1 1981:1 2939:1 39989:1 42366:1 49056:1 61259:1 61260:1 61261:1 61262:1 62165:4 62166:82915 62167:2 62169:9 62170:32 62171:5275 62172:2 #
4.6867138011385483647464137365603e-10 7:1 10:1 58:1 61:1 91:1 183:1 348:1 426:1 721:1 847:1 983:1 1074:1 1373:1 1382:1 1547:1 2258:1 2889:1 2906:1 4556:1 4722:1 5776:1 8238:1 11799:1 14230:1 25555:1 30520:1 47194:1 50204:1 51221:1 51222:1 51223:1 51224:1 51225:1 51226:1 51227:1 62165:2 62166:7667 62167:2 62169:18 62170:88 62171:4144 62172:2 #
-4.6867138011385483647464137365603e-10 8:1 10:1 65:1 174:1 178:1 464:1 499:1 516:1 869:1 904:1 4081:1 14925:1 14932:1 16478:1 16533:1 39124:1 39125:1 39126:1 39127:1 39128:1 39129:1 62165:5 62166:4318 62167:2 62169:11 62170:55 62171:2934 62172:1 #
4.6867138011385483647464137365603e-10 2:1 14:1 19:1 26:1 76:1 78:2 93:1 102:1 163:1 184:1 257:1 392:1 435:1 580:1 585:1 958:1 1502:1 1663:1 1943:1 2882:1 4085:1 4100:1 4268:1 4367:1 4560:1 5740:1 11104:1 23397:1 25292:1 38866:1 48090:1 48091:1 48092:1 48093:1 48094:1 48095:1 48096:1 48097:1 48098:1 48099:1 48100:1 48101:1 48102:1 48103:1 62165:1 62166:78546 62167:2 62169:23 62170:113 62171:3821 62172:0 #
-4.6867138011385483647464137365603e-10 139:1 181:1 294:1 592:1 738:1 16141:1 16144:1 17031:1 28659:1 35851:1 41422:1 41423:1 41424:1 62165:4 62166:81095 62167:2 62169:7 62170:48 62171:3166 62172:1 #
4.6867138011385483647464137365603e-10 10:1 14:1 19:1 88:1 296:1 341:1 394:1 429:1 551:1 561:1 1597:1 1698:1 1767:1 1981:1 5049:1 5488:1 7092:1 7439:1 15775:1 17432:1 17433:1 17434:1 17435:1 17436:1 17437:1 17438:1 17439:1 17440:1 17441:1 17442:1 17443:1 62165:4 62166:6845 62167:2 62169:16 62170:74 62171:1063 62172:2 #
-4.6867138011385483647464137365603e-10 31975:1 62165:6 62166:10708 62167:2 62169:1 62170:7 62171:2228 62172:7 #
4.6867138011385483647464137365603e-10 6:1 14:3 26:1 85:1 86:1 113:1 133:1 142:1 163:1 184:1 264:1 290:1 293:1 294:1 338:1 384:1 389:1 426:1 442:1 575:1 590:1 1463:1 1643:1 1735:1 2542:1 4198:1 6925:1 7147:1 9309:1 9940:1 10138:1 10680:1 10692:1 10723:1 10835:1 10836:1 10837:1 10838:1 10839:1 10840:1 10841:1 10842:1 10843:1 10844:1 10845:1 10846:1 10847:1 10848:1 10849:1 10850:1 10851:1 10852:1 10853:1 10854:1 10855:1 62165:2 62166:2539 62167:2 62169:29 62170:141 62171:580 62172:1 #
-4.6867138011385483647464137365603e-10 19:1 97:1 233:1 292:1 550:1 551:1 557:1 790:1 800:1 1074:2 1094:1 1694:1 3177:1 3844:1 3858:1 9527:1 12107:1 18069:1 27257:1 27258:1 27259:1 27260:1 27261:1 27262:1 62165:2 62166:3604 62167:2 62169:13 62170:56 62171:1830 62172:1 #
-4.6867138011385483647464137365603e-10 26:1 65:1 83:1 85:1 91:2 139:1 172:1 185:1 392:1 524:1 573:1 1130:1 1447:1 1692:1 1709:1 1942:1 3197:1 3207:1 7586:1 7587:1 7588:1 7589:1 7590:1 7591:1 7592:1 7593:1 7594:1 7595:1 7596:1 7597:1 7598:1 7599:1 62165:6 62166:8878 62167:2 62169:17 62170:71 62171:374 62172:1 #
4.6867138011385483647464137365603e-10 2:1 10:2 14:1 19:1 91:1 94:2 133:1 174:1 180:2 237:1 240:1 250:1 290:1 294:2 336:1 392:1 429:1 497:1 957:1 1126:1 1180:1 1185:1 1604:2 1618:1 1619:2 1620:1 2757:1 3074:1 3578:1 6211:1 6224:1 6419:1 7801:1 8099:1 10323:1 11027:1 16428:1 16429:1 18515:1 20387:1 21482:1 24357:1 34899:1 36113:1 36114:1 36115:1 36116:1 36117:1 36118:1 36119:1 36120:1 36121:1 36122:1 36123:1 36124:1 36125:1 36126:1 62165:4 62166:6790 62167:2 62169:32 62170:164 62171:2637 62172:3 #
4.6867138011385483647464137365603e-10 65:2 89:1 392:2 524:1 668:1 687:1 721:1 1084:1 1642:1 1961:1 2124:1 2410:1 2871:1 3634:1 6861:1 8200:1 8201:1 8202:1 8203:1 8204:1 8205:1 8206:1 8207:1 8208:1 8209:1 8210:1 8211:1 8212:1 8213:1 8214:1 8215:1 62165:3 62166:84348 62167:2 62169:17 62170:82 62171:401 62172:1 #
4.6867138011385483647464137365603e-10 14:1 85:3 163:3 430:1 549:1 1196:1 2968:1 3232:1 3682:1 3748:1 4053:1 5631:1 7893:1 9916:1 11148:2 12247:1 16173:1 16183:1 18999:1 19196:1 19197:1 25434:1 25435:1 25436:1 25437:1 25438:1 25439:1 25440:1 25441:2 25442:1 25443:1 25444:1 25445:1 25446:1 25447:1 25448:1 25449:1 62165:2 62166:46107 62167:2 62169:22 62170:113 62171:1681 62172:4 #
4.6867138011385483647464137365603e-10 14:1 58:1 85:1 174:1 498:1 550:1 847:1 963:1 2783:1 2997:1 3029:1 3037:1 3654:1 4413:1 5034:1 6174:1 11386:1 26577:1 29358:1 45725:1 45726:1 45727:1 45728:1 45729:1 45730:1 45731:1 45732:1 62165:2 62166:8394 62167:2 62169:14 62170:59 62171:3597 62172:2 #
-4.6867138011385483647464137365603e-10 6014:1 6015:1 6016:1 62165:3 62166:10614 62167:2 62169:2 62170:17 62171:275 62172:0 #
4.6867138011385483647464137365603e-10 2:1 6:1 7:1 10:1 19:1 26:1 59:1 83:1 142:1 163:1 294:1 349:1 392:1 548:1 721:2 847:1 853:1 854:1 1043:1 1070:1 1183:1 1462:1 1483:1 1532:1 1656:1 2020:1 2308:1 2382:1 3434:1 3503:1 3689:1 3714:1 4857:1 9135:1 9687:1 9796:1 16620:1 22628:1 24558:1 27186:1 28351:1 43920:1 48367:1 48368:1 48369:1 48370:1 48371:1 48372:1 48373:1 48374:1 48375:1 48376:1 48377:1 48378:1 48379:1 48380:1 48381:1 48382:1 62165:7 62166:52579 62167:2 62169:30 62170:132 62171:3854 62172:2 #
-4.6867138011385483647464137365603e-10 19:2 26:1 78:1 85:1 97:1 172:1 220:1 233:1 294:1 345:1 393:1 430:1 573:1 694:1 1988:1 2570:1 3676:1 5638:1 9271:1 11358:1 12164:1 16780:1 22113:1 35292:1 38576:1 40757:1 50997:1 51678:1 58399:1 58400:1 58401:1 58402:1 58403:1 58404:1 62165:3 62166:78006 62167:2 62169:18 62170:83 62171:4952 62172:2 #
4.6867138011385483647464137365603e-10 76:1 91:1 93:1 163:1 172:1 174:1 294:1 524:1 585:1 887:1 1420:1 1526:1 1646:1 2231:1 2824:1 2996:1 5258:2 5632:1 6066:1 6088:1 6659:1 7578:1 7928:1 9208:1 9557:1 16737:1 31749:1 35104:1 35105:1 35106:1 35107:1 35108:1 35109:1 35110:1 35111:1 35112:1 35113:1 35114:1 35115:1 35116:1 62165:2 62166:3054 62167:2 62169:21 62170:101 62171:2530 62172:2 #
-4.6867138011385483647464137365603e-10 2:1 19:1 65:1 1915:1 1979:1 1980:1 2278:1 59834:1 59835:1 62165:2 62166:1793 62167:2 62169:5 62170:22 62171:5106 62172:1 #
4.6867138011385483647464137365603e-10 345:1 392:1 620:1 814:1 1496:1 1523:1 1767:1 3731:1 5770:1 8793:1 9022:1 10811:1 13539:1 17510:1 55590:1 55591:1 55592:1 55593:1 55594:1 55595:1 55596:1 62165:2 62166:80585 62167:2 62169:11 62170:65 62171:4620 62172:1 #
-4.6867138011385483647464137365603e-10 19506:1 19507:1 19508:1 19509:1 19510:1 62165:2 62166:76333 62167:2 62169:3 62170:19 62171:1221 62172:1 #
4.6867138011385483647464137365603e-10 10:1 19:1 26:1 60:2 89:1 97:2 143:1 172:1 256:1 270:1 294:1 336:1 356:1 573:1 1196:1 1823:1 1830:1 3695:1 5711:1 6018:1 8253:1 8279:1 8529:2 8539:2 13488:1 20153:1 29997:2 30425:1 30426:1 30427:1 30428:1 30429:1 30430:1 30431:1 30432:1 30433:1 30434:1 30435:1 30436:1 30437:1 62165:5 62166:53089 62167:2 62169:23 62170:121 62171:2092 62172:3 #
-4.6867138011385483647464137365603e-10 2:1 18:1 19:1 65:1 497:1 1915:1 3126:1 13994:1 14000:1 15780:1 22646:1 46496:1 46497:1 46498:1 46499:1 46500:1 46501:1 62165:5 62166:70565 62167:2 62169:9 62170:44 62171:3668 62172:1 #
4.6867138011385483647464137365603e-10 65:1 161:1 174:1 295:1 549:2 904:1 1198:1 2683:1 2693:1 2845:1 2846:1 8221:1 9201:1 18392:1 29948:1 32898:1 42555:1 43967:1 43968:1 43969:1 43970:1 43971:1 62165:2 62166:7283 62167:2 62169:12 62170:48 62171:3425 62172:3 #
-4.6867138011385483647464137365603e-10 58:1 85:1 91:2 143:1 163:1 237:1 264:1 391:1 522:1 791:1 1209:1 1525:1 2983:1 4042:1 5493:1 5563:1 5664:1 7632:1 12363:1 12380:1 13268:1 13589:1 24505:1 29048:1 33844:2 57587:2 57588:1 57589:1 57590:1 57591:1 57592:1 57593:1 57594:1 57595:1 57596:1 57597:1 57598:1 57599:1 62165:1 62166:3323 62167:2 62169:21 62170:106 62171:4852 62172:2 #
4.6867138011385483647464137365603e-10 7:1 19:2 57:2 58:1 91:1 294:1 297:1 316:1 352:1 552:1 559:1 1465:1 1692:1 1709:1 1838:1 5563:1 5976:1 6017:1 11096:1 16973:1 16979:1 20204:1 20205:1 20206:1 20207:1 20208:1 20209:1 20210:1 20211:1 20212:1 20213:1 20214:1 20215:1 20216:1 20217:1 20218:1 20219:1 62165:6 62166:47112 62167:2 62169:20 62170:113 62171:1267 62172:1 #
-4.6867138011385483647464137365603e-10 19:1 26:1 85:1 97:1 133:1 178:1 233:1 294:3 864:2 1394:1 2978:1 4788:1 5080:1 5088:1 6999:1 7311:1 10658:1 13488:1 14896:1 14897:1 14898:1 14899:1 14900:1 14901:1 14902:1 14903:1 14904:1 14905:1 14906:1 14907:1 62165:3 62166:69492 62167:2 62169:17 62170:72 62171:886 62172:3 #
4.6867138011385483647464137365603e-10 6:1 26:1 58:2 61:1 88:1 89:1 163:2 172:1 174:2 185:1 294:2 317:1 328:1 524:1 573:1 615:1 650:1 681:1 684:1 687:1 688:1 721:1 1064:1 1526:1 2825:1 3961:1 3969:1 5206:1 6896:1 8033:1 9687:1 10301:1 10674:1 21313:1 29425:1 31216:1 31923:1 32610:1 56528:1 56529:1 56530:1 56531:1 56532:1 56533:1 56534:1 56535:1 56536:1 56537:1 56538:1 62165:2 62166:1188 62167:2 62169:27 62170:120 62171:4729 62172:3 #
-4.6867138011385483647464137365603e-10 26:1 172:1 183:1 214:1 573:1 1601:1 2652:1 2782:1 2876:1 5018:1 33467:1 46814:1 56760:1 56761:1 56762:1 62165:6 62166:5524 62167:2 62169:8 62170:38 62171:4748 62172:1 #
4.6867138011385483647464137365603e-10 2:1 58:1 83:1 88:1 91:1 163:2 172:1 185:1 294:2 295:1 309:1 316:1 325:1 389:1 390:1 391:1 403:1 535:1 572:1 817:1 1198:1 1260:1 1465:1 1526:1 1735:1 1897:1 2110:1 2658:1 3396:1 7903:1 12380:1 18043:1 18044:1 18045:1 18046:1 18047:1 18048:1 18049:1 18050:1 18051:1 18052:1 18053:1 18054:1 18055:1 18056:1 18057:1 18058:1 18059:1 18060:1 18061:1 18062:1 18063:1 18064:1 18065:1 18066:1 18067:1 18068:1 62165:3 62166:83495 62167:2 62169:30 62170:126 62171:1107 62172:3 #
-4.6867138011385483647464137365603e-10 585:1 5680:1 5690:1 27281:1 27282:1 62165:5 62166:69115 62167:2 62169:3 62170:16 62171:1834 62172:14 #
4.6867138011385483647464137365603e-10 14:1 22:1 93:2 97:1 163:1 178:1 208:2 294:4 592:1 670:1 738:1 864:2 963:1 1223:1 1343:1 1361:1 1597:1 1607:1 1608:1 1943:1 3037:1 3321:1 3343:1 4478:1 4692:1 4763:1 5049:1 5219:1 9307:1 9322:1 10227:1 11091:1 11192:1 19587:1 26049:1 33149:1 42294:1 42489:1 47046:1 47047:1 47048:1 47049:1 47050:1 47051:1 47052:1 47053:1 47054:1 47055:1 47056:1 47057:1 47058:1 62165:4 62166:5406 62167:2 62169:29 62170:138 62171:3718 62172:3 #
-4.6867138011385483647464137365603e-10 2:1 65:2 517:1 526:1 2124:1 5528:1 17896:1 26390:1 62165:5 62166:6242 62167:2 62169:5 62170:14 62171:1766 62172:1 #
4.6867138011385483647464137365603e-10 10:1 19:2 26:1 134:1 721:1 853:1 1420:1 2755:1 2830:1 3113:1 3402:1 5231:1 6336:1 7322:1 14538:1 14541:1 16342:1 43259:1 47521:1 47522:1 47523:1 47524:1 47525:1 47526:1 62165:6 62166:47975 62167:2 62169:13 62170:65 62171:3763 62172:1 #
-4.6867138011385483647464137365603e-10 26:1 134:1 139:1 143:1 161:1 389:1 426:1 590:1 933:1 1323:1 1471:1 2589:1 4361:1 12463:1 47739:1 62165:3 62166:7026 62167:2 62169:8 62170:31 62171:3786 62172:1 #
4.6867138011385483647464137365603e-10 23:1 58:2 89:1 118:1 212:1 294:1 345:1 430:1 517:1 550:1 959:1 977:1 1074:2 2053:1 2710:1 3347:1 3756:1 7186:1 13352:1 15269:1 21160:1 23761:1 28424:1 28425:1 28426:1 28427:1 28428:1 28429:1 28430:1 28431:1 28432:1 28433:1 28434:1 62165:2 62166:80165 62167:2 62169:18 62170:90 62171:1916 62172:5 #
-4.6867138011385483647464137365603e-10 11:1 14:1 19:1 294:1 392:1 497:1 721:1 963:1 1071:1 1087:1 5147:1 5831:1 13664:1 15459:1 22934:1 22936:1 32712:1 33960:1 51669:1 60030:1 60031:1 60032:1 60033:1 60034:1 60035:1 60036:1 60037:1 62165:5 62166:70228 62167:2 62169:14 62170:66 62171:5126 62172:1 #
4.6867138011385483647464137365603e-10 3:1 10:3 15:1 19:2 86:2 133:1 143:2 159:2 294:4 316:1 350:1 389:1 392:1 616:1 912:1 914:1 918:1 929:1 1126:1 1462:1 1559:1 1604:1 1619:1 1680:1 2022:1 2523:1 2524:1 2684:1 2696:1 2697:1 2718:1 3241:1 3770:1 4157:1 4785:1 6315:1 6803:1 7127:1 7972:1 9650:1 9656:1 14295:1 16072:1 21515:1 26244:1 26962:1 27421:1 27422:1 27423:1 27424:1 27425:1 27426:1 27427:1 27428:1 27429:1 27430:1 27431:1 27432:1 62165:4 62166:1992 62167:2 62169:34 62170:157 62171:1841 62172:118 #
-4.6867138011385483647464137365603e-10 2:1 61:1 65:2 133:1 163:1 264:1 349:1 791:1 1295:1 2034:1 2776:1 2934:1 9337:1 16126:1 18543:1 18544:1 18545:1 18546:1 18547:1 18548:1 18549:1 18550:1 18551:1 18552:1 18553:1 18554:1 62165:5 62166:11667 62167:2 62169:14 62170:77 62171:1140 62172:2 #
4.6867138011385483647464137365603e-10 93:1 141:1 143:1 264:1 294:1 592:1 738:1 788:1 1228:1 2829:1 2934:1 3072:1 5375:1 5385:1 7838:1 22673:1 22678:1 24609:1 27473:1 27604:1 30657:1 30658:1 30659:1 30660:1 30661:1 30662:1 30663:1 30664:1 30665:1 30666:1 30667:1 62165:6 62166:45809 62167:2 62168:1 62169:16 62170:94 62171:2108 62172:5 #
-4.6867138011385483647464137365603e-10 2:1 65:1 91:1 384:1 898:1 1801:1 10711:1 18716:1 20514:1 51191:1 51192:1 62165:2 62166:69330 62167:2 62169:6 62170:24 62171:4141 62172:1 #
4.6867138011385483647464137365603e-10 85:1 267:1 294:1 429:1 616:1 4446:1 5761:1 15383:1 18791:1 33419:1 60996:1 60997:1 60998:1 60999:1 61000:1 62165:5 62166:57422 62167:2 62169:8 62170:36 62171:5248 62172:2 #
-4.6867138011385483647464137365603e-10 2:1 14:1 58:2 88:1 163:2 212:1 294:1 336:1 621:1 643:1 817:1 963:1 1084:1 1085:1 1128:1 1129:1 1144:1 1319:1 1447:1 1525:1 1922:1 2126:1 2135:1 2235:1 2418:1 2490:1 2767:1 3997:1 4413:1 4585:1 4816:1 4956:1 5935:1 6291:1 6530:1 7212:1 8043:1 9750:1 9970:1 11736:1 13259:1 17181:1 17182:1 17183:1 17184:1 17185:1 17186:1 17187:1 17188:1 17189:1 17190:1 17191:1 17192:1 17193:1 17194:1 17195:1 17196:1 17197:1 17198:1 17199:1 17200:1 62165:6 62166:62770 62167:2 62168:1 62169:32 62170:153 62171:1053 62172:0 #
4.6867138011385483647464137365603e-10 14:1 19:1 26:1 178:1 585:2 721:1 795:1 1942:1 2878:1 3299:1 4367:1 4691:1 7601:1 23681:1 45311:1 52502:1 52503:1 52504:1 52505:1 52506:1 52507:1 52508:1 52509:1 52510:1 52511:1 52512:1 62165:2 62166:63099 62167:2 62169:14 62170:77 62171:4298 62172:1 #
-4.6867138011385483647464137365603e-10 26:2 83:1 88:1 139:1 172:1 184:1 294:2 336:1 573:1 1689:1 2020:1 2024:1 2380:1 2460:1 8195:1 9250:1 9491:1 9497:1 13350:1 30808:1 30809:1 30810:1 30811:1 30812:1 30813:1 30814:1 30815:1 30816:1 30817:1 30818:1 30819:1 62165:4 62166:63007 62167:2 62169:17 62170:81 62171:2128 62172:0 #
4.6867138011385483647464137365603e-10 58:2 97:2 183:1 257:1 549:1 670:1 1262:1 1320:1 1360:1 1361:1 1845:1 2074:1 2708:1 2746:1 2980:1 5954:1 5955:1 6820:1 7021:1 8590:2 8604:1 10572:1 11192:1 38454:1 38455:1 38456:1 38457:1 38458:1 38459:1 38460:1 62165:1 62166:80342 62167:2 62169:17 62170:71 62171:2863 62172:8 #
-4.6867138011385483647464137365603e-10 10:1 14:1 19:1 58:1 83:1 88:1 143:1 159:1 161:1 163:1 165:1 174:2 175:1 184:1 294:3 316:1 345:1 465:1 917:1 979:1 998:1 1129:1 1183:1 1526:1 2784:1 3037:1 3434:1 3565:1 3919:1 4169:1 4413:1 5123:1 5473:1 6516:1 7386:1 8020:1 8705:1 9074:1 9294:1 9295:1 9447:1 15018:1 20582:1 22497:1 22498:1 22499:1 22500:1 22501:1 22502:1 22503:1 22504:1 22505:1 22506:1 22507:1 22508:1 22509:1 22510:1 22511:1 22512:1 22513:1 62165:3 62166:54499 62167:2 62169:32 62170:144 62171:1444 62172:7 #
-4.6867138011385483647464137365603e-10 14:1 26:1 616:1 1982:1 2004:1 2298:1 2682:1 6029:1 9154:1 11876:1 19047:1 37831:1 45041:1 45042:1 45043:1 62165:5 62166:53155 62167:2 62169:8 62170:48 62171:3533 62172:2 #
4.6867138011385483647464137365603e-10 10:1 23:1 58:1 85:1 139:1 163:1 169:1 208:2 264:2 293:1 294:1 423:1 437:1 499:1 516:1 877:1 1269:1 1350:1 1569:2 4040:1 4564:1 4571:1 4825:1 19888:1 19889:1 19890:1 19891:1 19892:1 19893:1 19894:1 19895:1 19896:1 19897:1 19898:1 19899:1 19900:1 19901:1 19902:1 19903:1 19904:1 19905:1 19906:1 62165:4 62166:8820 62167:2 62169:23 62170:91 62171:1254 62172:6 #
4.6867138011385483647464137365603e-10 10:1 11:1 13:1 26:1 40:1 143:1 163:1 564:1 576:1 1597:1 1608:1 1630:1 3037:1 3257:1 3441:1 7848:1 12756:1 25932:1 55448:1 55449:1 55450:1 55451:1 55452:1 62165:1 62166:59765 62167:2 62169:12 62170:59 62171:4609 62172:1 #
-4.6867138011385483647464137365603e-10 65:1 97:1 174:1 264:1 294:1 340:1 696:1 843:1 869:1 904:1 1457:1 1525:1 1607:1 1884:1 2155:1 2261:1 2301:1 3000:2 3852:1 4292:2 5009:1 16555:1 19029:1 19603:1 19604:1 20311:1 41793:2 43146:1 50491:1 50492:1 50493:1 50494:1 62165:2 62166:7996 62167:2 62169:18 62170:64 62171:4069 62172:3 #
4.6867138011385483647464137365603e-10 294:1 991:1 5412:1 8083:1 25762:1 25763:1 39436:1 62165:2 62166:77784 62167:2 62169:4 62170:19 62171:2969 62172:1 #
-4.6867138011385483647464137365603e-10 78:1 83:1 143:1 163:1 294:3 430:1 693:1 702:1 864:2 912:1 2022:1 2178:1 6755:1 19675:1 30925:1 33544:1 33545:1 33546:1 34505:1 34506:1 34507:1 34508:1 34509:1 34510:1 62165:1 62166:52311 62167:2 62169:14 62170:55 62171:2473 62172:1 #
4.6867138011385483647464137365603e-10 8:1 61:1 78:1 85:1 143:1 180:1 998:1 1979:1 2908:1 3338:1 3372:1 3689:1 7499:1 8977:1 9628:1 9863:1 12380:1 12969:1 16764:1 17617:1 48201:1 49913:1 49914:1 49915:1 49916:1 49917:1 49918:1 49919:1 49920:1 49921:1 49922:1 49923:1 49924:1 49925:1 49926:1 49927:1 49928:1 49929:1 49930:1 62165:2 62166:2503 62167:2 62169:20 62170:110 62171:4022 62172:7 #
-4.6867138011385483647464137365603e-10 2:1 19:1 65:1 180:1 264:1 1915:1 3600:1 3605:1 3797:1 11171:1 25994:1 25995:1 25996:1 25997:1 25998:1 62165:5 62166:49493 62167:2 62169:8 62170:40 62171:1724 62172:1 #
4.6867138011385483647464137365603e-10 3:1 10:3 14:1 19:1 23:1 58:1 61:1 85:2 161:1 163:1 184:1 208:2 267:1 507:1 1071:1 1133:1 1420:1 1597:1 1608:1 1694:1 1741:1 1845:1 1868:1 1873:1 2301:1 2497:1 2793:1 2881:1 2977:1 3037:1 3688:1 4471:1 4790:1 6391:1 6820:1 7767:1 8119:1 9059:1 9915:1 15484:1 20154:1 20757:1 20998:1 24275:1 28578:1 28579:1 28580:1 28581:1 28582:1 28583:1 28584:1 28585:1 28586:1 28587:1 28588:1 28589:1 28590:1 28591:1 28592:1 28593:1 28594:1 28595:1 28596:1 62165:1 62166:49310 62167:2 62169:34 62170:154 62171:1929 62172:6 #
-4.6867138011385483647464137365603e-10 2:1 19:2 21:1 78:1 102:1 294:1 791:2 1681:1 1765:1 2022:1 3195:1 4127:1 4938:1 5443:1 10688:1 10786:1 14202:1 14203:1 14204:1 14205:1 14206:1 14207:1 14208:1 14209:1 14210:1 14211:1 14212:1 14213:1 14214:1 14215:1 14216:1 14217:1 14218:1 14219:1 14220:1 14221:1 14222:1 14223:1 14224:1 14225:1 14226:1 14227:1 14228:1 62165:3 62166:41118 62167:2 62169:23 62170:131 62171:834 62172:1 #
4.6867138011385483647464137365603e-10 7:1 10:1 14:1 91:1 264:1 3063:1 3137:1 6017:1 6856:1 10321:1 10482:1 11561:1 11570:1 14086:1 24962:1 29699:1 41652:1 41653:1 41654:1 41655:1 41656:1 41657:1 41658:1 41659:1 41660:1 62165:4 62166:68608 62167:2 62169:13 62170:94 62171:3192 62172:0 #
-4.6867138011385483647464137365603e-10 26:1 85:1 91:1 172:1 174:2 185:1 264:1 290:1 424:1 561:1 575:1 887:1 1030:1 1319:1 1592:1 1844:1 3230:1 5034:1 5252:1 6073:1 7328:1 8270:1 16947:1 17944:1 20877:1 21538:1 21539:1 21540:1 21541:1 21542:1 62165:4 62166:34038 62167:2 62169:16 62170:66 62171:1371 62172:1 #
4.6867138011385483647464137365603e-10 10:1 14:1 19:2 26:1 78:1 85:1 91:3 102:1 178:1 183:1 275:1 294:3 518:1 2143:1 2711:1 2794:1 3206:1 5667:2 5670:2 5671:1 6033:1 6332:1 6351:1 8941:1 13279:1 13291:1 15338:1 19163:1 24462:1 30508:1 32758:2 32759:1 32760:1 32761:1 32762:2 32763:1 32764:1 32765:1 32766:1 32767:1 32768:1 32769:1 62165:5 62166:7041 62167:2 62169:26 62170:111 62171:2310 62172:4 #
-4.6867138011385483647464137365603e-10 65:2 91:1 163:1 290:1 316:1 384:1 387:1 399:1 2124:1 2334:1 4170:1 4198:1 10676:1 19591:1 23573:1 26321:1 31560:1 48110:1 62165:3 62166:27092 62167:2 62169:10 62170:36 62171:3822 62172:1 #
4.6867138011385483647464137365603e-10 91:2 294:3 345:1 864:2 2756:1 8557:1 14118:1 14119:1 14121:1 20140:1 20144:1 24540:1 26995:1 26996:1 26997:1 26998:1 26999:1 62165:4 62166:82986 62167:2 62169:11 62170:42 62171:1812 62172:1 #
-4.6867138011385483647464137365603e-10 2:1 19:1 65:2 78:1 97:1 102:1 236:1 244:1 260:1 276:1 294:1 348:1 2124:1 3298:1 4595:1 7310:1 14335:1 16047:1 21447:1 38908:1 38909:1 38910:1 38911:1 38912:1 62165:5 62166:84283 62167:2 62169:13 62170:53 62171:2913 62172:2 #
4.6867138011385483647464137365603e-10 19:1 58:2 85:1 91:1 93:1 172:1 174:1 257:1 316:1 535:1 721:1 885:1 953:1 983:1 1183:1 1660:1 6066:1 6072:1 6089:1 7330:1 12406:1 18903:1 20935:1 25179:1 26744:1 26753:1 33251:1 33252:1 40645:1 40646:1 40647:1 40648:1 40649:1 40650:1 40651:1 40652:1 40653:1 40654:1 62165:4 62166:7640 62167:2 62169:20 62170:106 62171:3084 62172:3 #
-4.6867138011385483647464137365603e-10 19:1 65:1 290:1 721:1 2521:1 2708:1 10320:1 24357:1 54908:1 54909:1 54910:1 54911:1 54912:1 62165:7 62166:9671 62167:2 62169:7 62170:31 62171:4565 62172:1 #
4.6867138011385483647464137365603e-10 10:1 19:1 58:2 89:1 143:2 185:1 204:1 294:4 392:1 551:1 668:1 864:2 1405:1 1462:1 1467:1 1823:1 1829:1 1830:1 2070:1 2235:1 2594:1 3232:1 4769:1 6601:1 7169:1 7362:1 9503:1 9526:1 13969:1 16163:1 24471:1 31216:1 31217:1 31218:1 31219:1 31220:1 31221:1 31222:1 31223:1 31224:1 31225:1 31226:1 31227:1 62165:4 62166:46648 62167:2 62169:25 62170:97 62171:2160 62172:3 #
-4.6867138011385483647464137365603e-10 134:1 429:1 500:1 1900:1 7754:1 36613:1 44398:1 44399:1 44400:1 62165:5 62166:22199 62167:2 62169:5 62170:18 62171:3475 62172:1 #
4.6867138011385483647464137365603e-10 8:1 65:1 390:1 391:1 403:1 404:1 1598:1 7281:1 32309:1 54370:1 54371:1 54372:1 54373:1 54374:1 54375:1 62165:6 62166:3930 62167:2 62169:8 62170:51 62171:4496 62172:1 #
-4.6867138011385483647464137365603e-10 10:1 294:3 864:2 7141:1 7142:1 7143:1 7144:1 7145:1 62165:6 62166:18673 62167:2 62169:6 62170:19 62171:346 62172:1 #
4.6867138011385483647464137365603e-10 2:1 58:2 76:1 91:1 265:1 294:1 345:1 392:1 429:1 551:1 721:1 979:1 983:1 1074:1 1477:1 1716:1 2140:1 10346:1 10711:1 12018:1 14230:1 14294:1 15347:1 16360:1 16361:1 16362:1 16363:1 16364:1 16365:1 16366:1 16367:1 16368:1 16369:1 16370:1 16371:1 16372:1 16373:1 16374:1 16375:1 16376:1 62165:2 62166:64955 62167:2 62169:21 62170:102 62171:990 62172:5 #
-4.6867138011385483647464137365603e-10 2:1 19:1 143:1 159:1 213:2 264:1 1525:1 2938:1 2993:1 3601:1 4911:1 5855:1 6694:1 10919:1 15074:1 24233:1 24234:1 24235:1 62165:7 62166:82266 62167:2 62169:10 62170:39 62171:1576 62172:1 #
4.6867138011385483647464137365603e-10 7:1 19:2 58:2 60:1 163:1 293:1 294:2 316:1 336:2 390:1 510:1 523:1 524:1 551:1 650:1 681:1 684:1 1981:1 2026:1 2258:1 2830:1 3325:1 4064:1 5049:1 5340:1 5488:1 5976:1 8033:1 10035:1 10036:1 10037:1 10038:1 10039:1 10040:1 10041:1 10042:1 10043:1 10044:1 10045:1 10046:1 10047:1 10048:1 10049:1 10050:1 10051:1 10052:1 10053:1 10054:1 10055:1 10056:1 10057:1 62165:2 62166:7141 62167:2 62169:28 62170:121 62171:938 62172:3 #
-4.6867138011385483647464137365603e-10 14:1 58:2 88:1 117:1 134:1 163:1 390:1 391:1 403:1 498:1 524:1 553:1 650:1 5473:1 6739:1 13007:1 15744:1 61921:1 61922:1 61923:1 61924:1 61925:1 61926:1 61927:1 62165:5 62166:9613 62167:2 62169:13 62170:62 62171:5347 62172:2 #
4.6867138011385483647464137365603e-10 10:1 19:1 26:1 161:1 163:1 183:1 294:2 297:1 585:2 721:1 788:1 795:1 796:1 810:1 864:1 1601:1 2709:1 2876:1 3043:1 3278:1 3557:1 5340:1 8238:1 10489:1 11720:1 12382:1 15238:1 15448:1 21895:1 21896:1 31509:1 45851:1 45856:1 49042:1 49043:1 49044:1 49045:1 49046:1 49047:1 49048:1 49049:1 62165:3 62166:71828 62167:2 62169:22 62170:105 62171:3927 62172:2 #
-4.6867138011385483647464137365603e-10 2:1 10:1 58:1 65:1 294:3 392:1 413:1 424:1 722:1 791:2 864:2 998:1 2649:1 2687:1 2748:1 2983:1 3276:1 3284:1 3469:1 4053:1 4690:1 5157:1 9630:1 58463:1 58464:1 58465:1 58466:1 62165:3 62166:79347 62167:2 62169:16 62170:66 62171:4954 62172:4 #
4.6867138011385483647464137365603e-10 7:1 549:1 793:1 915:1 1845:1 3680:1 3748:1 6173:1 6180:1 12005:1 16173:1 16183:1 18890:1 19197:1 21092:1 40459:1 49318:1 49319:1 49320:1 49321:1 49322:1 49323:1 49324:1 62165:4 62166:45138 62167:2 62169:12 62170:62 62171:3952 62172:6 #
-4.6867138011385483647464137365603e-10 143:1 350:1 389:1 580:1 1357:1 1358:1 1369:1 1370:1 1493:1 1558:1 1559:1 26957:1 26958:1 26959:1 26960:1 26961:1 26962:1 62165:5 62166:18877 62167:2 62169:9 62170:45 62171:1808 62172:1 #
4.6867138011385483647464137365603e-10 10:3 58:2 83:1 174:1 191:1 212:1 257:2 264:1 271:2 294:3 308:1 423:1 427:1 437:1 499:1 516:1 698:1 1350:1 1844:1 2442:1 3298:1 3333:1 3441:1 4046:1 5323:1 5915:1 7186:1 8939:1 12176:1 12653:1 15134:1 17414:1 27678:1 45365:1 45366:1 45367:1 45368:1 45369:1 45370:1 45371:1 45372:1 45373:1 62165:2 62166:6924 62167:2 62169:25 62170:109 62171:3563 62172:4 #
-4.6867138011385483647464137365603e-10 3:1 10:1 14:1 19:2 76:2 85:2 133:1 139:1 184:1 294:2 297:1 317:1 336:1 349:1 392:1 393:1 429:3 433:1 446:1 457:1 722:1 723:1 734:1 998:2 1357:1 1358:1 1370:1 1420:2 1430:1 1526:1 2221:1 2438:1 2468:1 2551:1 2570:1 2899:1 2902:1 2903:1 2976:1 4144:1 4701:1 5141:1 5553:1 8712:1 8756:1 8804:1 9015:1 9785:1 10337:1 11212:1 12164:1 16612:1 19052:1 19599:1 27168:1 33327:1 33328:1 33329:1 33330:1 33331:1 33332:1 33333:1 33334:1 33335:1 33336:1 33337:1 33338:1 33339:1 33340:1 33341:1 33342:1 33343:1 33344:1 62165:3 62166:17108 62167:2 62169:41 62170:185 62171:2365 62172:4 #
4.6867138011385483647464137365603e-10 19:1 26:2 78:2 85:1 102:1 163:1 185:2 257:1 424:1 551:3 698:1 1355:1 1356:1 1363:1 1559:1 1704:1 1981:1 1994:1 3000:1 3565:1 4443:1 5721:1 6003:1 6287:2 8222:1 8729:1 9295:1 9503:1 11801:1 15086:1 20548:1 28079:1 39037:1 43321:1 43322:1 43323:1 43324:1 43325:1 43326:1 43327:1 43328:1 43329:1 43330:1 43331:1 43332:1 62165:3 62166:11498 62167:2 62168:1 62169:26 62170:106 62171:3358 62172:1 #
-4.6867138011385483647464137365603e-10 65:1 91:1 499:1 3919:1 6362:1 22910:1 33122:1 39941:1 39942:1 62165:2 62166:16453 62167:2 62168:1 62169:5 62170:20 62171:3011 62172:1 #
4.6867138011385483647464137365603e-10 10:1 17:1 26:1 60:1 65:1 85:1 97:1 172:1 585:1 670:1 1198:1 1203:1 1269:1 1526:1 1628:1 2786:2 3078:1 3574:1 6105:1 6386:1 6387:1 6389:1 8529:1 8539:1 9998:1 15170:1 17226:1 20878:1 26554:1 29997:1 31277:1 31280:1 41162:1 42108:1 42109:1 42110:1 42111:1 42112:1 42113:1 42114:1 42115:1 42116:1 62165:4 62166:85981 62167:2 62169:22 62170:114 62171:3241 62172:4 #
-4.6867138011385483647464137365603e-10 14:1 26:1 58:1 78:1 85:2 185:1 213:1 295:1 309:1 349:2 378:1 392:2 518:1 519:1 1394:1 2388:1 2881:1 3460:1 4413:1 7819:1 7820:1 7821:1 7822:1 7823:1 7824:1 7825:1 7826:1 7827:1 7828:1 7829:1 7830:1 7831:1 7832:1 7833:1 7834:1 7835:1 62165:1 62166:77518 62167:2 62169:20 62170:85 62171:390 62172:2 #
4.6867138011385483647464137365603e-10 19:1 84:1 94:1 318:1 906:1 1545:1 1845:1 3945:1 5440:1 5453:1 8350:1 10327:1 17759:1 20678:1 39979:1 51594:1 51595:1 51596:1 51597:1 51598:1 51599:1 62165:4 62166:10149 62167:2 62169:11 62170:65 62171:4192 62172:5 #
-4.6867138011385483647464137365603e-10 26:1 58:1 85:1 93:1 174:1 294:1 390:1 391:1 403:1 498:1 512:1 513:1 514:1 585:1 681:1 914:1 1319:1 1330:1 2110:1 4811:1 4911:1 5210:1 14244:1 14966:1 21297:1 44944:1 55854:1 61255:1 61256:1 61257:1 61258:1 62165:2 62166:16976 62167:2 62169:16 62170:65 62171:5275 62172:2 #
4.6867138011385483647464137365603e-10 76:1 91:1 93:1 133:1 163:1 213:7 315:1 429:1 781:1 915:1 2993:6 3336:1 4637:1 6033:1 6034:1 6035:1 6036:1 6037:1 6038:1 6039:1 6040:1 6041:1 6042:1 6043:1 6044:1 6045:1 62165:2 62166:82310 62167:2 62169:19 62170:78 62171:275 62172:4 #
-4.6867138011385483647464137365603e-10 6:1 10:1 27:1 78:1 143:1 163:1 174:1 429:1 549:1 604:1 721:2 1032:1 1064:1 1582:1 1823:1 1829:1 2480:1 4763:1 5595:1 7888:1 7904:1 8333:1 10926:1 11841:1 13401:1 13404:1 14747:1 27233:1 27234:1 27235:1 27236:1 27237:1 27238:1 27239:1 27240:1 27241:1 62165:5 62166:77460 62167:2 62169:19 62170:89 62171:1828 62172:2 #
4.6867138011385483647464137365603e-10 10:1 14:1 89:1 139:1 174:1 185:1 205:1 429:1 549:1 904:1 1597:1 2651:1 3355:1 4040:1 8253:1 9246:1 11825:1 18512:1 20799:1 23619:1 42072:1 42073:1 42074:1 42075:1 42076:1 42077:1 42078:1 42079:1 42080:1 42081:1 42082:1 42083:1 42084:1 42085:1 42086:1 62165:7 62166:48273 62167:2 62169:18 62170:95 62171:3237 62172:2 #
-4.6867138011385483647464137365603e-10 26:1 88:1 143:1 163:2 348:1 721:1 814:1 1319:1 1329:1 1330:1 1358:1 2830:1 4370:1 4817:1 5288:1 6662:1 8956:1 13128:1 16830:1 31304:1 31491:1 40422:1 40423:1 40424:1 40425:1 40426:1 62165:3 62166:19093 62167:2 62169:14 62170:63 62171:3058 62172:1 #
4.6867138011385483647464137365603e-10 2:1 19:1 58:1 59:1 68:1 185:1 204:1 12427:1 42474:1 42475:1 42476:1 42477:1 42478:1 42479:1 42480:1 42481:1 42482:1 62165:2 62166:62348 62167:2 62169:9 62170:44 62171:3275 62172:2 #
-4.6867138011385483647464137365603e-10 2:1 14:1 19:1 65:1 83:1 85:3 93:1 133:1 161:1 180:1 340:1 392:1 1498:1 1559:1 1663:1 1989:1 2059:1 2111:1 2461:1 2649:1 2761:1 3682:1 4207:1 7900:1 12072:1 15162:1 27219:1 27920:1 27926:1 28169:1 37700:1 37701:1 37702:1 37703:1 37704:1 37705:1 37706:1 37707:1 37708:1 37709:1 37710:1 62165:7 62166:77321 62167:2 62169:22 62170:97 62171:2808 62172:3 #
4.6867138011385483647464137365603e-10 10:1 58:1 78:1 85:1 91:1 134:1 163:1 264:1 294:1 642:1 1043:1 1050:1 1070:1 1372:1 2234:1 2804:1 3063:1 4826:1 7310:1 7313:1 10321:1 14086:1 16491:1 48540:1 48541:1 48542:1 48543:1 48544:1 48545:1 62165:4 62166:4336 62167:2 62169:15 62170:60 62171:3871 62172:4 #
-4.6867138011385483647464137365603e-10 2:1 17:1 65:1 84:1 133:1 294:1 668:1 998:1 1359:1 1493:1 1756:1 1757:1 5606:1 11324:1 22347:1 22348:1 22349:1 22350:1 22351:1 22352:1 22353:1 62165:2 62166:75671 62167:2 62169:11 62170:51 62171:1437 62172:2 #
4.6867138011385483647464137365603e-10 2:1 17:1 65:1 295:1 498:1 14273:1 16998:1 18559:1 48300:1 57308:1 57309:1 57310:1 57311:1 57312:1 57313:1 57314:1 57315:1 57316:1 57317:1 62165:4 62166:56933 62167:2 62169:10 62170:51 62171:4816 62172:2 #
-4.6867138011385483647464137365603e-10 2:1 26:1 585:1 721:1 853:1 992:1 2442:1 2475:1 3873:1 4770:1 12144:1 12145:1 12146:1 12147:1 12148:1 12149:1 12150:1 12151:1 12152:1 62165:2 62166:416 62167:2 62169:10 62170:55 62171:664 62172:2 #
4.6867138011385483647464137365603e-10 2:1 14:1 19:1 174:1 793:1 794:1 806:1 1526:1 1559:1 1643:2 1959:1 2570:1 2902:1 6476:1 7114:1 8296:1 9406:1 12164:1 15320:1 22144:1 25909:1 30551:1 44470:1 52654:1 53123:1 53124:1 53125:1 53126:1 53127:1 53128:1 53129:1 53130:1 62165:2 62166:84975 62167:2 62169:17 62170:109 62171:4357 62172:1 #
-4.6867138011385483647464137365603e-10 27:1 57:1 58:1 65:1 66:1 91:1 97:1 340:1 548:1 551:2 622:1 943:1 1276:1 1605:1 1823:1 2518:1 2997:1 3278:1 6287:1 6892:1 8568:1 9272:1 9503:1 25733:1 28016:1 28545:1 29954:1 29955:1 29956:1 29957:1 29958:1 29959:1 29960:1 29961:1 29962:1 29963:1 62165:4 62166:74320 62167:2 62169:19 62170:76 62171:2042 62172:2 #
4.6867138011385483647464137365603e-10 14:2 19:1 65:1 163:1 592:1 721:1 1096:1 1133:1 1496:2 1605:1 1783:1 2401:1 2573:1 2709:1 2934:1 3160:1 5038:1 24647:1 25311:1 25312:1 28885:1 28891:1 35445:1 48786:1 48787:1 48788:1 48789:1 48790:1 48791:1 48792:1 48793:1 48794:1 48795:1 48796:1 48797:1 48798:1 48799:1 62165:4 62166:7105 62167:2 62169:20 62170:121 62171:3897 62172:1 #
-4.6867138011385483647464137365603e-10 83:1 91:1 423:1 1920:1 3177:1 16579:1 26316:1 61171:1 61172:1 61173:1 61174:1 61175:1 61176:1 61177:1 61178:1 61179:1 61180:1 62165:4 62166:70723 62167:2 62169:9 62170:41 62171:5269 62172:0 #
4.6867138011385483647464137365603e-10 14:1 19:1 26:1 91:1 133:1 178:1 264:1 436:1 523:1 551:1 871:1 883:1 1009:1 1084:1 1133:1 1462:1 1467:1 1796:1 1806:1 3206:1 5339:1 6427:1 8946:1 9490:1 14825:1 18531:1 20695:1 23516:1 26719:1 26720:1 26721:1 26722:1 26723:1 26724:1 26725:1 26726:1 26727:1 26728:1 26729:1 26730:1 26731:1 62165:5 62166:45566 62167:2 62169:21 62170:96 62171:1790 62172:1 #
-4.6867138011385483647464137365603e-10 14:1 19:3 76:1 88:1 133:1 210:1 221:1 421:1 721:1 1096:1 1211:1 1607:1 2125:1 2128:1 2129:1 2275:1 12934:1 14459:1 19587:1 23279:1 23280:1 23281:1 23282:1 23283:1 23284:1 23285:1 23286:1 23287:1 23288:1 62165:2 62166:498 62167:2 62169:16 62170:86 62171:1505 62172:5 #
4.6867138011385483647464137365603e-10 2:3 14:3 19:1 78:1 143:3 163:1 294:3 316:1 616:1 1133:2 1152:2 1802:1 2258:1 2509:1 2616:1 2718:1 3479:1 5975:1 6694:2 10201:1 14433:1 17670:1 24444:1 25981:3 25986:3 29818:1 29828:1 30797:2 34532:1 34642:3 34728:1 40962:1 48746:1 51111:1 57165:1 57268:1 57269:1 57270:1 57271:1 57272:1 57273:1 62165:3 62166:69230 62167:2 62169:30 62170:133 62171:4811 62172:3 #
-4.6867138011385483647464137365603e-10 91:1 143:1 293:1 1198:1 1319:1 1730:1 4011:1 4042:1 4169:1 5752:1 9973:1 13720:1 17759:1 18925:1 52142:1 52143:1 52144:1 52145:1 52146:1 52147:1 52148:1 62165:7 62166:73240 62167:2 62169:11 62170:57 62171:4266 62172:1 #
4.6867138011385483647464137365603e-10 10:1 57:2 58:4 61:1 65:2 66:2 136:1 163:1 294:3 392:1 470:1 485:1 668:1 1405:1 1445:1 2126:2 2135:1 2180:1 2355:1 2380:1 2650:1 5985:1 8960:1 9460:1 10010:1 11948:2 21170:1 21423:1 23930:1 30388:1 32867:1 32868:1 32869:2 32870:1 32871:1 32872:1 32873:1 32874:1 32875:1 32876:1 32877:1 32878:1 62165:2 62166:7445 62167:2 62169:27 62170:105 62171:2313 62172:8 #
-4.6867138011385483647464137365603e-10 6:1 14:1 292:1 294:1 3353:1 3354:1 3362:1 3363:1 3406:1 4078:1 14342:1 46090:1 58668:1 58669:1 58670:1 62165:5 62166:2214 62167:2 62169:8 62170:42 62171:4976 62172:2 #
4.6867138011385483647464137365603e-10 10:1 294:1 340:1 562:1 1545:1 1601:1 1602:1 1614:1 4613:1 4614:1 4615:1 4616:1 4617:1 4618:1 4619:1 62165:3 62166:9448 62167:2 62169:8 62170:47 62171:211 62172:1 #
-4.6867138011385483647464137365603e-10 10:1 19:1 26:1 65:1 143:1 163:1 172:1 390:1 573:1 585:1 1198:1 2234:1 2756:1 5406:1 6227:1 6850:1 11255:1 11469:1 13254:1 19320:1 25769:1 29646:1 36206:1 45111:1 47180:1 49146:1 54353:1 54354:1 54355:1 54356:1 54357:1 54358:1 54359:1 54360:1 54361:1 62165:5 62166:4891 62167:2 62169:18 62170:80 62171:4493 62172:1 #
4.6867138011385483647464137365603e-10 7:1 76:1 85:3 428:1 549:1 2534:1 3748:1 4053:1 4169:1 8349:1 16173:1 16183:1 16409:1 16410:1 19196:1 19197:1 19675:2 21422:1 30184:1 35250:1 35251:1 35252:2 35253:1 35254:1 35255:1 35256:1 35257:1 35258:1 35259:1 35260:1 35261:1 62165:2 62166:4141 62167:2 62169:18 62170:96 62171:2544 62172:4 #
-4.6867138011385483647464137365603e-10 2:2 23:1 83:1 98:1 517:1 526:1 2077:1 7754:1 7755:1 7756:1 7757:1 7758:1 7759:1 7760:1 7761:1 7762:1 62165:7 62166:5771 62167:2 62169:9 62170:38 62171:383 62172:1 #
4.6867138011385483647464137365603e-10 3:1 10:3 14:1 19:2 20:1 48:1 58:1 84:1 87:1 115:1 133:1 163:1 174:1 293:1 294:2 336:1 350:1 465:1 616:1 963:1 1420:1 1559:1 1648:2 1668:2 1669:1 1871:1 2493:1 2718:1 2898:1 3626:1 3795:1 4613:1 5123:1 5411:1 5831:1 5932:1 6588:1 7171:1 12071:1 14318:1 15704:1 18317:1 20429:1 31357:1 31438:1 47095:1 47096:1 47097:1 47098:1 47099:1 47100:1 47101:1 47102:1 47103:1 47104:1 47105:1 47106:1 47107:1 47108:1 47109:1 47110:1 47111:1 47112:1 47113:1 47114:1 62165:4 62166:3998 62167:2 62169:36 62170:192 62171:3722 62172:2 #
-4.6867138011385483647464137365603e-10 6280:1 62165:3 62166:7446 62167:2 62169:1 62170:4 62171:2106 62172:1 #
4.6867138011385483647464137365603e-10 316:1 3923:1 3924:1 3938:1 4067:3 7223:1 13278:1 55794:2 55795:1 55796:1 55797:1 55798:1 55799:1 55800:1 55801:1 55802:1 55803:1 55804:1 55805:1 55806:1 62165:3 62166:76273 62167:2 62169:12 62170:71 62171:4643 62172:0 #
-4.6867138011385483647464137365603e-10 2:1 58:2 78:2 88:1 89:1 91:2 118:1 294:2 308:1 336:1 592:1 692:1 738:1 1867:1 1870:1 2023:1 3889:1 4145:1 4150:1 4860:1 4870:1 5066:1 7800:1 7818:1 9834:1 10711:1 12267:1 27324:1 28579:1 32509:1 35262:1 35263:1 35264:1 35265:1 35266:1 35267:1 35268:1 35269:1 35270:1 35271:1 35272:1 35273:1 35274:1 62165:1 62166:69692 62167:2 62169:24 62170:132 62171:2545 62172:2 #
4.6867138011385483647464137365603e-10 2:1 3:2 10:1 19:1 76:1 86:1 133:1 180:1 208:2 264:1 294:1 392:1 668:1 793:1 814:1 998:1 1034:1 1321:1 1604:1 1619:1 1970:1 2496:1 2802:1 3204:1 4208:1 4860:1 6148:1 6285:1 6525:1 7269:1 7277:1 7801:1 8013:1 11535:1 31991:1 33341:1 34927:1 35282:1 35283:1 40566:1 52348:1 52349:1 52350:1 52351:1 52352:1 52353:1 52354:1 62165:3 62166:7155 62167:2 62169:25 62170:118 62171:4286 62172:2 #
-4.6867138011385483647464137365603e-10 26318:2 58730:1 62165:6 62166:8524 62167:2 62169:2 62170:12 62171:4979 62172:0 #
4.6867138011385483647464137365603e-10 2:1 10:1 11:1 14:1 19:1 37:1 58:3 65:2 91:1 163:1 172:1 173:1 183:1 185:1 208:4 336:1 342:1 345:1 384:1 392:1 429:1 671:2 721:2 882:1 889:1 927:1 983:1 1084:1 1481:1 1680:1 2649:1 2783:1 2936:1 2953:1 3037:1 4350:1 5049:1 5179:1 5276:1 5427:1 6959:1 6967:1 7512:1 7613:1 9482:1 9930:1 10625:1 10628:1 17255:1 17302:1 17717:1 18634:1 21123:1 21412:1 22297:1 23702:1 26998:1 29302:1 33103:1 34165:1 34166:1 34167:1 34168:1 34169:1 34170:1 34171:1 34172:1 34173:1 34174:1 34175:1 34176:1 34177:1 34178:1 34179:1 34180:1 34181:1 34182:1 34183:1 34184:1 34185:1 34186:1 62165:3 62166:64543 62167:2 62169:45 62170:186 62171:2444 62172:5 #
-4.6867138011385483647464137365603e-10 65:1 236:1 1444:1 19076:1 19077:1 19078:1 19079:1 62165:7 62166:68578 62167:2 62169:4 62170:18 62171:1186 62172:1 #
4.6867138011385483647464137365603e-10 19:1 20:1 26:1 48:1 133:1 139:1 585:1 620:1 4429:1 4788:1 7043:1 31198:1 32815:1 37055:1 37056:1 62165:6 62166:45886 62167:2 62169:8 62170:38 62171:2744 62172:1 #
-4.6867138011385483647464137365603e-10 19:1 65:1 78:1 85:3 91:1 95:1 220:1 294:1 846:1 1050:1 1942:1 2301:1 2783:1 2792:1 8258:1 8353:1 9896:1 28620:1 28670:1 48632:2 48930:1 48931:1 48932:1 48933:1 48934:1 48935:1 48936:1 48937:1 48938:1 48939:1 48940:1 48941:1 48942:1 48943:1 48944:1 48945:1 48946:1 48947:1 62165:1 62166:68322 62167:2 62169:21 62170:97 62171:3917 62172:4 #
4.6867138011385483647464137365603e-10 20:2 163:2 180:1 208:4 214:2 228:2 429:2 430:2 781:2 1168:2 53977:2 53978:1 53979:2 53980:1 53981:1 53982:2 53983:2 53984:2 53985:1 53986:1 53987:1 53988:1 53989:1 62165:2 62166:62094 62167:2 62169:20 62170:82 62171:4451 62172:2 #
-4.6867138011385483647464137365603e-10 65:1 548:1 1462:1 1483:1 2491:1 36109:1 36110:1 36111:1 36112:1 62165:4 62166:67115 62167:2 62169:5 62170:12 62171:2635 62172:4 #
4.6867138011385483647464137365603e-10 10:1 14:1 19:1 26:1 88:1 89:1 119:1 143:1 159:1 175:1 192:1 294:1 336:1 585:1 721:1 853:1 956:1 1675:1 2125:1 2129:1 6898:1 6899:1 6900:1 6901:1 6902:1 6903:1 6904:1 6905:1 6906:1 6907:1 6908:1 6909:1 6910:1 6911:1 6912:1 6913:1 6914:1 6915:1 6916:1 6917:1 6918:1 62165:3 62166:5145 62167:2 62169:21 62170:117 62171:330 62172:1 #
-4.6867138011385483647464137365603e-10 2:2 10:2 11:2 37:2 65:2 143:2 264:4 392:2 696:2 843:2 869:1 906:1 1357:2 1358:2 1369:2 1370:2 2524:2 2649:2 4655:2 9371:1 9434:2 12398:2 12399:2 12400:1 12401:1 12402:2 12403:1 12404:1 62165:5 62166:9234 62167:2 62168:1 62169:26 62170:95 62171:686 62172:2 #
4.6867138011385483647464137365603e-10 10:1 80:1 139:1 208:2 242:1 1642:1 6291:1 13605:1 28768:1 38958:1 48004:1 61369:1 61370:1 61371:1 61372:1 61373:1 61374:1 61375:1 62165:4 62166:78758 62167:2 62169:10 62170:53 62171:5284 62172:1 #
-4.6867138011385483647464137365603e-10 10:2 14:1 65:1 174:1 214:2 229:1 236:1 499:1 516:1 682:1 998:1 1183:1 1460:1 2660:1 3307:1 3434:1 5123:1 8269:1 8830:1 8831:1 8832:1 8833:1 8834:1 8835:1 8836:1 8837:1 8838:1 8839:1 8840:1 62165:1 62166:66820 62167:2 62169:16 62170:85 62171:443 62172:1 #
4.6867138011385483647464137365603e-10 2:2 3:1 14:1 76:1 134:1 208:4 294:2 692:1 696:1 998:1 1343:1 2258:1 2802:1 2892:1 3083:1 4560:1 5141:1 6677:1 7914:1 11202:1 11538:1 13321:1 14540:1 33342:1 48747:1 48748:1 48749:1 48750:1 48751:1 48752:1 62165:7 62166:59886 62167:2 62169:18 62170:67 62171:3892 62172:2 #
-4.6867138011385483647464137365603e-10 2:1 19:3 58:1 88:1 93:1 134:1 163:1 257:1 293:1 294:2 336:1 366:1 869:1 873:1 997:1 998:1 1011:1 1129:1 1320:1 1321:1 1629:1 1995:1 2050:1 2304:1 2896:1 3325:1 3473:1 3476:1 3477:1 4642:1 4643:1 8860:1 12615:1 12795:1 13842:1 15045:1 15638:1 20706:1 24053:1 26371:1 34532:1 40961:1 40962:1 40963:1 40964:1 40965:1 40966:1 40967:1 40968:1 40969:1 40970:1 40971:1 62165:3 62166:65549 62167:2 62169:28 62170:134 62171:3119 62172:3 #
4.6867138011385483647464137365603e-10 2:1 6:1 10:1 14:1 19:1 58:1 61:1 76:1 89:1 91:1 163:1 174:1 180:1 294:1 301:1 336:1 390:1 391:1 403:1 499:1 963:1 1249:1 1366:1 1420:1 1600:1 2231:1 2258:1 3646:1 5958:1 6659:1 7122:1 8253:1 8361:1 9144:1 13134:1 13310:1 13928:1 15172:1 15173:1 23411:1 35384:1 35456:1 39406:1 39407:1 39408:1 39409:1 39410:1 39411:1 39412:1 39413:1 39414:1 39415:1 39416:1 39417:1 39418:1 39419:1 39420:1 62165:1 62166:69612 62167:2 62169:29 62170:145 62171:2968 62172:2 #
-4.6867138011385483647464137365603e-10 2:2 65:1 83:1 161:1 163:1 166:1 294:3 392:1 864:2 1763:1 2460:1 2649:1 2650:1 6591:1 10830:1 16441:1 29053:1 62165:4 62166:63421 62167:2 62169:11 62170:27 62171:4548 62172:12 #
4.6867138011385483647464137365603e-10 85:1 549:1 1765:1 1845:1 2111:1 2559:1 3748:1 5000:1 6397:2 6755:2 8242:1 16173:1 16183:1 19197:1 43489:1 43490:1 43491:1 43492:1 43493:1 43494:1 43495:1 62165:2 62166:5781 62167:2 62169:12 62170:56 62171:3376 62172:12 #
-4.6867138011385483647464137365603e-10 10:1 143:1 178:1 294:2 992:1 1569:1 1570:1 1694:1 2010:1 3831:1 8599:1 12018:1 12725:1 17229:1 30801:1 47411:1 48220:1 48221:1 48222:1 48223:1 48224:1 48225:1 62165:5 62166:10751 62167:2 62168:1 62169:12 62170:51 62171:3836 62172:3 #
4.6867138011385483647464137365603e-10 10:1 163:1 548:1 551:1 554:1 2573:1 3407:1 3565:1 7019:1 13848:1 14162:1 28545:1 29717:1 29718:1 58777:1 58778:1 58779:1 58780:1 58781:1 62165:3 62166:80403 62167:2 62169:10 62170:44 62171:4985 62172:1 #
-4.6867138011385483647464137365603e-10 14:1 19:1 58:1 60:1 65:1 80:1 83:1 85:1 97:1 163:1 179:1 384:1 386:1 429:1 781:1 924:1 1135:1 2016:1 2147:1 2258:1 2559:1 4053:1 4063:1 6964:1 6987:1 13780:1 19921:1 29275:1 29848:1 40805:1 44251:1 44252:1 44253:1 44254:1 44255:1 44256:1 44257:1 44258:1 44259:1 62165:4 62166:62747 62167:2 62169:20 62170:100 62171:3458 62172:4 #
4.6867138011385483647464137365603e-10 2:1 10:2 14:1 27:1 58:1 76:1 78:1 93:1 163:1 178:1 183:1 264:1 294:1 316:1 321:1 390:1 391:1 616:1 844:1 1034:1 1135:1 1481:1 1604:1 1619:1 1629:1 1970:1 2234:1 2258:1 2316:1 2442:1 2616:2 2624:1 2625:1 2996:1 4210:1 5029:1 5632:1 8016:1 8070:1 8527:1 8663:1 8683:1 12475:1 14641:1 15165:1 17380:1 17381:1 17382:1 17383:1 17384:1 17385:1 17386:1 17387:1 17388:1 17389:1 17390:1 17391:1 17392:1 17393:1 17394:1 17395:1 17396:1 17397:1 17398:1 17399:1 17400:1 17401:1 62165:4 62166:13358 62167:2 62169:35 62170:182 62171:1060 62172:2 #
-4.6867138011385483647464137365603e-10 3:1 10:1 14:1 91:1 93:1 290:1 294:2 342:1 391:1 392:2 429:1 446:1 498:1 616:1 998:1 1277:1 1301:1 1493:1 1621:1 2110:1 2449:1 3121:1 3877:1 5141:1 5553:1 10615:1 11323:1 11324:1 12558:1 12559:1 12560:1 12561:1 12562:1 12563:1 12564:1 62165:4 62166:10739 62167:2 62169:19 62170:86 62171:699 62172:2 #
4.6867138011385483647464137365603e-10 26:1 58:1 76:1 85:1 97:1 133:1 134:1 163:2 426:1 513:1 561:1 791:1 906:1 1295:1 1321:1 1324:1 1357:1 1358:1 1370:1 1373:1 1521:1 4446:1 5833:1 7836:1 7844:1 15588:1 15727:1 17165:1 19766:1 19767:1 19768:1 19769:1 19770:1 19771:1 19772:1 19773:1 19774:1 19775:1 19776:1 19777:1 19778:1 19779:1 19780:1 19781:1 62165:4 62166:73405 62167:2 62169:23 62170:106 62171:1246 62172:7 #
-4.6867138011385483647464137365603e-10 26:1 65:1 89:1 178:1 180:1 497:1 696:1 1180:1 1185:1 1319:1 1330:1 2757:1 9739:1 9974:1 10610:1 22456:1 25230:1 62165:7 62166:61637 62167:2 62169:9 62170:38 62171:2190 62172:1 #
4.6867138011385483647464137365603e-10 10:3 14:1 19:2 93:2 143:2 172:1 180:1 208:2 293:1 393:1 429:2 1168:1 1183:1 1921:1 1928:1 2254:1 2756:1 2793:1 3169:2 3307:1 3434:1 3634:1 3830:1 3838:1 5177:1 6189:1 6526:1 6850:1 7300:1 7567:1 8820:2 16763:1 17972:1 51944:1 51945:1 51946:1 51947:1 51948:1 51949:1 51950:1 51951:1 51952:1 62165:3 62166:60241 62167:2 62169:26 62170:117 62171:4237 62172:2 #
-4.6867138011385483647464137365603e-10 10:2 95:1 183:1 294:1 350:1 430:1 551:1 616:1 1074:1 1081:1 1477:1 1498:1 1559:1 1996:1 3112:2 3414:1 3962:1 8238:1 8938:1 8947:1 15264:1 24307:1 26213:1 32969:1 40599:1 40600:1 41811:1 41816:1 42215:1 46246:1 46247:1 46248:1 46249:1 62165:5 62166:61318 62167:2 62169:18 62170:76 62171:3647 62172:1 #
4.6867138011385483647464137365603e-10 14:1 23:1 58:2 89:1 91:1 174:1 185:1 294:1 295:1 309:1 391:1 392:1 429:1 953:1 1831:1 2709:2 3298:1 3556:1 3557:1 5472:1 6820:2 7446:1 7831:1 10984:1 12380:1 12406:1 13581:1 16568:1 16848:1 24505:1 26779:1 26782:1 26783:1 26784:1 26785:1 26786:1 26787:1 26788:1 62165:5 62166:2810 62167:2 62169:21 62170:89 62171:1793 62172:6 #
-4.6867138011385483647464137365603e-10 4972:1 62165:7 62166:12864 62167:2 62168:1 62169:1 62170:2 62171:4449 62172:1 #
4.6867138011385483647464137365603e-10 85:1 97:1 163:1 208:2 243:1 336:1 374:1 549:1 670:1 920:1 1320:1 1360:1 1361:1 1408:1 2232:2 2746:1 4572:1 11080:1 11081:1 11082:1 11083:1 11084:1 11085:1 11086:1 11087:1 62165:2 62166:77253 62167:2 62169:14 62170:55 62171:593 62172:4 #
-4.6867138011385483647464137365603e-10 10:1 91:1 93:1 163:1 693:1 1496:1 1516:1 1604:1 1619:1 1691:1 2304:1 12372:1 13720:1 16548:1 17245:1 42587:1 52814:1 52815:1 52816:1 52817:1 52818:1 52819:1 52820:1 52821:1 52822:1 62165:3 62166:58820 62167:2 62169:13 62170:74 62171:4324 62172:1 #
-4.6867138011385483647464137365603e-10 133:1 294:1 753:1 5369:1 5370:1 5371:1 5372:1 62165:4 62166:79560 62167:2 62169:4 62170:16 62171:237 62172:1 #
5.605604107421774051568837127224e-16 133:1 134:1 146:1 3730:1 21546:1 53673:1 59598:1 59599:1 59600:1 59601:1 59602:1 62165:4 62166:9928 62167:2 62169:6 62170:37 62171:5077 62172:1 #
