SVM-light Version V6.02
0 # kernel type
3 # kernel parameter -d 
1 # kernel parameter -g 
1 # kernel parameter -s 
1 # kernel parameter -r 
empty# kernel parameter -u 
9667 # highest feature index 
13714 # number of training documents 
6808 # number of support vectors plus 1 
-8.8942343 # threshold b, each following line is a SV (starting with alpha*y)
-0.053374872776978492250332664070811 3:1 20:1 29:1 63:1 76:1 120:1 180:2 273:1 491:1 584:1 1478:1 1846:1 5254:1 8675:1 #
-0.053374872776978492250332664070811 2:1 5:1 63:1 72:1 76:1 228:1 273:1 532:1 841:1 894:1 1170:1 1369:1 1456:1 #
-0.053374872776978492250332664070811 2:2 19:2 36:1 56:1 76:2 104:1 105:1 143:2 175:1 429:1 1216:1 1317:1 1741:1 1758:1 6894:2 7664:1 7665:1 #
-0.053374872776978492250332664070811 46:1 55:1 3696:1 #
-0.053374872776978492250332664070811 3:1 8:1 10:1 14:1 19:2 38:1 46:1 47:1 50:2 51:1 62:2 120:2 131:1 143:1 309:1 1179:1 1191:1 5086:1 6893:1 6894:2 6895:1 #
0.053374872776978492250332664070811 19:2 23:1 51:1 53:1 56:1 87:1 108:1 355:1 677:1 851:1 925:1 1302:1 5463:1 6547:1 9090:1 #
0.053374872776978492250332664070811 22:1 29:1 48:1 53:2 80:1 81:1 87:1 131:1 138:1 166:1 171:1 509:1 852:1 1799:1 2033:1 2034:1 2035:1 2036:1 #
0.053374872776978492250332664070811 2:1 23:1 72:1 76:1 121:1 143:1 203:1 228:1 267:1 523:1 557:1 558:1 1609:1 2283:1 2651:1 3439:1 4405:1 4670:1 5327:1 5496:1 #
0.053374872776978492250332664070811 2:1 10:2 29:2 42:1 47:1 68:1 81:2 91:1 120:2 166:2 175:1 934:1 1097:2 1098:2 1099:1 #
0.053374872776978492250332664070811 10:1 55:1 68:1 79:1 254:1 305:1 547:1 626:1 980:1 1170:1 2065:2 #
-0.053374872776978492250332664070811 8:1 10:1 36:1 81:1 85:1 202:1 319:1 328:1 3254:1 3530:1 6818:1 #
-0.053374872776978492250332664070811 10:1 19:1 368:1 5486:1 6172:1 #
-0.053374872776978492250332664070811 5829:1 #
-0.053374872776978492250332664070811 10:1 14:2 19:1 26:1 27:1 36:1 62:1 72:1 79:1 86:1 91:1 94:2 131:2 164:1 169:1 213:1 228:1 254:1 287:1 288:1 323:3 365:1 901:1 991:1 1357:1 1673:1 4017:1 4018:1 4019:1 4020:1 #
-0.053374872776978492250332664070811 26:1 36:1 45:1 47:1 53:2 68:1 79:1 92:1 166:1 210:1 400:1 491:1 563:1 626:1 946:1 1888:1 #
0.053374872776978492250332664070811 19:2 32:1 62:1 72:1 131:1 137:1 233:1 402:1 415:1 545:1 1570:1 2093:1 7046:1 #
0.053374872776978492250332664070811 2:1 3:1 19:1 30:1 228:2 342:1 523:1 571:2 1427:2 1680:1 #
0.053374872776978492250332664070811 3:1 14:1 29:2 50:1 51:1 59:1 60:1 72:1 76:1 94:2 120:1 132:1 210:1 213:1 311:1 512:1 920:1 1346:1 1405:1 3662:1 5358:1 #
0.053374872776978492250332664070811 14:1 19:1 40:1 62:1 87:1 143:1 203:1 212:1 213:1 234:1 244:1 314:1 383:1 494:2 587:2 854:2 3755:1 4748:2 #
0.053374872776978492250332664070811 2:1 14:1 19:1 26:1 38:1 40:2 55:1 76:1 91:1 113:1 166:1 186:1 223:1 228:1 343:1 627:1 1155:1 1223:1 2566:1 4614:1 4890:1 7946:1 #
-0.053374872776978492250332664070811 2:1 19:2 21:1 40:1 131:1 294:2 558:1 579:1 649:1 944:1 1163:1 1346:1 1448:1 3119:1 3120:1 3121:1 3122:1 3123:1 3124:1 3125:1 3126:1 #
-0.053374872776978492250332664070811 26:1 29:1 47:1 55:1 81:1 131:1 164:1 165:1 201:1 228:1 258:1 334:1 457:1 1320:1 1343:1 3131:1 #
-0.053374872776978492250332664070811 10:1 14:1 19:1 29:1 45:1 50:1 72:1 74:1 76:1 78:1 81:2 82:1 91:1 131:3 138:1 152:1 355:1 399:1 417:1 514:1 846:1 901:1 1029:1 1110:1 1172:1 1454:1 1842:1 2120:1 4474:1 #
-0.053374872776978492250332664070811 29:1 47:1 53:2 72:1 76:1 105:1 120:1 165:1 208:1 294:1 424:1 513:1 1470:1 1899:1 2786:1 2991:1 6088:2 9117:2 #
-0.053374872776978492250332664070811 19:1 59:1 129:1 214:1 215:1 293:1 383:2 565:1 940:1 1095:1 3768:1 5172:1 #
0.053374872776978492250332664070811 7:1 10:1 29:1 32:1 53:1 90:1 155:1 177:1 273:1 314:1 383:1 473:1 519:1 706:1 869:1 1519:1 3128:1 7838:1 #
0.053374872776978492250332664070811 10:1 14:1 19:1 50:1 133:1 148:1 168:1 180:1 215:1 217:1 532:1 581:1 638:1 1369:1 3673:1 3674:1 #
0.053374872776978492250332664070811 6:1 14:3 26:1 47:1 48:1 62:1 71:1 76:1 91:1 120:1 127:1 130:1 131:1 145:1 158:1 163:1 177:1 233:1 495:1 548:1 1799:1 2239:1 2492:1 2500:1 2519:1 2520:1 2521:1 #
0.053374872776978492250332664070811 2:1 10:2 14:1 19:1 53:1 56:2 62:1 81:1 87:2 105:1 108:1 127:1 131:2 143:1 166:1 180:1 200:1 342:1 396:1 414:1 539:2 917:1 1609:1 2431:1 6413:1 6414:1 6415:1 #
0.053374872776978492250332664070811 36:2 51:1 166:2 210:1 254:1 273:1 393:1 547:1 633:1 754:1 1049:1 2010:1 2011:1 2012:1 2013:1 #
-0.053374872776978492250332664070811 11:1 14:1 19:1 131:1 166:1 200:1 273:1 348:1 380:1 1387:1 4541:1 6113:1 9402:1 9403:1 #
-0.053374872776978492250332664070811 14:1 26:1 238:1 639:1 720:1 822:1 2694:1 3940:1 #
-0.053374872776978492250332664070811 72:1 157:1 163:1 223:1 466:1 467:1 502:1 522:1 523:1 #
-0.053374872776978492250332664070811 2:1 19:1 36:1 87:1 120:1 1039:1 1086:1 2580:1 #
-0.053374872776978492250332664070811 3:1 10:1 14:1 19:2 38:2 47:2 62:1 68:1 91:1 131:2 134:1 139:1 143:1 156:1 166:1 167:1 180:3 184:1 274:1 275:1 355:2 466:1 467:1 480:2 482:1 514:1 769:1 801:1 888:1 1165:1 2121:1 2133:1 2587:1 #
0.053374872776978492250332664070811 14:1 29:1 47:1 81:1 201:1 214:1 314:1 348:1 845:1 896:1 901:1 1604:1 5464:1 7682:1 #
0.053374872776978492250332664070811 2:1 6:1 7:1 10:1 19:1 26:1 30:1 45:1 71:1 76:1 131:1 156:1 166:1 212:1 273:2 314:1 379:1 417:1 494:1 647:1 730:1 745:1 1016:1 1062:1 1330:1 2200:1 2320:1 3551:1 7984:1 #
0.053374872776978492250332664070811 152:1 166:1 242:1 305:1 505:1 511:1 581:1 1073:1 1513:1 2512:1 8863:1 #
0.053374872776978492250332664070811 10:1 19:1 26:1 31:2 51:1 59:2 72:1 79:1 112:1 131:1 143:1 419:1 595:1 1068:1 1569:1 2077:2 2972:1 5619:1 5620:1 5621:1 #
0.053374872776978492250332664070811 38:1 53:1 55:1 76:1 79:1 81:1 131:1 210:1 228:1 326:1 480:1 514:1 551:1 700:1 852:1 895:1 1408:2 1582:1 1956:1 6268:1 #
-0.053374872776978492250332664070811 26:1 47:1 53:1 79:1 81:2 92:1 120:1 127:1 175:1 217:1 326:1 366:1 457:1 953:1 2027:1 #
-0.053374872776978492250332664070811 14:1 29:2 50:1 63:1 76:1 164:1 165:1 201:1 210:1 1454:1 9628:1 9629:1 #
-0.053374872776978492250332664070811 26:1 79:1 90:1 100:1 536:1 817:1 844:1 6039:1 #
-0.053374872776978492250332664070811 228:1 1493:1 5177:1 #
-0.053374872776978492250332664070811 2:1 14:1 29:2 50:1 76:2 98:1 131:1 143:1 243:1 308:1 348:1 393:1 394:1 398:1 399:1 457:1 491:1 513:1 623:1 677:1 704:1 757:1 777:1 1274:1 1549:1 1625:1 1977:1 2332:1 3643:1 3644:1 #
0.053374872776978492250332664070811 36:1 74:1 81:1 132:1 213:2 328:1 421:1 823:1 2015:1 3819:1 7472:1 #
0.053374872776978492250332664070811 7:1 19:2 28:2 29:1 53:1 131:1 134:1 138:1 216:1 497:1 563:1 1470:1 1568:1 3605:1 4121:1 4122:1 4123:1 4124:1 #
0.053374872776978492250332664070811 14:1 22:1 55:2 59:1 76:1 85:1 94:2 131:4 235:1 256:1 348:1 532:1 542:1 627:1 901:1 973:1 1294:1 1307:1 1369:1 2237:1 2584:1 7254:1 7822:1 7823:1 #
0.053374872776978492250332664070811 6:1 26:1 29:2 32:1 50:1 51:1 76:2 79:1 81:2 92:1 131:2 139:1 210:1 237:1 258:1 273:1 514:1 853:1 1124:1 2320:1 5726:1 5824:1 8980:1 #
0.053374872776978492250332664070811 2:1 29:1 45:1 50:1 53:1 76:2 79:1 92:1 131:2 132:1 138:1 163:1 164:1 165:1 308:1 421:1 437:1 497:1 514:1 616:1 818:1 992:1 2786:1 3763:1 3764:1 3765:1 3766:1 3767:1 #
-0.053374872776978492250332664070811 23:1 29:1 31:1 40:1 51:1 53:1 81:2 103:1 131:4 140:1 285:1 319:1 542:1 550:1 1062:1 1312:1 1693:1 3151:1 3152:1 #
-0.053374872776978492250332664070811 10:1 131:3 1796:1 1797:1 #
-0.053374872776978492250332664070811 40:1 45:1 72:1 76:1 131:3 181:1 262:1 332:1 649:1 686:1 1718:1 4040:1 #
-0.053374872776978492250332664070811 19:1 26:1 47:1 59:1 62:1 85:1 131:3 890:1 1377:1 1766:1 1833:1 2486:1 2972:1 3248:1 3249:1 #
-0.053374872776978492250332664070811 2:1 29:2 40:2 50:1 51:1 53:2 131:2 143:1 235:1 261:1 609:1 650:1 1104:1 1166:1 1333:1 1373:1 1934:1 2344:1 5359:1 6287:1 #
0.053374872776978492250332664070811 10:1 19:2 26:1 63:1 273:1 480:1 840:1 858:1 924:1 3180:1 7373:1 7878:1 #
0.053374872776978492250332664070811 23:1 29:2 51:1 98:1 131:1 152:1 181:1 203:1 214:1 344:1 383:2 657:1 832:1 2948:1 3310:1 4675:1 #
0.053374872776978492250332664070811 55:1 70:1 72:1 120:1 131:1 235:1 291:1 429:1 857:1 879:1 915:1 1434:1 4499:1 5203:1 5651:1 5652:1 #
0.053374872776978492250332664070811 3:1 10:3 15:1 19:2 48:2 62:1 72:2 131:4 138:1 157:1 163:1 166:1 238:1 332:1 334:1 396:1 494:1 523:1 539:1 557:1 649:1 792:1 793:1 824:1 2313:1 5197:1 #
0.053374872776978492250332664070811 47:1 123:1 131:1 180:1 238:1 1238:1 6034:1 9528:1 #
-0.053374872776978492250332664070811 19:1 36:1 51:1 76:1 159:1 285:1 313:1 638:1 6935:1 #
-0.053374872776978492250332664070811 19:1 36:1 127:1 273:1 790:1 830:1 8799:1 #
-0.053374872776978492250332664070811 26:1 63:1 68:1 72:1 74:1 163:1 177:1 233:1 #
-0.053374872776978492250332664070811 2:1 19:1 72:1 959:1 4514:1 4735:1 #
-0.053374872776978492250332664070811 36:2 53:1 76:1 127:1 138:1 158:1 161:1 1173:1 2488:1 #
0.053374872776978492250332664070811 14:1 19:1 26:1 85:1 228:2 273:1 626:1 971:1 1223:1 1293:1 1890:1 4662:1 8497:1 #
0.053374872776978492250332664070811 29:2 59:2 90:1 113:1 213:1 256:1 458:1 600:1 666:1 830:1 892:1 1730:1 2094:2 2584:1 #
0.053374872776978492250332664070811 131:1 352:1 1442:1 1983:1 #
0.053374872776978492250332664070811 10:1 23:1 29:1 47:1 68:1 76:1 94:2 120:2 130:1 131:1 174:1 202:1 440:1 525:2 1141:1 1269:1 4076:1 4077:1 4078:1 4079:1 #
0.053374872776978492250332664070811 10:1 11:1 13:1 26:1 72:1 76:1 220:1 532:1 545:1 901:1 999:1 8851:1 #
-0.053374872776978492250332664070811 10:4 19:1 26:2 29:2 47:1 48:1 72:1 76:1 79:1 86:1 87:1 127:1 131:2 164:1 166:1 174:1 202:2 237:1 238:1 273:1 305:1 342:1 398:1 494:1 511:1 558:1 706:1 1507:1 1799:1 2094:6 2124:1 2272:1 5809:1 7108:1 #
-0.053374872776978492250332664070811 10:2 57:1 90:1 131:1 157:1 181:1 215:1 238:1 383:1 390:1 507:1 523:1 923:2 1125:1 2168:1 7194:1 #
-0.053374872776978492250332664070811 26:1 50:1 72:1 76:2 155:1 273:1 305:1 457:1 467:1 858:1 1696:1 2913:1 5735:1 #
-0.053374872776978492250332664070811 6:1 10:1 27:1 40:1 72:1 76:1 81:1 180:1 213:1 273:2 368:1 530:1 595:1 772:1 1307:1 1951:1 2536:1 2956:1 #
-0.053374872776978492250332664070811 68:1 88:1 131:1 235:1 3463:1 3622:1 6378:1 #
0.053374872776978492250332664070811 53:2 131:3 152:1 841:1 2083:1 3099:1 3100:1 4112:1 #
0.053374872776978492250332664070811 7:1 10:1 14:1 53:1 120:1 911:1 933:1 1568:1 1736:1 2651:1 5512:1 7170:1 7171:1 #
0.053374872776978492250332664070811 8:1 32:1 40:1 47:1 72:1 87:1 355:1 636:1 870:1 979:1 986:1 1062:1 1867:1 2309:1 2786:1 2893:1 7960:1 8182:1 8183:1 8184:1 #
0.053374872776978492250332664070811 10:1 14:1 19:2 26:1 40:1 47:1 53:3 85:1 90:1 131:3 204:1 833:1 1489:2 1570:1 1634:1 1638:1 2934:1 5945:2 5946:1 #
0.053374872776978492250332664070811 8:1 36:1 164:1 165:1 533:1 1829:1 5869:1 8726:1 #
-0.053374872776978492250332664070811 3:1 10:1 14:1 53:1 55:1 127:1 131:2 149:1 165:1 166:2 180:1 201:1 238:1 355:1 448:1 502:1 2813:1 #
-0.053374872776978492250332664070811 19:2 26:1 40:1 47:1 59:1 79:1 131:1 152:1 167:1 181:1 263:1 645:1 801:1 1484:1 4429:1 7050:1 9220:1 #
-0.053374872776978492250332664070811 4008:1 4009:1 4010:1 #
-0.053374872776978492250332664070811 1566:1 1567:1 #
-0.053374872776978492250332664070811 2:1 36:1 53:1 158:1 590:1 4180:1 #
0.053374872776978492250332664070811 3:1 10:3 14:1 19:1 23:1 29:1 32:1 47:2 74:1 76:1 91:1 94:2 123:1 380:1 403:1 480:1 532:1 565:1 600:1 607:1 723:1 868:1 889:1 901:1 1061:1 1730:1 1921:1 2187:1 5358:1 5359:1 #
0.053374872776978492250332664070811 19:1 29:2 47:1 53:1 55:1 79:1 81:1 113:1 138:1 273:1 324:1 338:1 417:1 1582:1 3910:1 4245:1 5103:1 6014:1 7032:1 #
0.053374872776978492250332664070811 10:1 19:1 29:2 51:1 72:2 92:1 131:4 166:1 215:1 254:1 494:1 595:1 662:1 704:1 807:1 955:1 1313:1 1685:1 2277:1 5726:1 #
0.053374872776978492250332664070811 10:1 19:1 26:1 74:1 76:1 90:1 131:2 134:1 228:2 273:1 291:1 301:1 536:1 831:1 905:1 966:1 1426:1 7697:1 8072:1 8073:1 #
0.053374872776978492250332664070811 2:1 29:2 38:1 53:1 121:1 131:1 152:1 166:1 180:1 215:1 273:1 383:1 568:1 2719:1 3128:1 3506:1 3507:1 3508:1 3509:1 3510:1 #
-0.053374872776978492250332664070811 2:2 19:2 26:4 29:3 30:1 32:1 36:1 51:1 53:1 90:1 123:1 127:1 131:2 175:1 180:1 192:2 203:1 209:1 213:6 237:1 261:1 326:1 425:3 558:1 1060:3 1111:2 4251:2 4876:1 4877:1 4878:1 #
-0.053374872776978492250332664070811 2:2 10:1 14:2 19:5 21:1 26:2 29:2 30:1 31:2 32:1 53:1 63:1 81:2 111:1 120:1 131:3 143:1 174:1 192:1 202:2 223:1 237:1 254:1 322:1 390:1 393:1 400:1 408:1 645:1 1049:1 1141:1 #
-0.053374872776978492250332664070811 2:2 6:1 19:1 32:1 53:1 59:1 74:1 81:1 131:1 155:1 214:1 215:8 362:1 383:2 401:1 494:1 497:1 638:2 899:1 970:1 999:1 1699:1 2277:5 3714:1 5298:1 5299:1 5300:1 5301:1 5302:1 #
-0.053374872776978492250332664070811 14:1 26:1 29:1 40:1 47:2 92:1 99:1 132:1 156:2 166:2 204:1 205:1 868:1 1004:1 1935:1 1936:1 1937:1 #
-0.053374872776978492250332664070811 10:1 55:1 68:1 131:4 180:1 1143:1 1504:1 1790:1 2542:1 #
0.053374872776978492250332664070811 7:1 19:2 29:2 31:1 76:1 130:1 131:2 138:1 143:2 164:1 209:1 210:1 215:1 258:1 638:1 706:1 858:1 1369:1 1426:1 2382:1 2383:1 2384:1 2385:1 2386:1 #
0.053374872776978492250332664070811 7:1 213:1 296:1 335:1 600:1 1060:1 1077:1 1603:1 2716:1 3470:1 3908:1 8105:1 #
0.053374872776978492250332664070811 19:1 26:2 40:2 47:1 76:1 92:2 113:1 175:1 215:3 267:1 464:1 465:1 523:1 638:1 899:1 1029:1 1235:1 1506:1 2016:1 2277:1 7383:1 #
0.053374872776978492250332664070811 19:1 46:1 56:1 140:1 330:1 517:1 600:1 1119:1 1445:1 2045:1 3719:1 #
0.053374872776978492250332664070811 38:1 53:1 55:1 62:1 76:1 99:7 137:1 180:1 335:1 977:1 1570:1 1571:1 1572:1 #
-0.053374872776978492250332664070811 10:1 53:1 55:1 76:1 262:1 505:1 539:1 562:1 726:1 3017:1 7290:1 8529:1 8530:1 #
-0.053374872776978492250332664070811 3:1 36:1 47:1 55:1 63:1 76:1 94:6 130:1 131:1 132:1 228:1 274:1 513:1 719:1 775:1 925:1 1252:1 1915:1 3092:2 8827:1 9585:1 #
-0.053374872776978492250332664070811 62:1 131:1 285:1 1431:1 #
-0.053374872776978492250332664070811 5:1 7:1 29:1 40:1 81:1 99:1 120:1 147:1 207:1 304:1 466:1 467:1 706:1 1703:1 1986:1 #
-0.053374872776978492250332664070811 63:1 180:1 619:1 1917:1 6478:1 #
0.053374872776978492250332664070811 10:3 29:2 45:1 81:1 98:1 113:2 120:1 131:3 174:1 178:1 202:1 267:1 761:1 970:1 999:1 1423:1 2169:1 7639:1 7640:1 #
0.053374872776978492250332664070811 10:1 17:1 26:1 31:1 36:1 47:1 59:1 79:1 228:1 256:1 421:1 440:1 514:1 543:1 848:2 1032:1 1589:1 2077:1 5730:1 7098:1 7229:1 #
0.053374872776978492250332664070811 2:1 19:1 29:1 30:1 92:1 2796:1 7273:1 7274:1 7275:1 #
0.053374872776978492250332664070811 10:1 14:1 51:1 68:1 81:1 92:1 180:1 213:1 328:1 532:1 816:1 984:1 1141:1 2223:1 2687:1 4225:1 4652:1 7225:1 #
0.053374872776978492250332664070811 2:1 17:1 36:1 132:1 201:1 3136:1 3612:1 9077:1 9078:1 9079:1 #
-0.053374872776978492250332664070811 36:1 53:1 202:1 1110:1 1642:1 #
-0.053374872776978492250332664070811 36:1 59:1 81:1 120:1 131:1 147:1 265:1 319:1 328:1 513:1 542:1 612:1 723:1 899:2 1200:2 8237:1 #
-0.053374872776978492250332664070811 10:1 14:1 19:1 29:1 36:1 53:2 81:1 92:1 99:1 120:2 131:1 158:1 352:1 353:1 512:1 911:1 1141:1 1971:1 3479:1 4089:1 4667:1 6409:1 #
-0.053374872776978492250332664070811 10:1 72:1 85:1 131:2 353:1 525:1 526:1 565:1 1092:1 2719:1 7964:1 #
-0.053374872776978492250332664070811 2:1 19:1 36:1 636:1 637:1 #
0.053374872776978492250332664070811 14:1 19:1 26:1 53:1 62:1 85:1 120:1 187:1 209:1 215:1 322:1 393:1 403:1 494:1 1425:1 1652:1 2272:1 3236:1 4211:1 4633:1 5101:1 #
0.053374872776978492250332664070811 2:1 14:1 19:1 81:1 296:1 297:1 514:1 523:1 548:2 631:1 801:1 1664:1 1791:1 3319:1 5635:1 8572:1 #
0.053374872776978492250332664070811 2:3 14:3 19:1 40:1 72:3 76:1 131:3 138:1 238:1 403:2 591:1 706:1 813:1 2413:1 4993:3 5525:1 5673:2 6188:1 #
0.053374872776978492250332664070811 10:1 29:1 40:1 47:1 53:1 63:1 76:1 120:1 131:1 379:1 703:1 911:1 1832:1 3531:1 8005:1 #
0.053374872776978492250332664070811 14:2 19:1 36:1 76:1 235:1 273:1 403:1 505:2 540:1 751:1 804:1 831:1 879:1 939:1 5395:1 6315:1 8036:1 8037:1 #
-0.053374872776978492250332664070811 10:1 14:1 19:1 29:3 32:1 40:1 56:1 72:1 76:1 91:1 94:2 152:2 274:1 622:1 2169:1 2367:1 3308:1 4354:1 7729:1 7730:1 #
-0.053374872776978492250332664070811 14:1 19:3 38:1 50:1 62:1 96:1 273:1 426:1 542:1 676:1 2880:1 4598:1 4599:1 4600:1 #
-0.053374872776978492250332664070811 10:1 19:1 26:1 36:1 72:1 76:1 79:1 164:1 228:1 421:1 703:1 841:1 1611:1 2633:1 2931:1 4969:1 7837:1 8723:1 #
-0.053374872776978492250332664070811 2:1 14:1 19:1 36:1 45:1 47:3 55:1 62:1 74:1 87:1 147:1 166:1 507:1 523:1 646:1 673:1 1180:1 2732:1 5275:1 6648:1 #
-0.053374872776978492250332664070811 2:1 18:1 19:1 36:1 200:1 926:1 3071:1 4498:1 7765:1 #
0.053374872776978492250332664070811 7:1 38:1 47:3 179:1 213:1 1077:1 1147:1 1172:1 2044:1 3470:1 3519:1 3520:1 4040:2 4319:1 5586:1 #
0.053374872776978492250332664070811 10:1 131:1 147:1 218:1 517:1 536:1 537:1 1279:1 #
0.053374872776978492250332664070811 10:1 28:2 29:4 32:1 36:2 65:1 76:1 131:3 166:1 192:1 254:1 489:1 677:2 688:1 738:1 743:1 2266:1 2375:1 4320:1 #
0.053374872776978492250332664070811 138:1 1114:1 1115:1 1150:3 1819:1 2933:1 8886:2 8887:1 8888:1 #
0.053374872776978492250332664070811 3:1 10:3 14:1 19:2 20:1 29:1 46:1 49:1 62:1 76:1 81:1 130:1 131:2 143:1 157:1 238:1 348:1 480:1 523:1 553:2 610:1 780:1 1048:1 1084:1 1279:1 1441:1 1546:1 2731:1 5759:1 7827:1 7828:1 #
-0.053374872776978492250332664070811 10:4 29:1 48:1 51:1 90:1 113:2 123:1 130:1 143:1 180:1 275:1 421:1 688:1 3470:1 3539:1 #
-0.053374872776978492250332664070811 10:2 22:1 53:1 76:1 131:3 143:1 152:1 208:1 323:1 326:1 663:1 664:1 778:1 807:1 912:1 2894:1 9378:1 #
-0.053374872776978492250332664070811 10:1 29:1 131:1 228:1 237:1 267:1 523:1 1122:1 9111:1 #
-0.053374872776978492250332664070811 2:1 10:1 29:1 36:1 131:3 166:1 172:1 175:1 274:1 294:2 355:1 964:1 1147:1 #
-0.053374872776978492250332664070811 2:1 7:1 14:1 29:5 47:1 53:1 63:1 82:1 130:1 131:3 158:2 165:1 166:2 305:1 338:1 355:1 390:1 398:1 912:1 1099:1 4245:1 5600:1 6093:1 6984:1 6985:1 #
0.053374872776978492250332664070811 20:2 76:2 87:1 94:4 100:2 180:2 181:2 8676:2 8677:1 8678:2 #
0.053374872776978492250332664070811 2:1 10:1 11:1 14:1 19:1 29:3 36:2 53:1 76:1 79:1 80:1 90:1 92:1 94:4 143:1 149:1 152:1 158:1 166:1 180:1 257:2 273:2 321:1 393:1 498:1 557:1 845:1 881:1 901:1 1218:1 1369:1 1758:1 2361:1 2477:1 4450:1 4668:1 6140:1 #
0.053374872776978492250332664070811 19:1 20:1 26:1 62:1 68:1 228:1 242:1 1775:1 #
0.053374872776978492250332664070811 2:1 3:2 10:1 19:1 38:1 48:1 62:1 87:1 94:2 120:1 131:1 166:1 254:1 296:1 305:1 355:1 370:1 459:1 539:1 783:1 1181:1 1333:1 1826:1 #
0.053374872776978492250332664070811 2:2 3:1 14:1 38:1 63:1 94:4 131:2 261:1 265:1 355:1 706:1 1699:1 8030:1 #
-0.053374872776978492250332664070811 3:3 14:2 19:1 20:1 38:3 42:1 48:1 62:3 86:1 87:3 131:3 138:1 175:1 296:1 328:1 352:1 542:1 545:1 587:1 631:1 704:1 854:1 1143:1 1181:1 1565:1 1694:1 3562:1 3841:1 4429:1 6289:1 #
-0.053374872776978492250332664070811 14:1 19:2 29:1 30:1 59:1 63:1 68:1 94:2 131:2 134:1 138:2 311:2 378:1 509:1 541:1 600:1 628:1 901:1 1901:1 2009:1 2214:1 2259:1 3677:1 3678:1 #
-0.053374872776978492250332664070811 10:2 26:1 29:1 47:2 94:2 131:1 156:1 180:1 247:2 557:1 804:1 1956:1 2332:1 3767:1 7926:1 9424:1 9425:1 9426:1 #
-0.053374872776978492250332664070811 3:2 12:1 19:2 38:1 48:1 50:1 62:1 87:2 94:2 99:2 123:1 131:3 174:1 273:1 296:3 396:1 459:1 488:1 568:1 650:1 729:1 800:1 1181:1 1405:1 1442:1 1983:1 2266:1 2340:1 4077:1 8845:1 #
-0.053374872776978492250332664070811 14:1 19:1 29:1 31:1 36:1 42:1 45:1 47:1 59:1 76:1 86:1 158:1 160:1 180:1 405:1 706:1 797:1 1147:1 1763:1 7509:1 #
0.053374872776978492250332664070811 10:1 14:1 19:1 26:1 50:1 51:1 72:1 82:1 131:1 143:1 228:1 273:1 341:1 676:1 1741:1 1742:1 1743:1 1744:1 1745:1 1746:1 1747:1 #
0.053374872776978492250332664070811 47:1 213:1 579:1 600:1 673:1 797:1 1077:1 1648:2 1718:2 3470:1 #
0.053374872776978492250332664070811 26:1 29:1 38:1 47:1 59:1 62:1 63:1 76:2 177:1 217:1 294:1 330:1 459:1 466:1 467:1 509:1 1238:1 1938:1 3385:1 4056:1 4057:1 4058:1 #
0.053374872776978492250332664070811 2:1 6:1 10:1 14:1 19:1 29:1 32:1 38:1 51:1 53:1 76:1 81:1 87:1 131:1 143:1 164:1 165:1 202:1 348:1 480:1 535:1 700:1 706:1 1053:1 2939:1 3060:1 3292:1 3293:1 6861:1 #
0.053374872776978492250332664070811 10:1 76:1 212:1 215:1 804:1 995:1 1029:1 1771:1 3041:1 3108:1 #
-0.053374872776978492250332664070811 14:1 26:2 36:1 47:1 72:1 76:2 79:1 163:2 305:1 647:2 1201:2 2079:1 2080:1 #
-0.053374872776978492250332664070811 10:2 14:1 36:1 81:1 100:2 104:1 202:1 259:1 355:1 417:1 820:1 2026:1 2147:1 2148:1 #
-0.053374872776978492250332664070811 2:1 32:1 36:2 62:1 76:1 120:1 156:1 294:1 651:1 879:1 3845:1 3846:1 3847:1 #
-0.053374872776978492250332664070811 2:1 26:1 228:1 273:1 353:1 761:1 1100:1 1314:1 2742:1 2743:1 #
-0.053374872776978492250332664070811 2:2 23:1 45:1 60:1 203:1 669:1 1917:1 1918:1 #
0.053374872776978492250332664070811 10:1 42:1 68:1 94:2 110:1 547:1 1625:1 5383:1 9565:1 #
0.053374872776978492250332664070811 10:1 26:1 29:2 36:1 50:1 53:2 55:1 56:1 72:1 81:2 113:1 131:6 152:1 174:1 180:1 213:3 228:1 355:1 661:1 761:1 896:1 1111:2 1172:1 1427:2 1601:1 2079:1 3950:2 #
0.053374872776978492250332664070811 10:3 14:1 19:2 55:2 72:2 79:1 87:1 94:2 130:1 167:1 180:2 417:1 622:1 841:1 1049:1 1091:1 3752:1 8423:1 8424:1 #
0.053374872776978492250332664070811 2:1 10:2 14:1 27:1 29:1 38:1 40:1 55:1 76:1 85:1 90:1 120:1 131:1 138:1 164:1 165:1 238:1 311:1 370:1 405:1 498:1 539:1 544:1 703:1 706:1 761:1 813:2 895:1 1183:1 1365:1 2113:1 3665:1 3666:1 #
0.053374872776978492250332664070811 47:1 59:1 76:1 94:2 111:1 143:1 213:1 256:1 458:1 701:2 1270:1 2562:1 #
-0.053374872776978492250332664070811 10:2 29:2 37:1 48:1 51:4 59:1 60:1 68:2 76:1 94:5 131:5 166:1 174:3 213:1 219:1 223:1 228:1 328:1 342:1 458:1 509:1 532:1 540:1 1060:1 1643:1 2199:2 8585:1 8586:1 8587:1 #
-0.053374872776978492250332664070811 53:1 72:1 130:1 421:1 457:1 1135:1 1172:1 3017:1 3719:1 3916:1 8459:1 #
-0.053374872776978492250332664070811 7:1 10:2 19:1 26:1 38:1 50:1 51:1 90:1 120:1 130:1 131:1 203:1 355:1 579:1 628:1 761:1 981:2 1506:1 1694:1 2028:1 6113:1 8475:1 8476:1 #
-0.053374872776978492250332664070811 10:1 19:1 36:1 76:1 128:1 148:1 164:1 165:1 542:1 612:1 700:1 854:1 1426:1 1447:1 1526:1 2941:1 5844:1 #
-0.053374872776978492250332664070811 27:1 28:1 29:1 36:1 53:1 59:1 147:1 212:1 215:2 244:1 447:1 540:1 595:1 787:1 896:1 966:1 2277:1 5545:1 #
0.053374872776978492250332664070811 20:1 30:1 72:1 76:1 180:1 473:1 494:1 638:1 2948:1 #
0.053374872776978492250332664070811 62:1 63:1 1072:1 4341:1 8639:1 9353:1 #
0.053374872776978492250332664070811 14:1 47:3 76:3 181:1 213:1 419:1 955:1 1077:1 1147:1 2575:2 3470:1 3932:1 4915:1 4916:1 4917:1 4918:1 4919:1 #
0.053374872776978492250332664070811 26:2 36:2 47:3 81:2 100:2 139:2 1769:1 2431:1 8150:2 8151:1 8152:1 #
0.053374872776978492250332664070811 2:2 29:1 50:1 76:1 113:1 131:1 143:1 180:1 383:1 638:1 723:1 1454:1 4454:1 4951:1 8962:1 #
-0.053374872776978492250332664070811 47:6 76:1 85:1 120:1 143:1 155:1 213:1 265:1 488:1 532:1 533:1 542:1 587:1 723:1 854:1 984:1 1062:2 1101:1 1601:1 1606:1 2025:1 2602:1 3910:1 5213:1 8528:1 9467:1 9468:1 9469:1 9470:1 9471:1 #
-0.053374872776978492250332664070811 2:1 23:1 36:1 47:1 72:1 76:3 85:1 180:1 203:1 305:1 693:1 905:1 1293:1 1454:1 #
-0.053374872776978492250332664070811 38:1 47:1 99:1 156:1 1110:1 2064:1 #
-0.053374872776978492250332664070811 26:2 27:2 36:1 63:1 113:2 131:1 143:2 159:1 550:1 551:1 1730:2 5065:1 9463:1 9464:1 9465:1 #
-0.053374872776978492250332664070811 5049:2 #
0.053374872776978492250332664070811 19:2 29:1 37:1 81:1 131:3 212:2 215:2 285:2 346:2 914:2 #
0.053374872776978492250332664070811 14:1 23:1 29:2 51:1 53:1 81:1 92:1 131:1 132:1 165:1 166:1 180:1 338:1 831:2 970:1 1453:1 1730:2 2786:1 #
0.053374872776978492250332664070811 7:1 10:1 53:1 62:1 63:1 131:2 164:1 165:1 2933:1 2951:2 3989:1 5603:1 #
0.053374872776978492250332664070811 10:2 19:4 40:2 57:2 72:2 76:4 113:2 131:2 181:2 213:2 673:1 706:1 797:1 2951:2 3441:2 3983:2 #
0.053374872776978492250332664070811 3:1 14:1 19:1 29:1 38:1 40:1 53:1 81:1 85:1 91:1 100:1 127:1 131:1 192:1 541:1 599:1 645:1 1365:1 2543:1 8444:1 #
-0.053374872776978492250332664070811 2:1 19:3 29:1 50:1 55:1 63:1 76:1 113:1 130:1 131:2 143:1 319:1 354:1 355:1 399:1 458:1 459:1 544:1 726:1 1006:1 2149:1 2824:1 3270:1 5054:1 6188:1 #
-0.053374872776978492250332664070811 10:1 14:1 29:3 51:1 53:1 74:1 139:1 204:1 262:1 1031:1 1504:1 3441:1 5439:1 5440:1 #
-0.053374872776978492250332664070811 6:1 14:1 129:1 131:1 982:1 983:1 994:1 9247:1 #
-0.053374872776978492250332664070811 6:1 40:1 47:1 81:1 131:2 362:1 688:1 941:1 999:1 1327:1 #
-0.053374872776978492250332664070811 10:2 14:1 40:2 48:1 55:1 63:1 84:1 88:1 130:1 131:3 180:2 238:1 366:1 539:1 700:1 706:1 1675:1 1940:1 8830:1 #
0.053374872776978492250332664070811 40:1 59:1 87:1 200:1 521:1 706:1 1091:1 1279:1 9486:1 #
0.053374872776978492250332664070811 6:1 14:1 17:1 19:1 26:2 36:1 47:1 59:1 76:1 79:1 149:1 219:1 370:1 543:1 815:1 1830:1 2211:1 3167:1 #
0.053374872776978492250332664070811 30:1 53:2 79:1 143:1 210:1 1141:1 2786:1 6934:1 8370:1 #
0.053374872776978492250332664070811 20:2 53:1 62:1 76:1 131:1 213:2 242:1 1234:2 1840:1 2242:1 5974:1 9433:1 #
0.053374872776978492250332664070811 2:1 3:1 48:1 76:1 138:1 166:2 181:1 213:1 226:1 238:1 261:2 262:1 263:1 264:1 265:1 266:1 267:1 268:1 #
-0.053374872776978492250332664070811 40:1 59:1 383:1 1147:1 3151:1 3882:1 4080:1 #
-0.053374872776978492250332664070811 1354:1 #
-0.053374872776978492250332664070811 1621:1 #
-0.053374872776978492250332664070811 45:1 53:1 174:1 621:1 940:1 3545:1 5047:1 9548:1 9549:1 #
-0.053374872776978492250332664070811 201:1 5375:1 #
0.053374872776978492250332664070811 2:1 19:1 26:1 29:1 30:1 53:2 79:1 131:4 237:1 254:1 342:1 459:1 550:1 669:1 851:1 854:2 1402:1 1526:2 2149:2 2866:1 2867:1 #
0.053374872776978492250332664070811 10:1 14:2 19:3 26:1 31:1 91:1 120:1 138:1 143:1 228:1 273:1 403:2 823:1 917:1 924:1 932:1 987:1 1055:1 2224:1 3502:1 3503:1 3504:1 3505:1 #
0.053374872776978492250332664070811 2:1 10:1 47:1 76:1 131:1 196:1 203:1 214:1 215:1 226:1 238:1 330:1 615:1 616:1 617:1 618:1 619:1 #
0.053374872776978492250332664070811 7:1 10:1 14:2 19:1 28:1 29:1 38:1 50:1 51:1 63:1 68:1 72:1 81:1 84:1 92:1 98:1 111:1 120:1 131:2 143:1 148:1 192:1 285:1 326:1 393:1 426:1 735:1 1080:1 1758:1 3456:1 4752:1 4935:1 4936:1 4937:1 4938:1 4939:1 4940:1 #
0.053374872776978492250332664070811 3:1 6:1 7:1 10:1 14:1 23:1 29:2 40:1 46:1 47:2 49:1 50:1 90:1 94:4 130:1 149:1 156:1 166:1 180:1 209:1 217:1 238:2 273:1 735:1 837:1 1157:1 1194:1 1942:1 2407:1 2749:1 4306:1 #
-0.053374872776978492250332664070811 14:5 19:4 36:1 47:1 59:1 99:1 111:1 120:1 131:2 166:1 200:1 304:1 401:1 422:1 638:1 729:1 792:1 815:1 1111:1 1141:1 1150:2 1158:1 1364:1 1601:1 1685:1 2581:1 2765:1 4375:1 5760:1 5761:1 5762:1 5763:1 5764:1 #
-0.053374872776978492250332664070811 10:1 14:3 19:5 26:2 29:2 42:2 51:2 76:2 131:1 143:5 149:1 166:1 174:2 175:2 285:1 322:2 342:1 645:2 673:1 1029:3 1601:2 3681:1 #
-0.053374872776978492250332664070811 2:1 10:1 14:1 19:2 29:2 36:2 40:2 76:2 85:1 90:1 92:1 143:1 166:2 181:1 200:1 213:1 233:1 343:1 399:1 417:1 536:1 703:1 823:1 830:1 883:1 924:1 926:1 1741:1 2199:1 6818:1 8642:1 8643:1 #
-0.053374872776978492250332664070811 3:1 19:1 22:1 36:1 47:1 48:1 81:2 86:2 94:6 115:1 213:4 254:1 459:1 587:1 854:1 912:1 1080:1 1156:1 1252:2 1369:1 2085:1 6412:1 8570:1 9284:1 #
-0.053374872776978492250332664070811 3:1 10:1 19:3 29:4 38:1 40:1 47:1 48:1 50:1 59:2 63:1 68:1 79:1 85:1 92:1 94:2 102:1 120:1 131:2 149:1 166:1 237:1 263:1 390:1 631:1 647:1 801:1 1068:1 5115:1 5116:1 5117:1 5118:1 #
0.053374872776978492250332664070811 59:1 213:1 526:1 1042:1 1351:1 1590:1 2042:1 6631:1 #
0.053374872776978492250332664070811 3:1 10:1 19:1 31:1 62:1 72:1 79:1 81:1 86:1 113:1 127:1 133:1 203:1 497:1 641:1 8633:1 8876:1 #
0.053374872776978492250332664070811 8:1 10:1 32:1 48:1 50:1 71:1 72:1 76:3 143:1 222:1 704:1 1157:1 1179:1 1269:1 1565:1 2201:1 2313:1 2341:1 3571:1 4215:1 4216:1 4217:1 4218:1 #
0.053374872776978492250332664070811 36:1 62:1 87:1 99:1 152:1 158:1 214:1 571:1 650:1 657:1 658:1 659:1 660:1 661:1 #
0.053374872776978492250332664070811 19:1 40:1 201:1 207:1 213:1 901:1 2498:1 2499:1 2500:1 #
-0.053374872776978492250332664070811 10:2 14:1 32:1 113:1 833:1 980:1 1535:1 1730:1 #
-0.053374872776978492250332664070811 53:1 59:1 99:1 120:1 152:1 494:1 638:1 1147:1 1267:1 1462:1 1926:1 2716:1 #
-0.053374872776978492250332664070811 21:1 29:1 50:1 55:1 76:1 344:1 382:1 8208:1 #
-0.053374872776978492250332664070811 2:1 19:1 72:1 99:2 120:1 513:1 883:1 1040:1 1343:1 #
-0.053374872776978492250332664070811 26:2 45:1 50:1 68:1 79:1 91:1 131:2 143:1 560:1 647:1 743:1 2009:1 2227:1 2273:1 5675:1 #
0.053374872776978492250332664070811 9:1 10:2 19:1 29:1 47:1 67:1 90:1 120:1 131:1 147:1 149:1 258:1 726:1 1246:1 1291:1 1704:1 5408:1 5409:1 #
0.053374872776978492250332664070811 10:1 19:1 72:1 79:1 131:1 166:1 180:1 274:1 513:1 600:1 1290:1 3529:1 5689:1 #
0.053374872776978492250332664070811 21:1 29:1 40:1 50:1 81:1 673:1 706:1 797:1 1850:1 5765:1 5766:1 #
0.053374872776978492250332664070811 6:1 85:1 90:2 131:1 174:1 459:1 481:1 511:1 545:1 2009:1 #
0.053374872776978492250332664070811 26:3 51:1 63:1 103:1 181:1 311:1 375:1 558:1 912:1 1112:1 2439:1 2786:1 5070:1 6474:1 #
-0.053374872776978492250332664070811 10:2 26:2 50:1 63:1 71:1 76:1 134:1 168:1 228:1 237:1 238:1 273:1 398:1 421:1 627:1 766:1 947:1 1694:1 #
-0.053374872776978492250332664070811 36:1 212:1 494:1 778:1 6412:1 #
-0.053374872776978492250332664070811 10:1 99:1 120:1 396:1 402:1 994:1 7595:1 #
-0.053374872776978492250332664070811 36:1 53:1 120:1 228:1 319:1 612:1 854:1 937:1 1526:1 5382:1 5383:1 #
-0.053374872776978492250332664070811 40:1 55:1 131:2 141:1 166:1 213:1 434:1 494:1 854:1 1287:1 1712:1 1952:1 2020:1 9584:1 #
0.053374872776978492250332664070811 14:1 60:1 213:1 215:2 497:1 1077:1 1482:1 1785:1 3470:1 3530:1 5317:1 #
0.053374872776978492250332664070811 14:1 26:1 40:1 47:1 62:1 85:2 130:1 131:1 138:1 294:1 380:1 481:1 994:1 4876:1 5304:1 6047:1 #
0.053374872776978492250332664070811 2:1 3:1 14:1 19:2 74:1 75:1 76:1 79:1 120:1 331:1 355:1 403:1 417:1 482:1 541:1 648:1 999:1 1000:1 1001:1 #
0.053374872776978492250332664070811 130:1 131:1 213:1 232:1 1779:1 1780:1 #
0.053374872776978492250332664070811 5:1 14:1 19:1 53:2 166:1 542:1 544:1 734:1 869:1 994:1 1124:2 2408:1 2847:1 6531:1 #
-0.053374872776978492250332664070811 14:2 29:1 38:1 53:2 72:1 166:2 192:1 273:1 505:1 763:1 1369:1 1428:1 2351:1 2841:1 6693:1 #
-0.053374872776978492250332664070811 2:2 14:1 19:1 30:1 31:1 59:2 76:1 86:1 88:1 131:1 164:1 165:1 203:1 213:1 382:1 641:1 884:1 1329:1 1597:1 2108:1 4138:1 4718:1 6711:1 8507:1 #
-0.053374872776978492250332664070811 8:1 53:1 163:1 1156:1 2015:1 2481:1 6230:1 #
-0.053374872776978492250332664070811 10:1 85:1 130:1 131:1 328:1 330:1 526:1 612:1 699:1 701:1 723:1 2735:1 #
-0.053374872776978492250332664070811 29:1 72:1 79:1 131:2 174:1 238:1 475:1 2042:1 2833:1 3921:1 4446:1 5644:1 #
0.053374872776978492250332664070811 10:1 40:1 57:1 59:1 98:1 100:1 120:1 131:1 181:1 215:1 262:1 383:2 557:1 638:1 883:1 1293:1 1364:1 2176:1 3355:1 3442:1 4461:1 4462:1 #
0.053374872776978492250332664070811 19:1 26:1 29:1 38:1 48:1 53:2 72:1 76:2 81:1 99:3 103:1 120:1 131:6 132:1 152:1 213:2 214:1 403:1 459:2 512:1 638:1 807:1 899:2 1135:1 1141:1 1601:1 2593:2 2946:1 3528:1 #
0.053374872776978492250332664070811 3:1 14:1 26:1 127:1 238:1 314:1 343:1 403:1 522:1 1095:1 1294:1 1373:1 1844:1 2009:1 #
0.053374872776978492250332664070811 10:5 29:4 40:1 47:3 53:1 56:3 68:2 76:1 82:1 113:1 131:1 138:1 310:1 488:4 797:1 801:1 1267:1 1329:1 1926:1 3113:1 7081:1 #
0.053374872776978492250332664070811 10:1 26:1 120:1 228:1 254:1 273:2 275:1 362:1 921:1 994:1 1141:1 1257:1 2028:1 #
-0.053374872776978492250332664070811 3:1 9:1 10:2 26:2 29:2 45:1 47:1 50:1 53:1 72:1 74:1 81:1 85:1 131:3 138:1 143:1 232:1 305:1 389:1 403:1 482:1 488:1 905:1 1351:1 2660:1 5920:1 6919:1 6920:1 #
-0.053374872776978492250332664070811 10:2 19:1 26:2 29:1 40:1 47:2 48:1 59:1 70:1 76:1 79:1 81:1 113:1 120:1 121:1 131:3 132:1 143:1 202:1 254:1 308:1 481:1 488:1 526:1 587:1 612:1 859:1 911:1 984:1 1080:1 1380:1 2103:1 2201:1 2304:1 2627:1 3930:1 3931:1 3932:1 3933:1 3934:1 3935:1 #
-0.053374872776978492250332664070811 10:1 29:1 40:1 47:2 50:1 53:1 55:1 76:1 113:1 131:1 134:1 143:1 202:1 238:1 470:1 581:1 912:1 1029:1 1155:1 1194:1 7271:1 7272:1 #
-0.053374872776978492250332664070811 10:1 26:1 29:1 40:1 59:1 74:1 79:1 81:1 131:2 166:1 202:1 233:1 237:1 370:1 400:1 643:1 2104:1 2805:1 6477:1 #
-0.053374872776978492250332664070811 10:2 14:1 19:1 47:1 55:1 71:1 76:2 85:1 235:1 380:1 398:1 417:1 581:1 646:1 723:1 766:1 817:1 1674:1 1712:1 9421:1 #
0.053374872776978492250332664070811 38:1 53:1 74:1 81:1 273:1 787:1 2675:1 3156:1 4762:1 4976:1 5071:1 5725:1 6787:1 #
0.053374872776978492250332664070811 19:3 40:1 102:1 120:1 143:2 405:1 636:1 763:1 1102:1 1513:1 2073:1 8058:1 9200:1 9201:1 #
0.053374872776978492250332664070811 10:1 14:1 29:2 53:1 59:1 90:2 111:1 113:2 120:2 165:1 177:1 311:1 673:1 797:1 899:1 1856:1 1956:1 2689:1 #
0.053374872776978492250332664070811 40:1 47:1 68:1 74:1 76:1 111:1 131:1 139:1 831:1 1732:1 1744:1 7189:1 7190:1 #
0.053374872776978492250332664070811 2:1 10:1 29:1 55:2 74:1 78:2 94:2 131:1 143:1 166:1 181:1 311:1 370:1 488:1 563:1 797:1 5535:1 6322:1 #
-0.053374872776978492250332664070811 3:1 29:2 120:1 147:1 207:1 273:1 389:1 567:1 579:1 656:1 1986:1 5990:1 #
-0.053374872776978492250332664070811 29:1 192:1 213:1 854:1 883:1 #
-0.053374872776978492250332664070811 6:1 23:1 28:1 29:3 36:1 81:1 113:1 155:1 254:1 480:2 889:1 1819:1 2670:3 2913:1 3633:1 5383:1 6609:1 6610:1 #
-0.053374872776978492250332664070811 656:1 8751:1 #
-0.053374872776978492250332664070811 8302:1 8303:1 #
0.053374872776978492250332664070811 40:1 53:1 81:2 131:3 156:1 180:1 213:4 275:1 505:1 994:1 1086:1 1402:1 1444:1 2015:1 2131:2 4812:1 #
0.053374872776978492250332664070811 10:1 26:3 51:1 53:1 62:1 76:3 111:2 120:1 131:1 273:1 386:1 558:1 581:1 954:1 1679:1 5239:1 7050:1 7195:1 7196:1 #
0.053374872776978492250332664070811 2:1 10:1 14:3 19:2 26:1 47:2 50:1 62:1 76:1 131:2 143:2 201:2 225:1 342:1 352:1 354:1 370:1 396:1 466:1 467:1 577:1 1181:1 1380:1 1442:1 1794:1 1795:1 1983:1 2085:1 5483:1 8113:1 9164:1 #
0.053374872776978492250332664070811 2:1 14:1 19:1 29:1 30:1 38:1 46:1 47:3 50:1 74:1 76:4 80:1 81:1 131:1 181:1 237:1 309:1 348:1 380:1 494:1 1364:1 3527:1 3633:1 3940:1 7604:1 7605:1 7606:1 #
0.053374872776978492250332664070811 17:1 19:1 26:1 29:1 30:1 47:1 63:1 76:1 131:4 138:1 143:1 152:1 273:1 400:1 506:1 884:1 1162:1 1163:1 1164:2 #
-0.053374872776978492250332664070811 6:1 14:2 19:2 26:1 40:2 48:1 55:1 56:1 72:1 91:1 113:1 131:3 152:1 254:1 273:1 403:1 466:1 467:1 1472:2 1473:1 1474:1 1475:2 1476:1 1477:1 1478:1 #
-0.053374872776978492250332664070811 14:1 19:1 26:3 29:2 47:3 56:1 72:1 76:1 94:2 103:1 111:1 131:6 140:1 208:1 213:1 228:1 238:1 258:1 279:1 322:1 457:1 521:1 564:1 640:1 780:1 905:1 965:1 1170:1 2541:1 2805:1 6234:1 6235:1 6236:1 #
-0.053374872776978492250332664070811 7:1 10:1 14:2 29:1 42:1 47:1 50:1 53:2 59:1 76:3 79:1 90:1 131:7 143:1 152:1 208:1 273:1 466:1 467:1 673:1 706:2 797:1 804:1 915:1 986:1 1049:1 1369:2 1484:1 1582:1 1733:1 2053:1 4135:1 4540:1 4640:1 7884:1 #
-0.053374872776978492250332664070811 14:1 19:1 40:1 47:1 53:1 59:1 67:1 76:1 81:1 131:2 143:1 181:1 213:1 214:1 473:1 638:1 899:1 1084:1 1293:1 1529:1 1664:1 1758:1 2072:1 2545:1 9007:1 9008:1 9009:1 9010:1 9011:1 9012:1 #
-0.053374872776978492250332664070811 19:1 36:1 40:1 47:3 53:1 57:1 131:1 313:1 626:1 723:1 845:1 5366:1 5372:1 8017:2 8056:1 8057:1 8058:1 8059:1 #
0.053374872776978492250332664070811 2:1 17:1 18:1 19:1 29:1 72:1 86:1 147:1 170:1 358:1 402:1 504:1 667:1 761:1 1151:1 2224:1 #
0.053374872776978492250332664070811 10:1 14:1 26:1 72:1 228:1 273:1 421:1 795:1 924:1 983:1 1758:1 2099:1 4207:1 5909:1 #
0.053374872776978492250332664070811 2:1 14:1 19:2 29:3 47:1 50:1 59:1 90:1 94:2 131:1 158:1 175:1 213:1 224:1 237:1 242:2 354:1 355:1 400:1 429:1 458:1 540:1 600:1 901:2 1006:1 1540:1 2201:2 3898:1 4540:1 #
0.053374872776978492250332664070811 19:1 40:1 76:1 120:1 132:1 274:1 323:1 899:1 1200:1 2703:1 4948:1 6212:1 7191:1 #
0.053374872776978492250332664070811 7:1 14:1 19:2 27:1 36:2 50:2 76:1 132:1 213:1 355:1 458:1 579:1 704:1 797:1 815:1 1785:1 2053:1 3816:1 6631:1 8435:1 9091:1 9202:1 #
-0.053374872776978492250332664070811 2:1 10:1 19:1 90:1 164:1 165:1 201:1 213:1 1045:1 1313:1 1702:1 3271:1 #
-0.053374872776978492250332664070811 19:2 60:1 72:1 87:1 201:1 332:1 542:1 679:1 3448:1 4080:1 #
-0.053374872776978492250332664070811 2:2 10:2 11:2 36:2 72:2 120:4 166:2 265:2 319:1 330:1 466:2 467:2 793:2 #
-0.053374872776978492250332664070811 2:1 19:1 45:1 63:1 542:1 3180:1 3181:1 #
-0.053374872776978492250332664070811 10:1 36:1 40:1 76:2 90:1 123:1 244:1 498:1 628:1 1092:1 1218:1 1595:1 3119:1 #
0.053374872776978492250332664070811 10:1 14:1 19:1 40:2 47:1 131:4 403:1 775:1 1252:1 1339:2 1606:1 1912:1 #
0.053374872776978492250332664070811 113:1 123:1 131:2 143:2 213:2 287:1 288:1 355:1 731:1 7002:2 7003:2 7004:1 #
0.053374872776978492250332664070811 47:2 53:1 97:1 130:1 131:1 645:1 704:1 789:1 1194:1 2121:1 3637:1 3638:1 3639:1 3640:1 #
0.053374872776978492250332664070811 2:1 15:1 40:2 47:1 50:1 55:1 56:1 76:1 120:1 238:1 366:1 393:1 494:1 498:1 564:1 618:1 620:1 999:1 1183:1 4091:1 8432:1 8433:1 #
0.053374872776978492250332664070811 14:2 38:1 40:2 47:1 53:2 55:1 76:1 111:1 138:2 164:1 207:1 509:1 544:1 646:1 924:1 1135:1 1173:1 1307:1 1546:1 2367:1 3370:1 5403:1 7676:1 9016:1 9017:1 #
-0.053374872776978492250332664070811 40:1 81:1 94:2 131:1 147:1 166:1 168:1 213:3 256:1 305:1 348:1 380:1 425:1 464:1 465:1 6709:1 6710:1 6711:1 #
-0.053374872776978492250332664070811 14:1 19:1 76:1 180:1 366:1 558:2 565:1 673:1 895:1 1613:1 1971:1 5066:1 #
-0.053374872776978492250332664070811 8:2 9:1 12:1 38:1 46:1 53:2 63:1 72:1 80:1 139:1 237:1 273:1 285:1 355:1 650:1 729:1 864:1 1246:1 2015:3 2104:1 #
-0.053374872776978492250332664070811 76:1 81:1 126:1 143:1 999:1 1117:1 5819:1 5820:1 #
-0.053374872776978492250332664070811 2:1 3:1 48:1 53:1 76:1 180:1 763:1 872:1 2074:1 #
0.053374872776978492250332664070811 14:1 19:3 26:1 40:1 91:1 105:1 113:1 138:1 159:1 218:1 234:1 238:1 305:1 348:1 627:1 893:1 1194:1 5135:1 5136:1 5137:1 5138:1 5139:1 #
0.053374872776978492250332664070811 2:1 14:1 19:1 29:1 48:1 74:1 76:2 85:1 131:1 143:1 166:1 174:1 201:1 265:1 290:1 294:2 305:1 400:1 548:1 1080:1 1135:1 1528:1 2085:1 3105:1 3622:1 5087:1 9614:1 #
0.053374872776978492250332664070811 10:1 19:1 76:1 112:1 348:1 1377:1 1630:1 3979:1 #
0.053374872776978492250332664070811 7:1 10:1 29:1 113:1 131:1 202:1 256:1 514:1 3923:1 6266:1 #
0.053374872776978492250332664070811 14:1 72:1 76:2 90:1 160:1 505:1 532:1 1189:1 1638:1 3754:1 6162:1 6163:1 #
-0.053374872776978492250332664070811 2:1 10:1 14:1 29:1 38:1 74:1 113:1 400:1 551:1 925:1 1149:1 2232:1 4723:1 7306:1 #
-0.053374872776978492250332664070811 14:1 19:1 26:1 50:1 55:1 76:2 81:1 113:1 131:1 217:1 273:1 309:1 514:1 532:1 557:1 568:1 572:1 709:1 1369:1 5086:1 8205:1 #
-0.053374872776978492250332664070811 7:1 14:1 19:2 81:1 107:1 110:2 130:1 147:1 203:1 304:1 1274:1 1423:1 3236:1 3805:1 6770:1 6771:1 6772:1 #
-0.053374872776978492250332664070811 29:1 76:1 99:1 488:1 511:1 544:1 2303:1 #
-0.053374872776978492250332664070811 10:1 76:1 92:1 147:1 192:1 323:1 1091:1 1336:1 #
0.053374872776978492250332664070811 50:1 131:1 273:1 523:1 676:1 2029:1 2360:1 3897:1 4671:1 5211:1 5472:1 #
0.053374872776978492250332664070811 10:1 19:1 27:1 53:1 74:1 131:3 156:1 379:1 473:1 723:1 1482:1 3060:1 3236:1 8589:1 #
0.053374872776978492250332664070811 8:1 17:1 27:1 36:1 47:1 48:1 50:1 53:1 59:1 63:1 85:1 94:4 131:1 177:1 213:1 233:1 238:1 256:1 262:1 273:1 330:1 380:1 398:1 458:1 532:1 548:1 646:1 946:1 1125:1 1194:1 4115:1 #
0.053374872776978492250332664070811 10:1 17:1 18:1 19:1 21:1 32:1 36:2 53:1 62:1 70:1 72:1 76:1 81:1 94:2 100:1 120:1 140:1 156:1 166:1 254:1 1320:1 3144:1 3979:1 6921:1 7445:1 7446:1 7447:1 7448:1 #
0.053374872776978492250332664070811 2:1 19:2 31:1 40:1 143:1 228:1 234:1 666:1 837:1 1006:1 1949:1 2024:1 2025:1 2026:1 2027:1 #
-0.053374872776978492250332664070811 14:1 19:1 36:1 53:1 76:1 81:1 94:2 131:2 159:1 180:1 200:1 313:1 335:1 852:1 1793:1 2279:1 3096:1 5198:1 5199:1 #
0.053374872776978492250332664070811 8:1 14:1 19:1 38:1 40:1 57:1 76:2 273:1 304:1 355:1 930:1 986:1 1049:1 1149:1 1830:1 5459:1 5460:1 5461:1 #
-0.053374872776978492250332664070811 12:1 19:1 20:1 21:1 26:1 40:1 46:1 51:1 59:1 76:1 131:1 143:2 181:1 237:1 273:1 385:1 866:1 942:1 955:1 2085:1 3831:1 5149:1 #
-0.053374872776978492250332664070811 2:1 17:1 36:1 46:1 62:1 131:1 254:1 355:1 468:1 502:1 4457:1 #
-0.053374872776978492250332664070811 3:1 14:1 19:1 95:1 120:1 131:1 143:1 160:1 1001:1 5213:1 5293:1 8231:1 8232:1 8233:1 #
-0.053374872776978492250332664070811 3:1 10:2 19:3 26:2 28:1 29:3 32:2 40:2 62:1 63:1 74:1 79:1 87:1 131:2 174:1 175:1 177:1 417:1 421:1 514:1 631:1 797:1 801:1 1790:1 1791:1 1792:1 1793:1 1794:1 1795:1 #
-0.053374872776978492250332664070811 10:1 19:1 47:1 68:1 79:1 94:1 166:1 341:1 992:1 4020:1 4253:1 5471:1 #
0.053374872776978492250332664070811 3:1 10:1 26:1 55:1 63:1 74:2 79:1 81:1 90:1 103:1 177:2 213:1 267:1 370:1 419:1 503:1 587:1 701:1 761:1 854:1 2768:1 2769:1 #
0.053374872776978492250332664070811 2:1 3:1 48:1 62:1 209:1 213:1 706:1 979:1 1408:1 2337:1 #
0.053374872776978492250332664070811 19:3 40:1 68:1 103:1 143:1 480:1 990:1 991:1 992:1 #
0.053374872776978492250332664070811 39:1 71:1 76:1 134:1 200:1 213:1 274:1 311:1 401:1 402:1 524:1 819:1 920:1 921:1 #
0.053374872776978492250332664070811 2:1 14:1 29:1 53:2 55:1 76:1 131:3 152:1 212:1 254:1 265:1 344:1 498:1 558:1 1200:1 1249:2 1581:1 1782:1 4544:1 7935:1 #
-0.053374872776978492250332664070811 7304:1 7305:1 #
-0.053374872776978492250332664070811 10:1 19:1 36:2 47:1 55:1 71:1 74:1 76:1 90:1 94:2 156:1 159:1 177:1 201:1 254:1 330:1 536:1 550:1 893:1 999:1 1238:1 8238:1 #
-0.053374872776978492250332664070811 2:1 1919:1 1920:1 #
-0.053374872776978492250332664070811 81:1 99:1 100:1 383:1 494:2 525:1 1200:1 1703:1 1704:1 #
-0.053374872776978492250332664070811 143:1 1069:1 2438:1 #
0.053374872776978492250332664070811 6:1 19:2 21:1 29:1 32:1 40:1 46:1 47:2 63:1 82:1 87:1 113:1 127:1 131:2 181:1 273:1 294:1 355:1 362:1 464:1 465:1 1258:1 1426:1 2646:1 4546:1 4629:1 5191:1 6582:1 9418:1 9419:1 #
0.053374872776978492250332664070811 14:1 29:1 47:2 50:1 76:1 81:1 130:1 131:2 143:1 157:1 166:1 273:1 387:1 522:1 523:1 884:1 921:1 1351:1 2914:1 3555:1 3787:1 4668:1 5421:1 5422:1 #
0.053374872776978492250332664070811 2:1 19:1 30:1 40:1 47:1 76:1 91:1 130:1 131:3 143:3 181:1 213:1 215:4 224:1 273:1 383:4 494:1 497:2 565:1 633:1 899:1 1565:1 1794:1 1915:1 3109:1 3699:1 3953:1 4205:1 5525:1 6215:1 6216:1 6217:1 #
0.053374872776978492250332664070811 2:1 14:1 72:1 131:2 174:1 219:1 233:1 787:1 1828:1 2660:1 3670:1 5621:1 #
0.053374872776978492250332664070811 14:1 19:1 26:1 28:1 29:1 31:1 47:2 53:1 72:1 130:1 158:1 221:1 273:1 355:1 403:1 581:1 789:1 867:1 1320:1 1423:1 4950:1 4951:1 #
-0.053374872776978492250332664070811 2:1 9:1 10:2 14:1 19:4 29:2 47:4 51:1 131:4 157:1 180:1 213:1 256:1 344:1 564:2 587:1 591:1 723:1 854:1 1266:2 1316:2 1453:1 1956:1 2108:1 2506:1 3018:2 3158:1 3159:1 3160:1 3161:1 3162:1 3163:1 #
0.053374872776978492250332664070811 10:1 26:2 36:1 40:1 47:1 51:1 76:2 79:1 174:1 228:1 305:1 412:1 421:1 543:1 706:1 1032:1 1589:1 1645:1 1646:1 #
-0.053374872776978492250332664070811 10:2 29:1 32:1 36:1 40:1 51:1 53:1 76:1 104:1 120:1 121:1 131:1 207:1 213:2 214:1 215:2 238:1 383:1 421:1 488:2 646:1 854:1 899:1 925:1 979:1 1951:1 2604:1 3810:1 6708:1 #
-0.053374872776978492250332664070811 2:1 19:1 26:1 30:1 40:1 55:1 76:6 79:1 85:2 131:1 138:1 143:1 213:1 837:1 920:2 1012:1 1180:1 1201:1 1470:1 1938:1 2108:1 2951:1 3706:1 4119:1 4489:1 5207:1 5574:1 5575:1 5576:1 5577:1 5578:1 5579:1 5580:1 #
-0.053374872776978492250332664070811 14:1 29:1 51:1 76:2 78:1 120:1 131:2 151:1 166:1 393:1 568:1 881:1 988:1 2015:1 2117:1 2224:1 #
-0.053374872776978492250332664070811 2:2 36:1 45:1 74:1 76:1 131:3 166:1 1682:1 #
-0.053374872776978492250332664070811 7:1 10:1 14:1 29:1 38:1 53:3 72:2 74:1 85:1 90:1 131:4 174:1 274:1 366:1 418:1 473:1 641:1 687:1 688:2 1099:1 1119:1 2651:1 3619:1 #
0.053374872776978492250332664070811 11:1 14:1 23:1 26:1 56:1 94:2 120:1 138:1 143:1 181:1 228:1 235:2 273:1 379:1 701:1 958:1 971:1 1814:1 2085:1 3645:1 7633:1 7634:1 #
0.053374872776978492250332664070811 7:1 10:1 14:1 19:1 112:1 143:1 256:1 294:1 464:1 465:1 3922:1 3923:1 3924:1 3925:1 #
0.053374872776978492250332664070811 14:1 29:1 90:1 99:1 113:1 398:1 970:1 1135:1 6128:1 #
0.053374872776978492250332664070811 53:1 55:1 81:1 131:3 180:1 238:1 662:1 1049:1 2719:2 #
0.053374872776978492250332664070811 54:1 1959:1 6932:1 #
-0.053374872776978492250332664070811 19:2 26:1 47:1 59:1 81:1 113:1 273:1 532:1 1000:1 1218:1 2271:1 3674:1 5344:1 5503:1 #
-0.053374872776978492250332664070811 26:2 27:1 40:1 56:1 59:1 72:1 111:1 228:1 232:1 235:1 273:1 398:1 766:1 966:1 2608:1 2609:1 2610:1 #
-0.053374872776978492250332664070811 155:1 170:1 #
-0.053374872776978492250332664070811 19:1 36:1 63:1 87:1 127:1 143:1 158:1 579:1 761:1 1521:1 #
-0.053374872776978492250332664070811 71:1 81:1 180:1 273:1 611:1 673:1 3932:1 #
0.053374872776978492250332664070811 10:1 12:1 14:1 19:2 38:1 47:1 48:1 53:1 55:1 76:1 87:1 90:1 120:1 127:1 131:2 143:1 149:1 166:1 201:2 273:1 355:1 396:1 400:1 414:2 509:1 679:1 934:1 1565:2 1823:2 2248:1 7050:1 7076:1 7301:1 7935:1 8269:1 #
0.053374872776978492250332664070811 2:1 3:1 53:2 74:1 823:1 1106:1 1718:1 1739:1 5100:1 5665:1 #
0.053374872776978492250332664070811 2:1 14:1 19:1 53:2 55:1 72:1 76:1 94:2 131:1 134:1 143:1 213:1 291:1 352:1 402:1 509:1 511:1 587:1 854:1 1084:1 1112:1 1321:1 1365:1 1878:1 1932:1 5930:1 #
0.053374872776978492250332664070811 10:1 12:1 396:1 771:1 1519:1 4370:1 4371:1 5005:1 #
0.053374872776978492250332664070811 10:2 19:1 71:1 76:1 131:2 198:1 202:2 1094:1 2133:2 7053:1 #
-0.053374872776978492250332664070811 19:1 53:1 55:1 63:1 498:1 505:1 509:1 1049:1 1051:1 2947:1 8310:1 8499:1 #
-0.053374872776978492250332664070811 2:3 8:1 12:1 14:1 19:3 30:1 40:1 47:2 53:1 100:1 131:2 160:1 224:1 342:1 405:1 419:1 928:1 1102:1 1103:1 1104:1 1105:1 1106:1 1107:1 1108:1 1109:1 #
-0.053374872776978492250332664070811 14:1 53:2 82:1 99:1 127:1 510:1 789:1 6188:1 6189:1 #
-0.053374872776978492250332664070811 3:1 14:1 40:1 47:1 50:1 53:1 72:1 131:1 213:1 612:1 1086:1 2328:1 5568:1 5569:1 5570:1 5571:1 #
-0.053374872776978492250332664070811 2:1 53:2 131:1 1008:1 1161:1 2743:1 #
0.053374872776978492250332664070811 32:1 55:1 118:1 120:1 121:1 143:1 599:1 676:1 799:1 #
0.053374872776978492250332664070811 26:1 40:1 47:1 99:1 131:1 152:1 166:1 263:1 482:1 720:1 738:1 1732:1 2544:1 2711:1 3619:1 5472:1 #
0.053374872776978492250332664070811 26:1 79:1 127:1 228:1 273:1 680:1 730:1 921:1 4079:1 7782:1 #
0.053374872776978492250332664070811 10:1 29:1 47:1 68:1 131:1 138:1 155:1 382:1 464:1 761:1 934:1 1147:1 1402:1 1458:1 9229:1 #
0.053374872776978492250332664070811 10:1 29:1 45:1 55:1 99:1 157:1 383:1 514:1 548:1 616:1 638:1 931:1 2719:1 5195:1 #
-0.053374872776978492250332664070811 10:1 29:1 76:1 202:1 513:1 532:1 1091:1 #
-0.053374872776978492250332664070811 212:1 215:1 383:1 494:1 579:1 4263:1 #
-0.053374872776978492250332664070811 10:1 26:2 29:1 47:2 48:1 63:1 68:1 99:1 120:1 123:1 192:1 238:1 279:1 630:1 3842:1 #
-0.053374872776978492250332664070811 29:1 49:1 131:1 544:1 726:1 #
-0.053374872776978492250332664070811 14:1 26:1 40:1 79:1 113:1 166:1 204:1 212:1 228:1 383:1 497:1 994:1 1200:1 1642:1 2229:1 4919:1 5439:1 6568:1 7738:1 #
0.053374872776978492250332664070811 19:2 53:1 59:1 74:1 76:1 99:1 131:1 134:1 152:1 207:1 235:1 274:1 473:1 563:1 1092:1 1186:1 1749:1 2052:1 2053:1 2054:1 #
0.053374872776978492250332664070811 2:1 3:1 26:1 38:1 47:1 48:1 59:1 131:2 139:1 143:1 261:1 334:1 366:1 434:1 548:1 770:1 813:1 924:1 1758:1 1823:1 2027:1 #
0.053374872776978492250332664070811 3:2 14:1 19:1 38:1 47:3 68:2 76:2 201:2 205:1 210:2 244:1 481:1 545:1 563:1 896:1 1549:1 2094:1 2456:1 2791:1 #
0.053374872776978492250332664070811 10:1 19:2 29:2 40:1 46:1 76:1 131:2 138:1 175:1 238:1 305:1 319:1 330:1 355:1 403:1 417:1 645:1 817:1 875:1 1507:1 1955:1 8897:1 8898:1 #
0.053374872776978492250332664070811 2:1 3:1 26:1 29:1 47:1 51:1 53:2 55:1 72:1 76:1 131:5 138:1 237:1 254:1 518:1 813:1 1141:1 1933:1 1953:1 2687:1 4548:1 8690:1 #
-0.053374872776978492250332664070811 10:1 19:3 32:1 72:1 74:1 76:1 87:1 108:1 131:5 138:1 143:2 156:1 157:1 200:1 234:1 238:1 328:1 667:1 840:1 1219:1 1402:1 1712:1 1733:1 1793:1 4106:1 5929:1 8103:1 8376:1 8377:1 8378:1 8379:1 #
-0.053374872776978492250332664070811 19:1 38:1 45:2 47:2 48:1 55:1 74:1 131:3 156:2 175:1 200:1 210:2 352:1 355:2 414:1 417:2 596:1 701:1 1442:1 1563:1 1983:1 2153:1 2745:1 3113:1 3236:1 3662:1 5189:1 5864:1 5865:1 5866:1 #
-0.053374872776978492250332664070811 2:2 7:1 14:1 19:1 74:2 76:2 82:1 87:1 94:4 131:3 201:2 296:1 447:1 814:2 1274:1 1565:1 1671:1 1672:1 #
-0.053374872776978492250332664070811 14:1 19:1 28:1 29:1 38:1 45:1 47:1 68:1 110:1 131:3 139:1 467:1 1104:1 1818:1 2434:1 5473:1 5474:1 5475:1 #
-0.053374872776978492250332664070811 14:1 31:1 59:1 74:1 76:2 94:2 131:4 134:1 148:1 200:1 217:1 220:1 337:1 400:1 848:1 864:1 1486:1 4895:1 5076:1 #
0.053374872776978492250332664070811 53:1 54:1 56:1 107:1 238:1 558:1 567:1 618:1 2598:1 #
0.053374872776978492250332664070811 10:2 47:1 50:1 56:1 62:2 82:1 87:2 131:1 143:2 156:2 166:1 175:1 273:1 294:1 296:1 308:1 355:1 398:1 417:1 429:1 571:1 735:1 993:1 2103:2 2702:1 5343:1 5810:1 5994:1 6180:1 9185:1 #
0.053374872776978492250332664070811 19:3 20:1 26:1 32:1 273:1 545:1 1956:1 2191:1 2978:1 2979:1 2980:1 #
0.053374872776978492250332664070811 26:1 32:1 36:1 50:1 63:1 72:2 105:1 166:2 181:1 228:1 232:1 243:1 346:1 831:1 868:1 1507:1 2478:1 5689:1 5728:1 6660:1 #
0.053374872776978492250332664070811 10:1 51:1 55:1 63:1 147:1 390:1 567:1 568:1 884:1 1008:1 3756:1 7255:1 #
-0.053374872776978492250332664070811 2:1 10:2 19:1 36:1 47:1 48:1 143:1 158:1 166:1 355:1 2892:1 4051:2 5116:1 7194:1 9648:1 9657:1 9658:1 9659:1 9660:1 9661:1 9662:1 #
-0.053374872776978492250332664070811 63:1 120:1 6977:1 8968:1 8969:1 #
-0.053374872776978492250332664070811 40:1 53:1 8547:1 8548:1 #
-0.053374872776978492250332664070811 6:1 10:2 12:1 19:1 26:1 30:1 113:1 120:2 238:1 273:2 275:1 400:1 912:1 1365:1 1915:1 4953:1 #
-0.053374872776978492250332664070811 19:1 40:1 59:1 76:1 99:4 884:1 2178:1 2179:1 2180:1 #
0.053374872776978492250332664070811 19:2 22:1 26:1 29:1 40:1 47:2 50:2 53:1 63:1 80:1 94:2 99:2 111:1 113:1 120:1 131:5 143:1 165:2 174:1 285:1 553:1 642:1 645:1 706:1 761:1 766:1 783:1 845:1 1004:1 1081:1 1141:2 1369:1 1436:1 1468:1 2064:1 9380:1 #
0.053374872776978492250332664070811 14:1 59:1 113:1 131:2 160:1 399:1 464:1 465:1 523:1 571:1 837:1 1157:1 4692:1 #
0.053374872776978492250332664070811 19:1 38:1 46:1 59:1 94:2 100:1 120:1 131:3 356:1 421:1 563:1 600:1 647:1 1486:1 5358:1 7542:1 7543:1 #
0.053374872776978492250332664070811 9:2 26:1 32:1 62:1 131:2 158:1 228:2 237:2 673:1 706:1 797:1 #
0.053374872776978492250332664070811 17:1 19:2 28:1 29:5 36:1 42:2 49:1 53:1 55:1 71:1 72:2 74:2 81:2 94:4 130:1 137:1 147:1 158:1 163:2 174:1 201:2 213:2 237:1 332:1 333:1 334:1 335:1 336:1 #
-0.053374872776978492250332664070811 19:2 29:1 50:1 59:1 94:2 143:1 152:1 160:1 210:1 213:1 458:1 1212:1 1343:1 #
-0.053374872776978492250332664070811 14:1 19:2 26:2 42:1 50:2 51:1 82:1 103:1 120:1 131:1 238:1 403:1 548:1 743:1 1092:1 1166:1 1273:1 1964:1 2719:1 2768:1 3507:1 3909:1 5885:1 #
-0.053374872776978492250332664070811 6:1 14:1 26:1 29:3 47:2 50:1 55:1 56:2 68:1 76:1 86:1 90:1 156:1 157:1 165:1 166:2 210:1 235:1 273:1 289:1 338:1 342:1 346:1 403:1 457:1 523:1 1308:1 1504:1 2637:1 7295:1 8834:1 8835:1 #
-0.053374872776978492250332664070811 11:1 26:1 29:1 32:1 38:1 45:1 47:2 53:1 72:2 79:1 81:1 130:1 131:2 147:1 180:1 237:1 924:1 1049:1 1486:1 1614:1 1712:1 5271:1 5957:1 7679:1 #
-0.053374872776978492250332664070811 2:1 14:1 26:2 29:1 53:1 72:1 79:1 113:1 131:1 164:1 165:1 213:1 396:1 505:1 511:1 770:1 817:2 841:2 854:1 1092:1 2104:1 5955:1 #
0.053374872776978492250332664070811 14:2 19:1 26:1 51:1 76:1 103:1 111:1 120:1 127:1 522:1 1317:1 1382:1 3503:1 4813:1 4814:1 4815:1 4816:1 #
0.053374872776978492250332664070811 2:1 14:1 19:1 26:1 59:1 76:1 100:1 143:1 166:1 192:1 212:1 273:1 467:1 700:1 757:1 877:1 1594:1 3441:1 #
0.053374872776978492250332664070811 62:1 63:1 1607:1 1833:1 6390:1 #
0.053374872776978492250332664070811 6:1 19:1 26:1 36:1 40:1 45:1 62:1 85:1 131:2 143:1 201:1 208:1 212:1 213:1 254:1 383:1 932:1 1200:1 2277:1 3444:1 3812:1 #
0.053374872776978492250332664070811 14:1 26:3 50:1 90:1 273:1 314:1 338:1 403:1 497:1 523:1 616:1 647:1 676:1 1269:1 9501:1 #
-0.053374872776978492250332664070811 12:1 19:1 94:2 131:1 132:1 138:1 143:1 214:1 233:1 558:1 804:1 1218:1 2092:1 2093:1 5957:1 #
-0.053374872776978492250332664070811 19:1 131:1 1273:1 5260:1 #
-0.053374872776978492250332664070811 8:1 32:1 36:1 46:1 72:1 76:1 87:1 127:1 163:1 166:1 174:1 177:1 200:1 355:1 390:1 594:1 1112:1 2184:1 9487:1 9488:1 9489:1 9490:1 #
-0.053374872776978492250332664070811 15:1 26:1 29:2 53:1 130:1 143:1 258:1 285:1 305:1 #
-0.053374872776978492250332664070811 53:1 59:1 76:1 81:1 138:1 366:1 879:1 930:1 1111:1 9522:1 9523:1 9524:1 #
0.053374872776978492250332664070811 27:1 29:1 53:1 72:2 99:3 132:1 134:1 616:1 638:1 899:1 1320:1 1781:1 1782:1 2779:1 7880:1 #
0.053374872776978492250332664070811 29:2 53:1 59:1 72:1 76:1 79:1 92:1 94:2 228:1 531:1 647:1 703:1 5098:1 5099:1 5100:1 #
0.053374872776978492250332664070811 12:1 19:1 32:1 46:1 50:1 55:1 62:2 67:1 68:1 87:2 120:1 131:2 175:1 309:1 523:1 526:1 700:1 1664:1 2490:1 3660:1 3661:2 3662:1 #
0.053374872776978492250332664070811 10:1 19:1 26:1 32:1 47:2 48:1 53:2 55:1 72:1 81:1 131:1 152:1 166:1 389:1 2914:1 3078:1 4445:1 4446:1 4447:1 4448:1 4449:1 #
0.053374872776978492250332664070811 14:2 19:2 26:3 53:1 59:1 76:1 131:3 200:1 228:1 235:2 237:1 273:1 276:1 348:1 459:1 474:1 833:1 1000:1 1095:1 1256:3 3342:1 3529:1 4306:1 4307:1 #
-0.053374872776978492250332664070811 3:2 10:1 14:1 20:1 26:2 27:1 47:2 50:1 53:1 59:1 81:2 120:2 131:1 174:1 192:1 202:1 225:1 228:2 389:1 420:1 447:1 840:1 854:1 993:1 1526:1 1630:1 1702:1 3402:1 4080:1 4664:1 4665:1 5527:1 5813:1 5814:1 #
-0.053374872776978492250332664070811 19:1 109:1 110:1 131:3 498:1 787:1 897:1 #
-0.053374872776978492250332664070811 2:1 5:1 7:1 14:1 20:1 26:1 32:1 47:1 50:1 53:1 55:1 94:2 131:1 139:1 143:1 149:1 228:1 244:1 336:1 380:1 1758:1 2099:1 6941:1 7086:1 7087:1 #
-0.053374872776978492250332664070811 19:1 26:1 76:1 77:1 79:1 90:1 131:1 237:1 238:1 273:1 278:1 366:1 403:1 565:1 4191:1 4192:1 #
-0.053374872776978492250332664070811 14:1 25:1 26:1 48:1 79:1 166:1 228:1 237:1 366:1 369:1 482:1 553:1 563:1 1150:1 1409:1 1601:1 3434:1 5969:1 5970:1 5971:1 5972:1 5973:1 #
0.053374872776978492250332664070811 5:1 285:1 514:1 1150:2 4028:1 4029:1 4030:1 4031:1 #
0.053374872776978492250332664070811 19:1 26:1 29:1 36:1 45:1 49:1 90:1 94:2 127:1 131:1 138:1 543:1 877:1 1670:1 1979:1 5399:1 #
0.053374872776978492250332664070811 19:1 30:1 40:1 47:1 50:1 57:1 62:1 95:1 98:1 131:1 143:1 203:1 207:1 215:1 383:1 498:1 514:1 558:1 823:1 833:1 4895:1 #
0.053374872776978492250332664070811 7:1 10:1 14:1 17:1 29:3 76:2 81:1 94:2 131:1 174:1 192:1 208:1 217:1 243:1 254:1 273:1 416:1 661:1 1099:1 2550:1 2787:1 4348:1 4349:1 #
0.053374872776978492250332664070811 19:3 62:1 498:1 558:1 609:1 1218:1 1246:1 2214:1 3052:1 #
-0.053374872776978492250332664070811 10:1 14:1 19:2 29:2 51:2 53:1 76:1 131:1 155:1 177:1 342:1 513:1 565:1 641:1 1006:1 1309:1 1865:1 1967:1 2719:1 #
-0.053374872776978492250332664070811 7:1 19:1 36:1 62:1 98:1 100:1 254:1 497:1 638:1 1792:1 5751:1 5752:1 #
-0.053374872776978492250332664070811 10:1 29:3 51:1 53:1 56:1 59:1 62:1 110:1 127:1 131:3 138:1 143:1 163:1 175:1 294:1 537:1 2674:1 5797:1 6880:1 #
-0.053374872776978492250332664070811 2:1 10:2 19:3 29:1 31:1 40:1 48:1 50:2 55:1 76:2 87:1 90:1 94:2 131:3 156:1 177:1 192:1 224:2 273:1 294:1 352:1 429:1 912:1 914:1 944:1 1194:1 1327:1 1725:1 1833:1 4879:1 5189:1 5808:1 5809:1 5810:1 #
-0.053374872776978492250332664070811 19:1 29:1 40:1 55:1 4616:1 9013:1 9014:1 #
0.053374872776978492250332664070811 10:1 26:1 47:1 51:1 56:1 76:2 79:1 130:1 131:1 143:1 202:1 213:1 228:1 265:1 365:1 403:1 440:1 532:1 726:1 1186:1 1369:1 2108:1 4774:1 #
0.053374872776978492250332664070811 29:1 38:1 40:1 99:2 130:1 131:3 152:2 181:1 231:1 565:1 649:1 759:1 1086:1 1928:1 4275:1 #
0.053374872776978492250332664070811 2:1 19:1 20:1 28:1 29:1 30:1 31:2 32:1 36:1 38:1 50:1 55:1 62:1 72:1 76:1 85:1 87:1 110:1 131:1 143:1 238:1 412:1 419:1 706:1 787:1 797:2 1102:1 1320:2 1646:1 2199:1 3279:1 3868:1 5329:1 5330:1 5331:1 5332:1 #
0.053374872776978492250332664070811 10:1 26:1 76:1 79:1 115:1 131:1 166:1 202:1 228:1 294:1 1002:1 1003:1 1004:1 1005:1 #
0.053374872776978492250332664070811 14:1 76:1 132:1 160:1 563:1 1568:1 2008:1 2120:1 2327:1 5215:1 #
-0.053374872776978492250332664070811 62:1 68:1 99:5 1643:1 3620:1 3621:1 4142:1 4143:1 4144:1 #
-0.053374872776978492250332664070811 26:1 62:1 99:1 333:1 699:1 2951:1 #
-0.053374872776978492250332664070811 10:1 14:1 29:1 55:1 76:2 85:1 129:1 131:1 202:1 259:1 875:1 1060:1 2327:1 #
-0.053374872776978492250332664070811 40:1 63:1 76:1 131:1 138:1 704:1 1150:4 2149:1 2681:1 4711:1 4712:1 #
-0.053374872776978492250332664070811 10:1 72:1 74:1 76:1 201:1 703:1 722:1 1100:1 1519:1 #
0.053374872776978492250332664070811 14:1 19:2 22:1 40:1 47:1 72:1 111:1 113:1 163:1 228:1 567:1 792:1 1000:1 8900:1 8913:1 8914:1 #
0.053374872776978492250332664070811 26:2 50:1 68:1 94:2 120:1 138:1 180:2 273:1 519:1 1194:1 1274:1 1879:1 1921:1 2131:1 7845:1 7846:1 #
0.053374872776978492250332664070811 10:1 14:1 19:1 29:3 47:2 55:1 63:1 76:1 85:1 131:3 164:1 165:1 177:1 180:1 184:1 258:1 417:1 457:1 532:1 766:1 1365:1 1772:1 2138:1 2494:1 4270:1 5947:1 5948:1 5949:1 #
0.053374872776978492250332664070811 19:1 30:1 62:1 131:1 134:1 157:1 173:1 213:1 216:1 330:1 523:1 565:1 600:1 759:1 2732:1 #
0.053374872776978492250332664070811 8:1 14:2 26:2 29:2 40:2 47:3 76:2 85:1 86:1 90:1 113:1 138:1 273:1 305:1 368:1 398:1 853:1 947:1 1001:1 1060:1 1952:1 2642:1 3110:1 3236:1 6303:1 6304:1 6305:1 6306:1 6307:1 #
-0.053374872776978492250332664070811 22:1 26:1 28:1 29:2 32:1 36:1 47:1 48:1 53:1 72:1 74:1 81:1 131:1 138:1 158:1 213:1 247:1 273:1 440:1 679:1 757:1 846:1 901:2 931:1 1099:1 1369:2 1642:1 2094:1 4841:1 7892:1 #
-0.053374872776978492250332664070811 6:1 10:1 14:1 17:1 19:1 26:4 29:1 40:1 47:3 51:1 55:1 63:1 72:1 79:1 81:3 85:1 113:1 131:1 143:1 164:1 174:1 202:1 237:1 238:1 328:1 346:1 482:1 548:1 645:1 813:1 915:1 1124:1 2124:1 #
-0.053374872776978492250332664070811 2:1 14:1 26:2 40:1 50:2 62:1 63:1 72:1 120:1 166:1 228:2 494:1 498:1 648:1 676:1 1427:1 1568:1 1741:1 1831:1 3012:1 4263:1 4839:1 4840:1 #
-0.053374872776978492250332664070811 2:1 10:1 14:1 19:1 29:1 30:1 38:1 53:1 72:1 74:1 111:1 113:1 127:1 131:2 180:2 511:1 649:1 925:1 969:1 1086:1 1158:1 5308:1 8948:1 8949:1 #
-0.053374872776978492250332664070811 19:1 59:1 76:1 131:1 157:1 180:1 235:2 256:1 402:1 464:1 465:1 523:1 1730:1 2174:1 2618:1 #
0.053374872776978492250332664070811 2:1 14:1 22:1 36:1 53:1 99:1 131:1 134:1 324:1 326:2 1832:1 3800:1 3802:1 6696:1 #
0.053374872776978492250332664070811 21:1 29:1 32:1 48:1 53:2 74:1 76:1 85:1 131:1 166:1 177:1 196:1 238:1 273:1 362:1 772:1 897:1 990:1 1166:1 1519:1 3075:1 4829:1 6398:1 #
0.053374872776978492250332664070811 10:1 29:3 76:2 131:3 132:2 152:2 165:1 174:1 175:1 178:1 181:1 213:2 237:1 254:1 338:2 831:2 1506:1 1608:1 2951:1 #
0.053374872776978492250332664070811 10:1 17:1 30:1 40:1 92:1 131:1 134:1 181:1 238:1 273:1 380:1 420:1 579:1 646:1 1230:1 2780:1 5996:1 5997:1 #
0.053374872776978492250332664070811 8:1 19:1 36:1 40:1 104:1 105:1 120:1 159:1 181:1 507:1 558:1 627:1 1152:1 5438:1 #
-0.053374872776978492250332664070811 29:1 46:1 76:1 98:1 131:2 167:1 233:1 237:1 285:1 346:1 5495:1 6615:1 6731:1 6732:1 #
-0.053374872776978492250332664070811 29:1 31:2 47:1 132:1 1180:2 2085:1 #
-0.053374872776978492250332664070811 29:1 40:1 76:2 267:1 301:1 523:1 939:1 1186:1 5975:1 #
-0.053374872776978492250332664070811 2:1 36:1 38:1 53:1 131:3 181:1 232:1 254:1 285:1 378:1 402:1 511:1 652:1 889:1 3423:1 #
-0.053374872776978492250332664070811 36:1 55:1 104:1 543:1 706:1 1147:1 1799:1 #
0.053374872776978492250332664070811 2:1 8:1 14:1 19:1 26:1 30:1 47:1 50:1 74:1 120:1 137:1 143:2 166:1 200:1 207:1 215:1 262:1 327:1 328:1 494:1 498:1 797:1 822:1 889:1 939:1 1143:1 1987:1 #
0.053374872776978492250332664070811 3:1 8:1 14:1 19:1 40:1 50:2 62:1 72:1 87:1 121:2 127:1 143:1 203:1 213:1 234:1 494:1 703:1 3755:1 3756:1 3757:1 #
0.053374872776978492250332664070811 3:1 6:2 10:2 14:1 17:1 29:2 47:2 50:2 51:1 55:2 79:1 85:1 130:1 131:3 143:1 156:1 163:1 202:1 321:1 348:1 557:2 567:1 704:1 777:1 1086:1 1507:1 1614:1 4418:1 4419:1 4420:1 #
0.053374872776978492250332664070811 2:1 3:1 14:1 19:1 29:1 47:1 48:1 59:1 72:1 76:1 120:1 131:2 132:1 308:1 460:1 556:1 595:1 600:1 706:1 971:1 986:1 1281:1 2960:1 3358:1 3587:1 3805:1 3808:1 8489:1 8733:1 8734:1 8735:1 #
0.053374872776978492250332664070811 7:1 29:1 32:1 38:1 53:1 62:1 85:1 175:2 319:1 532:1 701:1 1914:1 1915:1 1916:1 #
-0.053374872776978492250332664070811 2:1 10:1 14:1 19:1 29:2 38:1 40:1 47:3 72:1 79:1 81:1 85:1 127:1 131:1 143:1 202:1 234:1 1193:1 1403:1 1444:1 2691:1 2850:1 2861:1 3442:1 7192:1 8387:1 8388:1 8389:1 8390:1 #
-0.053374872776978492250332664070811 10:1 14:1 19:1 36:1 40:1 47:1 48:1 51:1 76:2 143:2 155:2 200:1 228:1 233:1 285:1 308:1 355:3 467:1 480:1 761:1 801:1 1361:1 1393:1 1758:1 1825:1 1938:1 2744:1 2745:1 2746:1 2747:1 2748:1 #
-0.053374872776978492250332664070811 10:1 14:1 29:2 31:1 36:1 38:1 47:1 51:1 53:1 59:1 63:1 104:1 120:2 131:2 152:1 181:1 200:1 261:1 265:1 328:1 346:1 355:1 507:1 532:1 701:1 1291:1 1947:1 2105:1 3339:1 3360:1 3619:1 5522:1 #
-0.053374872776978492250332664070811 19:2 40:1 53:1 59:1 72:1 120:1 131:4 152:2 181:1 276:1 311:1 326:1 514:1 763:1 802:1 868:1 879:1 893:1 1332:1 1474:1 2869:1 3100:1 7854:1 7855:1 7856:1 7857:1 7858:1 7859:1 #
-0.053374872776978492250332664070811 14:1 19:3 20:1 29:2 31:1 32:1 42:1 47:1 48:1 53:1 68:1 74:1 131:3 143:1 152:1 166:1 221:1 223:1 261:1 285:1 322:1 398:1 402:1 868:2 970:1 1029:1 1143:1 1601:1 #
0.053374872776978492250332664070811 2:2 26:2 38:1 87:1 90:1 131:2 305:1 468:1 830:1 889:1 1128:1 4874:1 5238:1 5239:1 5240:1 #
0.053374872776978492250332664070811 3:1 10:1 19:1 26:2 56:1 76:1 131:1 143:1 233:1 237:1 238:1 273:1 326:1 403:1 557:1 845:1 868:1 879:1 932:1 2028:1 3649:1 4315:1 #
0.053374872776978492250332664070811 10:1 47:1 1150:1 2451:2 5055:1 5056:1 5057:1 #
0.053374872776978492250332664070811 19:1 57:1 72:1 131:3 187:1 273:1 498:1 2651:1 4253:1 6387:1 6388:1 6389:1 #
0.053374872776978492250332664070811 14:1 26:1 38:1 50:1 73:1 113:1 137:1 228:1 273:1 403:1 423:1 457:1 1571:1 4083:1 5728:1 #
-0.053374872776978492250332664070811 10:1 56:1 57:1 132:1 143:2 213:1 216:1 321:1 354:1 887:1 #
-0.053374872776978492250332664070811 10:1 26:1 50:1 113:1 273:1 346:1 673:1 825:1 #
-0.053374872776978492250332664070811 2:1 7:1 19:1 26:1 30:1 36:1 62:1 76:1 79:2 137:1 254:1 405:1 600:1 617:1 701:1 797:1 1267:1 1943:1 7317:1 #
-0.053374872776978492250332664070811 19:1 28:1 50:1 55:1 59:1 81:1 180:1 213:1 214:1 215:1 224:1 304:1 305:1 348:1 571:1 638:1 688:1 1423:1 #
-0.053374872776978492250332664070811 10:1 26:1 113:1 123:1 181:1 273:1 1029:1 1218:1 5998:1 5999:1 6000:1 #
0.053374872776978492250332664070811 6:1 10:2 19:2 22:1 38:1 40:1 53:3 90:1 94:2 130:1 131:2 143:2 152:2 166:1 421:1 471:1 480:1 545:1 687:1 758:1 766:1 965:1 1186:2 1369:1 2140:1 2141:1 2142:2 2143:1 2144:1 #
0.053374872776978492250332664070811 7:2 19:2 29:1 38:1 47:1 59:1 76:1 79:1 94:2 131:2 138:1 156:2 166:1 200:1 213:1 269:1 305:2 572:1 644:1 647:1 1147:1 3845:1 5358:1 8297:1 8298:1 8299:1 8300:1 #
0.053374872776978492250332664070811 47:2 60:1 74:1 85:1 90:1 123:1 131:2 143:1 160:1 163:1 330:3 488:1 536:1 584:1 600:1 777:1 1147:1 1165:1 1507:1 1611:1 2431:1 2432:1 2433:1 #
0.053374872776978492250332664070811 2:1 19:1 29:3 31:1 47:1 49:1 55:1 62:1 63:1 68:1 76:1 81:2 87:1 131:3 138:1 143:1 201:1 202:2 265:3 386:1 390:1 701:1 816:1 875:1 1279:2 1439:3 1486:1 2687:1 3441:1 5539:1 #
0.053374872776978492250332664070811 17:1 26:1 29:1 45:1 47:1 76:2 78:1 131:3 174:1 458:1 475:1 480:1 532:1 547:1 798:1 934:1 1141:1 4841:2 4842:1 #
-0.053374872776978492250332664070811 3:2 22:2 26:2 29:3 47:1 50:1 51:1 55:1 56:2 76:4 79:1 81:2 85:1 90:1 94:2 131:5 158:1 174:1 238:1 265:1 330:1 387:1 403:1 547:1 1122:1 1369:1 1799:1 1833:1 1938:1 2459:1 2687:1 2914:1 5343:1 7276:2 #
0.053374872776978492250332664070811 14:1 26:1 36:1 40:1 76:1 143:1 273:1 308:1 505:1 673:1 797:1 895:1 939:1 1099:1 1127:1 1151:1 1219:1 1482:1 #
-0.053374872776978492250332664070811 10:1 19:1 26:2 29:1 85:1 87:1 94:2 103:2 113:1 131:4 138:1 139:1 149:1 157:1 174:1 273:1 311:1 342:1 761:1 830:1 1707:1 2113:1 5153:1 8172:1 8173:1 #
-0.053374872776978492250332664070811 9:1 10:1 37:1 45:1 47:1 50:1 76:1 81:1 85:1 90:1 115:1 131:3 134:1 166:1 180:1 311:1 348:1 539:1 723:1 879:1 1814:1 2478:1 8277:1 #
-0.053374872776978492250332664070811 26:1 131:3 273:1 294:1 416:1 4251:1 8486:1 #
-0.053374872776978492250332664070811 2:1 14:1 19:1 38:1 62:1 76:1 131:1 151:1 261:1 334:1 541:1 600:1 1112:1 8209:1 #
-0.053374872776978492250332664070811 2:2 14:1 19:2 29:1 47:1 48:1 53:1 57:1 68:1 76:1 94:2 131:2 133:1 138:3 180:1 201:1 289:1 291:1 532:1 563:1 823:1 879:1 953:1 972:1 1267:1 1926:1 3108:1 4559:1 #
0.053374872776978492250332664070811 14:1 19:1 26:1 29:1 40:1 47:2 111:1 157:1 203:1 248:1 258:1 346:1 370:1 541:1 581:1 647:2 664:1 3131:1 #
0.053374872776978492250332664070811 14:2 26:2 36:1 47:1 51:1 55:1 76:3 143:1 228:1 244:1 458:1 831:1 1314:1 1427:1 1470:1 2451:1 2475:1 2779:1 2970:1 3795:1 8544:1 8545:1 #
0.053374872776978492250332664070811 143:1 213:1 1042:1 1049:1 1351:1 6394:1 #
0.053374872776978492250332664070811 10:2 14:1 15:1 28:1 29:3 53:1 63:1 76:2 94:2 120:1 152:1 202:1 220:1 258:1 355:1 557:1 649:1 831:1 923:1 944:1 1124:1 1427:1 2479:1 2689:1 2786:1 3442:1 3443:1 #
0.053374872776978492250332664070811 6:1 23:1 26:2 36:2 46:1 47:1 50:1 76:1 81:1 120:2 123:1 127:1 131:3 163:1 166:1 175:1 201:1 228:1 294:1 336:1 355:3 390:1 579:1 700:1 829:1 984:1 1823:2 2526:1 3661:1 4513:1 4517:1 7301:1 #
-0.053374872776978492250332664070811 14:2 36:1 40:1 76:1 85:1 87:1 127:1 130:1 143:2 147:1 180:1 192:1 200:1 308:1 421:1 505:1 1080:1 1279:1 1642:1 3572:1 5399:1 8172:1 #
-0.053374872776978492250332664070811 3:1 10:1 14:2 26:4 36:1 46:1 47:1 50:1 59:1 63:1 76:2 79:1 85:1 90:1 120:1 139:1 155:1 163:1 202:1 220:1 290:1 326:1 355:1 390:1 417:1 447:2 646:1 648:1 723:1 761:1 883:1 897:1 1630:1 1979:1 3339:1 8552:1 9537:1 #
-0.053374872776978492250332664070811 10:1 14:1 29:1 40:1 47:3 53:1 76:1 81:2 202:1 305:1 310:1 495:1 505:1 854:1 912:1 1526:1 3236:1 3292:1 3293:1 3908:1 7804:1 7805:1 7806:1 7807:1 #
-0.053374872776978492250332664070811 10:1 14:1 29:1 38:1 53:1 90:1 130:1 204:1 457:1 687:1 1091:1 8787:1 8788:1 #
-0.053374872776978492250332664070811 11:1 26:1 47:1 120:1 273:1 285:1 709:1 1285:1 1286:1 #
0.053374872776978492250332664070811 14:1 19:3 26:1 59:2 79:1 131:1 143:1 149:1 166:1 228:1 385:1 480:1 848:1 1038:1 1155:1 3897:1 6857:1 6858:1 #
0.053374872776978492250332664070811 31:1 36:1 46:1 47:1 76:1 90:1 131:1 143:1 202:1 219:1 294:1 415:1 491:1 1607:1 2689:1 3187:1 5539:1 7503:1 #
0.053374872776978492250332664070811 10:3 19:2 29:1 47:2 53:1 1309:1 2608:1 3165:1 4181:1 #
0.053374872776978492250332664070811 2:1 29:1 37:1 45:1 47:2 81:1 131:2 138:1 440:1 480:1 813:1 844:1 1097:1 3335:1 #
0.053374872776978492250332664070811 2:2 10:3 14:1 19:1 29:2 38:1 50:1 51:2 53:1 72:1 76:2 94:2 127:1 131:2 155:1 174:1 180:1 322:1 332:1 342:1 355:1 368:1 370:1 421:1 548:1 703:1 723:1 958:1 3565:1 3566:1 3567:1 #
-0.053374872776978492250332664070811 19:1 47:2 53:1 139:1 143:1 544:2 1699:1 2341:1 #
-0.053374872776978492250332664070811 19:3 32:2 50:1 62:1 74:1 87:1 113:1 143:1 174:1 555:1 620:1 815:1 830:1 1238:1 1317:1 #
-0.053374872776978492250332664070811 29:1 47:2 51:1 76:1 94:2 131:1 148:1 509:1 550:1 958:1 6152:1 6153:1 #
-0.053374872776978492250332664070811 19:1 59:1 72:1 74:1 76:1 81:1 127:1 143:2 166:1 210:1 565:1 804:1 1301:1 1865:1 2084:2 2149:1 2361:1 3213:1 4324:1 6236:1 8970:1 8971:1 #
-0.053374872776978492250332664070811 14:1 19:1 139:1 143:1 171:1 228:1 347:1 812:1 982:1 1197:1 1198:1 1199:1 #
0.053374872776978492250332664070811 2:1 26:2 40:1 76:1 111:1 131:1 143:1 190:1 192:1 273:1 291:1 1371:1 1790:1 9331:1 #
0.053374872776978492250332664070811 103:1 322:1 495:1 557:1 819:1 1867:1 7417:1 #
0.053374872776978492250332664070811 29:3 38:1 47:3 50:1 53:1 85:1 113:1 133:1 177:1 258:2 262:1 563:1 604:1 787:1 895:1 896:1 1316:1 1835:1 #
0.053374872776978492250332664070811 29:1 76:1 120:1 131:1 152:1 203:1 258:1 1499:1 2118:1 2119:1 #
0.053374872776978492250332664070811 10:1 14:1 29:2 47:1 53:1 79:1 81:1 90:1 131:1 152:1 273:1 326:2 505:1 584:1 626:1 807:1 883:1 994:1 1092:1 1364:1 1582:1 1899:1 2506:1 2765:1 2951:1 3649:1 3703:1 4841:1 5905:1 5906:1 5907:1 #
-0.053374872776978492250332664070811 10:3 14:1 29:3 51:1 53:2 72:1 76:2 81:1 85:1 92:1 94:2 100:2 158:1 273:1 326:1 421:2 846:1 1582:1 1892:1 1977:1 8539:2 8540:1 8541:1 #
-0.053374872776978492250332664070811 13:1 29:2 47:2 50:1 53:1 55:1 63:1 76:1 120:1 131:2 143:1 152:1 175:1 356:1 512:1 565:1 845:1 857:1 1758:1 3801:1 4264:1 #
-0.053374872776978492250332664070811 11:1 14:1 29:2 46:1 53:1 59:1 76:1 79:1 81:1 131:2 166:1 180:2 217:1 237:1 238:1 273:1 521:1 600:1 831:1 1135:1 1143:1 1663:1 1729:1 7106:1 8455:1 #
-0.053374872776978492250332664070811 10:1 14:2 22:1 26:1 29:4 38:1 50:1 81:1 92:1 131:2 157:1 165:1 166:1 219:1 228:1 258:2 347:1 355:1 429:1 457:1 480:1 523:1 564:1 807:1 994:1 #
-0.053374872776978492250332664070811 29:1 36:1 130:1 177:1 209:1 932:1 #
0.053374872776978492250332664070811 14:1 19:1 38:1 72:1 74:1 81:1 130:1 143:1 201:1 304:1 308:1 421:1 532:1 544:1 817:1 877:1 901:1 5387:1 #
0.053374872776978492250332664070811 19:1 23:1 32:1 40:1 53:1 55:1 85:1 180:1 192:1 344:1 748:1 1060:1 1316:1 1451:1 2599:1 #
0.053374872776978492250332664070811 235:1 3980:1 #
0.053374872776978492250332664070811 47:1 55:1 131:1 143:2 223:2 238:1 273:1 305:1 370:1 420:1 447:1 1147:1 3170:1 4621:2 #
0.053374872776978492250332664070811 10:1 14:1 29:1 40:1 53:1 63:1 76:1 177:1 488:1 766:1 852:1 875:1 879:1 1060:1 1186:1 2104:1 3480:1 4642:1 #
-0.053374872776978492250332664070811 19:1 23:1 40:1 95:1 120:1 801:1 2527:1 3109:1 7050:1 #
-0.053374872776978492250332664070811 36:1 104:1 488:1 3943:1 #
-0.053374872776978492250332664070811 213:1 612:1 5571:1 #
-0.053374872776978492250332664070811 143:1 1820:1 4407:1 #
-0.053374872776978492250332664070811 55:1 90:1 513:1 536:1 1612:1 #
0.053374872776978492250332664070811 2:2 3:1 7:1 29:3 36:1 47:1 50:1 94:4 131:4 164:3 165:3 166:2 174:1 180:1 200:2 213:2 238:1 314:1 355:1 458:1 600:1 638:1 726:1 1091:1 1194:3 1337:1 1461:1 1504:1 2271:1 4785:1 6208:2 8822:1 8823:1 #
0.053374872776978492250332664070811 29:1 32:1 74:2 94:2 100:1 127:2 131:3 174:1 188:2 319:1 #
0.053374872776978492250332664070811 14:1 26:1 28:3 29:3 42:1 47:1 68:1 123:1 131:4 235:1 1790:1 3372:1 3980:1 4546:1 #
0.053374872776978492250332664070811 14:1 28:2 29:2 47:1 48:1 59:1 74:1 76:2 85:1 131:1 310:1 352:1 414:1 676:1 796:1 1216:1 1218:1 1316:1 2820:1 #
0.053374872776978492250332664070811 2:1 10:1 72:1 76:1 103:1 113:1 131:1 166:1 200:1 228:1 1238:1 1673:1 6416:1 #
-0.053374872776978492250332664070811 10:2 19:1 29:1 55:1 59:1 131:9 202:1 706:1 726:1 766:1 775:1 1515:1 2424:1 8139:1 8140:1 #
0.053374872776978492250332664070811 31:1 38:1 50:1 51:2 72:1 76:1 131:1 156:3 258:1 294:1 323:1 401:1 805:1 1926:1 2227:1 6842:1 6843:1 #
-0.053374872776978492250332664070811 2:2 38:2 47:2 94:2 131:1 565:2 569:1 3219:1 3841:1 3842:1 #
-0.053374872776978492250332664070811 2:2 21:1 23:1 40:1 47:1 50:2 76:2 131:1 143:1 203:1 800:1 1797:1 1851:1 2103:2 2852:1 3138:1 3551:1 4789:1 5648:1 8036:1 9437:1 9438:1 9439:1 9440:1 9441:1 9442:1 9443:1 #
-0.053374872776978492250332664070811 3:1 10:1 14:1 28:1 29:1 47:2 72:1 76:1 130:1 131:1 132:1 143:1 214:1 232:1 310:1 421:1 539:1 558:1 896:1 901:1 972:1 1135:1 2428:1 9325:1 #
-0.053374872776978492250332664070811 47:2 53:1 111:1 131:1 201:1 611:1 993:1 1520:1 1656:1 4371:1 #
-0.053374872776978492250332664070811 29:2 40:1 47:3 50:2 53:2 66:1 85:1 121:1 131:2 458:1 704:1 868:1 894:1 901:2 1201:1 1214:1 1316:1 2030:1 2644:1 4196:1 6363:1 6364:1 6365:1 6366:1 6367:1 6368:1 6369:1 #
0.053374872776978492250332664070811 2:1 6:1 10:2 17:1 26:1 36:1 38:1 50:1 55:3 63:2 79:1 86:1 104:1 105:1 127:1 131:1 133:1 181:1 238:2 267:2 390:2 646:1 703:1 766:1 1091:1 1102:1 1784:1 #
0.053374872776978492250332664070811 2:1 131:1 579:1 3061:1 6180:1 #
0.053374872776978492250332664070811 19:1 40:2 62:1 143:1 171:1 214:1 215:1 383:1 579:1 1674:1 1820:1 3335:1 #
0.053374872776978492250332664070811 81:1 99:8 214:1 351:1 498:1 1062:1 1867:1 5982:1 5983:1 5984:1 5985:1 5986:1 #
0.053374872776978492250332664070811 2:1 10:1 12:1 19:1 30:1 50:1 120:2 130:1 131:1 138:1 292:1 342:1 544:1 600:1 955:1 4379:1 6920:1 9391:1 #
-0.053374872776978492250332664070811 10:1 14:2 38:1 68:1 74:1 86:1 99:2 100:1 482:1 514:1 1003:1 1102:1 1486:1 1772:1 2555:1 2556:1 #
-0.053374872776978492250332664070811 87:1 99:6 120:1 156:1 488:1 7042:1 #
-0.053374872776978492250332664070811 19:1 21:1 99:2 620:1 972:1 1638:1 #
-0.053374872776978492250332664070811 131:1 152:1 164:1 165:1 258:1 641:1 7681:1 #
-0.053374872776978492250332664070811 72:1 76:1 99:1 571:1 1095:1 8429:1 #
0.053374872776978492250332664070811 3:1 14:2 26:1 47:4 48:1 51:1 55:1 59:1 63:1 76:1 94:2 103:1 123:1 131:2 338:1 723:1 867:1 879:1 1170:1 1814:1 2212:1 2237:1 3236:1 8489:1 #
0.053374872776978492250332664070811 47:3 60:1 213:1 1077:1 1358:1 3470:1 3764:1 4243:1 9638:1 9639:1 9640:1 #
0.053374872776978492250332664070811 10:1 29:1 46:1 76:1 131:1 166:1 174:2 175:1 200:1 273:1 330:1 390:1 532:1 844:1 901:1 1370:1 1373:1 2248:1 #
0.053374872776978492250332664070811 10:1 14:1 15:1 19:1 26:1 50:1 130:1 143:2 166:1 228:1 273:1 278:1 676:1 840:1 1678:1 1942:1 3282:1 4262:1 #
0.053374872776978492250332664070811 10:2 39:1 46:1 47:1 131:1 180:1 200:1 235:1 390:1 398:1 421:1 787:1 986:1 2279:1 2702:1 2898:1 4449:1 4880:1 7166:1 #
-0.053374872776978492250332664070811 10:2 14:1 17:1 19:1 29:1 72:1 74:1 76:1 131:2 153:1 157:1 175:1 235:1 319:1 646:1 737:1 738:1 2313:1 3017:1 3883:1 3911:1 5128:1 7288:1 7289:1 7290:1 7291:1 7292:1 7293:1 7294:1 #
-0.053374872776978492250332664070811 19:1 26:1 36:1 94:2 127:1 200:1 201:1 213:1 458:1 494:1 986:1 2679:1 6164:1 6165:1 6166:1 #
-0.053374872776978492250332664070811 2:1 19:1 26:1 47:1 74:1 76:1 79:1 91:1 94:2 130:1 131:1 143:1 147:1 158:1 166:1 201:1 228:2 440:1 662:1 706:1 1519:1 1944:1 3236:1 4166:1 4584:1 7685:1 7686:1 #
-0.053374872776978492250332664070811 29:1 55:1 94:2 111:1 131:2 138:1 152:1 155:1 166:1 213:1 215:1 305:1 458:1 494:1 636:1 2179:1 2271:1 2583:1 7091:1 #
-0.053374872776978492250332664070811 10:1 12:1 14:1 46:1 72:1 76:2 91:1 113:1 130:1 181:1 213:4 355:1 416:1 730:4 971:1 1398:1 1663:1 1897:1 1898:1 1899:1 #
0.053374872776978492250332664070811 26:1 79:1 138:1 1569:1 7013:1 #
0.053374872776978492250332664070811 10:1 12:1 19:1 53:1 61:1 62:1 63:1 64:1 65:1 66:1 67:1 68:1 69:1 70:1 71:1 72:1 73:1 #
0.053374872776978492250332664070811 10:1 26:1 29:1 55:1 63:1 68:1 92:1 138:1 166:1 761:1 877:1 3592:1 #
0.053374872776978492250332664070811 2:2 15:1 26:1 29:1 47:1 87:1 92:1 131:1 147:1 200:1 258:1 396:1 419:1 579:1 889:1 986:1 1170:1 2320:1 2672:1 #
0.053374872776978492250332664070811 40:3 47:1 143:2 213:1 429:2 506:2 579:1 1366:1 2948:1 4115:1 5200:1 5201:1 #
-0.053374872776978492250332664070811 2:1 10:1 19:1 30:1 40:2 53:1 155:1 275:1 342:1 355:1 548:2 579:1 688:1 766:1 1007:1 1166:1 1909:1 #
-0.053374872776978492250332664070811 47:1 131:1 238:1 294:1 331:1 1403:1 2413:1 2873:1 #
-0.053374872776978492250332664070811 63:1 164:1 180:1 673:1 4869:1 #
-0.053374872776978492250332664070811 26:1 36:1 51:1 85:1 87:1 200:1 265:1 414:1 457:1 #
-0.053374872776978492250332664070811 2:1 40:1 46:1 62:1 76:1 79:1 149:1 254:1 611:1 2427:1 8047:1 8048:1 8049:1 8050:1 8051:1 #
0.053374872776978492250332664070811 14:2 19:1 28:1 29:1 30:1 32:1 63:2 76:1 94:2 138:1 147:1 238:1 273:1 532:1 555:1 994:1 1060:1 1177:1 2687:1 4429:1 4988:1 6290:1 6291:1 6292:1 #
0.053374872776978492250332664070811 2:1 19:1 76:2 111:1 143:1 209:1 523:1 544:1 665:1 726:1 769:1 1840:1 3719:1 4179:1 4180:1 #
0.053374872776978492250332664070811 2:1 10:1 14:2 19:2 28:2 29:3 47:2 50:1 53:2 72:1 131:2 139:1 143:1 158:1 181:1 343:1 370:1 399:1 416:1 447:1 548:1 553:1 631:1 1166:2 1300:1 3439:1 3550:1 3551:1 3552:1 3553:1 3554:1 3555:1 #
0.053374872776978492250332664070811 10:1 26:1 45:1 76:1 177:1 209:1 213:1 228:1 466:1 467:1 692:1 1091:1 1092:1 3071:1 7108:1 7211:1 #
0.053374872776978492250332664070811 2:1 20:1 63:1 74:1 131:1 213:1 296:1 837:1 1177:1 2657:1 2658:1 #
-0.053374872776978492250332664070811 14:2 19:1 26:2 29:2 30:1 40:1 47:2 76:1 79:1 99:1 120:2 131:2 180:1 212:1 238:2 254:1 330:2 403:1 506:1 526:1 868:1 1029:1 1135:1 1315:1 1507:1 1762:1 6004:1 7716:1 7717:1 #
-0.053374872776978492250332664070811 2:1 19:1 47:2 50:2 55:1 68:1 92:2 131:2 166:1 175:1 310:1 402:1 542:1 545:1 560:1 2427:1 2731:1 2851:1 2852:1 2853:1 #
-0.053374872776978492250332664070811 3:1 10:3 12:1 14:2 15:1 19:1 29:5 47:1 48:1 51:1 53:1 76:1 87:1 90:2 131:3 166:3 210:1 217:1 258:1 273:1 305:1 421:1 600:1 609:1 621:3 761:1 924:1 1015:1 1186:1 2140:1 2262:2 2916:1 3897:1 #
-0.053374872776978492250332664070811 2:1 10:1 19:2 29:2 48:1 76:1 81:1 84:1 85:1 131:3 140:1 143:1 174:1 254:1 263:1 294:1 338:1 400:1 769:1 801:1 1181:1 1320:1 1329:1 #
-0.053374872776978492250332664070811 10:1 29:2 68:1 131:1 138:1 174:1 761:1 1247:1 3670:1 #
0.053374872776978492250332664070811 19:1 29:1 53:1 59:1 92:1 98:1 333:1 2200:1 2202:1 2849:1 4562:1 9088:1 #
0.053374872776978492250332664070811 19:1 27:2 36:1 50:1 51:1 63:1 71:1 76:2 78:1 102:1 120:1 143:1 156:1 158:1 177:1 398:1 402:1 498:1 511:1 568:1 735:1 842:1 895:1 1080:1 1163:1 2544:1 #
0.053374872776978492250332664070811 2:1 29:1 53:1 120:1 131:1 356:1 481:1 879:1 905:1 912:1 2069:1 3521:1 #
0.053374872776978492250332664070811 9:1 10:1 40:1 51:1 85:1 131:4 238:1 310:1 1601:1 2554:1 5171:1 5525:1 #
0.053374872776978492250332664070811 12:1 26:2 40:1 53:1 99:1 131:1 192:1 217:1 228:1 310:1 370:1 958:1 1141:1 2487:1 3160:1 3662:1 5689:1 6079:1 6080:1 #
-0.053374872776978492250332664070811 2:1 9:1 53:1 72:1 131:1 242:1 837:1 1503:1 5404:1 #
0.053374872776978492250332664070811 10:1 12:1 14:2 19:2 26:1 27:1 29:1 47:1 50:1 85:1 131:2 200:1 209:1 214:1 228:1 319:1 354:1 383:2 394:1 514:1 550:1 684:1 897:1 1200:1 1293:1 1343:1 6131:1 7420:1 7421:1 7422:1 #
-0.053374872776978492250332664070811 40:1 228:2 468:1 648:1 1380:1 1381:1 #
-0.053374872776978492250332664070811 19:1 26:2 36:1 72:1 79:1 92:1 200:1 213:1 319:1 330:1 514:1 547:1 647:1 1234:1 1370:1 2239:1 2361:1 3916:1 #
-0.053374872776978492250332664070811 6:1 19:1 32:1 40:1 76:1 103:1 151:1 213:1 311:1 726:1 1674:1 2970:1 6256:1 6257:1 #
-0.053374872776978492250332664070811 19:2 40:2 47:1 53:1 111:1 228:1 532:1 587:1 1143:1 1345:1 1526:1 6421:1 6422:1 #
-0.053374872776978492250332664070811 14:1 47:1 81:1 215:1 314:1 383:2 612:1 1611:1 3969:1 4928:1 #
0.053374872776978492250332664070811 10:1 29:1 40:1 42:1 46:1 62:1 74:1 131:3 143:1 215:1 274:1 383:1 394:1 494:1 778:1 818:1 861:1 899:1 1732:1 6198:1 6199:1 #
0.053374872776978492250332664070811 10:1 29:2 76:1 113:2 120:1 131:2 180:1 203:1 204:2 209:1 246:1 256:1 273:1 274:1 330:1 558:1 1092:1 1143:1 1729:1 1730:1 4812:1 #
0.053374872776978492250332664070811 10:1 20:1 68:1 76:1 81:1 131:1 202:1 267:1 304:1 1369:1 #
0.053374872776978492250332664070811 29:1 31:1 47:1 79:1 94:2 131:1 134:1 157:1 180:1 408:1 409:1 410:1 411:1 412:1 413:1 #
0.053374872776978492250332664070811 19:1 481:1 499:1 545:1 2176:1 2177:1 #
-0.053374872776978492250332664070811 10:2 19:1 26:1 70:1 115:1 120:1 131:2 181:1 233:1 301:1 429:1 498:1 954:1 2085:1 2092:1 2093:1 2214:1 4025:1 4026:1 #
-0.053374872776978492250332664070811 2:1 76:1 131:1 203:1 562:1 595:1 646:1 845:1 1544:1 3620:1 #
-0.053374872776978492250332664070811 10:1 29:2 59:1 63:1 72:1 91:1 94:2 149:1 177:1 202:1 213:1 256:1 310:1 421:1 458:1 464:1 465:1 466:1 467:1 468:1 #
-0.053374872776978492250332664070811 29:1 92:1 120:1 127:1 131:1 164:1 165:1 219:1 362:1 5915:1 #
-0.053374872776978492250332664070811 26:1 55:1 131:1 201:1 6119:1 6120:1 6121:1 #
0.053374872776978492250332664070811 6:1 10:1 19:1 40:1 55:1 81:1 94:2 133:1 180:1 1473:1 1477:1 8831:1 8832:1 #
0.053374872776978492250332664070811 10:1 19:1 38:1 120:1 548:1 636:1 1170:1 2313:1 5129:1 #
0.053374872776978492250332664070811 19:1 50:1 81:1 152:1 180:1 342:1 543:1 673:1 797:1 1006:1 2790:1 4560:1 #
0.053374872776978492250332664070811 36:1 138:1 157:1 1147:1 3838:1 #
0.053374872776978492250332664070811 10:1 12:1 14:2 19:2 20:1 26:1 27:1 36:1 47:2 51:1 79:1 85:2 120:1 158:1 308:1 310:1 403:1 488:1 761:1 772:1 1218:1 1611:1 1972:2 3358:1 4527:1 #
-0.053374872776978492250332664070811 10:1 19:1 765:1 1772:1 #
-0.053374872776978492250332664070811 19:1 47:1 56:1 63:1 94:2 99:1 143:1 1163:1 1164:1 2512:1 4266:1 4275:1 5287:1 #
-0.053374872776978492250332664070811 10:1 29:1 67:1 138:1 157:1 523:1 632:1 645:1 4741:1 4742:1 #
-0.053374872776978492250332664070811 2:1 3:1 76:1 178:1 342:1 639:1 3119:1 #
-0.053374872776978492250332664070811 330:1 581:1 7044:1 #
0.053374872776978492250332664070811 26:1 29:2 47:1 48:1 76:1 131:1 143:1 164:1 165:1 237:1 275:1 321:1 403:1 571:1 626:1 663:1 789:1 994:1 999:1 #
0.053374872776978492250332664070811 2:1 10:1 76:1 256:1 465:1 6237:1 6238:1 6239:1 #
0.053374872776978492250332664070811 29:1 47:1 143:1 192:1 261:1 265:1 370:1 584:1 817:1 #
0.053374872776978492250332664070811 3:1 14:1 26:1 31:1 40:1 47:1 62:1 72:1 131:1 138:1 166:1 228:1 305:1 343:1 703:1 1155:1 1417:1 1667:1 3719:1 4993:1 7016:1 #
0.053374872776978492250332664070811 8:1 10:1 19:2 26:1 32:1 40:1 47:2 59:1 68:1 76:1 79:1 131:2 138:1 143:1 164:1 166:1 244:2 355:1 429:1 481:1 512:1 545:1 564:1 700:1 807:1 823:1 830:1 896:1 1251:1 2077:1 7697:1 #
-0.053374872776978492250332664070811 23:1 26:4 47:1 51:2 53:1 55:1 76:2 91:1 120:1 127:1 131:3 138:2 174:2 175:1 210:1 267:1 309:1 385:2 509:1 540:1 1293:1 2094:2 2099:2 4211:1 9611:1 #
-0.053374872776978492250332664070811 2:1 3:1 10:1 19:1 29:1 38:1 47:1 48:1 51:1 53:1 59:2 75:1 120:1 131:2 138:1 143:2 166:1 180:1 256:2 464:1 465:1 706:1 778:1 1009:1 1813:1 2022:1 2537:1 8075:1 #
-0.053374872776978492250332664070811 2:1 3:1 19:2 47:1 48:1 56:2 72:1 76:1 85:1 131:2 143:2 565:1 651:1 883:1 1358:2 1814:1 2273:2 3718:1 3719:1 #
-0.053374872776978492250332664070811 14:1 26:1 47:1 50:1 51:1 76:1 79:1 99:1 131:1 163:1 166:1 235:1 540:1 1220:1 1640:1 1760:1 3522:1 3782:1 3783:1 3784:1 #
-0.053374872776978492250332664070811 14:1 19:3 26:3 40:2 55:1 72:1 85:1 120:1 158:1 187:1 215:1 228:1 273:1 383:1 393:1 503:1 846:1 1001:1 1218:1 1291:1 1364:1 1373:1 1472:1 1489:1 1831:1 3674:1 #
0.053374872776978492250332664070811 10:1 22:1 29:1 51:1 53:1 57:1 72:1 76:1 94:2 180:1 237:1 291:1 353:1 581:1 650:1 1246:1 2121:1 2224:1 3711:1 #
0.053374872776978492250332664070811 2:2 19:1 36:1 50:1 53:2 94:2 108:1 166:1 235:1 294:1 600:1 841:1 1694:1 3224:2 7172:1 7173:1 #
0.053374872776978492250332664070811 10:1 36:1 38:1 40:1 46:1 51:2 159:1 210:1 254:1 311:1 405:1 419:1 2117:1 2554:1 6024:1 #
0.053374872776978492250332664070811 29:1 40:1 51:1 207:1 213:1 215:1 638:1 841:1 932:1 2277:1 3741:1 #
0.053374872776978492250332664070811 3:1 14:3 29:1 47:2 53:1 68:1 81:1 85:1 99:4 131:1 139:1 212:1 242:1 348:1 383:1 401:1 494:1 499:1 751:1 1084:1 1269:1 2779:1 3439:1 4405:1 6349:1 6350:1 6351:1 6352:1 6353:1 #
-0.053374872776978492250332664070811 47:1 212:1 215:1 383:1 494:1 499:1 2831:1 #
-0.053374872776978492250332664070811 2:1 36:2 203:1 1463:1 #
-0.053374872776978492250332664070811 29:1 49:1 5007:1 #
-0.053374872776978492250332664070811 28:1 29:1 467:1 2280:1 #
-0.053374872776978492250332664070811 10:1 14:1 29:1 40:1 47:2 53:3 72:1 81:1 90:1 94:2 138:1 166:1 180:1 703:1 789:1 844:1 846:1 970:1 1141:1 2750:1 3585:1 3586:1 #
0.053374872776978492250332664070811 9:1 14:3 19:1 26:3 29:1 50:1 51:1 76:1 91:1 95:1 113:1 120:1 130:1 143:1 175:1 228:1 238:1 273:1 400:1 403:1 676:1 842:1 844:1 846:1 5298:1 6665:1 9541:1 #
0.053374872776978492250332664070811 9:1 26:1 40:1 143:1 228:1 273:1 324:1 385:1 879:1 4038:1 4341:1 #
0.053374872776978492250332664070811 10:1 14:1 19:1 26:4 29:1 46:1 50:2 76:1 123:1 131:10 132:1 346:1 370:1 416:3 540:1 868:1 958:1 1819:2 3360:1 5070:1 5092:1 7298:1 7299:1 #
0.053374872776978492250332664070811 14:1 40:1 53:1 76:1 131:2 132:1 248:1 257:1 704:1 831:1 832:1 942:1 1135:1 2256:1 2257:1 #
0.053374872776978492250332664070811 3:1 10:1 19:1 40:2 76:1 139:1 181:1 213:1 223:1 224:1 225:1 226:1 227:1 228:1 229:1 230:1 231:1 232:1 233:1 234:1 235:1 236:1 #
-0.053374872776978492250332664070811 3:1 19:1 23:1 40:1 67:1 74:1 85:1 105:1 131:6 352:1 353:1 542:1 735:1 783:1 813:1 1664:1 1743:1 2931:1 3713:1 3714:1 3715:1 3716:1 #
-0.053374872776978492250332664070811 2:1 6:1 10:2 14:1 26:1 29:1 40:2 55:1 76:1 131:3 166:1 202:1 213:1 228:1 265:1 421:1 539:1 571:1 587:1 841:1 896:1 1218:1 1507:1 2184:1 4112:1 #
-0.053374872776978492250332664070811 14:1 19:1 32:1 47:1 62:2 76:1 120:1 121:1 131:4 147:1 152:1 166:1 181:1 203:1 213:1 337:1 366:1 370:1 864:1 1414:1 1486:1 3176:1 3916:1 4065:1 6683:1 7496:1 #
-0.053374872776978492250332664070811 23:1 26:4 28:1 29:2 36:1 40:1 51:1 62:1 63:1 131:1 158:1 200:1 237:1 355:1 398:1 937:1 961:1 1238:1 1302:1 #
-0.053374872776978492250332664070811 3:1 51:1 53:2 55:1 87:1 131:2 235:1 238:1 505:1 590:1 729:1 852:1 1346:1 2199:1 4984:1 #
0.053374872776978492250332664070811 10:1 29:1 47:1 48:1 53:1 81:1 127:1 155:1 192:1 235:2 343:1 568:1 693:1 763:1 1029:1 1484:1 1537:1 1538:1 1539:1 #
0.053374872776978492250332664070811 10:1 53:1 113:1 131:1 163:1 180:1 274:1 587:1 792:1 854:1 925:1 1004:1 4350:1 #
0.053374872776978492250332664070811 984:1 2839:1 4347:1 9379:1 #
0.053374872776978492250332664070811 10:1 19:1 20:1 28:1 29:3 30:2 36:2 47:1 48:1 50:1 76:1 85:1 90:1 166:1 266:1 337:1 505:1 517:1 536:2 537:1 550:1 632:1 723:1 1279:1 3261:1 8412:1 8889:1 8890:1 #
0.053374872776978492250332664070811 9:2 174:1 563:1 1094:1 1124:1 2084:1 2346:1 #
-0.053374872776978492250332664070811 6:1 10:1 68:1 76:1 81:1 309:1 482:1 700:1 #
-0.053374872776978492250332664070811 10:1 68:1 76:1 138:1 238:1 274:1 984:1 1028:1 1813:1 9625:1 #
-0.053374872776978492250332664070811 10:1 982:1 1601:1 3910:1 5420:1 #
-0.053374872776978492250332664070811 3:1 19:1 29:1 31:1 48:1 51:1 76:1 99:1 143:1 178:1 366:1 3661:1 8219:1 8670:1 8671:1 #
-0.053374872776978492250332664070811 14:1 26:1 50:1 51:1 76:2 228:1 273:1 348:1 676:1 947:1 1741:1 2730:1 5152:1 5551:1 8761:1 9513:1 #
0.053374872776978492250332664070811 3:1 14:1 19:1 74:1 131:3 163:1 173:1 180:1 305:1 405:1 521:1 548:1 1029:1 1039:1 1084:1 1085:1 1086:1 1087:1 1088:1 1089:1 1090:1 #
0.053374872776978492250332664070811 22:1 26:1 51:1 68:1 94:2 131:1 138:1 152:1 308:1 837:1 1393:1 1624:1 1840:1 3119:1 #
0.053374872776978492250332664070811 26:1 72:1 76:1 85:1 90:1 120:1 134:1 137:1 143:1 213:1 216:1 228:1 294:1 353:1 399:1 1189:1 1454:1 1506:1 1889:1 9385:1 9386:1 #
0.053374872776978492250332664070811 2:1 10:2 29:3 40:1 47:1 48:1 51:1 53:1 57:1 76:1 85:1 99:1 131:1 273:1 285:1 380:1 988:1 2047:1 2238:1 2866:1 3054:1 4514:1 4766:1 4767:1 4768:1 4769:1 #
0.053374872776978492250332664070811 10:1 19:2 40:1 723:1 1000:1 1189:1 1702:1 2206:1 2256:1 2257:1 2313:1 7583:1 7603:1 #
-0.053374872776978492250332664070811 10:3 14:1 19:1 28:1 29:2 40:1 53:2 63:1 84:1 90:1 127:1 131:1 200:1 316:1 514:1 539:1 649:1 840:1 1099:1 1186:1 1317:1 2333:1 2843:1 3166:1 3674:1 3719:1 6828:1 9597:1 #
-0.053374872776978492250332664070811 19:2 28:1 29:1 30:1 31:1 50:1 121:1 131:1 143:1 703:1 777:1 879:1 936:1 6200:1 7334:1 7335:1 7336:1 7337:1 #
-0.053374872776978492250332664070811 10:1 14:1 19:1 26:2 29:2 36:1 45:1 56:1 68:1 92:1 94:4 113:1 127:1 138:1 149:1 174:2 213:1 254:1 273:1 305:1 475:1 550:1 577:1 999:1 2102:1 2239:1 2361:1 3550:1 3696:1 3961:1 3962:1 #
-0.053374872776978492250332664070811 2:1 19:3 29:1 30:1 48:1 49:1 50:1 59:1 90:1 108:1 134:2 156:2 166:1 200:1 267:1 273:1 304:1 390:1 417:1 536:1 1092:1 #
-0.053374872776978492250332664070811 10:1 29:2 36:1 53:2 76:1 88:1 104:1 113:1 120:1 177:1 209:1 213:1 237:1 399:1 488:1 498:1 895:1 970:1 1951:1 2424:1 2802:1 2803:1 #
0.053374872776978492250332664070811 19:1 627:1 824:1 1080:1 1444:1 5559:1 #
0.053374872776978492250332664070811 2:1 10:1 14:1 29:1 30:1 36:1 40:1 53:1 76:1 131:1 158:1 180:1 202:1 568:1 1266:1 2179:2 3236:1 4536:1 4537:1 #
0.053374872776978492250332664070811 71:1 76:1 120:1 311:1 503:1 920:1 1267:1 8074:1 #
0.053374872776978492250332664070811 14:1 42:1 46:1 76:2 542:1 1228:1 1229:1 1230:1 1231:1 1232:1 #
0.053374872776978492250332664070811 2:1 10:1 19:3 120:1 143:1 322:1 499:1 645:1 1029:1 1436:1 3097:1 3420:1 6088:1 6089:1 #
-0.053374872776978492250332664070811 2:1 50:1 76:2 120:1 1001:1 1271:1 1952:1 3932:1 5084:1 5199:1 7057:1 7058:1 7059:1 #
-0.053374872776978492250332664070811 14:1 32:1 90:1 131:1 242:1 748:1 837:1 3631:1 5424:1 5425:1 5426:1 #
-0.053374872776978492250332664070811 36:1 47:1 51:1 76:1 104:1 120:1 131:1 180:1 335:1 533:1 1361:1 2071:1 2212:1 2732:1 3741:1 4401:1 8700:1 8701:1 8702:1 #
-0.053374872776978492250332664070811 47:1 99:1 4196:1 5231:1 5232:1 5233:1 #
-0.053374872776978492250332664070811 2:1 14:1 19:1 30:1 40:1 47:1 50:1 76:1 81:1 99:1 113:1 139:1 342:1 837:1 1375:1 3394:1 4263:1 7736:1 7737:1 #
0.053374872776978492250332664070811 3:1 10:1 14:1 26:1 28:1 29:2 36:1 50:1 63:1 68:1 81:1 131:1 158:1 178:1 204:1 213:2 228:1 524:1 799:1 875:2 1141:1 1956:1 8127:1 #
0.053374872776978492250332664070811 14:2 26:3 48:1 55:1 59:1 68:1 94:2 149:1 166:1 192:1 228:2 273:1 285:1 355:1 777:1 817:1 921:1 1293:1 1758:1 3687:1 7079:1 7080:1 #
0.053374872776978492250332664070811 10:1 19:3 29:1 31:1 55:1 74:1 78:1 113:1 133:1 143:1 238:1 488:1 505:1 775:1 1238:1 2272:1 2544:1 3886:1 3887:1 3888:1 3889:1 #
0.053374872776978492250332664070811 10:3 14:1 30:1 48:1 53:2 57:1 76:2 94:2 120:1 274:1 379:1 480:1 522:1 672:1 806:1 911:1 1091:1 1521:1 1585:1 2325:1 3494:1 5387:1 #
0.053374872776978492250332664070811 10:1 19:2 29:2 38:1 40:2 47:2 55:1 74:1 76:2 100:1 131:2 143:1 164:1 165:1 177:1 192:1 237:1 238:1 254:1 514:1 564:1 585:1 679:1 726:1 844:1 939:1 965:1 1330:1 1409:1 2153:1 3551:1 5583:1 5584:1 5585:1 5586:1 5587:1 #
-0.053374872776978492250332664070811 3:1 10:6 14:1 19:1 29:1 47:3 53:2 55:1 57:2 207:1 235:2 421:2 480:1 833:1 1186:2 1291:1 1472:1 2169:1 2224:1 6074:1 7811:1 #
-0.053374872776978492250332664070811 10:1 14:1 19:1 26:1 40:1 55:1 71:2 134:1 157:1 228:2 273:1 308:1 523:1 682:1 699:1 835:1 858:1 1830:1 3664:1 #
-0.053374872776978492250332664070811 10:1 14:1 19:2 47:1 53:1 94:2 131:2 143:1 332:1 436:1 471:1 505:1 544:1 557:1 1309:1 6326:1 6327:1 6328:1 6329:2 #
-0.053374872776978492250332664070811 10:1 14:1 19:1 20:1 26:1 31:1 36:1 40:1 47:1 51:2 55:1 59:1 76:2 79:1 87:1 143:1 177:1 202:1 466:1 505:1 542:1 999:1 1448:1 1758:2 3841:1 5322:1 5323:1 5324:1 5325:1 #
-0.053374872776978492250332664070811 10:1 14:2 19:1 40:1 47:1 53:1 62:1 99:1 111:1 130:1 143:1 385:1 532:1 607:1 875:2 954:1 979:1 1143:1 1252:1 1393:1 2859:1 3871:1 5699:1 #
0.053374872776978492250332664070811 9:1 29:1 38:1 53:1 84:1 157:1 235:1 523:1 805:1 2614:1 5446:1 5447:1 5448:1 #
0.053374872776978492250332664070811 40:1 53:1 120:1 131:1 579:1 823:1 868:1 6924:1 #
0.053374872776978492250332664070811 10:1 19:1 26:1 47:1 68:1 85:1 94:2 116:1 138:1 139:1 207:1 215:2 274:1 383:1 400:1 813:1 932:1 2277:1 2360:1 9326:1 #
0.053374872776978492250332664070811 14:1 29:2 53:1 62:1 76:1 79:1 138:1 143:1 147:1 166:1 180:1 210:1 294:1 308:1 370:1 505:1 571:1 650:1 658:1 693:1 1337:1 1426:1 1940:1 5000:1 5638:1 6763:1 #
0.053374872776978492250332664070811 14:1 19:1 30:1 47:1 50:1 131:1 405:1 706:1 970:1 1656:1 4432:1 8421:1 8422:1 #
-0.053374872776978492250332664070811 14:1 29:1 36:1 42:1 45:1 71:1 85:1 213:1 215:2 254:1 314:1 899:1 971:1 4825:1 4826:1 #
-0.053374872776978492250332664070811 29:1 120:1 2976:1 6099:1 6100:1 #
-0.053374872776978492250332664070811 10:1 29:1 36:1 43:1 48:1 76:1 79:1 120:2 131:1 133:1 143:1 180:1 237:1 326:1 328:1 383:1 488:1 599:1 638:1 823:1 857:1 964:1 970:1 1201:1 1456:1 3478:1 #
-0.053374872776978492250332664070811 164:1 165:1 1868:1 6685:1 #
-0.053374872776978492250332664070811 19:1 26:1 139:1 143:1 214:1 217:1 228:1 1200:1 3741:1 5340:1 9583:1 #
0.053374872776978492250332664070811 10:2 12:1 14:1 19:1 26:1 29:1 46:1 47:1 57:1 63:1 72:1 79:1 87:1 113:1 131:1 174:1 273:1 355:1 457:1 590:1 609:1 648:1 1122:1 1472:1 1694:1 2081:2 2641:1 2642:1 2643:1 2644:1 2645:1 2646:1 #
0.053374872776978492250332664070811 7:1 10:1 14:1 19:3 27:1 29:2 47:1 73:1 79:1 98:1 132:1 167:1 196:1 207:1 457:2 937:1 1287:1 1602:1 1603:2 1604:1 1605:1 #
0.053374872776978492250332664070811 6:1 10:1 14:2 29:2 47:3 51:1 77:1 85:1 131:2 177:1 192:2 202:1 261:1 265:2 370:1 470:1 626:1 914:1 1139:1 4250:1 #
0.053374872776978492250332664070811 10:1 19:2 45:1 60:1 71:1 213:1 215:1 234:2 383:2 505:1 1292:1 1301:1 2085:1 3030:1 4354:1 #
0.053374872776978492250332664070811 10:2 26:1 47:1 48:1 51:1 59:1 72:1 76:4 79:1 94:2 113:1 131:2 147:1 156:1 213:1 214:1 383:1 417:1 420:1 616:1 617:1 761:1 1108:1 1109:1 1147:2 1200:1 1468:1 1938:1 2053:1 4630:1 5358:1 #
-0.053374872776978492250332664070811 10:1 14:1 19:1 26:2 29:3 47:1 50:1 59:1 79:3 108:1 131:2 274:1 308:1 416:1 761:1 780:1 787:1 1061:1 1337:3 1405:1 7602:1 #
-0.053374872776978492250332664070811 10:2 14:2 19:1 29:1 48:1 50:1 51:1 56:1 68:1 71:1 76:1 87:1 94:2 131:2 143:1 238:1 274:1 648:1 669:1 706:1 827:1 912:1 961:1 984:1 2169:1 2201:1 2587:1 3056:1 5809:1 5931:1 6663:1 6664:1 6665:1 6666:1 #
-0.053374872776978492250332664070811 2:1 10:1 19:1 47:1 72:1 76:1 94:2 156:1 177:1 258:1 352:1 353:1 457:1 571:1 703:1 804:1 919:1 1436:1 2016:1 2833:1 6786:1 #
-0.053374872776978492250332664070811 19:1 38:2 47:1 53:1 74:1 78:1 85:1 113:1 131:1 134:1 156:1 177:1 1161:1 3423:1 3983:1 7406:1 7407:1 #
-0.053374872776978492250332664070811 10:4 14:1 19:1 26:1 29:3 50:1 53:1 72:1 85:1 131:3 132:1 165:1 166:1 171:1 175:1 208:1 274:1 321:1 392:1 488:1 698:1 735:1 777:1 1276:1 3161:1 3254:1 3572:1 4409:1 4999:1 6687:1 6688:1 6689:1 #
0.053374872776978492250332664070811 10:1 94:4 130:1 165:1 228:1 273:1 817:2 1446:1 2735:1 3112:1 4003:1 #
0.053374872776978492250332664070811 9:1 10:1 21:1 26:1 32:1 36:1 48:1 50:1 87:1 105:1 143:1 149:1 174:1 273:1 322:1 403:2 1354:1 1730:1 1733:1 #
0.053374872776978492250332664070811 8:1 21:1 32:1 40:1 104:1 120:1 140:1 235:1 522:1 868:1 947:1 1004:1 1775:1 2629:1 5235:1 5236:1 5237:1 #
0.053374872776978492250332664070811 10:1 22:1 29:1 50:1 51:1 55:1 120:1 127:1 131:2 138:1 174:1 178:1 215:1 219:1 494:1 831:1 1813:1 2277:1 2786:1 5000:1 5001:1 #
0.053374872776978492250332664070811 26:1 32:1 36:1 50:1 51:1 76:1 140:1 273:1 852:1 1519:1 2003:1 2823:1 2824:1 #
-0.053374872776978492250332664070811 2:1 26:1 50:1 76:1 120:1 228:1 232:1 273:1 348:1 362:1 673:1 723:1 1257:1 1274:1 2630:1 #
-0.053374872776978492250332664070811 29:1 51:1 56:1 76:1 140:1 166:1 177:1 261:1 265:1 852:1 2637:1 #
-0.053374872776978492250332664070811 29:1 76:1 152:1 565:1 868:1 1178:1 1307:1 3236:1 4831:1 #
-0.053374872776978492250332664070811 76:1 466:1 467:1 1532:1 6775:1 #
-0.053374872776978492250332664070811 672:1 3482:1 #
0.053374872776978492250332664070811 6:1 10:3 14:1 19:1 29:1 36:1 51:1 53:1 133:1 143:1 177:1 180:1 209:1 285:1 311:1 354:1 565:1 766:1 3440:1 3768:1 7801:1 7802:1 #
0.053374872776978492250332664070811 3:1 14:1 19:1 26:1 40:2 57:2 68:1 72:1 76:1 87:1 131:4 139:1 140:1 229:1 235:4 254:1 328:1 336:1 807:1 1135:2 1152:1 1218:1 2224:1 2629:1 2807:1 2808:1 2809:1 2810:1 2811:1 2812:1 #
0.053374872776978492250332664070811 2:1 12:1 14:1 26:1 29:2 38:1 40:1 81:1 84:1 91:1 131:4 132:1 149:1 305:1 319:1 408:1 532:1 679:1 688:1 1124:1 2691:1 3696:1 3792:1 3994:1 3995:1 3996:1 #
0.053374872776978492250332664070811 10:2 19:1 32:1 40:2 72:1 81:1 90:1 120:1 131:2 171:1 381:1 457:1 532:1 780:1 1135:1 1581:1 2169:1 2313:1 3815:1 4438:1 #
0.053374872776978492250332664070811 2:2 22:1 26:1 29:1 36:1 38:1 40:1 47:3 51:1 62:1 63:1 74:1 81:1 92:1 99:1 131:2 156:1 158:1 163:1 166:1 177:1 203:1 209:1 223:1 390:1 726:1 778:1 944:1 1143:1 1170:1 1266:1 1484:1 1843:1 2451:1 2452:1 2453:1 2454:1 #
-0.053374872776978492250332664070811 19:1 23:1 29:1 48:1 130:1 131:3 338:1 457:1 544:1 1124:1 #
0.053374872776978492250332664070811 2:1 19:1 29:1 31:1 50:1 59:1 76:1 143:1 147:1 274:1 294:1 322:1 355:1 532:1 565:1 646:1 649:1 761:1 923:1 1307:1 2440:1 3622:1 #
-0.053374872776978492250332664070811 2:1 14:1 26:1 72:1 131:1 148:1 235:1 494:1 505:1 901:1 994:1 1427:1 1799:1 1879:1 2028:1 6804:1 #
-0.053374872776978492250332664070811 2:1 3:1 10:1 14:2 19:1 26:2 38:1 47:2 62:1 127:2 130:1 131:1 202:1 228:1 273:2 286:1 348:1 356:1 393:1 460:1 503:1 600:1 688:1 923:1 972:1 4785:1 6176:1 6465:1 9645:1 #
-0.053374872776978492250332664070811 10:1 40:1 47:1 74:1 76:1 81:1 120:1 131:1 152:1 166:1 356:1 365:1 545:1 783:1 1313:1 1938:1 2024:1 7051:1 7052:1 #
-0.053374872776978492250332664070811 2:1 7:1 19:2 20:1 29:3 36:1 40:2 47:1 48:1 53:1 55:1 120:1 130:1 131:1 138:1 147:1 164:1 177:1 326:1 399:1 550:1 582:1 1963:1 4717:1 7389:1 7390:1 #
-0.053374872776978492250332664070811 3:1 8:1 28:1 29:2 32:1 36:1 76:1 87:1 113:1 120:1 127:2 131:1 209:1 215:2 383:1 616:1 981:1 1422:1 1484:1 6319:1 7050:1 #
0.053374872776978492250332664070811 47:1 48:1 51:1 53:1 92:1 131:1 156:1 165:1 200:1 341:1 355:1 548:1 761:1 958:1 1092:1 1614:1 3042:1 4161:1 4162:1 #
0.053374872776978492250332664070811 2:1 19:1 57:1 72:1 76:2 120:1 131:1 138:1 216:1 548:2 1439:1 1454:1 3194:1 8550:1 #
0.053374872776978492250332664070811 131:1 401:1 567:1 3408:1 3409:1 3410:1 #
0.053374872776978492250332664070811 8:1 10:2 19:2 26:1 32:1 38:1 47:1 87:1 130:1 233:1 274:1 545:1 546:1 565:1 766:1 868:1 1537:1 1730:1 4647:1 7089:1 #
0.053374872776978492250332664070811 30:1 40:1 92:1 103:1 113:1 156:1 355:1 544:1 1461:1 1621:1 3127:1 3128:1 #
-0.053374872776978492250332664070811 10:1 40:1 53:2 76:1 131:1 132:1 152:1 166:1 215:2 220:1 301:1 345:1 383:1 565:1 638:1 831:1 848:1 987:1 1084:1 1343:1 2463:1 7879:1 #
-0.053374872776978492250332664070811 10:1 19:1 99:1 131:1 180:1 2006:1 4519:1 4520:1 #
-0.053374872776978492250332664070811 2:1 10:1 14:1 19:1 32:1 36:1 72:1 105:1 274:1 1030:1 1031:1 1032:1 1033:1 1034:1 #
-0.053374872776978492250332664070811 9:1 10:1 19:1 40:1 131:1 164:1 165:1 370:1 464:1 465:1 526:1 1049:1 3177:1 3674:1 #
-0.053374872776978492250332664070811 14:1 19:1 40:2 47:1 48:1 49:1 50:1 76:1 143:1 180:1 285:1 294:1 366:1 620:1 706:1 987:1 1428:1 1443:1 1512:1 1901:1 2297:1 2427:1 5486:1 #
0.053374872776978492250332664070811 14:1 26:2 29:3 32:1 47:1 50:2 55:1 68:1 99:1 138:1 174:1 238:1 273:1 380:1 514:1 530:1 817:1 1295:1 1619:1 2408:1 3249:1 3483:1 #
