SVM-light Version V6.02
0 # kernel type
3 # kernel parameter -d 
1 # kernel parameter -g 
1 # kernel parameter -s 
1 # kernel parameter -r 
empty# kernel parameter -u 
26641 # highest feature index 
81016 # number of training documents 
40169 # number of support vectors plus 1 
-6.8205712 # threshold b, each following line is a SV (starting with alpha*y)
-0.22979555392735109831114925782458 783:1 930:1 4667:1 10143:1 12751:1 #
-0.22979555392735109831114925782458 762:1 1009:1 1320:1 1423:1 1938:1 11583:1 #
-0.22979555392735109831114925782458 669:1 930:1 1099:2 1152:1 1327:1 2174:1 2201:1 3986:1 8022:1 #
-0.22979555392735109831114925782458 8794:1 #
-0.22979555392735109831114925782458 840:1 6862:1 7046:1 #
0.22979555392735109831114925782458 791:1 1468:1 5062:1 5525:1 6935:1 9948:1 9949:1 #
0.22979555392735109831114925782458 43:1 247:1 378:1 877:1 980:1 1062:1 1354:1 1813:1 1949:1 2919:1 6217:1 6411:1 6702:1 7246:1 #
0.22979555392735109831114925782458 677:1 851:1 1302:1 5463:1 6547:1 #
0.22979555392735109831114925782458 22:1 80:1 509:1 1799:1 2033:1 2034:1 2035:1 2036:1 #
0.22979555392735109831114925782458 418:1 528:1 619:1 1904:1 2069:1 2749:1 4541:1 5867:1 10354:1 10355:1 #
-0.22979555392735109831114925782458 223:1 247:2 656:1 757:1 1061:1 3315:1 7110:1 12569:1 #
-0.22979555392735109831114925782458 667:1 1025:1 6056:1 6935:1 12353:1 #
-0.22979555392735109831114925782458 247:1 1582:1 2711:1 #
-0.22979555392735109831114925782458 325:1 353:1 759:1 915:1 1062:1 #
-0.22979555392735109831114925782458 980:1 1231:1 4535:1 19607:1 #
0.22979555392735109831114925782458 230:1 270:1 1099:1 1208:1 1271:1 1758:1 3679:1 4709:1 6935:1 #
0.22979555392735109831114925782458 737:1 3882:1 4660:1 7250:2 9895:1 10015:1 10053:2 #
0.22979555392735109831114925782458 499:1 842:1 #
0.22979555392735109831114925782458 628:1 799:1 832:1 881:1 986:1 1061:1 1307:1 1317:1 1589:1 1823:1 2878:1 #
0.22979555392735109831114925782458 54:1 1497:1 3932:1 4778:1 5081:1 5403:1 6407:1 #
-0.22979555392735109831114925782458 499:1 738:1 3420:1 9895:1 15271:1 #
-0.22979555392735109831114925782458 1216:1 1317:1 1741:1 1758:1 6894:2 7664:1 7665:1 #
-0.22979555392735109831114925782458 979:1 1012:1 1444:1 3679:1 5465:1 9014:1 23015:1 #
-0.22979555392735109831114925782458 737:1 1525:1 3773:1 10380:1 #
-0.22979555392735109831114925782458 1466:1 1611:1 1799:1 2278:1 2332:1 2351:1 12426:1 #
0.22979555392735109831114925782458 1609:1 2283:1 2651:1 3439:1 4405:1 4670:1 5327:1 5496:1 #
0.22979555392735109831114925782458 204:1 668:1 848:1 1320:1 4470:1 10238:1 #
0.22979555392735109831114925782458 934:1 1097:2 1098:2 1099:1 #
0.22979555392735109831114925782458 1623:1 1642:1 9671:1 10025:1 #
0.22979555392735109831114925782458 767:1 #
-0.22979555392735109831114925782458 405:1 986:1 1284:1 2593:1 4280:1 5209:1 #
-0.22979555392735109831114925782458 11:1 1219:1 3854:1 5023:1 5062:1 8103:1 11114:1 17286:1 #
-0.22979555392735109831114925782458 257:1 418:1 7228:1 #
-0.22979555392735109831114925782458 986:1 9994:1 #
-0.22979555392735109831114925782458 9671:1 #
0.22979555392735109831114925782458 334:1 1343:1 1354:1 #
0.22979555392735109831114925782458 877:1 1670:1 1979:1 5399:1 #
0.22979555392735109831114925782458 1111:2 2169:1 3258:1 3259:1 4878:1 7516:1 9687:1 10620:1 18515:1 #
0.22979555392735109831114925782458 550:1 1592:2 #
0.22979555392735109831114925782458 1209:1 1643:1 1968:1 3785:1 #
-0.22979555392735109831114925782458 1592:1 2280:1 3036:1 4639:1 #
-0.22979555392735109831114925782458 145:1 530:1 1266:2 1343:1 1772:1 2432:2 2914:1 4480:1 5249:1 8140:1 10334:1 10354:1 11018:1 #
-0.22979555392735109831114925782458 425:1 670:1 1456:1 1643:1 5748:1 9743:1 #
-0.22979555392735109831114925782458 67:1 240:1 475:1 1209:1 1710:1 15208:1 #
-0.22979555392735109831114925782458 43:1 137:1 357:1 369:1 415:1 815:1 1493:1 2873:1 5103:1 6402:1 #
0.22979555392735109831114925782458 37:1 420:1 556:1 966:1 1045:1 1246:1 2201:1 2272:1 2905:1 4868:1 6488:2 8052:1 9671:1 9756:2 10310:1 #
0.22979555392735109831114925782458 547:1 980:1 1170:1 2065:2 #
0.22979555392735109831114925782458 137:1 415:1 1570:1 2093:1 7046:1 #
0.22979555392735109831114925782458 369:1 553:1 1503:1 1835:1 2660:1 2933:1 3006:1 3082:1 3434:1 11071:1 #
0.22979555392735109831114925782458 1895:1 2272:1 2765:1 3358:1 3882:1 3883:1 5209:1 5698:1 6233:1 7565:1 20490:1 #
-0.22979555392735109831114925782458 109:1 555:1 701:1 3358:1 3402:1 7274:1 10506:1 11944:1 #
-0.22979555392735109831114925782458 347:1 553:1 2361:1 11243:1 #
-0.22979555392735109831114925782458 338:1 980:1 984:1 1977:1 2133:1 2383:1 2596:1 3791:2 14224:1 #
-0.22979555392735109831114925782458 259:1 980:1 #
-0.22979555392735109831114925782458 533:1 1813:1 10222:1 11754:1 11755:1 #
0.22979555392735109831114925782458 1427:2 1680:1 #
0.22979555392735109831114925782458 1053:1 7204:1 8832:1 18023:1 21277:1 #
0.22979555392735109831114925782458 415:1 594:1 754:1 1110:1 9696:1 #
0.22979555392735109831114925782458 379:2 807:1 1537:1 2367:1 2560:1 8996:1 10612:1 #
0.22979555392735109831114925782458 234:1 3755:1 4748:2 #
-0.22979555392735109831114925782458 1680:1 2652:1 5166:1 8318:1 #
-0.22979555392735109831114925782458 151:1 1110:1 18085:1 18667:1 #
-0.22979555392735109831114925782458 1110:1 1281:1 1630:1 14184:1 15763:1 #
-0.22979555392735109831114925782458 186:1 2341:1 4860:1 7164:1 8052:1 10703:1 #
-0.22979555392735109831114925782458 550:1 1470:1 1712:1 #
0.22979555392735109831114925782458 60:1 512:1 920:1 1346:1 1405:1 3662:1 5358:1 #
0.22979555392735109831114925782458 424:1 1519:1 1826:1 2720:1 3082:1 3441:1 3451:1 3813:1 3814:1 4280:1 5070:1 16572:1 #
0.22979555392735109831114925782458 186:1 223:1 627:1 1155:1 1223:1 2566:1 4614:1 4890:1 7946:1 #
0.22979555392735109831114925782458 354:1 1912:1 2341:1 3052:1 3556:1 5004:1 7117:1 #
0.22979555392735109831114925782458 669:1 792:1 1915:1 2313:1 8861:1 17650:1 #
-0.22979555392735109831114925782458 801:1 920:1 1331:1 1519:1 1725:1 2103:1 3451:1 8073:1 #
-0.22979555392735109831114925782458 1405:1 #
-0.22979555392735109831114925782458 1060:1 1519:1 4734:1 6406:1 #
-0.22979555392735109831114925782458 5:1 234:1 1328:1 1390:2 1685:1 2272:2 7372:1 10734:1 13435:1 #
-0.22979555392735109831114925782458 4520:1 25932:1 #
0.22979555392735109831114925782458 2341:1 2526:1 3619:1 9895:1 #
0.22979555392735109831114925782458 1729:1 3563:1 3632:1 13550:1 #
0.22979555392735109831114925782458 519:1 1519:1 3128:1 7838:1 #
0.22979555392735109831114925782458 375:2 426:1 632:1 986:1 4319:1 4584:1 #
0.22979555392735109831114925782458 204:1 405:1 763:1 1025:1 2637:1 3542:1 9669:1 9670:1 9671:1 9727:1 11729:1 11730:1 #
-0.22979555392735109831114925782458 1179:1 1183:1 1356:1 4057:1 4813:1 9671:2 9754:1 9756:1 10237:1 #
-0.22979555392735109831114925782458 2117:1 2637:1 5401:1 18105:1 #
-0.22979555392735109831114925782458 332:1 607:1 1172:1 2002:1 4683:1 #
-0.22979555392735109831114925782458 1794:1 1795:1 4305:1 #
-0.22979555392735109831114925782458 1951:1 2120:1 3631:1 #
0.22979555392735109831114925782458 11:1 841:1 1317:1 3441:1 3906:1 7783:1 8642:1 #
0.22979555392735109831114925782458 953:1 966:1 1279:1 9136:2 #
0.22979555392735109831114925782458 168:1 581:1 3673:1 3674:1 #
0.22979555392735109831114925782458 337:1 581:1 924:1 2905:1 3040:1 3110:1 3360:1 3402:1 7110:1 7516:1 8119:1 10100:1 10311:1 10620:2 10621:1 15552:1 18331:1 #
0.22979555392735109831114925782458 145:1 495:1 1799:1 2239:1 2492:1 2500:1 2521:1 #
-0.22979555392735109831114925782458 404:1 420:1 462:1 924:2 1216:1 1437:1 2504:1 4170:1 13275:1 20773:1 #
-0.22979555392735109831114925782458 337:1 1778:1 7397:1 9191:1 #
-0.22979555392735109831114925782458 1033:1 2500:1 6732:1 12408:1 #
-0.22979555392735109831114925782458 840:1 921:1 1271:1 2355:1 2500:1 2687:1 3402:1 3945:1 5254:1 5713:1 9109:1 #
-0.22979555392735109831114925782458 841:1 2320:1 2459:1 #
0.22979555392735109831114925782458 77:1 2955:1 #
0.22979555392735109831114925782458 11:1 550:1 692:1 881:1 1264:1 2117:1 2272:1 4549:1 9338:3 10853:1 14070:1 #
0.22979555392735109831114925782458 917:1 1609:1 2431:1 6413:1 6414:1 6415:1 #
0.22979555392735109831114925782458 2951:2 3441:2 3983:2 #
0.22979555392735109831114925782458 896:1 1604:1 5464:1 #
-0.22979555392735109831114925782458 2951:1 3732:1 11836:1 #
0.22979555392735109831114925782458 379:1 730:1 745:1 1016:1 1062:1 1330:1 2200:1 2320:1 3551:1 7984:1 #
-0.22979555392735109831114925782458 11:1 1343:1 5520:1 #
0.22979555392735109831114925782458 547:1 633:1 754:1 2010:1 2011:1 2012:1 2013:1 #
-0.22979555392735109831114925782458 730:1 2071:1 2466:1 8858:1 #
0.22979555392735109831114925782458 354:1 677:1 1006:1 2149:1 5054:1 9216:1 #
-0.22979555392735109831114925782458 224:1 354:2 895:2 896:2 2743:2 3442:2 #
0.22979555392735109831114925782458 1561:1 1573:1 3519:1 9671:1 9706:1 9717:1 #
-0.22979555392735109831114925782458 141:1 5444:2 14344:1 #
0.22979555392735109831114925782458 327:1 1161:1 1279:1 2069:1 2637:1 3800:1 #
-0.22979555392735109831114925782458 #
0.22979555392735109831114925782458 607:1 3622:1 7810:1 9669:1 #
-0.22979555392735109831114925782458 #
0.22979555392735109831114925782458 551:1 895:1 1408:2 1582:1 1956:1 6268:1 #
-0.22979555392735109831114925782458 66:1 394:1 551:1 698:1 1160:1 1340:1 1671:1 2124:1 2322:1 6322:1 6703:1 9804:1 #
0.22979555392735109831114925782458 242:1 581:1 1073:1 1513:1 2512:1 8863:1 #
-0.22979555392735109831114925782458 161:1 242:1 518:1 11256:1 #
0.22979555392735109831114925782458 219:1 289:1 881:1 917:1 1813:1 2768:1 7196:1 9800:1 #
-0.22979555392735109831114925782458 196:1 5153:1 #
0.22979555392735109831114925782458 289:1 617:1 730:1 744:1 3882:1 3883:1 5911:1 #
-0.22979555392735109831114925782458 7975:1 9508:1 #
0.22979555392735109831114925782458 112:1 419:1 1068:1 1569:1 2077:2 2972:1 5619:1 5620:1 5621:1 #
-0.22979555392735109831114925782458 #
0.22979555392735109831114925782458 633:1 1125:1 2593:1 2948:1 4275:1 9339:1 #
-0.22979555392735109831114925782458 218:1 1125:1 2085:1 #
0.22979555392735109831114925782458 3619:1 3883:1 4057:1 4705:1 5128:1 10534:1 10535:1 #
-0.22979555392735109831114925782458 #
0.22979555392735109831114925782458 332:1 566:1 1312:1 1953:1 2120:1 6053:1 #
-0.22979555392735109831114925782458 1251:1 1292:1 1312:1 1939:1 2214:1 3737:1 5805:1 #
0.22979555392735109831114925782458 926:1 1098:1 1180:1 1823:1 3331:1 #
-0.22979555392735109831114925782458 3083:1 #
0.22979555392735109831114925782458 823:1 2015:1 3819:1 7472:1 #
-0.22979555392735109831114925782458 866:1 5569:1 21894:1 #
0.22979555392735109831114925782458 2320:1 2620:1 8642:1 13571:1 #
-0.22979555392735109831114925782458 470:1 581:1 1170:1 2320:1 3016:1 3637:1 3687:1 4887:1 7200:2 #
0.22979555392735109831114925782458 216:1 1470:1 1568:1 3605:1 4121:1 4122:1 4124:1 #
-0.22979555392735109831114925782458 1329:1 #
0.22979555392735109831114925782458 1665:1 2201:1 3441:1 9795:1 #
-0.22979555392735109831114925782458 5840:1 10049:1 22059:1 #
0.22979555392735109831114925782458 830:1 1037:1 1642:1 4868:1 8052:1 #
-0.22979555392735109831114925782458 830:1 3719:1 12105:1 12747:1 #
0.22979555392735109831114925782458 946:1 1568:1 1951:1 4512:1 18384:1 #
-0.22979555392735109831114925782458 1454:1 5486:1 #
0.22979555392735109831114925782458 1108:1 5403:1 5566:1 6590:1 6934:1 17538:1 #
-0.22979555392735109831114925782458 880:3 2092:6 4517:1 12316:3 #
0.22979555392735109831114925782458 2313:1 14572:1 #
-0.22979555392735109831114925782458 303:1 2593:1 4076:1 19197:1 #
0.22979555392735109831114925782458 743:1 3882:1 9671:1 #
-0.22979555392735109831114925782458 1101:1 1102:1 1621:1 2468:1 #
0.22979555392735109831114925782458 853:1 2320:1 5726:1 5824:1 #
-0.22979555392735109831114925782458 2284:1 2346:1 5130:1 10353:1 12067:1 #
0.22979555392735109831114925782458 3084:1 #
-0.22979555392735109831114925782458 61:1 3661:1 4288:1 7754:1 12677:1 15816:1 19085:1 #
0.22979555392735109831114925782458 2235:1 2413:1 3683:1 #
-0.22979555392735109831114925782458 #
0.22979555392735109831114925782458 22:1 256:1 627:1 973:1 1294:1 1307:1 2237:1 2584:1 7254:1 #
-0.22979555392735109831114925782458 1393:1 11278:1 19026:1 #
0.22979555392735109831114925782458 437:1 616:1 818:1 992:1 2786:1 3763:1 3764:1 3765:1 3766:1 3767:1 #
-0.22979555392735109831114925782458 3763:1 #
0.22979555392735109831114925782458 970:1 1468:1 5525:1 6935:1 9948:1 9949:1 #
-0.22979555392735109831114925782458 1840:1 4057:1 #
0.22979555392735109831114925782458 840:1 858:1 924:1 3180:1 7373:1 7878:1 #
-0.22979555392735109831114925782458 758:1 944:1 3546:1 11893:1 19002:1 #
0.22979555392735109831114925782458 950:1 3561:1 4319:1 4705:1 5231:1 20957:1 #
-0.22979555392735109831114925782458 6794:1 9704:1 12236:1 #
0.22979555392735109831114925782458 2009:1 2488:1 4251:1 #
-0.22979555392735109831114925782458 941:1 #
0.22979555392735109831114925782458 279:1 2581:1 #
-0.22979555392735109831114925782458 680:1 768:1 911:1 1138:1 2097:1 4299:1 #
0.22979555392735109831114925782458 934:1 1216:1 5180:1 6577:1 18732:1 #
-0.22979555392735109831114925782458 10861:1 12586:1 #
0.22979555392735109831114925782458 698:1 823:1 5725:1 10157:1 13884:1 #
-0.22979555392735109831114925782458 1696:1 5383:1 #
0.22979555392735109831114925782458 344:1 657:1 832:1 2948:1 3310:1 4675:1 #
-0.22979555392735109831114925782458 353:1 730:1 832:1 983:1 1570:1 2084:1 4549:1 13571:1 #
0.22979555392735109831114925782458 70:1 291:1 857:1 915:1 1434:1 4499:1 5203:1 5651:1 5652:1 #
-0.22979555392735109831114925782458 541:1 872:1 #
0.22979555392735109831114925782458 332:1 334:1 649:1 792:1 793:1 824:1 2313:1 #
-0.22979555392735109831114925782458 1486:1 5920:1 #
-0.22979555392735109831114925782458 280:6 4182:2 24854:2 24855:2 #
-0.22979555392735109831114925782458 329:1 507:1 #
-0.22979555392735109831114925782458 801:1 870:1 886:1 992:1 1217:1 23117:1 #
-0.22979555392735109831114925782458 332:1 338:1 447:1 #
0.22979555392735109831114925782458 11:1 356:1 553:1 581:1 833:1 1165:1 1766:1 2687:1 4169:2 7211:1 12241:1 20442:1 #
0.22979555392735109831114925782458 954:1 1098:1 3763:1 4579:1 #
0.22979555392735109831114925782458 257:1 332:1 2627:1 #
0.22979555392735109831114925782458 1260:1 1281:1 3140:1 4319:1 20550:1 #
0.22979555392735109831114925782458 37:1 1172:1 2009:2 3461:1 4072:1 17538:1 #
-0.22979555392735109831114925782458 590:1 833:1 8049:1 12951:1 #
-0.22979555392735109831114925782458 833:1 #
-0.22979555392735109831114925782458 1184:1 10078:1 #
-0.22979555392735109831114925782458 5814:1 #
-0.22979555392735109831114925782458 351:1 #
0.22979555392735109831114925782458 1238:1 6034:1 9528:1 #
0.22979555392735109831114925782458 234:1 3755:1 4748:2 #
0.22979555392735109831114925782458 632:1 931:1 1266:1 1983:1 2567:1 2824:1 4288:1 7352:1 20988:1 #
0.22979555392735109831114925782458 2313:1 6666:1 14572:1 #
0.22979555392735109831114925782458 823:1 1874:1 2092:1 2608:1 2636:1 #
-0.22979555392735109831114925782458 234:1 1444:1 4654:1 #
-0.22979555392735109831114925782458 5946:1 9856:1 #
-0.22979555392735109831114925782458 1470:1 1743:1 3131:1 6381:1 #
-0.22979555392735109831114925782458 12833:1 13449:1 #
-0.22979555392735109831114925782458 562:1 13766:1 #
0.22979555392735109831114925782458 971:1 1223:1 1293:1 1890:1 4662:1 8497:1 #
0.22979555392735109831114925782458 827:1 4789:1 9670:1 9725:1 10544:1 #
0.22979555392735109831114925782458 1141:2 2933:1 4450:1 #
0.22979555392735109831114925782458 205:1 979:1 1396:1 4584:1 #
0.22979555392735109831114925782458 615:1 1061:1 1069:1 6205:1 7387:2 #
-0.22979555392735109831114925782458 3635:1 4251:1 7387:2 14836:1 #
0.22979555392735109831114925782458 256:1 600:1 666:1 830:1 892:1 2584:1 #
-0.22979555392735109831114925782458 #
0.22979555392735109831114925782458 966:1 7938:1 #
-0.22979555392735109831114925782458 1115:1 3803:1 5230:1 #
0.22979555392735109831114925782458 107:1 242:1 1006:1 1540:1 2440:1 3898:1 4540:1 #
-0.22979555392735109831114925782458 10126:1 #
0.22979555392735109831114925782458 805:1 1293:1 1470:1 1529:1 1530:1 2367:1 3146:1 4461:1 4831:1 15626:1 #
-0.22979555392735109831114925782458 416:1 1340:1 1345:1 1526:1 2236:1 2313:2 2560:1 3146:1 7014:1 7948:1 12089:1 13829:1 #
0.22979555392735109831114925782458 858:1 10025:1 16700:1 #
-0.22979555392735109831114925782458 612:1 2742:1 6320:1 9491:1 #
0.22979555392735109831114925782458 1214:1 3416:1 14771:1 #
-0.22979555392735109831114925782458 2030:1 14007:1 #
0.22979555392735109831114925782458 525:2 1141:1 1269:1 4076:1 4077:1 4078:1 4079:1 #
-0.22979555392735109831114925782458 1320:1 1673:1 1732:1 1964:1 2328:1 3844:1 6317:1 13873:1 13876:1 #
0.22979555392735109831114925782458 1442:1 1983:1 #
-0.22979555392735109831114925782458 18:1 755:1 793:1 3444:1 7108:1 9994:1 13868:1 13869:1 #
0.22979555392735109831114925782458 11:1 13:1 8851:1 #
-0.22979555392735109831114925782458 6334:1 10096:1 13820:1 #
0.22979555392735109831114925782458 841:1 2083:1 3099:1 3100:1 4112:1 #
-0.22979555392735109831114925782458 1273:1 12707:1 #
0.22979555392735109831114925782458 10359:1 11993:1 #
-0.22979555392735109831114925782458 1773:1 #
0.22979555392735109831114925782458 1482:1 1499:1 3776:1 6376:1 16142:1 #
-0.22979555392735109831114925782458 #
0.22979555392735109831114925782458 324:1 338:1 1582:1 3910:1 4245:1 5103:1 6014:1 7032:1 #
-0.22979555392735109831114925782458 6443:1 #
0.22979555392735109831114925782458 911:1 933:1 1568:1 1736:1 2651:1 5512:1 #
-0.22979555392735109831114925782458 222:1 1448:1 6412:1 12385:1 #
0.22979555392735109831114925782458 380:1 600:1 607:1 1061:1 1921:1 2187:1 5358:1 5359:1 #
-0.22979555392735109831114925782458 268:1 1166:1 1951:1 2392:1 3817:1 #
0.22979555392735109831114925782458 211:1 1141:1 #
-0.22979555392735109831114925782458 6077:1 12524:1 #
0.22979555392735109831114925782458 226:1 507:1 648:1 990:1 1001:1 1699:1 2323:1 3144:1 9155:1 14632:1 #
-0.22979555392735109831114925782458 226:1 581:1 648:1 979:1 1266:1 2111:1 2432:1 2797:1 4225:1 9681:1 13680:1 #
-0.22979555392735109831114925782458 223:1 255:1 1001:1 2266:1 4780:1 #
-0.22979555392735109831114925782458 555:1 2083:1 #
-0.22979555392735109831114925782458 1052:1 4757:1 15949:1 #
-0.22979555392735109831114925782458 218:1 757:1 1001:1 1073:1 2913:1 3241:1 3254:1 4953:1 7043:1 10009:1 #
0.22979555392735109831114925782458 329:1 616:1 914:1 1251:1 1833:1 2646:1 10925:1 #
0.22979555392735109831114925782458 204:1 833:1 1489:2 1570:1 1634:1 1638:1 2934:1 5945:2 5946:1 #
0.22979555392735109831114925782458 662:1 807:1 955:1 1313:1 1685:1 2277:1 5726:1 #
0.22979555392735109831114925782458 636:1 870:1 979:1 986:1 1062:1 1867:1 2309:1 2786:1 2893:1 7960:1 8182:1 #
0.22979555392735109831114925782458 533:1 1829:1 5869:1 8726:1 #
-0.22979555392735109831114925782458 9990:1 #
0.22979555392735109831114925782458 1405:1 5946:1 16559:1 25351:1 #
-0.22979555392735109831114925782458 211:1 297:1 992:1 1546:1 1724:1 1820:1 6862:1 6883:1 10391:1 #
0.22979555392735109831114925782458 204:1 222:1 585:1 2765:1 6193:1 8387:1 9671:1 11612:1 12027:1 #
-0.22979555392735109831114925782458 589:1 2999:1 #
0.22979555392735109831114925782458 1172:1 1504:1 1733:1 1952:1 3397:1 4033:1 4405:1 #
-0.22979555392735109831114925782458 289:1 504:1 1952:1 2637:1 3084:1 3497:1 3674:1 4319:1 #
0.22979555392735109831114925782458 211:1 1295:1 2933:1 5797:1 #
-0.22979555392735109831114925782458 3696:1 #
0.22979555392735109831114925782458 205:1 866:1 1582:1 1922:1 2277:1 2919:1 #
-0.22979555392735109831114925782458 385:2 520:2 763:2 1163:2 1614:1 2277:5 19585:1 #
0.22979555392735109831114925782458 1393:1 3017:1 6798:1 9670:1 9671:1 10091:1 10092:1 #
-0.22979555392735109831114925782458 221:1 12308:1 #
0.22979555392735109831114925782458 591:1 1740:1 2277:1 8713:1 9473:1 17211:1 #
-0.22979555392735109831114925782458 1051:1 3069:1 8777:1 12279:1 #
0.22979555392735109831114925782458 2719:1 3128:1 3506:1 3507:1 3508:1 3509:1 3510:1 #
-0.22979555392735109831114925782458 #
0.22979555392735109831114925782458 335:1 744:1 2391:1 2875:1 3136:2 3228:1 4589:1 #
-0.22979555392735109831114925782458 815:1 2609:1 3017:1 3018:1 12878:1 #
0.22979555392735109831114925782458 547:1 5383:1 9565:1 #
-0.22979555392735109831114925782458 533:1 #
-0.22979555392735109831114925782458 1148:1 1582:1 1616:1 2153:1 2214:1 2361:1 3143:1 3678:1 4366:1 #
-0.22979555392735109831114925782458 #
-0.22979555392735109831114925782458 990:2 1957:1 2328:1 2623:1 3113:1 3233:1 4583:1 5069:1 9696:3 13553:1 16701:1 16753:1 #
-0.22979555392735109831114925782458 2069:1 2516:1 2720:2 3195:1 3250:1 4412:1 5292:1 14326:1 20199:1 24881:1 #
0.22979555392735109831114925782458 271:1 1084:1 1086:1 2609:1 2650:1 4319:1 5209:1 21427:1 #
0.22979555392735109831114925782458 291:1 301:1 536:1 905:1 966:1 1426:1 7697:1 8072:1 8073:1 #
0.22979555392735109831114925782458 503:1 1246:1 1258:1 1493:1 1494:1 3112:1 13553:1 #
0.22979555392735109831114925782458 173:1 347:1 977:1 1351:1 3776:1 4111:1 5209:1 11581:1 #
0.22979555392735109831114925782458 858:1 1426:1 2382:1 2383:1 2384:1 2385:1 2386:1 #
-0.22979555392735109831114925782458 173:1 525:1 823:1 2009:1 4925:1 12508:1 #
-0.22979555392735109831114925782458 506:1 966:1 987:1 1172:1 2085:1 4493:1 8324:1 #
-0.22979555392735109831114925782458 266:1 987:1 1426:1 1473:1 1513:1 1537:1 15680:1 16592:1 #
-0.22979555392735109831114925782458 934:1 1153:1 1307:1 3757:1 3916:1 5799:1 #
-0.22979555392735109831114925782458 415:1 792:1 960:1 1155:1 4971:1 5783:1 6579:1 9969:1 15165:1 16022:1 16024:1 #
0.22979555392735109831114925782458 334:1 934:1 1343:1 1487:1 1630:1 2117:1 3265:1 4055:1 7029:1 #
0.22979555392735109831114925782458 1114:1 1115:1 1251:1 1625:1 3869:1 5162:1 5904:1 #
0.22979555392735109831114925782458 22:1 118:1 504:1 895:1 944:1 1482:2 1741:1 2361:1 3143:1 4366:1 9034:1 #
0.22979555392735109831114925782458 262:1 562:1 1307:1 1358:1 2510:1 2616:1 3279:1 5408:1 5550:1 8522:1 10065:1 #
0.22979555392735109831114925782458 585:1 719:1 1165:1 1166:1 1167:1 1168:1 1169:1 #
-0.22979555392735109831114925782458 379:1 823:1 832:1 1482:1 1932:1 3060:1 4630:1 5696:1 #
-0.22979555392735109831114925782458 290:1 719:1 1630:1 3631:1 4409:1 #
-0.22979555392735109831114925782458 1004:1 1930:1 4313:1 9671:1 #
-0.22979555392735109831114925782458 11:1 380:1 1387:1 4541:1 6113:1 9402:1 9403:1 #
-0.22979555392735109831114925782458 22:1 187:1 668:1 701:1 737:1 1672:1 1793:1 1814:1 2121:1 4709:1 5696:1 5840:1 9669:1 9670:1 #
0.22979555392735109831114925782458 54:1 604:1 1298:1 1624:1 1835:1 2612:1 3654:1 3940:1 9681:1 #
0.22979555392735109831114925782458 335:1 600:1 1060:1 1077:1 1603:1 2716:1 3470:1 3908:1 #
0.22979555392735109831114925782458 1122:5 5946:3 #
0.22979555392735109831114925782458 877:1 1670:1 1979:1 5399:1 #
0.22979555392735109831114925782458 464:1 465:1 1235:1 1506:1 2016:1 2277:1 7383:1 #
-0.22979555392735109831114925782458 137:1 1122:1 2015:1 #
-0.22979555392735109831114925782458 375:1 394:1 979:1 1403:1 1813:1 2614:1 2859:1 4265:1 5946:2 10172:1 #
-0.22979555392735109831114925782458 271:1 347:1 368:1 1122:1 1564:1 2069:1 4245:1 4366:1 4965:1 8153:1 8545:1 #
-0.22979555392735109831114925782458 3773:1 23074:1 #
-0.22979555392735109831114925782458 67:1 1119:1 1664:1 2428:1 #
0.22979555392735109831114925782458 719:1 1214:1 1682:1 1771:1 2373:1 3763:1 4033:1 4492:1 4969:1 5211:1 5586:1 9528:1 11457:1 11852:1 16635:1 #
0.22979555392735109831114925782458 264:1 368:1 1178:1 #
0.22979555392735109831114925782458 178:1 970:1 1423:1 2169:1 7639:1 7640:1 #
0.22979555392735109831114925782458 190:1 824:1 5151:1 5388:1 #
0.22979555392735109831114925782458 661:1 1007:1 1166:1 1464:1 2085:1 2900:1 2953:1 3088:1 8976:1 9767:1 #
-0.22979555392735109831114925782458 531:1 1037:1 1149:1 1166:1 2955:1 3380:1 7810:1 11455:1 11457:1 11458:1 11459:1 #
-0.22979555392735109831114925782458 284:1 1214:1 1594:1 4460:1 5358:1 #
-0.22979555392735109831114925782458 107:1 804:1 897:1 1214:1 1443:1 1771:1 3545:1 #
-0.22979555392735109831114925782458 970:1 1946:1 12316:1 18904:1 #
-0.22979555392735109831114925782458 1712:1 5102:1 16603:1 #
0.22979555392735109831114925782458 2277:1 2931:1 3788:1 6566:1 #
0.22979555392735109831114925782458 22:1 33:1 80:1 329:1 347:1 1111:1 15815:1 #
0.22979555392735109831114925782458 257:1 729:1 832:1 2256:1 2257:1 #
0.22979555392735109831114925782458 517:1 600:1 1119:1 1445:1 2045:1 3719:1 #
0.22979555392735109831114925782458 369:1 1829:1 #
-0.22979555392735109831114925782458 1575:1 2593:1 2823:1 10746:1 #
-0.22979555392735109831114925782458 1081:1 1773:1 #
-0.22979555392735109831114925782458 408:1 530:1 #
-0.22979555392735109831114925782458 1938:1 #
-0.22979555392735109831114925782458 491:1 584:1 1478:1 1846:1 5254:1 8675:1 #
0.22979555392735109831114925782458 354:1 699:1 4470:1 4556:1 17403:1 21155:1 #
0.22979555392735109831114925782458 11:1 775:1 1161:1 2718:1 2994:1 6959:1 #
0.22979555392735109831114925782458 378:1 818:1 2077:1 2304:1 2560:1 2805:1 3017:1 3563:1 3763:1 7322:1 #
0.22979555392735109831114925782458 301:1 550:1 584:1 698:1 1086:1 1915:1 1943:1 2687:1 2706:1 4237:1 4319:1 #
0.22979555392735109831114925782458 137:1 335:1 977:1 1570:1 1571:1 1572:1 #
-0.22979555392735109831114925782458 470:1 550:1 1316:1 1423:1 1762:1 2687:1 2719:2 2858:1 9238:1 #
-0.22979555392735109831114925782458 482:1 507:1 1086:1 1098:1 2316:1 3016:1 4887:1 7007:1 #
-0.22979555392735109831114925782458 335:1 1867:1 10974:1 12169:1 #
-0.22979555392735109831114925782458 1252:1 1316:1 2077:1 3527:1 3551:1 4371:1 5523:1 8856:1 #
-0.22979555392735109831114925782458 954:1 3587:1 3763:1 5286:1 #
0.22979555392735109831114925782458 271:1 291:1 719:1 923:1 1364:1 1597:1 4216:1 5378:1 6119:1 12972:1 24700:1 25771:1 #
0.22979555392735109831114925782458 2796:1 7273:1 7274:1 #
0.22979555392735109831114925782458 70:1 391:1 751:1 1663:1 1707:1 1758:1 1820:2 8230:1 8904:1 12463:1 #
0.22979555392735109831114925782458 541:1 3186:1 4450:1 5533:1 #
0.22979555392735109831114925782458 278:1 767:1 13079:1 15294:1 #
-0.22979555392735109831114925782458 5:1 841:1 894:1 1170:1 1456:1 #
-0.22979555392735109831114925782458 3254:1 3530:1 6818:1 #
-0.22979555392735109831114925782458 368:1 5486:1 6172:1 #
-0.22979555392735109831114925782458 169:1 287:1 288:1 365:1 991:1 1357:1 1673:1 4017:1 4018:1 4019:1 4020:1 #
-0.22979555392735109831114925782458 65:1 242:2 350:1 1099:1 1494:1 1741:1 5744:1 #
0.22979555392735109831114925782458 816:1 984:1 1141:1 2223:1 2687:1 4225:1 4652:1 7225:1 #
0.22979555392735109831114925782458 289:1 737:1 1208:1 1784:2 3178:1 3814:1 4749:1 10867:1 20830:1 #
0.22979555392735109831114925782458 256:1 848:2 1032:1 1589:1 2077:1 5730:1 7098:1 #
0.22979555392735109831114925782458 530:1 877:1 1670:1 1979:1 5399:1 #
0.22979555392735109831114925782458 3093:1 3149:1 7784:1 #
-0.22979555392735109831114925782458 729:1 848:1 1301:1 2791:1 3160:1 10788:1 10789:1 #
-0.22979555392735109831114925782458 846:1 1007:1 9528:1 #
-0.22979555392735109831114925782458 205:1 221:1 338:1 1302:1 1313:1 2786:1 4594:1 6424:1 12677:1 #
-0.22979555392735109831114925782458 980:1 1161:1 3978:1 8147:1 9528:1 12436:1 #
-0.22979555392735109831114925782458 842:1 881:1 1073:1 2459:1 4768:1 5005:1 #
0.22979555392735109831114925782458 911:1 3440:1 #
0.22979555392735109831114925782458 297:1 631:1 801:1 1664:1 1791:1 3319:1 5635:1 8572:1 #
0.22979555392735109831114925782458 3136:1 3612:1 9077:1 9078:1 9079:1 #
0.22979555392735109831114925782458 101:1 324:1 628:1 972:1 979:1 1638:1 1956:1 2297:1 2417:1 4299:1 #
0.22979555392735109831114925782458 225:1 255:1 378:1 1201:1 1453:1 3097:1 6415:1 7790:1 #
-0.22979555392735109831114925782458 628:1 698:1 905:1 1814:1 3683:1 3795:1 10627:1 #
-0.22979555392735109831114925782458 331:1 378:1 9080:1 13636:1 #
-0.22979555392735109831114925782458 243:1 857:1 911:1 1733:1 4498:1 19129:1 #
-0.22979555392735109831114925782458 222:1 812:1 1068:1 1425:1 1952:1 2107:1 4470:1 7589:1 #
-0.22979555392735109831114925782458 2077:1 3391:1 13316:1 #
0.22979555392735109831114925782458 444:1 780:1 3497:1 6572:1 20680:2 #
0.22979555392735109831114925782458 18:1 528:1 818:1 1343:1 2069:1 2463:1 4541:1 5867:1 10355:1 #
0.22979555392735109831114925782458 187:1 1425:1 1652:1 2272:1 4211:1 4633:1 5101:1 #
0.22979555392735109831114925782458 173:1 696:1 3834:2 11460:1 #
0.22979555392735109831114925782458 633:1 737:1 793:1 800:1 1061:1 1592:1 2720:1 2731:1 6796:1 9671:1 9808:1 10675:1 #
-0.22979555392735109831114925782458 207:1 553:1 801:1 818:1 1549:2 1707:1 2279:1 10516:1 11426:1 12000:1 #
-0.22979555392735109831114925782458 129:1 1061:1 1612:1 2104:1 2462:1 3176:1 #
-0.22979555392735109831114925782458 408:1 630:1 972:1 1274:1 1597:1 1711:1 5867:1 8589:1 10136:1 #
-0.22979555392735109831114925782458 262:1 271:1 596:1 649:1 891:1 1343:1 2085:1 #
-0.22979555392735109831114925782458 627:1 833:1 1275:1 5512:1 #
0.22979555392735109831114925782458 379:1 911:1 1832:1 3531:1 8005:1 #
0.22979555392735109831114925782458 475:1 544:1 5622:1 7046:1 8519:2 18055:1 #
0.22979555392735109831114925782458 205:1 1270:1 1451:1 1938:1 5364:2 #
0.22979555392735109831114925782458 751:1 804:1 939:1 5395:1 6315:1 8036:1 #
0.22979555392735109831114925782458 567:1 1417:3 1857:1 2498:1 2499:1 3408:1 4194:1 9520:3 9837:1 #
-0.22979555392735109831114925782458 560:1 743:1 2009:1 2227:1 2273:1 #
-0.22979555392735109831114925782458 890:1 1377:1 1766:1 1833:1 2486:1 2972:1 3248:1 3249:1 #
-0.22979555392735109831114925782458 11:1 633:1 775:1 805:1 1642:1 1773:1 3317:1 #
-0.22979555392735109831114925782458 354:1 544:1 1006:1 2149:1 2824:1 3270:1 5054:1 6188:1 #
-0.22979555392735109831114925782458 218:1 #
0.22979555392735109831114925782458 2375:1 4036:1 4040:1 4200:1 #
0.22979555392735109831114925782458 882:1 1178:1 1274:1 1365:1 11786:1 18242:1 #
0.22979555392735109831114925782458 22:1 97:1 1073:1 1177:1 1707:1 4887:1 7050:2 #
0.22979555392735109831114925782458 591:1 1740:1 2277:1 8713:1 9473:1 17211:1 #
0.22979555392735109831114925782458 2255:1 2432:1 2514:1 2544:1 3389:1 14182:1 #
-0.22979555392735109831114925782458 815:1 888:1 984:1 1157:1 16056:1 #
0.22979555392735109831114925782458 65:1 489:1 677:2 738:1 743:1 2266:1 2375:1 4320:1 #
-0.22979555392735109831114925782458 964:1 1125:1 2120:1 2691:1 3546:1 4061:1 5249:1 #
-0.22979555392735109831114925782458 247:1 10434:1 18168:1 #
-0.22979555392735109831114925782458 949:1 1231:1 1356:1 2583:1 5103:1 19446:1 #
-0.22979555392735109831114925782458 246:1 1004:1 1685:1 3036:1 #
-0.22979555392735109831114925782458 944:1 1153:1 1189:1 2271:1 3058:1 3916:1 4236:1 #
0.22979555392735109831114925782458 255:3 946:2 1017:1 1642:1 2052:1 2133:1 2297:1 7010:1 #
0.22979555392735109831114925782458 205:1 1549:1 2456:1 2791:1 #
0.22979555392735109831114925782458 591:1 813:1 2413:1 4993:3 5525:1 5673:2 6188:1 #
0.22979555392735109831114925782458 218:1 517:1 536:1 537:1 1279:1 #
0.22979555392735109831114925782458 837:1 950:1 1246:1 1614:1 1895:1 2313:1 3882:1 4660:1 8170:1 10462:1 #
-0.22979555392735109831114925782458 255:1 780:1 2604:1 10905:1 #
-0.22979555392735109831114925782458 187:1 205:1 4309:1 5901:1 6838:1 #
-0.22979555392735109831114925782458 223:1 679:1 1486:1 1917:1 #
-0.22979555392735109831114925782458 190:1 946:2 2052:1 2297:1 2722:1 7009:1 7010:1 18730:1 #
-0.22979555392735109831114925782458 748:1 1489:1 10950:1 #
0.22979555392735109831114925782458 405:1 547:1 763:1 770:1 1732:1 1956:1 2332:1 8042:1 8098:1 #
0.22979555392735109831114925782458 1161:1 1170:1 1440:1 4319:1 9522:1 #
0.22979555392735109831114925782458 553:2 610:1 780:1 1048:1 1084:1 1279:1 1441:1 1546:1 2731:1 5759:1 7828:1 #
0.22979555392735109831114925782458 5:1 1100:1 1189:1 1504:1 1952:1 2124:1 2239:1 2912:1 11358:1 19763:1 #
0.22979555392735109831114925782458 1073:1 1707:1 10311:1 #
-0.22979555392735109831114925782458 335:1 1048:1 1646:1 #
-0.22979555392735109831114925782458 770:1 1307:1 #
-0.22979555392735109831114925782458 547:1 1045:1 1854:1 2413:1 2447:1 2530:1 6829:1 #
-0.22979555392735109831114925782458 2478:1 2566:1 7946:1 11347:1 #
-0.22979555392735109831114925782458 813:1 964:1 1334:1 1468:1 1797:1 3551:1 #
0.22979555392735109831114925782458 757:1 758:1 1001:1 1859:1 2140:1 2627:1 3619:1 3700:1 9671:1 10317:1 #
0.22979555392735109831114925782458 1114:1 1115:1 1819:1 2933:1 8886:2 8888:1 #
0.22979555392735109831114925782458 1179:1 1183:1 1356:1 1915:1 5828:1 9671:2 9742:1 9754:1 9790:1 10001:1 10235:2 10237:1 #
0.22979555392735109831114925782458 581:1 1810:1 2169:1 6403:1 9722:1 9806:1 13866:1 #
0.22979555392735109831114925782458 783:1 1181:1 1333:1 1826:1 #
-0.22979555392735109831114925782458 420:1 1310:1 1592:1 4057:1 5511:1 6023:1 7717:1 9671:2 11338:2 #
-0.22979555392735109831114925782458 1081:1 1568:1 3918:1 6768:1 8670:1 10011:1 #
-0.22979555392735109831114925782458 807:1 1472:1 3674:1 3850:1 6352:1 14945:2 #
-0.22979555392735109831114925782458 961:1 1110:1 1161:1 2239:1 2361:1 15919:1 #
-0.22979555392735109831114925782458 1059:1 1208:1 1987:1 7024:1 7025:1 19048:1 20601:1 #
0.22979555392735109831114925782458 10223:1 15182:1 #
0.22979555392735109831114925782458 97:1 447:1 1307:1 2332:1 3638:1 12625:1 #
0.22979555392735109831114925782458 276:1 408:1 826:1 1316:1 1454:1 1823:1 3346:1 #
0.22979555392735109831114925782458 179:1 1077:1 1147:1 1172:1 2044:1 3470:1 3519:1 3520:1 4040:2 4319:1 5586:1 #
0.22979555392735109831114925782458 242:1 1775:1 #
-0.22979555392735109831114925782458 262:1 332:1 649:1 686:1 1718:1 4040:1 #
-0.22979555392735109831114925782458 18:1 1799:1 1823:1 2077:1 2201:1 3143:1 15806:1 #
-0.22979555392735109831114925782458 892:1 919:1 1775:1 2046:1 3468:1 3521:1 3736:1 14145:1 #
-0.22979555392735109831114925782458 324:1 1843:1 2274:1 2489:1 #
-0.22979555392735109831114925782458 234:1 1609:1 6758:1 7896:1 19778:1 #
0.22979555392735109831114925782458 224:1 3670:1 4007:1 9956:1 9957:1 10871:1 #
0.22979555392735109831114925782458 833:1 #
0.22979555392735109831114925782458 11:1 80:1 257:2 321:1 881:1 1758:1 2361:1 2477:1 4450:1 4668:1 6140:1 #
0.22979555392735109831114925782458 8676:2 8677:1 8678:2 #
0.22979555392735109831114925782458 137:1 5164:1 #
-0.22979555392735109831114925782458 257:2 331:1 1401:4 #
0.22979555392735109831114925782458 1365:1 2278:1 13088:1 #
-0.22979555392735109831114925782458 1062:1 1822:1 2064:1 2752:1 4218:1 5699:1 5743:1 7335:1 10389:1 13639:3 #
0.22979555392735109831114925782458 283:1 286:1 17494:1 25810:1 #
-0.22979555392735109831114925782458 11:1 1447:1 1923:1 #
-0.22979555392735109831114925782458 1100:1 1260:1 3152:1 #
-0.22979555392735109831114925782458 276:1 507:1 954:1 1835:1 1886:1 2026:1 11082:1 #
-0.22979555392735109831114925782458 24:1 830:1 1274:1 1470:1 1658:1 6407:1 13825:1 #
-0.22979555392735109831114925782458 699:1 2173:1 3263:1 4890:1 10829:1 #
0.22979555392735109831114925782458 196:1 772:1 897:1 990:1 1166:1 1519:1 3075:1 4829:1 6398:1 #
0.22979555392735109831114925782458 1569:1 2277:1 8362:1 15766:1 #
0.22979555392735109831114925782458 341:1 1741:1 1742:1 1743:1 1744:1 1745:1 1746:1 1747:1 #
0.22979555392735109831114925782458 813:1 1950:1 2925:1 5525:1 12905:1 #
0.22979555392735109831114925782458 335:1 924:1 1486:1 1607:1 1763:1 1793:1 1990:1 2016:1 2309:1 2310:1 3682:1 5209:1 5243:1 5619:1 8067:1 10233:1 10305:1 21595:1 #
-0.22979555392735109831114925782458 401:1 970:1 1699:1 2277:5 3714:1 5298:1 5299:1 5300:1 5302:1 #
0.22979555392735109831114925782458 816:1 1775:1 2223:1 4225:1 4652:1 6941:1 7225:1 #
-0.22979555392735109831114925782458 581:1 897:1 13531:1 #
-0.22979555392735109831114925782458 1354:1 #
-0.22979555392735109831114925782458 791:1 1106:1 3940:1 6276:1 8229:1 #
-0.22979555392735109831114925782458 337:1 3470:1 #
-0.22979555392735109831114925782458 979:1 1517:1 1758:1 11208:1 #
0.22979555392735109831114925782458 535:1 1053:1 2939:1 3060:1 3292:1 3293:1 6861:1 #
0.22979555392735109831114925782458 1699:1 8030:1 #
0.22979555392735109831114925782458 204:1 1823:1 3619:1 3955:2 5317:1 5531:1 14938:1 16986:1 #
0.22979555392735109831114925782458 8726:1 10150:1 #
0.22979555392735109831114925782458 690:1 911:1 5825:1 6906:1 22056:1 #
-0.22979555392735109831114925782458 1422:1 1983:1 2103:1 2512:1 5810:1 #
-0.22979555392735109831114925782458 841:1 1405:1 10015:1 #
-0.22979555392735109831114925782458 313:1 6935:1 #
-0.22979555392735109831114925782458 536:1 844:1 6039:1 #
-0.22979555392735109831114925782458 168:1 853:1 966:1 1252:1 1504:1 5424:2 5974:1 #
0.22979555392735109831114925782458 550:1 977:1 1006:1 1700:1 3646:2 6840:1 10233:2 10555:1 20814:1 #
0.22979555392735109831114925782458 509:1 1238:1 1938:1 3385:1 4056:1 4057:1 #
0.22979555392735109831114925782458 227:1 979:1 5838:1 9181:1 #
0.22979555392735109831114925782458 556:1 896:1 2272:1 4319:1 #
0.22979555392735109831114925782458 622:1 841:1 3752:1 8424:1 #
-0.22979555392735109831114925782458 151:1 986:1 4319:1 4655:1 #
-0.22979555392735109831114925782458 224:1 550:1 1576:1 1776:1 2474:1 16561:1 25616:1 #
-0.22979555392735109831114925782458 247:1 541:1 556:1 4993:1 6578:1 #
-0.22979555392735109831114925782458 550:1 1514:1 #
-0.22979555392735109831114925782458 550:1 551:1 5065:1 9465:1 #
0.22979555392735109831114925782458 804:1 995:1 1771:1 3041:1 3108:1 #
0.22979555392735109831114925782458 547:1 1625:1 5383:1 9565:1 #
0.22979555392735109831114925782458 489:1 881:1 1365:1 3353:1 #
0.22979555392735109831114925782458 354:1 677:1 1006:1 2149:1 5054:1 9216:1 #
0.22979555392735109831114925782458 504:1 669:1 1373:1 1399:1 1792:1 2111:1 2687:1 2931:1 3097:1 3321:1 3719:1 5164:1 9044:1 9937:1 #
-0.22979555392735109831114925782458 3097:1 #
-0.22979555392735109831114925782458 1625:1 12559:1 #
-0.22979555392735109831114925782458 804:1 882:1 3940:1 #
-0.22979555392735109831114925782458 832:1 2268:1 3441:1 #
-0.22979555392735109831114925782458 1147:1 3151:1 3882:1 4080:1 #
0.22979555392735109831114925782458 1356:1 7106:1 #
0.22979555392735109831114925782458 256:1 701:2 1270:1 #
0.22979555392735109831114925782458 1081:1 1214:1 1921:1 5358:1 7674:1 9835:1 #
0.22979555392735109831114925782458 579:1 600:1 1077:1 1648:2 1718:2 3470:1 #
0.22979555392735109831114925782458 970:1 6935:1 9948:1 9949:1 #
-0.22979555392735109831114925782458 701:1 5520:1 #
-0.22979555392735109831114925782458 22:1 80:1 701:1 719:1 2085:1 2131:1 2462:1 #
-0.22979555392735109831114925782458 243:1 338:1 377:1 833:1 1005:1 1832:1 4887:1 7458:1 #
-0.22979555392735109831114925782458 3561:1 21673:1 #
-0.22979555392735109831114925782458 401:1 777:1 1166:1 1635:1 2900:1 8119:1 8153:1 13719:1 #
0.22979555392735109831114925782458 662:1 4808:1 7446:1 #
0.22979555392735109831114925782458 9155:1 #
0.22979555392735109831114925782458 405:1 544:1 813:2 895:1 1183:1 1365:1 2113:1 3665:1 3666:1 #
0.22979555392735109831114925782458 537:1 848:1 3223:1 7098:1 #
0.22979555392735109831114925782458 224:1 1486:1 2015:1 2933:1 6919:1 9994:1 #
-0.22979555392735109831114925782458 537:1 905:1 1086:1 1321:1 1365:1 1700:1 2355:2 6880:1 12813:1 #
-0.22979555392735109831114925782458 7273:1 #
-0.22979555392735109831114925782458 502:1 1519:1 #
-0.22979555392735109831114925782458 1507:1 3910:1 #
-0.22979555392735109831114925782458 309:1 394:1 881:1 2167:1 2500:1 #
0.22979555392735109831114925782458 338:1 970:1 1453:1 2786:1 #
0.22979555392735109831114925782458 2785:1 3017:1 5920:1 23173:1 #
0.22979555392735109831114925782458 2320:1 4478:1 6295:1 9366:1 22636:1 #
0.22979555392735109831114925782458 368:1 1153:1 2512:1 #
0.22979555392735109831114925782458 2948:1 #
-0.22979555392735109831114925782458 1453:1 1813:1 10526:3 #
-0.22979555392735109831114925782458 770:1 970:1 12467:1 #
-0.22979555392735109831114925782458 424:1 1470:1 1899:1 2786:1 2991:1 6088:2 9117:2 #
-0.22979555392735109831114925782458 1012:1 1199:1 1428:1 2948:1 3082:1 4993:1 5432:1 6223:1 #
-0.22979555392735109831114925782458 5:1 474:1 970:1 1201:1 1346:1 2309:1 2310:1 2427:1 10658:1 #
0.22979555392735109831114925782458 356:1 905:1 1025:1 2069:1 5867:1 8063:1 #
0.22979555392735109831114925782458 1456:1 1519:1 1732:1 1792:1 2123:1 3621:1 5299:1 14325:1 25259:1 #
0.22979555392735109831114925782458 875:1 1470:1 1569:1 1641:1 4033:1 21052:1 #
0.22979555392735109831114925782458 356:1 987:1 1938:1 #
0.22979555392735109831114925782458 266:1 1912:1 2085:1 5004:1 7117:1 #
-0.22979555392735109831114925782458 464:1 875:1 1458:1 10600:1 #
-0.22979555392735109831114925782458 1792:1 2223:1 4470:1 5317:1 #
-0.22979555392735109831114925782458 1177:1 17619:1 #
-0.22979555392735109831114925782458 471:1 1489:1 5296:1 11707:1 13722:1 #
-0.22979555392735109831114925782458 1489:1 5741:1 22400:1 #
0.22979555392735109831114925782458 669:1 9994:2 #
0.22979555392735109831114925782458 476:1 6311:1 12189:1 #
0.22979555392735109831114925782458 552:1 679:1 1287:1 1814:1 3270:1 5062:1 6188:1 6512:1 #
0.22979555392735109831114925782458 815:1 915:1 #
0.22979555392735109831114925782458 727:1 1295:1 1454:1 2408:1 3619:1 4701:1 6053:1 8350:1 #
-0.22979555392735109831114925782458 22:1 69:1 216:1 230:1 965:1 1506:1 1938:1 2016:1 2646:1 3682:1 8796:1 9124:1 9410:1 9994:2 #
0.22979555392735109831114925782458 242:1 1234:2 1840:1 2242:1 5974:1 9433:1 #
-0.22979555392735109831114925782458 1234:1 3638:1 4156:1 #
-0.22979555392735109831114925782458 1451:1 5272:1 21826:2 #
-0.22979555392735109831114925782458 1819:1 4327:1 9343:1 13581:1 #
-0.22979555392735109831114925782458 3764:1 #
-0.22979555392735109831114925782458 186:1 662:1 2121:1 6218:1 11387:1 #
0.22979555392735109831114925782458 321:1 1302:1 1938:1 2015:1 3861:1 6218:1 #
0.22979555392735109831114925782458 18:1 54:1 474:1 582:1 1099:1 2056:1 4922:1 #
0.22979555392735109831114925782458 2084:1 #
0.22979555392735109831114925782458 419:1 955:1 1077:1 1147:1 2575:2 3470:1 3932:1 4915:1 4916:1 4918:1 4919:1 #
0.22979555392735109831114925782458 137:1 1061:1 1069:1 1570:1 4051:1 4264:2 5164:1 6412:1 9671:2 #
-0.22979555392735109831114925782458 693:1 1302:1 6572:1 #
-0.22979555392735109831114925782458 336:1 504:1 937:1 #
-0.22979555392735109831114925782458 4112:1 #
-0.22979555392735109831114925782458 1073:1 9972:1 #
-0.22979555392735109831114925782458 291:1 306:1 438:1 530:1 939:1 3233:1 8670:1 10081:1 13258:1 #
0.22979555392735109831114925782458 1072:1 4341:1 8639:1 9353:1 #
0.22979555392735109831114925782458 667:1 1354:1 2153:1 3800:1 5220:1 6473:1 #
0.22979555392735109831114925782458 618:1 917:1 934:1 1290:1 1337:1 2016:1 6055:1 #
0.22979555392735109831114925782458 837:1 1157:1 1942:1 2407:1 2749:1 4306:1 #
0.22979555392735109831114925782458 1454:1 4454:1 4951:1 8962:1 #
-0.22979555392735109831114925782458 1281:1 2749:1 12758:1 #
-0.22979555392735109831114925782458 1454:1 9629:1 #
-0.22979555392735109831114925782458 334:1 1178:1 2030:1 2749:1 6875:1 7804:1 #
-0.22979555392735109831114925782458 324:1 953:1 1443:1 #
-0.22979555392735109831114925782458 1161:1 3950:1 3969:1 #
0.22979555392735109831114925782458 1938:1 3984:1 #
0.22979555392735109831114925782458 805:1 1504:1 7451:1 #
0.22979555392735109831114925782458 243:1 911:1 1537:1 3310:1 13720:1 #
0.22979555392735109831114925782458 1700:1 9671:1 #
0.22979555392735109831114925782458 924:1 1179:1 2211:1 2365:1 6033:1 17538:1 #
-0.22979555392735109831114925782458 405:2 759:1 933:1 1007:1 2703:1 9671:2 #
-0.22979555392735109831114925782458 590:1 1045:1 3178:1 3402:1 3670:1 3834:1 9671:1 #
-0.22979555392735109831114925782458 2239:1 #
-0.22979555392735109831114925782458 1364:1 16099:1 #
-0.22979555392735109831114925782458 420:1 1938:1 #
0.22979555392735109831114925782458 465:1 648:1 792:1 1126:1 1269:1 1346:1 1597:1 1818:1 3358:1 6241:1 8189:1 10965:1 17909:1 25377:1 25478:1 #
0.22979555392735109831114925782458 226:1 262:1 263:1 264:1 266:1 268:1 #
0.22979555392735109831114925782458 670:1 968:1 2120:1 3622:1 4879:1 21676:1 #
0.22979555392735109831114925782458 278:1 7516:1 10620:1 13079:1 15294:1 #
0.22979555392735109831114925782458 378:1 767:1 3441:1 #
-0.22979555392735109831114925782458 465:1 2881:1 6469:1 #
-0.22979555392735109831114925782458 3463:1 3622:1 6378:1 #
-0.22979555392735109831114925782458 178:1 268:1 802:1 #
-0.22979555392735109831114925782458 553:1 743:1 815:1 1119:2 #
-0.22979555392735109831114925782458 1702:1 2875:1 7033:1 #
0.22979555392735109831114925782458 917:1 5100:1 5651:1 13409:1 #
0.22979555392735109831114925782458 628:1 960:1 2465:1 2824:1 2970:1 4453:1 4774:1 11887:1 11888:1 11889:1 #
0.22979555392735109831114925782458 3972:1 7599:1 11449:1 #
0.22979555392735109831114925782458 823:1 917:1 924:1 932:1 987:1 1055:1 2224:1 3502:1 3503:1 3504:1 3505:1 #
0.22979555392735109831114925782458 22:1 798:1 844:1 896:1 1293:1 1504:1 13590:1 #
-0.22979555392735109831114925782458 224:1 987:1 2266:1 5220:2 9749:1 20433:2 #
-0.22979555392735109831114925782458 321:1 777:1 2645:1 #
-0.22979555392735109831114925782458 389:1 656:1 1274:1 1624:1 1840:1 1874:1 2925:1 6447:1 15045:1 #
-0.22979555392735109831114925782458 1241:1 1610:1 2320:1 9994:1 #
-0.22979555392735109831114925782458 2247:1 2488:1 4581:1 #
0.22979555392735109831114925782458 659:1 805:1 1921:2 2237:1 4084:1 5259:1 9989:1 #
0.22979555392735109831114925782458 541:1 599:1 1365:1 2543:1 8444:1 #
0.22979555392735109831114925782458 1230:1 1630:1 1915:1 3805:1 14569:1 #
0.22979555392735109831114925782458 2951:2 #
0.22979555392735109831114925782458 661:1 896:1 1111:2 1172:1 1427:2 2079:1 3950:2 #
-0.22979555392735109831114925782458 835:1 1181:1 1487:1 1915:1 16116:1 #
-0.22979555392735109831114925782458 699:1 800:1 1269:1 1295:1 1745:1 2173:1 2625:1 5259:1 14354:1 15864:1 #
-0.22979555392735109831114925782458 3505:1 #
-0.22979555392735109831114925782458 2323:1 #
-0.22979555392735109831114925782458 332:1 2640:1 2768:1 4723:1 8415:1 #
0.22979555392735109831114925782458 987:1 2313:1 12517:1 #
0.22979555392735109831114925782458 247:1 743:1 1895:1 3310:1 3882:1 3883:1 #
0.22979555392735109831114925782458 416:1 788:1 1312:1 1504:1 1733:1 2340:1 3514:1 4214:1 4540:1 #
0.22979555392735109831114925782458 219:1 815:1 1830:1 2211:1 3167:1 #
0.22979555392735109831114925782458 897:1 4243:1 26641:1 #
-0.22979555392735109831114925782458 612:1 1048:1 1830:1 2939:1 7907:1 #
-0.22979555392735109831114925782458 1830:1 2329:1 #
-0.22979555392735109831114925782458 2340:1 #
-0.22979555392735109831114925782458 923:1 1238:1 2873:1 12089:1 13827:1 #
-0.22979555392735109831114925782458 4584:1 7927:1 13766:1 #
0.22979555392735109831114925782458 354:1 662:1 677:1 2047:1 3052:1 4023:1 10744:1 #
0.22979555392735109831114925782458 37:1 914:2 #
0.22979555392735109831114925782458 521:1 1279:1 9486:1 #
0.22979555392735109831114925782458 420:1 633:1 990:1 1736:1 1793:1 4693:1 4993:1 7640:1 9808:1 9853:1 #
0.22979555392735109831114925782458 987:1 1230:1 1915:1 10241:1 #
-0.22979555392735109831114925782458 745:1 2965:1 4170:1 4556:1 7909:1 #
-0.22979555392735109831114925782458 1597:1 2966:1 7233:1 7523:1 10872:1 #
-0.22979555392735109831114925782458 618:1 #
-0.22979555392735109831114925782458 915:1 1464:1 2199:1 2752:1 3339:1 11190:1 12690:1 #
-0.22979555392735109831114925782458 619:1 790:1 #
0.22979555392735109831114925782458 8633:1 8876:1 #
0.22979555392735109831114925782458 1769:1 2431:1 8150:2 8152:1 #
0.22979555392735109831114925782458 222:1 1157:1 1179:1 1269:1 1565:1 2201:1 2313:1 2341:1 3571:1 4215:1 4216:1 4217:1 4218:1 #
0.22979555392735109831114925782458 426:1 1758:1 3456:1 4752:1 4936:1 4937:1 4938:1 4939:1 #
-0.22979555392735109831114925782458 426:1 963:1 1680:1 #
-0.22979555392735109831114925782458 309:1 1179:1 1191:1 5086:1 6893:1 6894:2 6895:1 #
-0.22979555392735109831114925782458 2560:1 2802:1 2833:1 11136:1 #
-0.22979555392735109831114925782458 636:1 637:1 #
-0.22979555392735109831114925782458 263:1 801:1 4429:1 7050:1 #
0.22979555392735109831114925782458 #
0.22979555392735109831114925782458 257:1 937:1 1271:1 2121:1 2256:1 2786:1 10311:1 #
0.22979555392735109831114925782458 616:1 1292:1 1364:1 3097:1 #
0.22979555392735109831114925782458 911:1 1451:1 1840:1 2141:1 2609:1 4280:1 6062:1 #
0.22979555392735109831114925782458 2951:2 3441:2 3983:2 #
-0.22979555392735109831114925782458 43:1 268:1 482:1 616:1 822:1 832:1 3097:1 3441:2 4001:1 12182:1 12536:1 #
-0.22979555392735109831114925782458 204:1 262:1 1031:1 1504:1 3441:1 5439:1 5440:1 #
-0.22979555392735109831114925782458 257:1 482:1 1055:1 1081:1 1758:1 1814:1 12549:1 #
-0.22979555392735109831114925782458 1271:1 6485:1 #
-0.22979555392735109831114925782458 325:1 2786:1 7173:1 12176:1 #
0.22979555392735109831114925782458 207:1 416:1 1122:1 1380:1 1453:1 1819:1 4270:1 6974:1 10935:1 #
0.22979555392735109831114925782458 1141:1 2786:1 6934:1 8370:1 #
0.22979555392735109831114925782458 137:1 743:1 1943:1 2572:1 #
0.22979555392735109831114925782458 719:1 1214:1 1642:1 1771:1 3763:1 5586:1 6973:1 7098:1 9528:1 11852:1 16635:1 #
0.22979555392735109831114925782458 569:1 2425:1 17872:1 #
-0.22979555392735109831114925782458 1141:1 #
0.22979555392735109831114925782458 222:1 234:1 388:1 464:1 1219:1 1458:1 1519:1 1842:1 2719:1 2797:1 4179:1 #
-0.22979555392735109831114925782458 553:1 719:1 763:1 924:1 2133:1 3758:1 19310:1 #
-0.22979555392735109831114925782458 144:1 1076:1 1642:1 3673:1 5726:1 9752:1 15240:1 15350:1 #
-0.22979555392735109831114925782458 418:1 2425:1 3798:1 #
-0.22979555392735109831114925782458 569:1 #
-0.22979555392735109831114925782458 1840:1 2028:1 6268:1 #
0.22979555392735109831114925782458 196:1 226:1 615:1 616:1 617:1 618:1 619:1 #
0.22979555392735109831114925782458 1042:1 1351:1 1590:1 2042:1 6631:1 #
0.22979555392735109831114925782458 161:1 779:1 1799:1 2035:1 2036:1 4254:1 7844:1 #
0.22979555392735109831114925782458 246:1 960:1 1251:1 2603:1 2752:1 5122:1 7458:1 9119:1 #
0.22979555392735109831114925782458 550:1 669:1 851:1 1402:1 1526:2 2149:2 2866:1 2867:1 #
-0.22979555392735109831114925782458 356:1 767:1 833:1 1526:1 1643:1 2303:1 3054:1 21259:1 #
-0.22979555392735109831114925782458 2867:1 3336:1 5809:1 #
-0.22979555392735109831114925782458 1799:1 2932:1 14858:1 #
-0.22979555392735109831114925782458 858:1 1696:1 2913:1 5735:1 #
-0.22979555392735109831114925782458 846:1 1110:1 1172:1 1454:1 1842:1 2120:1 4474:1 #
0.22979555392735109831114925782458 693:1 829:1 2272:1 #
0.22979555392735109831114925782458 351:1 394:1 1642:1 #
0.22979555392735109831114925782458 801:1 1267:1 1329:1 1926:1 3113:1 7081:1 #
0.22979555392735109831114925782458 553:1 982:1 983:1 1230:1 2274:1 2494:1 #
0.22979555392735109831114925782458 2711:1 9795:1 #
-0.22979555392735109831114925782458 18:1 924:1 2711:1 2796:1 5486:1 #
-0.22979555392735109831114925782458 420:1 804:1 1915:1 3924:1 5244:1 10534:1 10535:1 14876:1 #
-0.22979555392735109831114925782458 792:1 1519:1 9790:1 #
-0.22979555392735109831114925782458 661:1 1364:1 1582:1 2141:1 6669:1 #
-0.22979555392735109831114925782458 1915:1 2765:1 4386:1 19002:1 19006:1 #
0.22979555392735109831114925782458 126:1 547:1 815:1 1193:1 1813:1 12436:1 #
0.22979555392735109831114925782458 738:1 1062:2 1393:1 1895:1 2313:1 2743:1 3208:1 3358:1 3882:1 3883:1 4216:1 4684:1 10462:1 21063:1 25377:1 #
0.22979555392735109831114925782458 582:1 698:1 1099:1 6081:1 #
0.22979555392735109831114925782458 1095:1 1599:1 2489:1 3036:1 4324:1 11763:1 #
0.22979555392735109831114925782458 2933:1 2951:2 3989:1 5603:1 #
-0.22979555392735109831114925782458 375:1 1098:1 1319:1 1831:1 2735:1 5162:1 9111:1 9567:1 #
-0.22979555392735109831114925782458 1426:1 1537:1 1823:1 1863:1 3246:1 #
-0.22979555392735109831114925782458 37:1 354:1 2263:1 9139:1 10152:1 10155:1 #
-0.22979555392735109831114925782458 1177:1 3435:1 3882:1 3883:1 9994:1 #
-0.22979555392735109831114925782458 934:2 1098:1 3841:1 #
0.22979555392735109831114925782458 426:1 2326:1 2410:1 2583:1 4478:1 4951:1 5058:1 #
0.22979555392735109831114925782458 43:1 6320:1 6402:1 8931:1 9528:1 14309:1 #
0.22979555392735109831114925782458 187:1 1652:1 2272:1 3016:1 5101:1 6863:1 #
0.22979555392735109831114925782458 279:1 1630:1 2785:1 4036:1 7941:1 20449:1 #
0.22979555392735109831114925782458 562:1 1691:1 3054:1 9754:1 16140:1 16141:1 #
-0.22979555392735109831114925782458 337:1 633:1 881:1 987:1 1489:1 1614:1 2272:1 2364:1 2468:1 3805:1 4804:1 8456:1 13092:1 #
0.22979555392735109831114925782458 619:1 1149:1 6768:1 #
-0.22979555392735109831114925782458 1630:1 20730:1 #
-0.22979555392735109831114925782458 619:1 1917:1 6478:1 #
-0.22979555392735109831114925782458 1335:2 2506:1 2951:1 3016:2 3944:1 10942:1 #
-0.22979555392735109831114925782458 541:1 667:1 777:1 891:1 895:1 1074:1 1149:1 4948:1 5228:1 9794:1 10929:1 12089:1 #
-0.22979555392735109831114925782458 2490:1 #
0.22979555392735109831114925782458 1576:1 2946:1 #
0.22979555392735109831114925782458 667:1 763:1 801:1 1068:1 1442:1 1565:1 3117:1 5257:1 5538:1 5934:1 14389:1 #
0.22979555392735109831114925782458 616:1 1109:1 4646:1 9671:1 9924:1 10536:1 #
0.22979555392735109831114925782458 652:1 1141:1 2077:1 2266:1 3184:1 5164:1 11728:1 #
0.22979555392735109831114925782458 207:1 2498:1 2499:1 2500:1 #
-0.22979555392735109831114925782458 207:1 #
0.22979555392735109831114925782458 1850:1 5765:1 5766:1 #
-0.22979555392735109831114925782458 229:1 616:1 1201:1 2838:1 3815:1 4916:1 13452:1 #
0.22979555392735109831114925782458 8542:1 11266:1 #
-0.22979555392735109831114925782458 426:1 632:1 2077:1 2182:1 2361:1 3395:1 5968:1 6242:3 11900:1 18272:1 #
0.22979555392735109831114925782458 341:1 1793:1 1951:1 2121:1 5600:1 12742:1 14531:1 #
-0.22979555392735109831114925782458 389:1 937:1 1270:1 1910:1 1970:1 2121:1 #
0.22979555392735109831114925782458 3279:1 #
-0.22979555392735109831114925782458 #
0.22979555392735109831114925782458 695:1 2544:1 2662:1 22975:1 #
-0.22979555392735109831114925782458 2662:1 #
0.22979555392735109831114925782458 2077:1 14670:1 20646:1 #
-0.22979555392735109831114925782458 2972:1 7256:1 8487:1 #
0.22979555392735109831114925782458 378:1 757:1 1442:1 1595:1 2272:1 3321:1 3899:1 4697:1 8995:1 10238:1 #
-0.22979555392735109831114925782458 207:1 378:1 562:1 661:1 1287:1 1364:1 5114:1 7451:1 8074:1 9852:1 9923:1 9924:1 #
0.22979555392735109831114925782458 67:1 1246:1 1291:1 1704:1 5408:1 5409:1 #
-0.22979555392735109831114925782458 #
0.22979555392735109831114925782458 719:1 779:1 1983:1 9331:1 13406:1 18095:1 23991:1 #
-0.22979555392735109831114925782458 10309:1 #
0.22979555392735109831114925782458 1094:1 1201:1 1364:1 2272:1 15747:1 #
-0.22979555392735109831114925782458 115:1 1831:1 2272:1 4087:1 11116:1 #
0.22979555392735109831114925782458 982:1 1470:1 2614:1 2873:1 3146:1 3424:1 3719:1 3895:1 15626:1 #
-0.22979555392735109831114925782458 982:1 983:1 2607:1 2783:1 3176:1 3803:1 3972:1 11115:1 20457:1 #
0.22979555392735109831114925782458 331:1 482:1 541:1 648:1 1001:1 #
-0.22979555392735109831114925782458 941:1 1001:1 1060:1 3950:1 4378:1 #
0.22979555392735109831114925782458 3402:1 5219:1 6242:1 9798:1 #
-0.22979555392735109831114925782458 405:1 1380:1 3101:1 3773:1 5219:1 7953:1 8350:1 #
0.22979555392735109831114925782458 1427:1 7245:1 #
-0.22979555392735109831114925782458 271:1 684:1 970:1 1337:1 1546:1 1797:2 2079:1 2554:1 #
0.22979555392735109831114925782458 224:1 1624:1 2933:1 5286:1 16101:1 #
-0.22979555392735109831114925782458 #
0.22979555392735109831114925782458 43:1 3764:1 7406:1 8431:1 8931:1 9528:1 14309:1 #
-0.22979555392735109831114925782458 43:1 1428:1 1674:1 3932:1 13635:1 13636:1 #
0.22979555392735109831114925782458 97:1 447:1 1307:1 2121:1 3638:1 12625:1 #
-0.22979555392735109831114925782458 231:1 564:1 743:1 1153:1 1307:1 1944:1 2227:1 4040:1 #
0.22979555392735109831114925782458 2009:1 #
-0.22979555392735109831114925782458 97:1 591:1 730:1 1062:1 #
0.22979555392735109831114925782458 980:1 982:1 2775:1 3840:1 7117:1 11842:1 #
-0.22979555392735109831114925782458 338:1 373:1 447:1 1102:1 1309:1 1321:1 1417:2 2199:1 6403:1 8996:1 13199:1 #
0.22979555392735109831114925782458 600:1 1290:1 3529:1 5689:1 #
-0.22979555392735109831114925782458 24770:2 #
0.22979555392735109831114925782458 650:1 657:1 658:1 659:1 661:1 #
-0.22979555392735109831114925782458 1513:1 4234:1 #
0.22979555392735109831114925782458 524:1 4683:1 4868:1 9756:1 9942:1 9943:1 9944:1 #
-0.22979555392735109831114925782458 7274:1 9685:1 23693:1 #
0.22979555392735109831114925782458 344:1 832:1 2831:1 3310:1 12182:1 #
-0.22979555392735109831114925782458 998:1 2074:1 #
0.22979555392735109831114925782458 1125:1 1513:1 7300:1 9675:1 16406:1 21598:1 #
-0.22979555392735109831114925782458 #
0.22979555392735109831114925782458 2092:1 2093:1 3882:1 9671:1 #
-0.22979555392735109831114925782458 187:1 #
0.22979555392735109831114925782458 1779:1 1780:1 #
-0.22979555392735109831114925782458 986:1 #
0.22979555392735109831114925782458 380:1 4876:1 5304:1 6047:1 #
-0.22979555392735109831114925782458 380:1 10731:1 #
0.22979555392735109831114925782458 5:1 544:1 734:1 2408:1 2847:1 #
-0.22979555392735109831114925782458 5:2 924:1 1442:1 2333:1 2627:2 5134:1 #
0.22979555392735109831114925782458 887:1 980:1 2121:1 6295:1 #
-0.22979555392735109831114925782458 1358:1 2121:1 3470:1 #
0.22979555392735109831114925782458 60:1 1077:1 1482:1 1785:1 3470:1 3530:1 5317:1 #
-0.22979555392735109831114925782458 650:1 729:1 806:1 987:1 3750:1 5317:1 6352:1 11545:1 18175:1 #
0.22979555392735109831114925782458 512:1 807:1 1141:1 2593:2 2946:1 3528:1 #
-0.22979555392735109831114925782458 353:1 512:1 911:1 1141:1 1971:1 3479:1 4089:1 4667:1 #
0.22979555392735109831114925782458 262:1 1293:1 1364:1 2176:1 3355:1 3442:1 4461:1 4462:1 #
-0.22979555392735109831114925782458 1348:1 #
0.22979555392735109831114925782458 368:1 567:1 1144:1 #
-0.22979555392735109831114925782458 #
0.22979555392735109831114925782458 509:1 780:1 2277:1 3422:1 3703:1 4829:1 6016:1 9922:1 16816:1 24086:1 24087:1 #
-0.22979555392735109831114925782458 1952:1 22836:1 #
0.22979555392735109831114925782458 345:1 1246:1 1899:1 3156:1 4089:1 #
-0.22979555392735109831114925782458 752:1 #
0.22979555392735109831114925782458 196:1 1001:1 1942:1 4683:1 26235:1 #
-0.22979555392735109831114925782458 1942:1 2637:1 4057:1 9083:1 9753:1 #
-0.22979555392735109831114925782458 1001:1 1895:1 5815:1 #
-0.22979555392735109831114925782458 306:1 1549:1 1743:1 2009:1 19722:1 #
-0.22979555392735109831114925782458 1941:1 11249:1 25511:1 #
-0.22979555392735109831114925782458 4438:1 5427:1 #
0.22979555392735109831114925782458 118:1 731:1 1102:1 1345:1 2743:1 4749:1 8555:1 #
0.22979555392735109831114925782458 1320:1 4111:1 4179:1 4454:1 4951:2 8962:1 #
0.22979555392735109831114925782458 375:1 1112:1 2439:1 2786:1 5070:1 #
0.22979555392735109831114925782458 1856:1 1956:1 2689:1 #
0.22979555392735109831114925782458 1086:1 1402:1 1444:1 2015:1 2131:2 4812:1 #
-0.22979555392735109831114925782458 1039:1 1086:1 2580:1 #
0.22979555392735109831114925782458 471:1 983:1 1466:1 1655:1 2919:1 4245:1 #
-0.22979555392735109831114925782458 334:1 1320:1 1343:1 3131:1 #
0.22979555392735109831114925782458 1095:1 1294:1 1373:1 1844:1 2009:1 #
-0.22979555392735109831114925782458 4503:1 8555:1 22757:1 #
-0.22979555392735109831114925782458 811:1 1095:1 4654:1 5231:1 10861:1 #
-0.22979555392735109831114925782458 129:1 293:1 940:1 1095:1 3768:1 5172:1 #
-0.22979555392735109831114925782458 80:1 650:1 729:1 864:1 1246:1 2015:3 2104:1 #
-0.22979555392735109831114925782458 1956:1 4697:1 23707:1 #
0.22979555392735109831114925782458 369:1 610:2 775:1 1494:1 2120:1 3979:1 5946:1 #
0.22979555392735109831114925782458 173:1 231:1 313:1 1010:1 1260:1 2391:1 2921:1 3897:1 6673:1 11845:1 #
0.22979555392735109831114925782458 344:1 832:1 2831:1 2948:1 3310:1 #
0.22979555392735109831114925782458 268:1 401:1 433:1 699:1 4114:1 4880:1 5435:1 9767:1 12643:1 18354:1 #
0.22979555392735109831114925782458 433:1 604:1 895:1 1126:1 1573:1 1732:1 2079:1 6060:1 9895:1 12643:1 13224:1 #
-0.22979555392735109831114925782458 333:1 3979:1 #
0.22979555392735109831114925782458 16816:1 22508:1 #
-0.22979555392735109831114925782458 679:1 832:1 21977:1 #
0.22979555392735109831114925782458 701:1 833:1 1122:1 12089:1 #
-0.22979555392735109831114925782458 815:1 1102:1 1486:1 1820:1 1844:1 2085:1 2103:1 #
0.22979555392735109831114925782458 2675:1 3156:1 4762:1 4976:1 5071:1 5725:1 6787:1 #
-0.22979555392735109831114925782458 401:1 917:1 1758:1 2774:1 3456:1 6289:1 10305:1 11852:1 13943:1 15765:1 18767:1 #
0.22979555392735109831114925782458 80:1 309:1 380:1 1364:1 3527:1 3633:1 3940:1 7604:1 7605:1 #
-0.22979555392735109831114925782458 279:1 347:1 380:1 544:1 1291:1 1953:1 2454:1 5444:1 8736:1 20407:1 #
0.22979555392735109831114925782458 369:1 627:1 833:1 1246:1 1823:1 2691:1 17387:1 #
-0.22979555392735109831114925782458 627:1 5023:1 11662:1 #
0.22979555392735109831114925782458 386:1 581:1 954:1 1679:1 5239:1 7050:1 7196:1 #
-0.22979555392735109831114925782458 3539:1 4152:1 13116:1 14058:1 20444:1 #
0.22979555392735109831114925782458 5535:1 6322:1 #
-0.22979555392735109831114925782458 893:1 1249:1 6657:1 11628:1 #
0.22979555392735109831114925782458 347:1 742:1 1294:1 1743:1 2105:1 2121:1 2124:1 2652:1 5366:1 8817:1 13167:1 21561:1 #
-0.22979555392735109831114925782458 1313:1 2088:1 5313:1 7870:1 13755:1 #
0.22979555392735109831114925782458 921:1 1141:1 1257:1 2028:1 #
-0.22979555392735109831114925782458 875:1 #
0.22979555392735109831114925782458 616:1 1519:1 1781:1 1782:1 3092:1 3538:1 #
-0.22979555392735109831114925782458 219:1 470:1 744:1 980:1 1393:1 1519:1 2941:1 9543:1 #
0.22979555392735109831114925782458 648:1 3658:1 6375:1 7472:1 9994:1 14087:1 #
-0.22979555392735109831114925782458 20086:1 #
0.22979555392735109831114925782458 663:1 1110:1 1181:1 1287:1 3224:1 3916:1 6473:1 9231:1 25609:4 25610:1 #
-0.22979555392735109831114925782458 1110:1 1642:1 #
0.22979555392735109831114925782458 1337:1 2158:1 2483:1 2691:1 3834:1 12102:1 #
-0.22979555392735109831114925782458 1216:1 1573:1 3834:1 9895:1 #
0.22979555392735109831114925782458 823:1 2933:1 2951:2 3989:1 5603:1 #
-0.22979555392735109831114925782458 1314:1 #
0.22979555392735109831114925782458 102:1 405:1 636:1 763:1 1102:1 1513:1 2073:1 8058:1 9200:1 #
-0.22979555392735109831114925782458 763:1 4091:1 19262:1 #
0.22979555392735109831114925782458 3563:1 10639:1 #
-0.22979555392735109831114925782458 4627:1 6713:1 #
0.22979555392735109831114925782458 1183:1 6376:1 7658:1 #
-0.22979555392735109831114925782458 290:1 744:1 1546:1 2691:1 19335:1 #
0.22979555392735109831114925782458 224:1 930:1 1114:1 1115:1 1292:1 2277:1 2392:1 3213:1 6942:1 8603:1 #
-0.22979555392735109831114925782458 617:1 823:1 858:1 1073:1 1114:1 1115:1 1436:1 1729:1 2097:1 3186:1 3869:1 #
0.22979555392735109831114925782458 1086:1 1630:1 2174:2 14530:1 #
-0.22979555392735109831114925782458 1086:1 3431:1 #
0.22979555392735109831114925782458 1141:1 #
-0.22979555392735109831114925782458 22:1 590:1 1141:1 2476:1 #
0.22979555392735109831114925782458 1732:1 1744:1 7189:1 7190:1 #
-0.22979555392735109831114925782458 14117:1 #
0.22979555392735109831114925782458 66:1 581:1 972:1 1102:1 1470:1 2459:1 2560:1 #
-0.22979555392735109831114925782458 332:1 356:1 581:1 770:1 3146:1 14715:1 #
0.22979555392735109831114925782458 338:1 1507:1 2652:1 3921:1 17538:1 #
-0.22979555392735109831114925782458 8649:1 #
0.22979555392735109831114925782458 696:1 954:1 1340:1 4008:1 4014:1 5207:1 5718:1 17520:1 #
-0.22979555392735109831114925782458 4008:1 4009:1 4010:1 #
0.22979555392735109831114925782458 507:1 590:1 627:1 661:1 964:1 1158:1 1537:1 2224:1 2839:1 3165:1 3674:1 5438:1 5682:1 #
-0.22979555392735109831114925782458 577:1 1316:1 2224:1 2781:1 3138:1 4211:1 5648:1 8140:1 8965:1 #
0.22979555392735109831114925782458 242:1 1020:1 1345:1 2755:1 2786:1 4647:1 5387:1 7560:1 8344:1 #
-0.22979555392735109831114925782458 1482:1 1537:1 2200:1 2785:1 3143:1 3770:1 4498:1 #
0.22979555392735109831114925782458 3144:1 5209:1 8417:1 20492:1 #
-0.22979555392735109831114925782458 204:1 321:2 375:1 391:1 813:2 840:1 947:1 1062:1 1102:1 1170:1 1345:1 1793:1 #
0.22979555392735109831114925782458 795:1 924:1 983:1 1758:1 2099:1 4207:1 5909:1 #
-0.22979555392735109831114925782458 #
0.22979555392735109831114925782458 3942:1 4442:2 #
-0.22979555392735109831114925782458 1606:1 3364:1 #
0.22979555392735109831114925782458 89:1 263:1 905:1 970:1 1739:1 2931:1 7647:1 9211:1 14846:1 16433:1 #
-0.22979555392735109831114925782458 553:1 905:1 2121:1 2919:1 3136:1 #
0.22979555392735109831114925782458 22:1 930:1 3146:1 3408:1 5671:1 #
-0.22979555392735109831114925782458 1431:1 #
-0.22979555392735109831114925782458 491:1 946:1 1888:1 #
-0.22979555392735109831114925782458 447:1 896:1 966:1 2277:1 #
0.22979555392735109831114925782458 324:1 1814:1 11326:1 13114:1 13854:1 #
-0.22979555392735109831114925782458 324:1 2002:1 #
0.22979555392735109831114925782458 2679:1 9753:1 #
-0.22979555392735109831114925782458 #
0.22979555392735109831114925782458 356:1 905:1 1025:1 2069:1 3097:1 5867:1 8063:1 #
-0.22979555392735109831114925782458 #
0.22979555392735109831114925782458 4264:1 9052:1 9669:1 10801:1 10935:1 #
-0.22979555392735109831114925782458 1741:1 15710:1 #
0.22979555392735109831114925782458 291:1 424:2 1294:1 1443:1 1832:1 2785:1 3645:1 6842:1 7326:1 8141:1 #
-0.22979555392735109831114925782458 #
0.22979555392735109831114925782458 18:1 358:1 504:1 667:1 1151:1 2224:1 #
-0.22979555392735109831114925782458 6933:1 #
0.22979555392735109831114925782458 1643:1 1711:1 5882:1 6941:2 14844:1 #
-0.22979555392735109831114925782458 169:1 2912:1 6693:1 #
0.22979555392735109831114925782458 506:1 1163:1 1164:2 #
-0.22979555392735109831114925782458 #
0.22979555392735109831114925782458 67:1 115:1 7372:1 8677:1 14975:1 17538:2 18229:1 #
-0.22979555392735109831114925782458 67:1 259:1 524:1 743:1 983:1 2169:1 #
0.22979555392735109831114925782458 22:1 378:1 799:1 939:1 3195:1 4268:1 12733:1 #
-0.22979555392735109831114925782458 939:1 #
0.22979555392735109831114925782458 1180:1 1451:1 5459:1 13756:1 #
-0.22979555392735109831114925782458 378:1 509:1 541:1 600:1 628:1 1901:1 2009:1 2214:1 2259:1 3677:1 3678:1 #
0.22979555392735109831114925782458 2703:1 4948:1 6212:1 #
-0.22979555392735109831114925782458 22:2 369:1 1106:1 1343:1 1520:1 1786:1 4096:1 8590:1 8827:1 #
0.22979555392735109831114925782458 924:1 1068:1 1642:1 1830:1 3501:1 #
0.22979555392735109831114925782458 22:1 422:1 524:1 528:1 833:1 1582:1 2153:1 4478:1 16115:1 #
-0.22979555392735109831114925782458 1506:1 1630:1 1702:1 1743:1 3591:1 #
-0.22979555392735109831114925782458 242:1 1685:1 2692:1 2823:1 2824:1 14394:1 17619:1 #
0.22979555392735109831114925782458 1084:1 1594:1 1741:1 2823:1 #
-0.22979555392735109831114925782458 16768:1 #
0.22979555392735109831114925782458 680:2 917:1 955:2 1685:1 1911:1 1943:1 5254:1 #
-0.22979555392735109831114925782458 18:1 7936:1 #
0.22979555392735109831114925782458 190:1 389:1 712:2 979:1 1243:1 2277:1 2609:1 4288:1 5736:1 15807:1 #
-0.22979555392735109831114925782458 #
0.22979555392735109831114925782458 661:1 743:1 967:1 2111:1 2272:1 2332:1 2719:1 3510:1 #
-0.22979555392735109831114925782458 981:1 12099:1 #
0.22979555392735109831114925782458 2652:1 2933:1 #
-0.22979555392735109831114925782458 #
0.22979555392735109831114925782458 564:1 618:1 620:1 1183:1 4091:1 8432:1 #
-0.22979555392735109831114925782458 8922:1 #
0.22979555392735109831114925782458 225:1 354:1 577:1 1181:1 1380:1 1442:1 1794:1 1795:1 1983:1 2085:1 5483:1 8113:1 9164:1 #
-0.22979555392735109831114925782458 168:1 1074:1 3050:1 4683:1 6187:1 6721:1 #
0.22979555392735109831114925782458 896:3 2015:1 4654:1 15664:1 #
-0.22979555392735109831114925782458 7449:1 #
0.22979555392735109831114925782458 737:1 1269:1 1520:1 1631:1 3883:1 4868:1 6072:1 8052:1 #
-0.22979555392735109831114925782458 3620:1 #
0.22979555392735109831114925782458 404:1 405:2 418:1 777:1 807:1 1216:1 1359:1 1582:1 2332:1 2932:1 3224:1 5957:1 14858:1 #
-0.22979555392735109831114925782458 350:1 628:1 807:1 844:1 953:1 1387:1 1464:1 2332:1 14404:1 14863:1 #
0.22979555392735109831114925782458 160:1 1189:1 1638:1 3754:1 6162:1 #
-0.22979555392735109831114925782458 1359:1 13027:1 #
0.22979555392735109831114925782458 1209:1 1235:1 3756:1 5689:1 #
-0.22979555392735109831114925782458 160:1 405:1 1147:1 1763:1 #
0.22979555392735109831114925782458 224:1 1291:1 1356:1 1408:1 5809:1 13075:1 #
-0.22979555392735109831114925782458 223:1 699:1 990:1 1086:1 2839:1 8815:1 18199:1 #
0.22979555392735109831114925782458 840:1 934:1 2478:1 4288:1 5946:1 6768:1 #
-0.22979555392735109831114925782458 1741:1 2120:1 8358:1 10074:1 15678:1 #
0.22979555392735109831114925782458 2065:1 9738:1 13407:1 #
-0.22979555392735109831114925782458 #
0.22979555392735109831114925782458 22:1 895:1 1308:1 1364:1 1470:1 1582:1 1724:1 1895:1 4490:1 5392:2 5752:2 6472:1 7533:1 #
-0.22979555392735109831114925782458 401:1 422:1 729:1 792:1 815:1 1111:1 1141:1 1158:1 1364:1 1685:1 2581:1 2765:1 4375:1 5760:1 5762:1 5763:1 #
0.22979555392735109831114925782458 504:1 780:1 2277:2 4829:1 4910:1 9922:1 13089:1 24086:1 24087:1 #
0.22979555392735109831114925782458 744:1 1499:1 1921:1 2391:1 2875:1 3136:2 4589:1 19693:1 #
-0.22979555392735109831114925782458 504:1 1072:2 2718:1 15762:1 #
0.22979555392735109831114925782458 218:1 234:1 627:1 893:1 5135:1 5137:1 #
-0.22979555392735109831114925782458 4102:1 12807:1 #
0.22979555392735109831114925782458 287:1 288:1 731:1 7002:2 7003:2 7004:1 #
-0.22979555392735109831114925782458 12386:1 12562:1 #
0.22979555392735109831114925782458 555:1 701:1 1373:1 4709:1 17627:1 #
-0.22979555392735109831114925782458 #
0.22979555392735109831114925782458 5810:1 9791:1 11146:1 #
-0.22979555392735109831114925782458 687:1 #
0.22979555392735109831114925782458 992:1 1711:1 11386:1 #
-0.22979555392735109831114925782458 992:1 1964:1 16572:1 16573:1 16574:1 16575:1 #
0.22979555392735109831114925782458 207:1 509:1 544:1 924:1 1173:1 1307:1 1546:1 2367:1 3370:1 5403:1 7676:1 9016:1 9017:1 #
-0.22979555392735109831114925782458 161:1 1173:1 2488:1 #
0.22979555392735109831114925782458 194:1 4164:1 9810:1 #
-0.22979555392735109831114925782458 924:1 1251:1 15507:1 #
0.22979555392735109831114925782458 389:1 10092:1 #
-0.22979555392735109831114925782458 246:1 8076:1 #
0.22979555392735109831114925782458 196:1 1377:1 2721:1 2722:1 6111:1 9183:1 13001:1 #
-0.22979555392735109831114925782458 196:1 354:1 562:1 4432:1 #
0.22979555392735109831114925782458 1081:1 1234:1 1338:3 1549:1 2627:1 3402:1 #
-0.22979555392735109831114925782458 3402:1 #
0.22979555392735109831114925782458 805:1 2931:1 3522:1 12360:1 12402:1 17890:1 #
-0.22979555392735109831114925782458 1520:1 3609:1 4347:1 5606:1 #
0.22979555392735109831114925782458 675:1 858:1 1569:1 1654:1 2970:1 #
-0.22979555392735109831114925782458 #
0.22979555392735109831114925782458 627:1 1345:2 1826:1 4988:1 5527:1 6849:1 8124:1 9138:1 20900:1 #
-0.22979555392735109831114925782458 331:1 858:1 1189:1 1826:1 6541:1 14800:1 #
0.22979555392735109831114925782458 1247:1 1700:1 4947:1 #
-0.22979555392735109831114925782458 368:1 1152:1 12544:1 #
0.22979555392735109831114925782458 112:1 1377:1 1630:1 3979:1 #
-0.22979555392735109831114925782458 8172:1 8533:1 10702:1 #
0.22979555392735109831114925782458 290:1 1528:1 2085:1 3105:1 3622:1 5087:1 9614:1 #
-0.22979555392735109831114925782458 1799:1 2085:1 2332:1 7954:1 #
0.22979555392735109831114925782458 211:1 840:1 955:1 1249:1 1648:1 1718:1 2028:1 2825:1 #
-0.22979555392735109831114925782458 #
0.22979555392735109831114925782458 224:1 567:1 4442:1 #
-0.22979555392735109831114925782458 471:1 3054:1 4562:1 #
0.22979555392735109831114925782458 242:1 818:1 1302:1 1610:1 4384:1 #
-0.22979555392735109831114925782458 #
0.22979555392735109831114925782458 1739:1 3488:1 3529:1 #
-0.22979555392735109831114925782458 #
0.22979555392735109831114925782458 690:1 939:1 22056:1 #
-0.22979555392735109831114925782458 649:1 1247:1 5113:1 #
0.22979555392735109831114925782458 268:1 1068:1 1476:1 1758:1 5728:1 #
-0.22979555392735109831114925782458 #
0.22979555392735109831114925782458 1813:1 2064:1 7274:1 9687:1 11944:1 #
-0.22979555392735109831114925782458 207:1 2064:1 2780:1 3682:1 4683:1 #
0.22979555392735109831114925782458 1504:1 6845:1 20462:1 20463:1 20663:1 #
-0.22979555392735109831114925782458 178:1 1175:1 1476:1 1504:1 1682:1 1956:1 #
0.22979555392735109831114925782458 426:1 650:1 1114:1 1115:1 #
-0.22979555392735109831114925782458 650:1 1104:1 1166:1 1333:1 1373:1 1934:1 2344:1 5359:1 #
0.22979555392735109831114925782458 416:1 782:1 844:1 877:1 1293:1 3132:1 3292:1 5586:1 #
-0.22979555392735109831114925782458 5809:1 #
0.22979555392735109831114925782458 930:1 986:1 1149:1 1830:1 5459:1 5460:1 5461:1 #
-0.22979555392735109831114925782458 5459:1 7024:1 #
0.22979555392735109831114925782458 191:1 802:1 882:1 4611:1 19124:1 #
-0.22979555392735109831114925782458 347:1 4115:1 #
0.22979555392735109831114925782458 324:1 633:1 1519:1 1789:1 2149:1 5673:1 #
-0.22979555392735109831114925782458 631:1 633:1 1201:2 1630:1 4810:2 21042:1 #
0.22979555392735109831114925782458 3441:1 15753:1 #
-0.22979555392735109831114925782458 #
0.22979555392735109831114925782458 424:1 462:1 840:1 848:1 1216:1 2332:1 4835:1 5570:1 7439:1 13578:1 #
-0.22979555392735109831114925782458 #
0.22979555392735109831114925782458 775:1 1252:1 1339:2 1606:1 1912:1 #
-0.22979555392735109831114925782458 #
0.22979555392735109831114925782458 579:1 815:1 1785:1 2053:1 3816:1 6631:1 8435:1 9091:1 #
-0.22979555392735109831114925782458 186:1 896:1 1102:1 1272:1 1402:1 3816:1 7484:1 13000:1 #
0.22979555392735109831114925782458 7248:1 11837:1 #
-0.22979555392735109831114925782458 #
0.22979555392735109831114925782458 292:1 1439:1 2977:1 4999:1 #
-0.22979555392735109831114925782458 234:1 1252:1 6257:1 8209:1 #
-0.22979555392735109831114925782458 1549:1 1813:1 #
-0.22979555392735109831114925782458 309:1 338:1 553:1 1227:1 1418:2 1442:1 1564:1 1610:1 1624:1 1911:1 3551:1 17490:1 #
-0.22979555392735109831114925782458 2732:1 3688:1 10321:1 #
-0.22979555392735109831114925782458 1069:1 2077:1 #
0.22979555392735109831114925782458 405:1 1614:1 2593:1 3770:1 4319:1 4985:1 5209:1 5342:1 12657:1 #
-0.22979555392735109831114925782458 #
0.22979555392735109831114925782458 205:1 385:1 2271:1 2360:1 3613:1 3996:1 4277:1 5752:1 10237:1 17841:1 17842:1 #
-0.22979555392735109831114925782458 782:1 2947:1 10942:1 #
0.22979555392735109831114925782458 401:1 743:1 1209:1 5180:1 6577:1 8119:1 11883:1 #
-0.22979555392735109831114925782458 9784:1 #
0.22979555392735109831114925782458 97:1 2121:1 3637:1 3638:1 3639:1 3640:1 #
-0.22979555392735109831114925782458 #
0.22979555392735109831114925782458 1172:1 2770:1 2878:1 3670:1 10508:1 #
-0.22979555392735109831114925782458 1172:1 3017:1 3719:1 3916:1 #
0.22979555392735109831114925782458 2587:1 3684:2 9994:1 12281:1 12341:1 #
-0.22979555392735109831114925782458 2710:1 3708:1 11043:1 #
0.22979555392735109831114925782458 833:1 1243:1 1443:1 1793:2 3795:1 3882:1 3883:1 4660:1 6233:1 10173:1 #
-0.22979555392735109831114925782458 801:1 842:1 1099:1 5333:1 7319:1 11092:1 11094:1 #
0.22979555392735109831114925782458 655:1 1537:1 1711:1 1742:1 2806:1 3822:1 6033:1 8701:2 #
-0.22979555392735109831114925782458 987:1 1711:1 10589:1 #
0.22979555392735109831114925782458 378:1 #
-0.22979555392735109831114925782458 243:1 356:1 378:1 963:1 2689:1 2702:1 9781:1 10565:1 #
0.22979555392735109831114925782458 806:1 986:1 1179:1 1281:1 2901:1 13705:1 #
-0.22979555392735109831114925782458 959:1 4514:1 4735:1 #
0.22979555392735109831114925782458 482:1 961:1 1208:1 1364:1 2214:1 2873:1 4909:1 11519:1 14394:1 26396:1 #
-0.22979555392735109831114925782458 1842:1 2526:1 2900:1 3033:1 3511:1 9994:1 15939:1 #
0.22979555392735109831114925782458 256:1 3923:1 6266:1 #
-0.22979555392735109831114925782458 482:1 953:1 1125:1 2237:1 2413:1 2529:1 3696:1 4418:1 #
0.22979555392735109831114925782458 188:1 637:1 1189:1 1365:1 1445:1 1886:1 2131:1 #
-0.22979555392735109831114925782458 770:1 1365:1 1886:1 2224:1 5149:1 #
0.22979555392735109831114925782458 351:1 420:1 1642:1 3979:1 9994:1 12435:1 #
-0.22979555392735109831114925782458 1198:1 1433:1 1642:1 1697:1 2722:1 3576:1 6086:1 8633:1 18541:1 #
0.22979555392735109831114925782458 521:1 913:1 2333:1 9535:1 14998:1 #
-0.22979555392735109831114925782458 1189:1 2850:1 3263:1 3801:1 4563:1 9649:1 #
0.22979555392735109831114925782458 334:1 1073:1 1291:1 2077:1 3143:1 #
-0.22979555392735109831114925782458 1493:1 5177:1 #
0.22979555392735109831114925782458 547:1 992:1 3819:1 9109:1 11845:1 #
-0.22979555392735109831114925782458 547:1 711:1 712:1 714:1 921:1 4584:1 16334:1 #
0.22979555392735109831114925782458 627:1 837:1 2212:1 3019:1 7506:1 8774:1 9024:1 #
-0.22979555392735109831114925782458 627:1 652:1 5748:1 10201:1 #
0.22979555392735109831114925782458 205:1 881:1 917:1 1381:1 1581:1 2375:1 2544:1 2973:1 6410:1 7968:1 13409:1 #
-0.22979555392735109831114925782458 204:1 205:1 1004:1 1935:1 1936:1 1937:1 #
0.22979555392735109831114925782458 405:1 633:1 1125:1 1504:1 2484:1 2593:1 2863:1 2948:1 9339:1 #
-0.22979555392735109831114925782458 1463:1 #
0.22979555392735109831114925782458 1912:1 2341:1 3556:1 5004:1 7117:1 #
-0.22979555392735109831114925782458 816:1 1330:1 3556:1 #
0.22979555392735109831114925782458 39:1 401:1 524:1 920:1 921:1 #
-0.22979555392735109831114925782458 651:1 3845:1 3846:1 3847:1 #
0.22979555392735109831114925782458 835:1 1166:1 2967:1 3647:1 15189:1 18850:1 #
-0.22979555392735109831114925782458 #
0.22979555392735109831114925782458 1553:1 3243:1 4017:1 10506:1 #
-0.22979555392735109831114925782458 #
0.22979555392735109831114925782458 1006:1 1274:1 2422:1 9671:1 9994:1 10038:1 #
-0.22979555392735109831114925782458 833:1 1153:1 13400:1 17965:1 #
0.22979555392735109831114925782458 379:1 823:1 887:1 1921:1 3441:1 #
-0.22979555392735109831114925782458 1614:1 4034:1 6722:1 19256:1 #
0.22979555392735109831114925782458 419:1 503:1 701:1 2768:1 2769:1 #
-0.22979555392735109831114925782458 #
-0.22979555392735109831114925782458 955:1 5274:1 10872:1 #
-0.22979555392735109831114925782458 368:1 426:1 509:1 737:1 936:1 3146:1 4333:1 4809:1 8828:1 #
-0.22979555392735109831114925782458 337:1 581:1 893:1 3017:1 7968:2 #
-0.22979555392735109831114925782458 11:2 793:2 #
0.22979555392735109831114925782458 2029:1 2360:1 3897:1 4671:1 5211:1 5472:1 #
0.22979555392735109831114925782458 13:1 1373:1 2765:1 11893:1 17627:1 #
0.22979555392735109831114925782458 65:1 541:1 923:1 1537:1 3883:1 3899:1 5484:1 5838:1 5946:1 6087:1 25751:1 #
0.22979555392735109831114925782458 990:1 991:1 992:1 #
0.22979555392735109831114925782458 1086:1 2731:1 4432:1 4683:1 13186:1 #
-0.22979555392735109831114925782458 219:1 1373:1 2272:1 3624:1 5698:1 6488:1 9671:1 9895:1 9896:1 #
-0.22979555392735109831114925782458 1506:1 1702:1 1815:1 2360:1 2969:1 #
-0.22979555392735109831114925782458 930:1 1519:1 1733:1 4515:1 16108:1 #
-0.22979555392735109831114925782458 2687:1 3097:1 #
-0.22979555392735109831114925782458 990:3 1163:1 2970:1 6921:1 23162:1 #
0.22979555392735109831114925782458 242:1 581:1 1073:1 1513:1 2512:1 8863:1 #
0.22979555392735109831114925782458 650:1 1061:1 2679:1 5209:1 21473:1 #
0.22979555392735109831114925782458 299:1 1308:1 2313:1 6188:1 9700:1 14126:1 17706:1 #
0.22979555392735109831114925782458 54:1 896:1 1004:1 1099:1 1319:1 2953:1 #
0.22979555392735109831114925782458 37:1 1340:1 1341:1 1529:1 4275:1 4462:1 7679:1 #
-0.22979555392735109831114925782458 650:1 838:1 953:1 2422:1 2754:1 3224:1 4275:1 6724:1 8589:1 8777:1 8878:1 12367:1 #
-0.22979555392735109831114925782458 89:2 2465:1 4275:1 4604:1 #
-0.22979555392735109831114925782458 218:1 1341:1 6794:1 8976:1 #
-0.22979555392735109831114925782458 1340:1 #
-0.22979555392735109831114925782458 13:1 2131:1 #
0.22979555392735109831114925782458 187:1 394:1 881:1 3843:1 4057:1 4868:1 5409:1 9670:1 9671:1 #
0.22979555392735109831114925782458 324:1 748:1 1444:1 2323:1 2417:1 2738:1 #
0.22979555392735109831114925782458 1507:1 5267:1 5363:1 8329:1 #
0.22979555392735109831114925782458 263:1 269:1 4418:1 11469:1 13800:1 14982:1 20618:1 #
0.22979555392735109831114925782458 1466:1 1491:1 3685:1 11409:1 18673:1 19921:1 #
-0.22979555392735109831114925782458 4822:1 4868:1 #
-0.22979555392735109831114925782458 1110:1 1356:1 1444:1 2042:1 2355:1 #
-0.22979555392735109831114925782458 241:1 1444:1 5816:1 #
-0.22979555392735109831114925782458 748:1 3972:1 24574:1 #
-0.22979555392735109831114925782458 1507:1 2279:1 #
0.22979555392735109831114925782458 924:1 1377:1 1623:1 1729:1 2009:1 2786:1 5974:1 6751:1 #
0.22979555392735109831114925782458 503:1 882:1 947:1 6403:1 18904:1 #
0.22979555392735109831114925782458 2609:1 4639:1 5579:2 6625:1 22430:1 #
0.22979555392735109831114925782458 333:2 616:2 1004:1 1530:1 2593:1 3250:1 3561:1 3883:1 3924:1 5403:1 6590:1 7256:1 7642:1 8487:1 23307:1 25351:1 #
0.22979555392735109831114925782458 387:1 921:1 1351:1 2914:1 3555:1 3787:1 4668:1 5421:1 5422:1 #
-0.22979555392735109831114925782458 60:1 669:1 1917:1 1918:1 #
-0.22979555392735109831114925782458 65:1 379:1 628:1 793:1 821:1 829:1 1061:1 2544:1 2547:1 4319:1 5313:1 5399:1 6816:1 #
0.22979555392735109831114925782458 324:1 555:1 649:1 744:1 2064:1 3292:1 5546:1 6942:1 18721:1 #
-0.22979555392735109831114925782458 188:1 369:1 947:1 1758:1 3708:1 4200:1 #
-0.22979555392735109831114925782458 333:1 1575:1 2684:1 12939:1 #
-0.22979555392735109831114925782458 947:1 #
-0.22979555392735109831114925782458 846:1 2064:1 2919:1 #
-0.22979555392735109831114925782458 1950:1 7098:1 9479:1 #
0.22979555392735109831114925782458 840:1 1073:1 1511:1 1532:1 #
0.22979555392735109831114925782458 221:1 581:1 867:1 1320:1 1423:1 4950:1 4951:1 #
0.22979555392735109831114925782458 379:1 1482:1 3060:1 8589:1 #
0.22979555392735109831114925782458 224:1 242:2 354:1 600:1 1006:1 1540:1 2201:2 3898:1 4540:1 #
0.22979555392735109831114925782458 2268:1 #
-0.22979555392735109831114925782458 1006:1 9012:1 #
-0.22979555392735109831114925782458 882:1 1320:1 1611:1 2239:1 2361:1 6034:1 #
-0.22979555392735109831114925782458 354:1 1006:1 1549:1 1799:1 4818:1 12954:1 #
-0.22979555392735109831114925782458 379:1 757:1 #
-0.22979555392735109831114925782458 841:1 1337:1 2584:1 9034:1 #
0.22979555392735109831114925782458 187:1 204:1 1680:1 2082:1 3442:1 4868:1 5840:1 9670:1 9725:1 9756:1 #
0.22979555392735109831114925782458 979:1 1408:1 2337:1 #
0.22979555392735109831114925782458 1426:1 2382:1 2383:1 2384:1 2385:1 2386:1 #
0.22979555392735109831114925782458 256:1 262:1 380:1 946:1 1125:1 4115:1 #
-0.22979555392735109831114925782458 223:1 262:1 1398:1 1499:2 3635:1 3714:1 3854:1 14670:1 21519:1 #
-0.22979555392735109831114925782458 1125:1 1276:1 1840:1 19372:1 #
-0.22979555392735109831114925782458 1529:1 2652:1 5348:1 15724:1 #
-0.22979555392735109831114925782458 286:1 1084:1 #
-0.22979555392735109831114925782458 1569:1 10423:1 #
0.22979555392735109831114925782458 11:1 379:1 701:1 971:1 1814:1 2085:1 3645:1 #
0.22979555392735109831114925782458 18:1 70:1 1320:1 3144:1 3979:1 6921:1 7445:1 7446:1 7447:1 7448:1 #
0.22979555392735109831114925782458 405:1 898:1 1178:1 8052:1 8542:1 10150:1 11266:1 #
0.22979555392735109831114925782458 334:1 389:1 567:1 701:1 1670:1 23331:1 24106:1 24107:1 #
0.22979555392735109831114925782458 344:1 1249:2 1581:1 1782:1 4544:1 7935:1 #
-0.22979555392735109831114925782458 276:1 701:1 813:1 1640:1 2413:1 #
-0.22979555392735109831114925782458 18:1 581:1 3775:1 #
-0.22979555392735109831114925782458 18:1 10620:1 20947:1 #
-0.22979555392735109831114925782458 567:1 5052:1 #
-0.22979555392735109831114925782458 567:1 10283:1 10831:1 #
0.22979555392735109831114925782458 501:1 848:1 1313:1 4752:1 5079:1 5687:1 5730:1 #
0.22979555392735109831114925782458 223:2 656:1 698:1 2687:1 4350:1 10584:2 10585:2 #
0.22979555392735109831114925782458 607:1 1818:1 3077:1 3219:1 7065:1 10011:1 16338:1 #
0.22979555392735109831114925782458 507:1 521:1 1069:1 1291:1 1351:1 2478:1 3064:1 5809:1 6242:1 8219:1 9263:1 #
0.22979555392735109831114925782458 993:1 2103:2 2702:1 5343:1 5810:1 5994:1 6180:1 #
-0.22979555392735109831114925782458 401:1 551:1 848:1 1252:1 3763:1 #
-0.22979555392735109831114925782458 656:1 1208:1 1775:1 2009:1 5001:1 #
-0.22979555392735109831114925782458 465:1 1302:1 1313:1 1775:1 2605:1 10223:1 15210:1 #
-0.22979555392735109831114925782458 695:1 1707:1 4214:1 #
-0.22979555392735109831114925782458 1504:1 1790:1 2542:1 #
0.22979555392735109831114925782458 306:1 567:1 654:1 1799:1 1831:1 5403:1 14367:1 #
0.22979555392735109831114925782458 412:1 1032:1 1589:1 1645:1 1646:1 #
0.22979555392735109831114925782458 347:1 751:1 1663:1 12340:1 #
0.22979555392735109831114925782458 338:1 1482:1 1819:1 2951:1 4243:1 #
0.22979555392735109831114925782458 616:1 1108:1 3839:1 5586:1 #
-0.22979555392735109831114925782458 66:1 1170:1 1354:1 1831:1 2786:1 3435:1 8139:1 9374:1 #
0.22979555392735109831114925782458 695:1 1062:1 1084:1 1453:1 1921:1 2933:1 #
-0.22979555392735109831114925782458 618:1 1062:1 2242:1 5065:1 #
-0.22979555392735109831114925782458 368:1 654:1 677:1 746:1 1507:1 2774:1 3588:1 3620:1 5403:1 9671:1 #
-0.22979555392735109831114925782458 11:1 151:1 648:1 1002:1 2104:1 3036:1 #
-0.22979555392735109831114925782458 547:1 5383:1 9565:1 #
-0.22979555392735109831114925782458 1101:1 1320:1 #
0.22979555392735109831114925782458 979:1 1408:1 2337:1 #
0.22979555392735109831114925782458 793:1 6034:1 9528:1 #
0.22979555392735109831114925782458 224:1 633:1 1565:1 1794:1 1915:1 3109:1 3699:1 3953:1 4205:1 5525:1 6215:1 6216:1 6217:1 #
0.22979555392735109831114925782458 464:1 465:1 1258:1 1426:1 2646:1 4546:1 4629:1 5191:1 6582:1 9418:1 9419:1 #
0.22979555392735109831114925782458 378:1 1630:1 2413:1 10544:1 #
-0.22979555392735109831114925782458 536:1 730:1 1426:1 1447:1 2077:1 12219:1 #
0.22979555392735109831114925782458 2355:1 2824:1 9671:1 #
-0.22979555392735109831114925782458 1004:1 #
0.22979555392735109831114925782458 234:1 666:1 837:1 1006:1 1949:1 2024:1 2025:1 2026:1 2027:1 #
-0.22979555392735109831114925782458 333:1 354:1 815:1 1038:1 1676:1 1828:1 2026:1 5835:1 #
0.22979555392735109831114925782458 1141:1 2158:1 8097:1 12102:1 #
0.22979555392735109831114925782458 354:1 815:1 1100:1 1337:1 2468:1 3049:2 15742:2 16398:1 #
-0.22979555392735109831114925782458 709:1 886:1 1100:1 1105:1 3160:1 3208:1 5189:1 11905:1 #
-0.22979555392735109831114925782458 1189:1 12353:1 14458:1 #
-0.22979555392735109831114925782458 2604:1 3598:1 15103:1 #
-0.22979555392735109831114925782458 1565:1 2092:1 #
-0.22979555392735109831114925782458 589:1 2914:1 7627:1 9559:1 11111:1 #
0.22979555392735109831114925782458 827:1 832:1 915:1 939:1 4502:1 5002:1 5608:1 6974:1 8713:1 9255:1 12067:1 25625:1 #
0.22979555392735109831114925782458 1157:1 4008:1 7291:1 10044:1 10393:1 12083:1 #
0.22979555392735109831114925782458 541:1 1523:1 1758:1 5355:1 #
0.22979555392735109831114925782458 242:1 408:1 777:1 2333:1 3341:1 4087:1 #
0.22979555392735109831114925782458 553:2 911:1 1944:1 2274:1 2392:1 2790:1 3983:1 5319:1 #
0.22979555392735109831114925782458 1271:1 1735:1 2905:1 2914:1 4636:1 13309:1 13553:1 #
-0.22979555392735109831114925782458 911:1 5700:1 #
0.22979555392735109831114925782458 11:1 187:1 737:1 1310:1 5199:1 8540:1 9899:1 #
0.22979555392735109831114925782458 219:1 1828:1 2660:1 3670:1 5621:1 #
-0.22979555392735109831114925782458 2761:1 22836:1 #
-0.22979555392735109831114925782458 533:1 #
-0.22979555392735109831114925782458 14876:1 #
-0.22979555392735109831114925782458 4655:1 #
-0.22979555392735109831114925782458 19006:1 19518:1 #
0.22979555392735109831114925782458 204:1 205:1 226:1 4080:1 4091:1 4301:1 5612:1 10899:1 14278:1 19058:1 #
0.22979555392735109831114925782458 3528:1 6295:1 13789:1 #
0.22979555392735109831114925782458 80:1 436:1 499:1 966:1 1214:1 1406:1 1702:1 2287:1 2786:1 4546:1 11834:1 #
0.22979555392735109831114925782458 596:1 2027:1 2064:1 10149:1 #
0.22979555392735109831114925782458 219:1 807:1 1045:1 1155:1 1287:1 4245:1 4299:1 8083:1 10531:1 10799:1 #
-0.22979555392735109831114925782458 219:1 612:1 923:1 1214:1 3424:1 #
0.22979555392735109831114925782458 263:1 537:1 2584:1 5625:1 #
0.22979555392735109831114925782458 970:1 6128:1 #
-0.22979555392735109831114925782458 22:1 663:1 664:1 807:1 2894:1 #
-0.22979555392735109831114925782458 184:1 5286:1 6469:1 #
-0.22979555392735109831114925782458 501:1 699:1 19026:1 #
-0.22979555392735109831114925782458 1199:1 6248:1 19581:1 #
-0.22979555392735109831114925782458 2735:1 #
0.22979555392735109831114925782458 378:1 875:1 1031:1 1339:1 4879:1 7224:1 11375:1 #
0.22979555392735109831114925782458 1922:1 #
0.22979555392735109831114925782458 772:1 800:1 1697:1 2592:1 3397:1 4731:1 7854:1 16472:1 #
-0.22979555392735109831114925782458 19085:1 #
-0.22979555392735109831114925782458 1405:1 1854:1 #
-0.22979555392735109831114925782458 18168:1 #
-0.22979555392735109831114925782458 482:1 3093:1 6502:1 10681:1 12840:1 17119:1 #
-0.22979555392735109831114925782458 981:1 #
0.22979555392735109831114925782458 291:1 509:1 1084:1 1112:1 1321:1 1365:1 1878:1 1932:1 5930:1 #
0.22979555392735109831114925782458 338:1 379:1 913:1 915:1 930:1 1504:1 1758:1 3764:1 13579:1 #
0.22979555392735109831114925782458 521:1 763:1 1201:1 2006:1 2313:1 2824:1 3358:1 4705:1 15742:1 #
0.22979555392735109831114925782458 231:1 472:1 1287:1 2358:1 3587:1 4629:1 #
0.22979555392735109831114925782458 1320:1 5209:2 7674:1 9982:1 10233:1 18626:1 #
-0.22979555392735109831114925782458 858:1 3436:1 5209:1 16391:1 20475:1 #
-0.22979555392735109831114925782458 379:1 426:1 530:1 1666:1 5134:1 #
-0.22979555392735109831114925782458 643:1 940:1 3602:1 6141:1 6221:1 10073:1 #
-0.22979555392735109831114925782458 12099:1 #
-0.22979555392735109831114925782458 394:1 #
0.22979555392735109831114925782458 69:1 840:2 917:1 1565:1 1915:1 4319:1 5673:1 6981:1 7533:1 20658:1 #
0.22979555392735109831114925782458 96:1 3263:1 5431:1 #
0.22979555392735109831114925782458 347:1 547:1 980:1 1170:1 2065:2 #
0.22979555392735109831114925782458 67:1 389:1 1163:1 1793:1 1922:1 4264:1 5114:1 6056:1 9669:1 10531:1 #
-0.22979555392735109831114925782458 745:1 1922:1 #
-0.22979555392735109831114925782458 579:1 649:1 944:1 1163:1 1346:1 1448:1 3119:1 3121:1 3123:1 3124:1 3125:1 3126:1 #
-0.22979555392735109831114925782458 531:1 #
-0.22979555392735109831114925782458 12951:1 #
-0.22979555392735109831114925782458 1725:1 3770:1 4906:1 #
0.22979555392735109831114925782458 205:1 896:1 1549:1 2456:1 2791:1 #
0.22979555392735109831114925782458 1595:1 6763:1 8329:1 8876:1 17626:1 #
0.22979555392735109831114925782458 2687:1 5957:1 21215:1 #
0.22979555392735109831114925782458 1402:1 2173:1 3428:1 3624:1 4687:1 20362:1 25279:1 #
0.22979555392735109831114925782458 22:1 224:1 225:1 846:2 2079:1 2687:1 3990:1 6562:1 #
0.22979555392735109831114925782458 196:1 1047:1 2933:1 #
-0.22979555392735109831114925782458 226:2 846:1 2226:1 13725:1 14357:1 #
0.22979555392735109831114925782458 771:1 1519:1 4370:1 4371:1 5005:1 #
0.22979555392735109831114925782458 875:1 1507:1 1955:1 #
-0.22979555392735109831114925782458 22:1 1952:1 8081:1 #
-0.22979555392735109831114925782458 12169:1 12170:1 12172:1 12173:1 #
-0.22979555392735109831114925782458 670:1 2447:1 12039:1 #
-0.22979555392735109831114925782458 1923:1 6600:1 #
-0.22979555392735109831114925782458 2703:1 2833:1 #
0.22979555392735109831114925782458 662:1 2719:2 #
0.22979555392735109831114925782458 533:1 805:1 1249:1 5913:1 6849:1 7486:1 #
0.22979555392735109831114925782458 356:2 502:1 616:2 730:1 813:1 1733:1 #
0.22979555392735109831114925782458 338:1 344:1 1362:1 1823:2 1952:1 1956:1 2375:1 #
0.22979555392735109831114925782458 207:1 1092:1 1749:1 2052:1 2053:1 #
-0.22979555392735109831114925782458 356:1 3092:1 4322:1 10747:1 #
-0.22979555392735109831114925782458 984:1 3265:1 3736:1 #
-0.22979555392735109831114925782458 790:1 830:1 #
-0.22979555392735109831114925782458 639:1 720:1 822:1 2694:1 3940:1 #
-0.22979555392735109831114925782458 953:1 2027:1 #
0.22979555392735109831114925782458 401:1 422:1 1156:1 1181:1 1323:1 10303:1 13413:1 #
0.22979555392735109831114925782458 954:1 955:1 2253:1 3763:1 4918:1 6122:1 9717:1 #
0.22979555392735109831114925782458 823:1 1106:1 1718:1 1739:1 5100:1 5665:1 #
-0.22979555392735109831114925782458 1180:1 1181:1 11092:1 #
-0.22979555392735109831114925782458 222:1 1530:1 2737:1 10303:1 #
-0.22979555392735109831114925782458 2050:1 4036:1 15145:1 25279:1 #
-0.22979555392735109831114925782458 262:1 502:1 550:1 594:1 1219:1 1607:1 2512:1 3250:1 5177:1 10529:1 #
-0.22979555392735109831114925782458 712:1 796:1 1255:1 3524:1 4036:1 #
0.22979555392735109831114925782458 1365:1 2278:1 13088:1 #
0.22979555392735109831114925782458 650:1 1320:1 4319:1 5698:1 #
0.22979555392735109831114925782458 680:1 730:1 921:1 4079:1 #
0.22979555392735109831114925782458 799:1 1977:1 2855:1 3737:1 4611:1 4879:1 5238:1 8757:1 9794:1 #
0.22979555392735109831114925782458 420:1 969:1 1125:1 1258:1 1573:1 1915:1 3358:1 3845:1 4312:1 12643:1 16114:1 17538:1 18105:1 18106:1 #
-0.22979555392735109831114925782458 271:1 1122:1 1673:1 1879:1 4611:1 #
0.22979555392735109831114925782458 193:1 1060:2 1288:2 1557:1 5914:1 #
-0.22979555392735109831114925782458 1854:1 1915:1 3385:1 6314:1 #
0.22979555392735109831114925782458 5:1 758:1 957:1 1173:1 11763:1 #
0.22979555392735109831114925782458 474:1 512:1 990:1 2077:1 2679:1 3883:1 20957:1 #
-0.22979555392735109831114925782458 334:1 4275:1 #
-0.22979555392735109831114925782458 2133:1 2149:1 #
-0.22979555392735109831114925782458 375:1 824:1 970:1 3859:1 11439:1 #
-0.22979555392735109831114925782458 982:1 1819:1 1939:1 #
-0.22979555392735109831114925782458 447:1 460:1 1287:1 1393:1 1519:1 1951:2 3598:1 6259:2 11378:1 #
0.22979555392735109831114925782458 112:1 256:1 464:1 465:1 3923:1 3924:1 #
0.22979555392735109831114925782458 198:1 1094:1 2133:2 7053:1 #
0.22979555392735109831114925782458 981:1 1711:1 7016:1 #
0.22979555392735109831114925782458 1157:1 2093:1 2258:1 3883:1 11074:1 17615:1 #
0.22979555392735109831114925782458 54:1 1959:1 #
-0.22979555392735109831114925782458 257:1 1209:1 2681:1 #
-0.22979555392735109831114925782458 230:1 1097:1 2068:1 8904:1 #
-0.22979555392735109831114925782458 744:1 5355:1 #
-0.22979555392735109831114925782458 1307:1 #
-0.22979555392735109831114925782458 619:1 648:1 650:1 2874:1 #
0.22979555392735109831114925782458 334:1 1942:1 2743:1 4811:1 10296:1 #
0.22979555392735109831114925782458 695:1 1943:1 14850:1 #
0.22979555392735109831114925782458 43:1 738:1 5004:1 5782:1 17282:1 #
0.22979555392735109831114925782458 730:1 946:1 1642:1 2297:1 7009:1 7010:1 #
0.22979555392735109831114925782458 531:1 5098:1 5099:1 5100:1 #
0.22979555392735109831114925782458 729:1 875:1 1454:1 3149:1 8603:1 21646:1 #
-0.22979555392735109831114925782458 1037:1 1130:1 1663:1 12733:1 #
-0.22979555392735109831114925782458 3665:1 4637:1 5172:1 5203:1 9339:1 14107:1 #
-0.22979555392735109831114925782458 1140:1 2117:1 2297:1 #
-0.22979555392735109831114925782458 972:1 1373:1 1977:1 6837:1 12091:1 #
-0.22979555392735109831114925782458 1592:1 9808:1 #
0.22979555392735109831114925782458 67:1 309:1 1664:1 2490:1 3660:1 3661:2 3662:1 #
0.22979555392735109831114925782458 1343:1 1525:2 2115:1 14910:1 #
0.22979555392735109831114925782458 225:1 1073:1 8927:1 9785:1 12013:1 #
0.22979555392735109831114925782458 3097:1 5164:1 11192:1 12879:1 #
-0.22979555392735109831114925782458 1343:1 2482:1 4639:1 #
0.22979555392735109831114925782458 262:1 982:1 1939:1 3682:1 4322:1 9994:1 12255:1 #
-0.22979555392735109831114925782458 769:1 980:1 1361:1 1525:1 1840:1 2465:1 21356:1 #
-0.22979555392735109831114925782458 729:1 1152:1 2243:1 4442:1 5979:1 6115:1 #
0.22979555392735109831114925782458 1317:1 1382:1 3503:1 4813:1 4814:1 4815:1 4816:1 #
-0.22979555392735109831114925782458 1292:1 3638:1 #
0.22979555392735109831114925782458 204:1 509:1 729:1 972:1 1581:1 1952:1 2169:1 3131:1 6118:1 #
-0.22979555392735109831114925782458 204:1 547:1 1141:1 13417:1 17664:1 #
0.22979555392735109831114925782458 1219:1 1856:1 4878:1 #
-0.22979555392735109831114925782458 2609:1 10255:1 #
0.22979555392735109831114925782458 670:1 1782:1 9381:1 #
-0.22979555392735109831114925782458 262:1 800:1 993:1 1441:1 2155:1 7497:3 12890:1 12898:1 #
0.22979555392735109831114925782458 13406:1 13527:1 #
-0.22979555392735109831114925782458 218:1 509:1 569:1 7322:1 20846:1 21198:1 21199:1 #
0.22979555392735109831114925782458 39:1 405:1 1614:1 2593:1 3590:1 5342:1 5531:1 12657:1 #
-0.22979555392735109831114925782458 1781:1 1782:1 4716:1 19256:1 #
0.22979555392735109831114925782458 745:1 3019:1 6266:1 19673:1 #
-0.22979555392735109831114925782458 1702:1 1947:1 3589:1 5925:1 #
0.22979555392735109831114925782458 118:1 599:1 799:1 #
0.22979555392735109831114925782458 1275:1 4170:1 4484:1 5806:1 16122:1 #
0.22979555392735109831114925782458 1003:1 1575:1 3866:1 3878:1 4572:1 6231:1 6415:1 7944:1 8996:1 9167:1 10053:1 20499:1 #
0.22979555392735109831114925782458 1018:1 2687:1 3620:1 5648:1 8030:1 8306:1 20596:1 25740:1 #
-0.22979555392735109831114925782458 801:1 2264:1 4106:1 #
0.22979555392735109831114925782458 234:1 1611:1 1735:1 3138:1 3989:1 6349:1 6562:1 #
0.22979555392735109831114925782458 382:1 464:1 934:1 1147:1 1402:1 1458:1 9229:1 #
-0.22979555392735109831114925782458 841:1 1611:1 2633:1 2931:1 4969:1 7837:1 8723:1 #
-0.22979555392735109831114925782458 169:1 #
-0.22979555392735109831114925782458 897:1 1343:1 #
-0.22979555392735109831114925782458 1247:1 1444:1 1523:1 2583:1 3131:1 7324:1 21382:1 #
-0.22979555392735109831114925782458 331:1 4930:1 #
0.22979555392735109831114925782458 2232:1 2422:1 2431:1 4865:1 5867:1 7081:2 13936:1 19527:1 #
0.22979555392735109831114925782458 1956:1 2191:1 2978:1 2979:1 2980:1 #
0.22979555392735109831114925782458 736:1 905:1 3683:1 4675:1 11270:1 11386:1 13709:1 #
0.22979555392735109831114925782458 13:1 1170:1 4705:1 5618:1 11841:1 12982:1 15809:1 #
-0.22979555392735109831114925782458 2431:1 10510:1 #
-0.22979555392735109831114925782458 1549:1 #
-0.22979555392735109831114925782458 1004:1 #
-0.22979555392735109831114925782458 126:1 612:1 #
-0.22979555392735109831114925782458 129:1 #
-0.22979555392735109831114925782458 1618:1 2604:1 3939:1 13917:1 #
0.22979555392735109831114925782458 858:1 1426:1 2382:1 2383:1 2385:1 2386:1 3497:1 #
0.22979555392735109831114925782458 137:1 332:1 333:1 334:1 335:1 336:1 #
0.22979555392735109831114925782458 243:1 416:1 661:1 1099:1 2550:1 2787:1 4348:1 4349:1 #
0.22979555392735109831114925782458 269:1 368:1 530:1 777:1 1048:1 1238:1 1352:1 20854:1 #
0.22979555392735109831114925782458 11:1 934:1 986:1 1018:1 1470:1 1585:1 2332:1 #
-0.22979555392735109831114925782458 243:1 336:1 835:1 844:1 14059:1 #
-0.22979555392735109831114925782458 858:1 1372:1 1604:1 2279:1 3979:1 7628:1 #
-0.22979555392735109831114925782458 66:1 190:1 368:1 553:1 1319:1 2805:1 4603:1 10235:1 16480:1 #
-0.22979555392735109831114925782458 416:1 5548:1 7585:1 12106:1 12107:1 #
-0.22979555392735109831114925782458 530:1 #
0.22979555392735109831114925782458 365:1 2108:1 4774:1 #
0.22979555392735109831114925782458 16921:1 16922:1 #
0.22979555392735109831114925782458 1507:1 3310:1 #
-0.22979555392735109831114925782458 590:1 4180:1 #
0.22979555392735109831114925782458 #
-0.22979555392735109831114925782458 259:1 #
0.22979555392735109831114925782458 226:1 798:1 1372:1 1470:1 4301:1 #
-0.22979555392735109831114925782458 649:1 #
0.22979555392735109831114925782458 188:1 1434:1 2329:1 3249:1 5249:1 5259:1 #
-0.22979555392735109831114925782458 333:1 1382:1 2104:1 2991:1 3834:1 #
0.22979555392735109831114925782458 416:1 680:1 939:1 955:1 987:1 2205:1 2297:1 #
-0.22979555392735109831114925782458 356:1 #
0.22979555392735109831114925782458 5:1 43:1 73:1 379:1 944:1 1436:1 2703:1 4182:1 5644:1 18908:1 #
0.22979555392735109831114925782458 389:1 2914:1 3078:1 4445:1 4446:1 4447:1 4448:1 4449:1 #
-0.22979555392735109831114925782458 474:1 2309:1 2310:1 #
-0.22979555392735109831114925782458 10092:1 #
-0.22979555392735109831114925782458 780:1 5815:1 #
-0.22979555392735109831114925782458 1623:1 #
-0.22979555392735109831114925782458 436:1 3556:1 3777:1 #
0.22979555392735109831114925782458 426:1 816:1 1293:1 1361:1 2358:1 4948:1 5016:1 8124:1 12000:1 12182:1 #
0.22979555392735109831114925782458 509:1 679:1 934:1 1565:2 1823:2 2248:1 7050:1 7076:1 7301:1 7935:1 8269:1 #
0.22979555392735109831114925782458 368:1 853:1 947:1 1001:1 1060:1 1952:1 2642:1 3110:1 6303:1 6305:1 6306:1 #
-0.22979555392735109831114925782458 186:1 509:1 556:1 813:1 1023:1 1702:1 1952:1 2206:1 3315:1 7560:1 17416:1 #
-0.22979555392735109831114925782458 509:1 712:1 2785:1 5608:1 #
-0.22979555392735109831114925782458 777:1 816:1 1141:1 1476:1 2637:1 3419:1 8057:1 #
